{"learner":{"attributes":{},"feature_names":["numTasks_sum","duration_sum","duration_max","duration_min","duration_mean","input_recordsRead_sum","output_recordsWritten_sum","peakExecutionMemory_max","resultSerializationTime_sum","resultSize_max","sr_localBlocksFetched_sum","sr_remoteBlocksFetched_sum","sw_recordsWritten_sum","sqlOp_Exchange","sqlOp_Execute InsertIntoHadoopFsRelationCommand","sqlOp_Scan parquet ","sqlOp_Sort","numExecutors","executorCores","maxMem","maxOnHeapMem","maxOffHeapMem","executorMemory","numGpusPerExecutor","executorOffHeap","taskCpu","taskGpu","cache_hit_ratio","scan_bw","scan_time","decode_time","data_size","shuffle_read_bw","shuffle_write_bw","diskBytesSpilledRatio","memoryBytesSpilledRatio","input_bytesReadRatio","output_bytesWrittenRatio","sr_localBytesReadRatio","sr_remoteBytesReadRatio","sr_remoteBytesReadToDiskRatio","sr_totalBytesReadRatio","sw_bytesWrittenRatio","diskBytesSpilled_mean","memoryBytesSpilled_mean","input_bytesRead_mean","output_bytesWritten_mean","sr_localBytesRead_mean","sr_remoteBytesRead_mean","sr_remoteBytesReadToDisk_mean","sr_totalBytesRead_mean","sw_bytesWritten_mean","executorCPUTime_mean","executorDeserializeCPUTime_mean","executorDeserializeTime_mean","executorRunTime_mean","jvmGCTime_mean","sr_fetchWaitTime_mean","sw_writeTime_mean","platform_databricks-aws","platform_databricks-azure","platform_dataproc","platform_emr","platform_onprem","sqlOp_AQEShuffleRead","sqlOp_BatchEvalPython","sqlOp_BroadcastExchange","sqlOp_BroadcastHashJoin","sqlOp_BroadcastNestedLoopJoin","sqlOp_CartesianProduct","sqlOp_ColumnarToRow","sqlOp_CommandResult","sqlOp_CustomShuffleReader","sqlOp_DeserializeToObject","sqlOp_Expand","sqlOp_Filter","sqlOp_Generate","sqlOp_GenerateBloomFilter","sqlOp_GlobalLimit","sqlOp_HashAggregate","sqlOp_HashAggregatePrefixGroupingSets","sqlOp_LocalLimit","sqlOp_LocalTableScan","sqlOp_MapElements","sqlOp_ObjectHashAggregate","sqlOp_OutputAdapter","sqlOp_PartialWindow","sqlOp_Project","sqlOp_ReusedSort","sqlOp_RunningWindowFunction","sqlOp_Scan ExistingRDD Delta Table Checkpoint","sqlOp_Scan ExistingRDD Delta Table State","sqlOp_Scan JDBCRelation","sqlOp_Scan OneRowRelation","sqlOp_Scan csv ","sqlOp_Scan json ","sqlOp_Scan orc ","sqlOp_Scan text ","sqlOp_SerializeFromObject","sqlOp_SortAggregate","sqlOp_SortMergeJoin","sqlOp_Subquery","sqlOp_SubqueryBroadcast","sqlOp_SubqueryOutputBroadcast","sqlOp_TakeOrderedAndProject","sqlOp_Window","sqlOp_WindowGroupLimit","sqlOp_WindowSort"],"feature_types":["float","float","float","float","float","float","float","float","float","float","float","float","float","float","float","float","float","float","float","float","float","float","float","float","float","float","float","float","float","float","float","float","float","float","float","float","float","float","float","float","float","float","float","float","float","float","float","float","float","float","float","float","float","float","float","float","float","float","float","float","float","float","float","float","float","float","float","float","float","float","float","float","float","float","float","float","float","float","float","float","float","float","float","float","float","float","float","float","float","float","float","float","float","float","float","float","float","float","float","float","float","float","float","float","float","float","float","float"],"gradient_booster":{"model":{"gbtree_model_param":{"num_parallel_tree":"1","num_trees":"95"},"iteration_indptr":[0,1,2,3,4,5,6,7,8,9,10,11,12,13,14,15,16,17,18,19,20,21,22,23,24,25,26,27,28,29,30,31,32,33,34,35,36,37,38,39,40,41,42,43,44,45,46,47,48,49,50,51,52,53,54,55,56,57,58,59,60,61,62,63,64,65,66,67,68,69,70,71,72,73,74,75,76,77,78,79,80,81,82,83,84,85,86,87,88,89,90,91,92,93,94,95],"tree_info":[0,0,0,0,0,0,0,0,0,0,0,0,0,0,0,0,0,0,0,0,0,0,0,0,0,0,0,0,0,0,0,0,0,0,0,0,0,0,0,0,0,0,0,0,0,0,0,0,0,0,0,0,0,0,0,0,0,0,0,0,0,0,0,0,0,0,0,0,0,0,0,0,0,0,0,0,0,0,0,0,0,0,0,0,0,0,0,0,0,0,0,0,0,0,0],"trees":[{"base_weights":[1.9279648E-2,-5.4874295E-1,2.4914567E-1,-9.6706575E-1,-1.6605903E-1,2.0136321E-2,7.54074E-1,-1.1964934E0,-5.3200233E-1,-3.589068E-1,4.7049364E-1,-2.4413188E-1,2.0377676E-1,8.5030556E-1,-8.6674795E-2,-1.2527081E0,-5.408168E-1,-6.6350585E-1,-2.2896431E-1,-4.0999055E-1,8.252019E-2,2.0954564E-1,7.546152E-1,-6.5695345E-1,-1.3389605E-1,1.7740037E-1,8.326283E-2,6.9874996E-1,1.2629482E0,-3.304541E-1,6.325782E-1,-1.1783794E0,-8.89932E-2,-8.874784E-3,-4.198105E-2,-7.5982517E-1,-4.1006082E-1,-3.5081246E-1,1.3504309E-2,-3.4708804E-1,-1.233207E0,3.6191204E-1,3.1465326E-2,8.914679E-1,4.0662062E-1,-7.112864E-1,1.0682553E-2,-4.310329E-1,-2.4886185E-2,2.338672E-1,-5.9719235E-1,4.9236372E-1,1.0807791E0,1.1577842E0,8.4731676E-2,-5.1434755E-1,1.1084397E-1,3.80605E-2,1.2549707E-2,-7.8678095E-1,-1.2543344E0,-2.4380067E-2,-3.8113143E-2,-2.4898322E-2,-2.7923417E-1,-7.667676E-3,-1.96726E-2,8.692781E-3,-6.38182E-3,-4.9338752E-1,-1.1565457E-1,-6.649098E-2,-2.8383551E-2,3.1052742E-3,4.4462526E-1,8.244599E-3,-1.0508332E-1,4.560185E-2,2.3259923E-2,8.720667E-3,2.471727E-2,-6.061184E-1,-4.8502732E-2,-3.7070334E-1,-4.702091E-2,5.881923E-2,-9.511863E-2,-1.4274038E-1,3.0341431E-1,-3.8829577E-1,-4.2135987E-2,3.3912614E-1,7.1271014E-1,4.8412305E-1,1.259695E0,1.907887E-2,1.201385E0,-6.374177E-1,-1.1147828E-2,1.9228691E-2,-7.7062263E-3,-4.0679403E-2,-1.687181E-2,-6.001886E-2,-3.734154E-2,-1.7071126E-2,-8.152204E-3,-1.2215729E-2,-2.989767E-2,-8.6462125E-3,2.5364475E-2,1.1664844E-2,2.9053459E-2,-2.2142174E-5,-8.875036E-3,-3.5176493E-2,-1.5033435E-2,-7.838296E-3,-1.9673234E-2,-9.234033E-3,6.592006E-3,-1.16678085E-2,5.0636674E-3,1.5975479E-2,-5.4933196E-3,-2.3890592E-2,-7.094199E-3,7.500621E-3,2.1850202E-2,2.8886838E-2,5.0990704E-2,2.9786427E-2,9.921676E-4,3.9545484E-2,6.414875E-2,6.302955E-2,5.0692994E-2,-3.3729378E-2,-1.52322315E-2],"categories":[],"categories_nodes":[],"categories_segments":[],"categories_sizes":[],"default_left":[0,0,0,0,0,0,0,0,0,0,0,0,0,0,0,0,0,0,0,0,0,0,0,0,0,0,0,0,0,0,0,0,0,0,0,0,0,0,0,0,0,0,0,0,0,0,0,0,0,0,0,0,0,0,0,0,0,0,0,0,0,0,0,0,0,0,0,0,0,0,0,0,0,0,0,0,0,0,0,0,0,0,0,0,0,0,0,0,0,0,0,0,0,0,0,0,0,0,0,0,0,0,0,0,0,0,0,0,0,0,0,0,0,0,0,0,0,0,0,0,0,0,0,0,0,0,0,0,0,0,0,0,0,0,0,0,0,0,0],"id":0,"left_children":[1,3,5,7,9,11,13,15,17,19,21,23,25,27,29,31,33,35,37,39,-1,41,43,45,47,49,-1,51,53,55,57,59,-1,-1,-1,61,63,65,67,69,71,73,75,77,79,81,-1,83,85,87,89,91,93,95,-1,97,99,-1,-1,101,103,-1,-1,-1,105,-1,-1,-1,-1,107,109,-1,-1,-1,111,-1,113,-1,-1,-1,-1,115,-1,117,-1,-1,119,121,123,125,-1,127,129,131,133,-1,135,137,-1,-1,-1,-1,-1,-1,-1,-1,-1,-1,-1,-1,-1,-1,-1,-1,-1,-1,-1,-1,-1,-1,-1,-1,-1,-1,-1,-1,-1,-1,-1,-1,-1,-1,-1,-1,-1,-1,-1,-1,-1],"loss_changes":[2.8099084E2,9.909236E1,1.7713503E2,2.8908875E1,4.006514E1,5.1249245E1,3.874707E1,6.4362183E0,3.9925404E0,2.8135632E1,5.4765854E0,1.9616884E1,2.5957924E1,2.5946442E1,8.975988E0,6.6002502E0,2.007701E0,1.4460621E0,9.7970116E-1,1.2258648E1,0E0,1.101084E0,1.3519745E0,4.556381E0,1.1099332E1,2.6995283E1,0E0,2.4383057E1,4.73053E0,3.1407819E0,6.7460823E-1,3.8316345E0,0E0,0E0,0E0,3.3843803E-1,2.2094035E-1,2.3482966E-1,3.440575E-1,7.696558E0,1.2871761E0,5.063174E-1,4.2036837E-1,4.3304825E-1,2.3499906E-1,2.4290924E0,0E0,2.8812828E0,2.310298E1,1.5051315E1,2.4110804E0,6.7477303E0,1.1132797E1,2.7180023E0,0E0,7.5315523E-1,1.0876218E0,0E0,0E0,8.278141E-1,1.6531982E0,0E0,0E0,0E0,5.5472016E-2,0E0,0E0,0E0,0E0,4.7631645E0,4.38514E0,0E0,0E0,0E0,4.4336772E-1,0E0,1.0011731E-1,0E0,0E0,0E0,0E0,2.7203484E0,0E0,8.7215996E-1,0E0,0E0,6.012722E0,2.5241675E0,8.730484E0,7.3801947E-1,0E0,2.8594627E0,2.176876E0,1.995359E0,3.1932068E0,0E0,7.810974E-2,2.7364492E-1,0E0,0E0,0E0,0E0,0E0,0E0,0E0,0E0,0E0,0E0,0E0,0E0,0E0,0E0,0E0,0E0,0E0,0E0,0E0,0E0,0E0,0E0,0E0,0E0,0E0,0E0,0E0,0E0,0E0,0E0,0E0,0E0,0E0,0E0,0E0,0E0,0E0,0E0,0E0,0E0,0E0],"parents":[2147483647,0,0,1,1,2,2,3,3,4,4,5,5,6,6,7,7,8,8,9,9,10,10,11,11,12,12,13,13,14,14,15,15,16,16,17,17,18,18,19,19,21,21,22,22,23,23,24,24,25,25,27,27,28,28,29,29,30,30,31,31,35,35,36,36,37,37,38,38,39,39,40,40,41,41,42,42,43,43,44,44,45,45,47,47,48,48,49,49,50,50,51,51,52,52,53,53,55,55,56,56,59,59,60,60,64,64,69,69,70,70,74,74,76,76,81,81,83,83,86,86,87,87,88,88,89,89,91,91,92,92,93,93,94,94,96,96,97,97],"right_children":[2,4,6,8,10,12,14,16,18,20,22,24,26,28,30,32,34,36,38,40,-1,42,44,46,48,50,-1,52,54,56,58,60,-1,-1,-1,62,64,66,68,70,72,74,76,78,80,82,-1,84,86,88,90,92,94,96,-1,98,100,-1,-1,102,104,-1,-1,-1,106,-1,-1,-1,-1,108,110,-1,-1,-1,112,-1,114,-1,-1,-1,-1,116,-1,118,-1,-1,120,122,124,126,-1,128,130,132,134,-1,136,138,-1,-1,-1,-1,-1,-1,-1,-1,-1,-1,-1,-1,-1,-1,-1,-1,-1,-1,-1,-1,-1,-1,-1,-1,-1,-1,-1,-1,-1,-1,-1,-1,-1,-1,-1,-1,-1,-1,-1,-1,-1],"split_conditions":[1.0119178E10,6.631579E0,8.327149E7,1E0,1.5475359E0,1.760632E5,4.0863316E7,5.251E3,1.19507775E-1,1.1458888E4,1.1925198E3,9.2E1,3.3868335E3,4.7692296E-1,6.7652373E3,6.59059E7,9E0,1.840826E2,1.7468556E2,1.2347183E8,8.252019E-2,4.92E0,8.674699E-1,1.6594656E3,6.93E2,4.828443E-1,8.326283E-2,1.2974394E6,1.8114515E1,1.29186E9,1.5401015E1,1.2671E4,-8.89932E-2,-8.874784E-3,-4.198105E-2,2.471328E6,1.549E3,1.24E2,2.093E3,2.153072E6,5.771636E-1,2.2350473E5,2.0867E4,3.3477814E0,2.8524646E-1,1.21820504E8,1.0682553E-2,4.623037E0,2.74614E5,4.99E2,5.0727264E7,1.0269E4,3.608E3,4.6777832E4,8.4731676E-2,4.529808E0,1.1554189E0,3.80605E-2,1.2549707E-2,3.9627235E0,2.9282052E6,-2.4380067E-2,-3.8113143E-2,-2.4898322E-2,4.4834588E5,-7.667676E-3,-1.96726E-2,8.692781E-3,-6.38182E-3,9.593298E6,1.3825012E2,-6.649098E-2,-2.8383551E-2,3.1052742E-3,3.43E3,8.244599E-3,2.7959E4,4.560185E-2,2.3259923E-2,8.720667E-3,2.471727E-2,4.9142857E1,-4.8502732E-2,2E0,-4.702091E-2,5.881923E-2,2.1975278E8,8.697324E5,4.3E1,7.998484E5,-4.2135987E-2,1.5937764E5,5.5081426E3,3.142868E5,1.0648859E3,1.907887E-2,8.980295E6,2.3308511E5,-1.1147828E-2,1.9228691E-2,-7.7062263E-3,-4.0679403E-2,-1.687181E-2,-6.001886E-2,-3.734154E-2,-1.7071126E-2,-8.152204E-3,-1.2215729E-2,-2.989767E-2,-8.6462125E-3,2.5364475E-2,1.1664844E-2,2.9053459E-2,-2.2142174E-5,-8.875036E-3,-3.5176493E-2,-1.5033435E-2,-7.838296E-3,-1.9673234E-2,-9.234033E-3,6.592006E-3,-1.16678085E-2,5.0636674E-3,1.5975479E-2,-5.4933196E-3,-2.3890592E-2,-7.094199E-3,7.500621E-3,2.1850202E-2,2.8886838E-2,5.0990704E-2,2.9786427E-2,9.921676E-4,3.9545484E-2,6.414875E-2,6.302955E-2,5.0692994E-2,-3.3729378E-2,-1.52322315E-2],"split_indices":[20,56,12,102,42,28,45,2,38,52,52,29,52,35,52,45,3,52,52,45,0,53,57,4,2,27,0,28,35,7,54,9,0,0,0,45,2,10,10,1,39,28,9,39,38,31,0,53,5,2,45,2,2,33,0,53,41,0,0,54,32,0,0,0,28,0,0,0,0,45,56,0,0,0,2,0,9,0,0,0,0,4,0,17,0,0,7,28,3,48,0,28,52,33,52,0,45,33,0,0,0,0,0,0,0,0,0,0,0,0,0,0,0,0,0,0,0,0,0,0,0,0,0,0,0,0,0,0,0,0,0,0,0,0,0,0,0,0,0],"split_type":[0,0,0,0,0,0,0,0,0,0,0,0,0,0,0,0,0,0,0,0,0,0,0,0,0,0,0,0,0,0,0,0,0,0,0,0,0,0,0,0,0,0,0,0,0,0,0,0,0,0,0,0,0,0,0,0,0,0,0,0,0,0,0,0,0,0,0,0,0,0,0,0,0,0,0,0,0,0,0,0,0,0,0,0,0,0,0,0,0,0,0,0,0,0,0,0,0,0,0,0,0,0,0,0,0,0,0,0,0,0,0,0,0,0,0,0,0,0,0,0,0,0,0,0,0,0,0,0,0,0,0,0,0,0,0,0,0,0,0],"sum_hessian":[2.15E3,6.19E2,1.531E3,2.95E2,3.24E2,1.054E3,4.77E2,1.92E2,1.03E2,2.49E2,7.5E1,4.32E2,6.22E2,4.28E2,4.9E1,1.76E2,1.6E1,7.1E1,3.2E1,2.44E2,5E0,4E1,3.5E1,9E1,3.42E2,6.13E2,9E0,3.15E2,1.13E2,3.7E1,1.2E1,1.61E2,1.5E1,9E0,7E0,5E1,2.1E1,2.1E1,1.1E1,2.28E2,1.6E1,2.1E1,1.9E1,2.4E1,1.1E1,8.5E1,5E0,9.1E1,2.51E2,5.72E2,4.1E1,2.06E2,1.09E2,9.8E1,1.5E1,2.6E1,1.1E1,7E0,5E0,2.8E1,1.33E2,1.3E1,3.7E1,9E0,1.2E1,7E0,1.4E1,5E0,6E0,1.39E2,8.9E1,1.1E1,5E0,5E0,1.6E1,9E0,1E1,1.8E1,6E0,5E0,6E0,6.7E1,1.8E1,8.4E1,7E0,1.2E1,2.39E2,8.9E1,4.83E2,2.6E1,1.5E1,1.23E2,8.3E1,2.6E1,8.3E1,6E0,9.2E1,1.7E1,9E0,5E0,6E0,2.2E1,6E0,1.19E2,1.4E1,5E0,7E0,5.7E1,8.2E1,8.1E1,8E0,9E0,7E0,5E0,5E0,4.2E1,2.5E1,1.9E1,6.5E1,1.66E2,7.3E1,6.2E1,2.7E1,4.39E2,4.4E1,1.6E1,1E1,5.4E1,6.9E1,7E1,1.3E1,1.9E1,7E0,2.2E1,6.1E1,3.1E1,6.1E1,1.2E1,5E0],"tree_param":{"num_deleted":"0","num_feature":"108","num_nodes":"139","size_leaf_vector":"1"}},{"base_weights":[-1.7745775E-3,-5.7460624E-1,2.3195355E-1,-9.408525E-1,-2.0656995E-1,-1.3498305E-2,6.335124E-1,-1.1609688E0,-3.9694455E-1,-4.352796E-1,3.1069085E-1,-4.6977338E-1,7.923431E-2,3.9372292E-1,8.834851E-1,-1.0224928E0,-1.5584581E0,5.1125903E-3,-7.8235584E-1,-4.8285007E-1,-5.6270596E-2,9.029217E-2,6.6211265E-1,-6.554293E-1,-3.574421E-1,2.6360077E-1,-1.122618E-1,-3.056222E-1,5.030768E-1,4.5331687E-1,1.0995636E0,-1.1264287E0,-5.1341516E-1,-1.6914582E0,-4.5175306E-2,6.622633E-2,-1.9913802E-1,-9.7473913E-1,-2.4551506E-1,-5.548212E-1,-2.8563747E-1,1.1677256E-1,-3.028542E-1,-2.0134372E-1,2.557255E-1,3.7392038E-1,7.970158E-1,-7.0760024E-1,-4.482649E-1,-2.4438098E-1,-4.2893714E-1,1.9343172E-1,9.3334335E-1,-1.9396171E-1,5.347544E-1,-7.1778655E-2,-6.4528745E-1,3.48732E-1,7.277286E-1,9.15543E-2,6.092781E-1,9.085441E-1,1.4149979E0,-1.2069739E0,-8.118371E-1,-6.915127E-1,-2.1362525E-1,-5.746241E-2,-8.652694E-2,1.078802E-2,-2.6392892E-1,-6.403012E-1,-5.512119E-2,-9.336042E-4,-2.505607E-2,-6.267875E-1,-4.3398166E-1,-3.3879238E-1,-6.693293E-2,2.2148171E-1,-4.3714615E-3,-2.0621374E-2,-5.02064E-3,-3.2420295E-1,1.191193E-3,7.389237E-2,4.3386403E-1,7.352605E-3,2.1960475E-2,1.9390693E-2,8.9401555E-1,-3.4230545E-2,-1.8921094E-2,-2.816552E-2,-1.4153654E-2,-4.3680152E-1,-1.3642617E-1,-4.815733E-1,-2.5818202E-1,-2.9622708E-2,3.1850216E-1,7.15574E-2,6.6746354E-1,-5.3384894E-1,-9.7899966E-2,3.686254E-1,5.3493697E-2,-1.5507042E-1,3.5558282E-3,-3.5953887E-2,-1.5874805E-2,-2.280511E-2,3.8500014E-1,5.567135E-1,9.5993847E-1,3.014814E-1,-1.8489157E-1,7.179924E-1,8.573992E-2,6.921368E-1,1.2557446E0,6.7825876E-2,4.0742688E-2,-5.0405428E-2,-6.169388E-2,-4.0748786E-2,-1.659119E-2,-3.8353518E-2,-2.2324424E-2,-1.5588216E-2,-2.733872E-3,-1.8636981E-2,-3.5066006E-3,-3.623152E-2,-1.583082E-2,-3.6351003E-2,-2.3371015E-2,-2.35475E-2,-1.4613837E-2,-2.1234706E-2,-1.0549664E-2,3.274972E-3,-1.0003055E-2,1.2974293E-2,5.7780873E-3,-1.790943E-2,-9.0574995E-3,7.4498435E-3,-2.7983114E-3,8.7439E-3,2.5445152E-2,5.5001404E-2,3.2461464E-2,-1.3497283E-2,-2.4326285E-2,8.226637E-4,-8.6043505E-3,-1.1477566E-2,-2.3248235E-2,-5.2491943E-3,-1.5086803E-2,3.497224E-2,-4.2187176E-3,8.212508E-3,2.3633234E-2,1.8335247E-2,3.856294E-2,-3.1120531E-2,-1.3719633E-3,-1.0081932E-2,2.7771457E-3,2.6945759E-2,-3.365758E-3,-1.6684268E-3,-1.0006098E-2,2.0502385E-2,-2.4970016E-3,8.347545E-3,2.877116E-2,5.0243415E-2,2.2031464E-2,7.832101E-3,2.4799908E-2,-1.3606993E-2,-1.5266454E-3,2.493363E-2,4.268935E-2,1.3664296E-2,-9.639753E-3,3.566293E-2,-4.8538223E-3,6.188676E-2,2.1723006E-2],"categories":[],"categories_nodes":[],"categories_segments":[],"categories_sizes":[],"default_left":[0,0,0,0,0,0,0,0,0,0,0,0,0,0,0,0,0,0,0,0,0,0,0,0,0,0,0,0,0,0,0,0,0,0,0,0,0,0,0,0,0,0,0,0,0,0,0,0,0,0,0,0,0,0,0,0,0,0,0,0,0,0,0,0,0,0,0,0,0,0,0,0,0,0,0,0,0,0,0,0,0,0,0,0,0,0,0,0,0,0,0,0,0,0,0,0,0,0,0,0,0,0,0,0,0,0,0,0,0,0,0,0,0,0,0,0,0,0,0,0,0,0,0,0,0,0,0,0,0,0,0,0,0,0,0,0,0,0,0,0,0,0,0,0,0,0,0,0,0,0,0,0,0,0,0,0,0,0,0,0,0,0,0,0,0,0,0,0,0,0,0,0,0,0,0,0,0,0,0,0,0,0,0,0,0,0,0,0,0,0,0,0,0],"id":1,"left_children":[1,3,5,7,9,11,13,15,17,19,21,23,25,27,29,31,33,35,37,39,41,43,45,47,49,51,53,55,57,59,61,63,65,67,-1,-1,69,71,73,75,77,79,81,83,85,87,89,91,93,95,97,99,101,103,105,107,109,111,113,115,117,119,121,123,125,127,129,-1,-1,-1,131,133,-1,-1,-1,135,137,139,141,143,-1,-1,-1,145,-1,147,149,-1,-1,-1,151,-1,-1,-1,-1,153,155,157,159,161,163,-1,165,167,169,171,-1,173,-1,-1,-1,-1,175,177,179,181,183,185,187,189,191,-1,-1,-1,-1,-1,-1,-1,-1,-1,-1,-1,-1,-1,-1,-1,-1,-1,-1,-1,-1,-1,-1,-1,-1,-1,-1,-1,-1,-1,-1,-1,-1,-1,-1,-1,-1,-1,-1,-1,-1,-1,-1,-1,-1,-1,-1,-1,-1,-1,-1,-1,-1,-1,-1,-1,-1,-1,-1,-1,-1,-1,-1,-1,-1,-1,-1,-1,-1,-1,-1,-1,-1],"loss_changes":[2.9615717E2,8.6207275E1,1.5485156E2,3.7970215E1,3.811035E1,4.1333324E1,3.5376892E1,1.0956268E1,1.456999E1,3.993435E0,7.608056E0,3.2067947E0,2.8697624E1,2.3555431E1,2.6550018E1,8.522446E0,2.7444305E0,1.4002712E1,4.718088E0,2.6518593E0,1.1447748E0,3.0427592E0,1.1793442E0,3.420925E-1,7.439232E-1,1.927547E1,2.1195326E1,3.2896805E0,8.934784E0,5.52989E0,1.0343475E1,2.6182404E0,1.5074234E0,1.3340759E0,0E0,0E0,1.2392153E0,1.7970467E0,9.2592233E-1,9.8026276E-1,6.1671066E-1,3.751813E-1,2.582624E-1,6.501972E-1,1.2636001E0,2.2968662E-1,5.392008E-1,1.6679573E-1,1.56816E-1,8.336363E-1,4.419031E-1,1.04989E1,5.3544006E0,1.1538543E1,4.2346125E0,3.3412224E-1,4.1537046E-1,5.0487156E0,3.7147102E0,1.854779E0,3.8656502E0,8.372673E0,7.3387146E-1,1.9499207E-1,7.04134E-1,1.480484E-1,2.2877651E-1,0E0,0E0,0E0,9.405687E-1,4.1762972E-1,0E0,0E0,0E0,1.3050423E0,3.471756E-1,4.8254967E-1,2.6293084E-1,2.787441E-2,0E0,0E0,0E0,4.611957E-2,0E0,2.5666693E-1,4.6840215E-1,0E0,0E0,0E0,2.4116135E-1,0E0,0E0,0E0,0E0,4.1058302E-2,2.2645569E-1,1.1396122E-1,1.3115299E-1,6.6748896E0,6.4601364E0,0E0,9.825611E-1,5.4856567E0,5.303009E0,3.552042E0,0E0,1.1671826E-1,0E0,0E0,0E0,0E0,3.9836388E0,1.4820843E0,2.2004929E0,4.6805668E-1,2.2354153E-1,1.5959358E0,8.661889E-1,5.060974E0,2.4153442E0,0E0,0E0,0E0,0E0,0E0,0E0,0E0,0E0,0E0,0E0,0E0,0E0,0E0,0E0,0E0,0E0,0E0,0E0,0E0,0E0,0E0,0E0,0E0,0E0,0E0,0E0,0E0,0E0,0E0,0E0,0E0,0E0,0E0,0E0,0E0,0E0,0E0,0E0,0E0,0E0,0E0,0E0,0E0,0E0,0E0,0E0,0E0,0E0,0E0,0E0,0E0,0E0,0E0,0E0,0E0,0E0,0E0,0E0,0E0,0E0,0E0,0E0,0E0,0E0,0E0,0E0,0E0,0E0,0E0,0E0,0E0,0E0],"parents":[2147483647,0,0,1,1,2,2,3,3,4,4,5,5,6,6,7,7,8,8,9,9,10,10,11,11,12,12,13,13,14,14,15,15,16,16,17,17,18,18,19,19,20,20,21,21,22,22,23,23,24,24,25,25,26,26,27,27,28,28,29,29,30,30,31,31,32,32,33,33,36,36,37,37,38,38,39,39,40,40,41,41,42,42,43,43,44,44,45,45,46,46,47,47,48,48,49,49,50,50,51,51,52,52,53,53,54,54,55,55,56,56,57,57,58,58,59,59,60,60,61,61,62,62,63,63,64,64,65,65,66,66,70,70,71,71,75,75,76,76,77,77,78,78,79,79,83,83,85,85,86,86,90,90,95,95,96,96,97,97,98,98,99,99,100,100,102,102,103,103,104,104,105,105,107,107,112,112,113,113,114,114,115,115,116,116,117,117,118,118,119,119,120,120],"right_children":[2,4,6,8,10,12,14,16,18,20,22,24,26,28,30,32,34,36,38,40,42,44,46,48,50,52,54,56,58,60,62,64,66,68,-1,-1,70,72,74,76,78,80,82,84,86,88,90,92,94,96,98,100,102,104,106,108,110,112,114,116,118,120,122,124,126,128,130,-1,-1,-1,132,134,-1,-1,-1,136,138,140,142,144,-1,-1,-1,146,-1,148,150,-1,-1,-1,152,-1,-1,-1,-1,154,156,158,160,162,164,-1,166,168,170,172,-1,174,-1,-1,-1,-1,176,178,180,182,184,186,188,190,192,-1,-1,-1,-1,-1,-1,-1,-1,-1,-1,-1,-1,-1,-1,-1,-1,-1,-1,-1,-1,-1,-1,-1,-1,-1,-1,-1,-1,-1,-1,-1,-1,-1,-1,-1,-1,-1,-1,-1,-1,-1,-1,-1,-1,-1,-1,-1,-1,-1,-1,-1,-1,-1,-1,-1,-1,-1,-1,-1,-1,-1,-1,-1,-1,-1,-1,-1,-1,-1,-1,-1,-1],"split_conditions":[1.0119178E10,1E0,1.0798428E6,4.917E3,4.7575555E6,3.89E2,6.259E3,3.9771576E7,5.9767612E7,6.210482E2,1.2060912E3,4.64E2,1.9E1,9.436923E4,2.1152368E-1,1.9E1,6.5615686E2,1.1829E4,3.3868335E3,2.3833251E8,4.0863316E7,1.482958E0,1.9161586E0,1.688129E6,9.185E3,2.539E3,1.0043E4,2.1488164E7,1.8137958E6,1.3821E4,1.4813511E6,4.508857E2,2.1185051E3,7.03295E-1,-4.5175306E-2,6.622633E-2,1E0,3.740865E6,1.3769011E10,1.4082191E1,3.428562E2,5.2744594E4,2.0568071E3,3.3549356E5,3.654E3,3.7146553E1,2.8393238E5,2.7719986E0,3.5E1,1.35E2,1.3467476E2,4.311809E5,5.6E1,1.2106E4,1.0326834E7,9.601855E4,8.90199E-2,5.84E2,3.135E3,4.2343444E7,4.3575186E2,4.756662E3,2.197966E7,6.855402E6,4.6858084E5,1.8568924E2,1.0417794E3,-5.746241E-2,-8.652694E-2,1.078802E-2,3.3707815E6,3.6774765E1,-5.512119E-2,-9.336042E-4,-2.505607E-2,4.0663E4,4.9983472E2,8.74437E5,6.479624E0,6.462647E-1,-4.3714615E-3,-2.0621374E-2,-5.02064E-3,7.7968E4,1.191193E-3,1.5092859E-1,2.2350473E5,7.352605E-3,2.1960475E-2,1.9390693E-2,2.9921612E-1,-3.4230545E-2,-1.8921094E-2,-2.816552E-2,-1.4153654E-2,4.618182E1,1.2E1,1.2702702E0,1.8461539E0,4.360204E1,9.27E2,7.15574E-2,2.5382755E5,1.492E3,1.051844E6,1.318219E7,5.3493697E-2,6.3825E4,3.5558282E-3,-3.5953887E-2,-1.5874805E-2,-2.280511E-2,2.2E1,2.541036E2,2E0,3.1E2,8.37E3,6.9998717E-4,2.4180542E7,3.592428E7,1.5152593E10,6.7825876E-2,4.0742688E-2,-5.0405428E-2,-6.169388E-2,-4.0748786E-2,-1.659119E-2,-3.8353518E-2,-2.2324424E-2,-1.5588216E-2,-2.733872E-3,-1.8636981E-2,-3.5066006E-3,-3.623152E-2,-1.583082E-2,-3.6351003E-2,-2.3371015E-2,-2.35475E-2,-1.4613837E-2,-2.1234706E-2,-1.0549664E-2,3.274972E-3,-1.0003055E-2,1.2974293E-2,5.7780873E-3,-1.790943E-2,-9.0574995E-3,7.4498435E-3,-2.7983114E-3,8.7439E-3,2.5445152E-2,5.5001404E-2,3.2461464E-2,-1.3497283E-2,-2.4326285E-2,8.226637E-4,-8.6043505E-3,-1.1477566E-2,-2.3248235E-2,-5.2491943E-3,-1.5086803E-2,3.497224E-2,-4.2187176E-3,8.212508E-3,2.3633234E-2,1.8335247E-2,3.856294E-2,-3.1120531E-2,-1.3719633E-3,-1.0081932E-2,2.7771457E-3,2.6945759E-2,-3.365758E-3,-1.6684268E-3,-1.0006098E-2,2.0502385E-2,-2.4970016E-3,8.347545E-3,2.877116E-2,5.0243415E-2,2.2031464E-2,7.832101E-3,2.4799908E-2,-1.3606993E-2,-1.5266454E-3,2.493363E-2,4.268935E-2,1.3664296E-2,-9.639753E-3,3.566293E-2,-4.8538223E-3,6.188676E-2,2.1723006E-2],"split_indices":[20,102,47,2,51,2,2,45,45,52,52,1,3,28,38,3,52,12,52,7,45,41,42,31,12,2,2,45,28,2,28,4,47,27,0,0,75,1,5,58,52,33,4,28,2,56,28,53,2,2,52,28,0,9,1,33,42,2,2,45,58,52,51,45,33,51,4,0,0,0,32,56,0,0,0,9,55,9,53,27,0,0,0,9,0,27,28,0,0,0,38,0,0,0,0,55,10,53,53,47,2,0,28,0,1,45,0,29,0,0,0,0,3,4,6,8,2,34,43,45,5,0,0,0,0,0,0,0,0,0,0,0,0,0,0,0,0,0,0,0,0,0,0,0,0,0,0,0,0,0,0,0,0,0,0,0,0,0,0,0,0,0,0,0,0,0,0,0,0,0,0,0,0,0,0,0,0,0,0,0,0,0,0,0,0,0,0,0,0,0,0,0,0],"split_type":[0,0,0,0,0,0,0,0,0,0,0,0,0,0,0,0,0,0,0,0,0,0,0,0,0,0,0,0,0,0,0,0,0,0,0,0,0,0,0,0,0,0,0,0,0,0,0,0,0,0,0,0,0,0,0,0,0,0,0,0,0,0,0,0,0,0,0,0,0,0,0,0,0,0,0,0,0,0,0,0,0,0,0,0,0,0,0,0,0,0,0,0,0,0,0,0,0,0,0,0,0,0,0,0,0,0,0,0,0,0,0,0,0,0,0,0,0,0,0,0,0,0,0,0,0,0,0,0,0,0,0,0,0,0,0,0,0,0,0,0,0,0,0,0,0,0,0,0,0,0,0,0,0,0,0,0,0,0,0,0,0,0,0,0,0,0,0,0,0,0,0,0,0,0,0,0,0,0,0,0,0,0,0,0,0,0,0,0,0,0,0,0,0],"sum_hessian":[2.21E3,6.4E2,1.57E3,3.2E2,3.2E2,9.75E2,5.95E2,2.27E2,9.3E1,2.22E2,9.8E1,1.64E2,8.11E2,3.05E2,2.9E2,1.71E2,5.6E1,4.6E1,4.7E1,1.97E2,2.5E1,6.1E1,3.7E1,6E1,1.04E2,4.13E2,3.98E2,4.1E1,2.64E2,9.8E1,1.92E2,1.41E2,3E1,4.4E1,1.2E1,5E0,4.1E1,3.4E1,1.3E1,1.43E2,5.4E1,1.5E1,1E1,2.2E1,3.9E1,1.3E1,2.4E1,4.6E1,1.4E1,4.2E1,6.2E1,3.75E2,3.8E1,3.54E2,4.4E1,2.5E1,1.6E1,1.58E2,1.06E2,3E1,6.8E1,1.22E2,7E1,1.1E2,3.1E1,1.8E1,1.2E1,1.5E1,2.9E1,5E0,3.6E1,1.5E1,1.9E1,8E0,5E0,8.7E1,5.6E1,4.3E1,1.1E1,1E1,5E0,5E0,5E0,1.4E1,8E0,2E1,1.9E1,5E0,8E0,6E0,1.8E1,4E1,6E0,5E0,9E0,1.4E1,2.8E1,4.6E1,1.6E1,1.35E2,2.4E2,1E1,2.8E1,7.7E1,2.77E2,3.6E1,8E0,1.6E1,9E0,1E1,6E0,6E0,1.52E2,6.3E1,4.3E1,1.7E1,1.3E1,5.6E1,1.2E1,7.7E1,4.5E1,6.2E1,8E0,6.3E1,4.7E1,2.6E1,5E0,9E0,9E0,6E0,6E0,2E1,1.6E1,9E0,6E0,3.5E1,5.2E1,3.2E1,2.4E1,1.9E1,2.4E1,6E0,5E0,5E0,5E0,8E0,6E0,1.2E1,8E0,7E0,1.2E1,5E0,1.3E1,7E0,7E0,7E0,2.1E1,5E0,4.1E1,6E0,1E1,9E0,1.26E2,1.4E2,1E2,1.2E1,1.6E1,6E1,1.7E1,1.57E2,1.2E2,2.4E1,1.2E1,6E0,1E1,1.34E2,1.8E1,1E1,5.3E1,3.3E1,1E1,1.2E1,5E0,7E0,6E0,3.2E1,2.4E1,7E0,5E0,7E1,7E0,4E1,5E0],"tree_param":{"num_deleted":"0","num_feature":"108","num_nodes":"193","size_leaf_vector":"1"}},{"base_weights":[8.235659E-3,-5.2886885E-1,2.3184972E-1,-8.6168456E-1,-1.5830961E-1,3.808739E-3,6.217971E-1,-1.0683792E0,-4.7231886E-1,-3.3305356E-1,3.9167562E-1,-2.5860453E-1,1.990862E-1,-1.7971733E-1,6.9936055E-1,-1.1124967E0,4.1353297E-3,-6.0026073E-1,-2.1427673E-1,-6.896735E-1,-2.4826877E-1,1.0821936E-1,6.2990797E-1,-4.3012416E-1,-3.1333618E-2,2.3943113E-1,-5.203102E-1,2.5415492E-1,-3.675573E-1,4.2052376E-1,8.512574E-1,-9.873453E-1,-1.4603965E0,-6.46907E-1,-2.5309235E-1,-2.5614464E-1,3.3548553E-3,-3.6070734E-1,-8.0176365E-1,-1.8913116E-1,-6.1174184E-1,3.486271E-1,-1.888808E-3,9.738622E-3,7.28077E-1,-6.679217E-1,-2.9275104E-1,6.708308E-2,-9.0850666E-2,7.903059E-2,4.1210216E-1,-6.761036E-1,9.954497E-3,2.1393392E-3,2.1068241E-2,-4.51039E-1,-3.094078E-3,8.651088E-1,2.997119E-1,1.246752E0,7.160479E-1,-1.0203056E0,1.0711482E-3,-4.9017627E-2,-1.6150374E0,-6.8479925E-1,-3.848571E-1,-6.493001E-3,-1.4935783E-2,-1.8563524E-2,-1.8460159E-1,-2.5152476E-3,-2.5183387E-2,-1.5089338E-2,-8.7763107E-1,-2.2882895E-1,2.833662E-2,-5.091281E-2,-3.3241343E-1,2.009512E-2,9.422385E-3,-7.613747E-3,8.4502384E-2,4.1324183E-2,5.283307E-1,-5.856878E-1,-4.577095E-2,3.9381948E-1,-3.4387448E-1,-1.7266266E-1,3.241632E-1,-2.1211715E-2,2.8305298E-1,3.7119144E-1,1.2858318E0,-4.6814528E-1,-4.1481968E-2,-1.0916136E-2,-5.402839E-1,2.126428E-2,4.3376468E-2,4.1376966E-1,6.315214E-2,1.3393584E0,5.795003E-1,6.3597697E-1,1.2281553E0,-2.472177E-2,-5.047095E-2,-7.875187E-2,-3.9939538E-2,-1.9202024E-2,-3.347794E-2,-2.165855E-2,-1.0926473E-2,5.8697636E-4,-1.072291E-2,-1.9789299E-2,-4.4345707E-2,-1.4578613E-2,-2.6478164E-3,-2.5804333E-2,-9.346467E-3,8.893752E-4,9.278413E-3,1.5972463E-2,3.1883594E-2,-3.1642333E-2,-1.537851E-2,-7.2147604E-3,4.0558606E-2,-1.166451E-2,-2.8438019E-2,-4.0760846E-3,-1.4941808E-2,6.780161E-3,2.6008839E-2,-1.12791E-2,1.8296373E-3,-1.0388787E-2,1.4556888E-2,3.0007085E-2,1.1615052E-2,7.319547E-2,3.567314E-2,-2.5714466E-2,-1.1192812E-2,-2.7586292E-2,-1.4645512E-2,1.4776653E-3,2.2239745E-2,-1.6124986E-2,7.0252297E-3,7.1405925E-2,4.7386147E-2,1.583667E-2,3.2304715E-2,3.200481E-2,6.5278346E-3,3.818234E-2,6.83684E-2],"categories":[],"categories_nodes":[],"categories_segments":[],"categories_sizes":[],"default_left":[0,0,0,0,0,0,0,0,0,0,0,0,0,0,0,0,0,0,0,0,0,0,0,0,0,0,0,0,0,0,0,0,0,0,0,0,0,0,0,0,0,0,0,0,0,0,0,0,0,0,0,0,0,0,0,0,0,0,0,0,0,0,0,0,0,0,0,0,0,0,0,0,0,0,0,0,0,0,0,0,0,0,0,0,0,0,0,0,0,0,0,0,0,0,0,0,0,0,0,0,0,0,0,0,0,0,0,0,0,0,0,0,0,0,0,0,0,0,0,0,0,0,0,0,0,0,0,0,0,0,0,0,0,0,0,0,0,0,0,0,0,0,0,0,0,0,0,0,0,0,0,0,0,0,0,0,0,0,0,0,0],"id":2,"left_children":[1,3,5,7,9,11,13,15,17,19,21,23,25,27,29,31,-1,33,35,37,39,41,43,45,47,49,51,53,55,57,59,61,63,65,67,69,-1,71,73,75,77,79,81,-1,83,85,87,-1,89,91,93,95,-1,-1,-1,97,-1,99,101,103,105,107,-1,-1,109,111,113,-1,-1,-1,115,-1,-1,-1,117,119,-1,-1,121,-1,-1,-1,123,-1,125,127,-1,129,131,133,135,137,139,141,143,145,-1,-1,147,-1,-1,149,151,153,155,157,159,-1,-1,-1,-1,-1,-1,-1,-1,-1,-1,-1,-1,-1,-1,-1,-1,-1,-1,-1,-1,-1,-1,-1,-1,-1,-1,-1,-1,-1,-1,-1,-1,-1,-1,-1,-1,-1,-1,-1,-1,-1,-1,-1,-1,-1,-1,-1,-1,-1,-1,-1,-1,-1,-1],"loss_changes":[2.6230988E2,7.90401E1,1.3711841E2,2.6697586E1,2.9442959E1,4.9962555E1,3.549942E1,1.1338272E1,3.8000927E0,6.8435154E0,4.928937E0,1.6202795E1,1.6348988E1,4.2498426E0,2.1623993E1,7.7886047E0,0E0,1.1156082E0,5.1112974E-1,1.33325E0,3.9468422E0,9.2713845E-1,1.4919186E0,7.5465393E0,1.6029087E1,1.4646595E1,3.5849829E0,6.507138E-1,8.7306833E-1,9.677277E0,1.7021255E1,5.3195953E0,1.6177521E0,4.2159462E-1,4.1544616E-2,3.0135345E-1,0E0,7.0520425E-1,8.665066E-1,5.3664055E0,3.1971607E0,4.8808217E-2,3.6591813E-1,0E0,5.929394E-1,1.7050133E0,5.470599E0,0E0,5.963812E0,5.6506667E0,8.637661E0,7.3427296E-1,0E0,0E0,0E0,4.0872097E-1,0E0,7.374973E-1,3.9401474E0,4.414337E0,9.552155E0,4.83403E0,0E0,0E0,1.0289383E0,3.351574E-1,2.6235223E-2,0E0,0E0,0E0,2.4706268E-1,0E0,0E0,0E0,5.9015465E-1,2.3201876E0,0E0,0E0,4.1667235E-1,0E0,0E0,0E0,1.2524273E-1,0E0,2.639265E-1,1.5564804E0,0E0,3.068081E0,3.3695564E0,1.8306465E0,1.1466007E0,2.53295E0,1.5571852E0,8.004929E0,4.6478844E-1,1.6531134E-1,0E0,0E0,5.24621E-2,0E0,0E0,2.5468636E0,1.8505294E0,3.1434174E0,1.0081673E-1,6.1080475E0,2.1171608E0,0E0,0E0,0E0,0E0,0E0,0E0,0E0,0E0,0E0,0E0,0E0,0E0,0E0,0E0,0E0,0E0,0E0,0E0,0E0,0E0,0E0,0E0,0E0,0E0,0E0,0E0,0E0,0E0,0E0,0E0,0E0,0E0,0E0,0E0,0E0,0E0,0E0,0E0,0E0,0E0,0E0,0E0,0E0,0E0,0E0,0E0,0E0,0E0,0E0,0E0,0E0,0E0,0E0,0E0],"parents":[2147483647,0,0,1,1,2,2,3,3,4,4,5,5,6,6,7,7,8,8,9,9,10,10,11,11,12,12,13,13,14,14,15,15,17,17,18,18,19,19,20,20,21,21,22,22,23,23,24,24,25,25,26,26,27,27,28,28,29,29,30,30,31,31,32,32,33,33,34,34,35,35,37,37,38,38,39,39,40,40,41,41,42,42,44,44,45,45,46,46,48,48,49,49,50,50,51,51,55,55,57,57,58,58,59,59,60,60,61,61,64,64,65,65,66,66,70,70,74,74,75,75,78,78,82,82,84,84,85,85,87,87,88,88,89,89,90,90,91,91,92,92,93,93,94,94,95,95,98,98,101,101,102,102,103,103,104,104,105,105,106,106],"right_children":[2,4,6,8,10,12,14,16,18,20,22,24,26,28,30,32,-1,34,36,38,40,42,44,46,48,50,52,54,56,58,60,62,64,66,68,70,-1,72,74,76,78,80,82,-1,84,86,88,-1,90,92,94,96,-1,-1,-1,98,-1,100,102,104,106,108,-1,-1,110,112,114,-1,-1,-1,116,-1,-1,-1,118,120,-1,-1,122,-1,-1,-1,124,-1,126,128,-1,130,132,134,136,138,140,142,144,146,-1,-1,148,-1,-1,150,152,154,156,158,160,-1,-1,-1,-1,-1,-1,-1,-1,-1,-1,-1,-1,-1,-1,-1,-1,-1,-1,-1,-1,-1,-1,-1,-1,-1,-1,-1,-1,-1,-1,-1,-1,-1,-1,-1,-1,-1,-1,-1,-1,-1,-1,-1,-1,-1,-1,-1,-1,-1,-1,-1,-1,-1,-1],"split_conditions":[1.0119178E10,9.48E0,2.0282449E6,1E0,1.4717165E0,1.7959783E5,2.137514E-1,1.8621233E3,6.461627E-2,2.4545455E0,1.307446E3,2.823E3,4.828443E-1,2.6898525E6,1.0808481E3,3.9771576E7,4.1353297E-3,2.6356506E2,5.243951E2,1.6699977E0,6.8286584E7,5.542059E0,1.8391982E0,1.05E2,2.3E1,9.61E2,2.151067E3,6.003871E2,6E1,7E0,2E0,5.49E3,7.03295E-1,4.1644E4,2.5417458E1,1.8126133E8,3.3548553E-3,9.2446125E4,6.432652E6,4.756662E3,2.662913E6,1.0853577E3,7.7760535E2,9.738622E-3,3.1E1,1.5211386E8,6E0,6.708308E-2,7.130317E8,1.6826808E6,1.0851E4,4.352552E9,9.954497E-3,2.1393392E-3,2.1068241E-2,5.035087E6,-3.094078E-3,5.37456E5,3.8413253E0,1E0,8.854081E3,1.3454538E8,1.0711482E-3,-4.9017627E-2,8.6093126E8,4.398424E9,1.897E3,-6.493001E-3,-1.4935783E-2,-1.8563524E-2,8.6141394E5,-2.5152476E-3,-2.5183387E-2,-1.5089338E-2,3.3510964E-2,6.77529E2,2.833662E-2,-5.091281E-2,4E1,2.009512E-2,9.422385E-3,-7.613747E-3,3.5568485E-1,4.1324183E-2,5.185489E3,4.64E2,-4.577095E-2,1.0312195E2,4.4375E0,3.85854E1,1.6054606E9,3.89E2,5.8182236E1,3.173913E0,1.5944445E1,1.4710145E1,-4.1481968E-2,-1.0916136E-2,4.2E1,2.126428E-2,4.3376468E-2,1.95E2,1.995E3,1.5461712E7,4.6E1,3.791269E7,1.2323925E6,-2.472177E-2,-5.047095E-2,-7.875187E-2,-3.9939538E-2,-1.9202024E-2,-3.347794E-2,-2.165855E-2,-1.0926473E-2,5.8697636E-4,-1.072291E-2,-1.9789299E-2,-4.4345707E-2,-1.4578613E-2,-2.6478164E-3,-2.5804333E-2,-9.346467E-3,8.893752E-4,9.278413E-3,1.5972463E-2,3.1883594E-2,-3.1642333E-2,-1.537851E-2,-7.2147604E-3,4.0558606E-2,-1.166451E-2,-2.8438019E-2,-4.0760846E-3,-1.4941808E-2,6.780161E-3,2.6008839E-2,-1.12791E-2,1.8296373E-3,-1.0388787E-2,1.4556888E-2,3.0007085E-2,1.1615052E-2,7.319547E-2,3.567314E-2,-2.5714466E-2,-1.1192812E-2,-2.7586292E-2,-1.4645512E-2,1.4776653E-3,2.2239745E-2,-1.6124986E-2,7.0252297E-3,7.1405925E-2,4.7386147E-2,1.583667E-2,3.2304715E-2,3.200481E-2,6.5278346E-3,3.818234E-2,6.83684E-2],"split_indices":[20,56,51,102,42,28,42,52,38,58,4,2,27,51,52,45,0,52,4,53,45,54,41,29,0,2,52,52,3,3,17,2,27,11,58,7,0,33,45,52,32,4,4,0,3,31,3,0,7,28,2,5,0,0,0,51,0,28,53,6,52,7,0,0,7,31,2,0,0,0,45,0,0,0,58,52,0,0,3,0,0,0,38,0,52,1,0,52,53,53,7,2,51,54,58,54,0,0,6,0,0,10,2,51,6,45,32,0,0,0,0,0,0,0,0,0,0,0,0,0,0,0,0,0,0,0,0,0,0,0,0,0,0,0,0,0,0,0,0,0,0,0,0,0,0,0,0,0,0,0,0,0,0,0,0,0,0,0,0,0,0],"split_type":[0,0,0,0,0,0,0,0,0,0,0,0,0,0,0,0,0,0,0,0,0,0,0,0,0,0,0,0,0,0,0,0,0,0,0,0,0,0,0,0,0,0,0,0,0,0,0,0,0,0,0,0,0,0,0,0,0,0,0,0,0,0,0,0,0,0,0,0,0,0,0,0,0,0,0,0,0,0,0,0,0,0,0,0,0,0,0,0,0,0,0,0,0,0,0,0,0,0,0,0,0,0,0,0,0,0,0,0,0,0,0,0,0,0,0,0,0,0,0,0,0,0,0,0,0,0,0,0,0,0,0,0,0,0,0,0,0,0,0,0,0,0,0,0,0,0,0,0,0,0,0,0,0,0,0,0,0,0,0,0,0],"sum_hessian":[2.182E3,6.41E2,1.541E3,3.37E2,3.04E2,9.73E2,5.68E2,2.19E2,1.18E2,2.31E2,7.3E1,4.15E2,5.58E2,5E1,5.18E2,2.11E2,8E0,7.8E1,4E1,4.3E1,1.88E2,3.4E1,3.9E1,2.36E2,1.79E2,5.29E2,2.9E1,1.5E1,3.5E1,1.84E2,3.34E2,1.58E2,5.3E1,6.8E1,1E1,3.5E1,5E0,1.2E1,3.1E1,1.63E2,2.5E1,1E1,2.4E1,8E0,3.1E1,8.5E1,1.51E2,6E0,1.73E2,2.75E2,2.54E2,2.4E1,5E0,8E0,7E0,2.7E1,8E0,3.8E1,1.46E2,8.3E1,2.51E2,1.53E2,5E0,1.7E1,3.6E1,5.8E1,1E1,5E0,5E0,1E1,2.5E1,5E0,7E0,5E0,2.6E1,1.56E2,7E0,8E0,1.7E1,5E0,5E0,8E0,1.6E1,1.5E1,1.6E1,7E1,1.5E1,1E1,1.41E2,1.45E2,2.8E1,1.85E2,9E1,2.44E2,1E1,1.4E1,1E1,9E0,1.8E1,7E0,3.1E1,9.8E1,4.8E1,7.2E1,1.1E1,2.19E2,3.2E1,2.1E1,1.32E2,3.1E1,5E0,9E0,4.9E1,5E0,5E0,5E0,2E1,5E0,2.1E1,1.03E2,5.3E1,5E0,1.2E1,1.1E1,5E0,9E0,7E0,4.9E1,2.1E1,5E0,5E0,1.07E2,3.4E1,9.4E1,5.1E1,1.7E1,1.1E1,3.9E1,1.46E2,5E0,8.5E1,7.2E1,1.72E2,5E0,5E0,9E0,5E0,1.3E1,5E0,1.5E1,8.3E1,8E0,4E1,4.1E1,3.1E1,5E0,6E0,1.96E2,2.3E1,1.4E1,1.8E1],"tree_param":{"num_deleted":"0","num_feature":"108","num_nodes":"161","size_leaf_vector":"1"}},{"base_weights":[-4.8791566E-3,-5.1168853E-1,2.0525648E-1,-8.920161E-1,-1.9092159E-1,2.0121366E-3,5.817423E-1,-1.0648243E0,-5.148496E-1,-3.409988E-1,4.121147E-1,-6.1165494E-1,6.377949E-2,-2.8856155E-1,6.5354073E-1,-9.509977E-1,-1.425222E0,-6.330483E-1,-3.0683368E-1,-3.8532263E-1,8.069665E-2,1.804604E-1,6.815648E-1,-5.1446563E-1,-4.5380246E-2,-3.344801E-2,3.2793158E-1,2.1201884E-2,-4.2592254E-1,5.7557726E-1,1.1499672E0,-9.8712206E-1,-7.5657545E-3,-1.5530876E0,-3.7389193E-2,-6.7688125E-1,-9.732242E-3,-3.6785147E-1,2.7508028E-3,-2.906284E-1,-7.858262E-1,3.529433E-1,3.1135283E-2,7.974648E-1,1.0815083E-2,-5.7300866E-1,1.1743283E-2,-6.867907E-2,8.7685126E-1,3.594664E-1,-2.0885417E-2,-5.268632E-1,-1.4861529E-1,4.8168898E-1,9.351689E-1,4.9400994E-1,1.2563806E0,-1.0306679E0,-6.7469394E-1,-5.5489138E-2,-8.418666E-2,-5.755171E-1,-4.671764E-2,-2.3831242E-1,-4.2718232E-1,-3.9883795E-1,1.1444898E-1,-1.0478058E0,-3.1426853E-1,7.140181E-3,4.1733316E-1,-7.879262E-3,1.0050856E-1,9.035522E-1,1.8269315E-2,-6.012604E-1,-7.917804E-3,-3.065855E-1,6.56365E-3,4.0101597E-1,1.3589215E0,1.9167924E-1,5.6857336E-1,-2.8440394E-2,-1.4914113E-2,-1.1291258E-2,-1.2916776E-3,1.9726293E-1,5.541418E-1,1.0214767E0,2.3030607E-1,2.7489984E-2,1.433677E-2,1.3448179E0,1.9977078E-2,-4.8200965E-2,-2.7320905E-2,-1.402708E-2,-3.7076667E-2,-2.8754806E-2,-1.7634515E-2,-1.4701584E-2,-4.8598596E-3,-2.2100888E-2,-1.2164882E-2,-1.0588497E-2,-2.6770458E-2,-6.0817045E-5,3.20249E-2,-2.1707363E-2,-5.749186E-2,-2.0473853E-2,-6.50615E-3,1.1671438E-2,2.4122154E-2,8.60189E-3,1.6582735E-4,4.6405766E-2,2.708029E-2,-2.959609E-2,-1.3102496E-2,-1.5978225E-2,-4.059111E-3,2.6440317E-2,-2.458113E-3,2.6943278E-2,6.247491E-3,7.8513555E-2,4.028839E-2,9.819324E-3,-1.3254716E-2,2.1932673E-2,4.251548E-2,1.7385515E-3,2.5784556E-2,1.7664485E-2,3.0738149E-2,5.6532227E-2,3.6126908E-2,-3.203621E-4,1.9819882E-2,6.805478E-2,4.94852E-2],"categories":[],"categories_nodes":[],"categories_segments":[],"categories_sizes":[],"default_left":[0,0,0,0,0,0,0,0,0,0,0,0,0,0,0,0,0,0,0,0,0,0,0,0,0,0,0,0,0,0,0,0,0,0,0,0,0,0,0,0,0,0,0,0,0,0,0,0,0,0,0,0,0,0,0,0,0,0,0,0,0,0,0,0,0,0,0,0,0,0,0,0,0,0,0,0,0,0,0,0,0,0,0,0,0,0,0,0,0,0,0,0,0,0,0,0,0,0,0,0,0,0,0,0,0,0,0,0,0,0,0,0,0,0,0,0,0,0,0,0,0,0,0,0,0,0,0,0,0,0,0,0,0,0,0,0,0,0,0,0,0,0,0],"id":3,"left_children":[1,3,5,7,9,11,13,15,17,19,21,23,25,27,29,31,33,35,37,39,-1,41,43,45,-1,47,49,-1,51,53,55,57,-1,59,-1,61,-1,63,-1,65,67,69,71,73,-1,75,-1,77,79,81,-1,83,85,87,89,91,93,95,97,-1,-1,99,-1,101,103,105,107,109,111,-1,113,-1,115,117,-1,119,-1,121,123,125,127,129,131,-1,-1,-1,-1,133,135,137,139,-1,-1,141,-1,-1,-1,-1,-1,-1,-1,-1,-1,-1,-1,-1,-1,-1,-1,-1,-1,-1,-1,-1,-1,-1,-1,-1,-1,-1,-1,-1,-1,-1,-1,-1,-1,-1,-1,-1,-1,-1,-1,-1,-1,-1,-1,-1,-1,-1,-1,-1,-1],"loss_changes":[2.3291121E2,7.802948E1,1.1829661E2,1.8548767E1,3.1725735E1,3.813312E1,3.405626E1,6.849167E0,2.1169567E0,2.6591038E1,4.246352E0,2.8115082E0,2.3485092E1,4.5088563E0,1.8728363E1,4.2458954E0,2.363617E0,9.49522E-1,8.2675433E-1,1.0201092E1,0E0,9.934964E-1,1.4725046E0,3.5210571E0,0E0,2.151559E1,6.214773E0,0E0,9.293971E-1,1.4235764E1,4.0561066E0,1.3181458E0,0E0,1.3196411E0,0E0,1.2159615E0,0E0,1.364522E-1,0E0,9.864292E0,6.0947113E0,1.6535068E-1,3.250564E-1,7.0840836E-1,0E0,6.910572E-1,0E0,1.1547981E1,5.189703E0,8.206268E0,0E0,2.7281284E-1,1.204011E-1,7.0414886E0,5.179085E0,1.9641161E-2,3.571045E0,1.1540222E-1,7.543621E-1,0E0,0E0,1.546421E-1,0E0,9.429753E-2,4.22163E-2,5.2942505E0,3.2182443E0,3.1724625E0,3.8508582E-1,0E0,9.266496E-2,0E0,1.4061366E-1,2.1156311E-2,0E0,6.3536453E-1,0E0,1.3049736E0,1.6645086E1,5.996399E-1,5.0873566E-1,1.3942361E0,3.0247078E0,0E0,0E0,0E0,0E0,4.1284113E0,5.024826E0,2.871666E0,5.2193284E-1,0E0,0E0,2.1613312E-1,0E0,0E0,0E0,0E0,0E0,0E0,0E0,0E0,0E0,0E0,0E0,0E0,0E0,0E0,0E0,0E0,0E0,0E0,0E0,0E0,0E0,0E0,0E0,0E0,0E0,0E0,0E0,0E0,0E0,0E0,0E0,0E0,0E0,0E0,0E0,0E0,0E0,0E0,0E0,0E0,0E0,0E0,0E0,0E0,0E0,0E0,0E0,0E0,0E0],"parents":[2147483647,0,0,1,1,2,2,3,3,4,4,5,5,6,6,7,7,8,8,9,9,10,10,11,11,12,12,13,13,14,14,15,15,16,16,17,17,18,18,19,19,21,21,22,22,23,23,25,25,26,26,28,28,29,29,30,30,31,31,33,33,35,35,37,37,39,39,40,40,41,41,42,42,43,43,45,45,47,47,48,48,49,49,51,51,52,52,53,53,54,54,55,55,56,56,57,57,58,58,61,61,63,63,64,64,65,65,66,66,67,67,68,68,70,70,72,72,73,73,75,75,77,77,78,78,79,79,80,80,81,81,82,82,87,87,88,88,89,89,90,90,93,93],"right_children":[2,4,6,8,10,12,14,16,18,20,22,24,26,28,30,32,34,36,38,40,-1,42,44,46,-1,48,50,-1,52,54,56,58,-1,60,-1,62,-1,64,-1,66,68,70,72,74,-1,76,-1,78,80,82,-1,84,86,88,90,92,94,96,98,-1,-1,100,-1,102,104,106,108,110,112,-1,114,-1,116,118,-1,120,-1,122,124,126,128,130,132,-1,-1,-1,-1,134,136,138,140,-1,-1,142,-1,-1,-1,-1,-1,-1,-1,-1,-1,-1,-1,-1,-1,-1,-1,-1,-1,-1,-1,-1,-1,-1,-1,-1,-1,-1,-1,-1,-1,-1,-1,-1,-1,-1,-1,-1,-1,-1,-1,-1,-1,-1,-1,-1,-1,-1,-1,-1,-1],"split_conditions":[1.0119178E10,5.6549587E0,2.2523708E6,1E0,1.5475359E0,9.2E1,2.2046472E-1,3.9771576E7,1.7443357E8,1.4964736E4,1.2348739E3,5.2571965E8,9.933566E5,2.6898525E6,3.1993368E6,3.396E3,8.283755E8,2.003E3,2.437E3,5.9767612E7,8.069665E-2,2.8683594E-3,3.1372602E0,1.492E3,-4.5380246E-2,1.0851E4,5.5112033E0,2.1201884E-2,1E0,4.23168E3,1E0,5.502368E2,-7.5657545E-3,5.577985E11,-3.7389193E-2,2.00429E5,-9.732242E-3,2.23E2,2.7508028E-3,1.0451592E3,3.3166495E6,2.3338731E8,2.695E3,1.1034263E10,1.0815083E-2,4.8892918E4,1.1743283E-2,5.43E2,9.096001E6,9.99E2,-2.0885417E-2,2.37123E5,2.3459465E3,1E0,1.8000048E10,6.2071025E6,1E0,3.3E1,1.6278354E7,-5.5489138E-2,-8.418666E-2,8.9681294E5,-4.671764E-2,2.11E2,4.4098143E-2,1.4642024E7,1.3825012E2,7.531952E7,3.7820676E-1,7.140181E-3,5.86412E8,-7.879262E-3,1.8335264E0,1.7157197E8,1.8269315E-2,5.159652E-7,-7.917804E-3,4.155419E6,4.64E2,1.318219E7,6.101E3,4E1,5.133482E6,-2.8440394E-2,-1.4914113E-2,-1.1291258E-2,-1.2916776E-3,1.1925198E3,2.5952345E5,1.1764706E-1,1.174582E12,2.7489984E-2,1.433677E-2,1.9132653E0,1.9977078E-2,-4.8200965E-2,-2.7320905E-2,-1.402708E-2,-3.7076667E-2,-2.8754806E-2,-1.7634515E-2,-1.4701584E-2,-4.8598596E-3,-2.2100888E-2,-1.2164882E-2,-1.0588497E-2,-2.6770458E-2,-6.0817045E-5,3.20249E-2,-2.1707363E-2,-5.749186E-2,-2.0473853E-2,-6.50615E-3,1.1671438E-2,2.4122154E-2,8.60189E-3,1.6582735E-4,4.6405766E-2,2.708029E-2,-2.959609E-2,-1.3102496E-2,-1.5978225E-2,-4.059111E-3,2.6440317E-2,-2.458113E-3,2.6943278E-2,6.247491E-3,7.8513555E-2,4.028839E-2,9.819324E-3,-1.3254716E-2,2.1932673E-2,4.251548E-2,1.7385515E-3,2.5784556E-2,1.7664485E-2,3.0738149E-2,5.6532227E-2,3.6126908E-2,-3.203621E-4,1.9819882E-2,6.805478E-2,4.94852E-2],"split_indices":[20,56,51,102,42,29,42,45,7,55,52,31,28,51,28,2,7,10,2,45,0,27,57,2,0,2,53,0,102,52,100,55,0,31,0,1,0,10,0,52,32,7,2,5,0,28,0,2,1,2,0,33,4,100,5,45,6,3,45,0,0,33,0,0,57,45,56,7,57,0,12,0,39,32,0,37,0,9,29,45,0,3,28,0,0,0,0,52,28,57,31,0,0,54,0,0,0,0,0,0,0,0,0,0,0,0,0,0,0,0,0,0,0,0,0,0,0,0,0,0,0,0,0,0,0,0,0,0,0,0,0,0,0,0,0,0,0,0,0,0,0,0,0],"split_type":[0,0,0,0,0,0,0,0,0,0,0,0,0,0,0,0,0,0,0,0,0,0,0,0,0,0,0,0,0,0,0,0,0,0,0,0,0,0,0,0,0,0,0,0,0,0,0,0,0,0,0,0,0,0,0,0,0,0,0,0,0,0,0,0,0,0,0,0,0,0,0,0,0,0,0,0,0,0,0,0,0,0,0,0,0,0,0,0,0,0,0,0,0,0,0,0,0,0,0,0,0,0,0,0,0,0,0,0,0,0,0,0,0,0,0,0,0,0,0,0,0,0,0,0,0,0,0,0,0,0,0,0,0,0,0,0,0,0,0,0,0,0,0],"sum_hessian":[2.185E3,6.4E2,1.545E3,2.92E2,3.48E2,1.004E3,5.41E2,1.99E2,9.3E1,2.79E2,6.9E1,9.1E1,9.13E2,4.1E1,5E2,1.54E2,4.5E1,5.8E1,3.5E1,2.74E2,5E0,3.8E1,3.1E1,7.4E1,1.7E1,6.68E2,2.45E2,6E0,3.5E1,4.34E2,6.6E1,1.47E2,7E0,3.6E1,9E0,5.2E1,6E0,3E1,5E0,2.23E2,5.1E1,1.7E1,2.1E1,2.4E1,7E0,6.9E1,5E0,6.44E2,2.4E1,2.36E2,9E0,2.5E1,1E1,3.46E2,8.8E1,1E1,5.6E1,1.27E2,2E1,1.8E1,1.8E1,4.2E1,1E1,1.1E1,1.9E1,1.76E2,4.7E1,3.2E1,1.9E1,5E0,1.2E1,5E0,1.6E1,1.8E1,6E0,6.4E1,5E0,1.54E2,4.9E2,1.3E1,1.1E1,1.32E2,1.04E2,1.6E1,9E0,5E0,5E0,7.1E1,2.75E2,7.8E1,1E1,5E0,5E0,5E1,6E0,1.22E2,5E0,6E0,1.4E1,3.2E1,1E1,6E0,5E0,1.3E1,6E0,9.2E1,8.4E1,4E1,7E0,9E0,2.3E1,1E1,9E0,6E0,6E0,8E0,8E0,1.2E1,6E0,5.6E1,8E0,1.3E2,2.4E1,4.6E1,4.44E2,7E0,6E0,5E0,6E0,1.27E2,5E0,8.4E1,2E1,5E1,2.1E1,1.1E2,1.65E2,4E1,3.8E1,5E0,5E0,3.1E1,1.9E1],"tree_param":{"num_deleted":"0","num_feature":"108","num_nodes":"143","size_leaf_vector":"1"}},{"base_weights":[2.8117932E-3,-5.076799E-1,2.0509888E-1,-8.1793857E-1,-1.7704546E-1,-2.0227332E-2,5.616803E-1,-1.0174651E0,-4.537161E-1,-3.4216663E-1,3.7831733E-1,-1.3026246E-1,3.0493966E-1,2.6641017E-1,7.2191393E-1,-9.8108476E-1,-9.488208E-2,-5.8466667E-1,-2.320977E-1,-4.013933E-1,6.8189526E-1,1.046934E-1,5.8611286E-1,-4.1802E-1,-4.1320212E-2,3.4160763E-1,-2.6612697E-2,-2.0798735E-1,3.8414517E-1,3.762384E-1,9.126046E-1,-1.0167667E0,-3.403117E-1,-6.211132E-1,-1.3865441E-2,-2.893138E-1,2.8420188E-3,-2.8713584E-1,-7.628136E-1,6.293314E-2,-1.5679054E-2,2.1254171E-1,-8.377823E-2,5.992864E-3,6.818838E-1,-5.3791666E-1,-2.6933807E-1,9.096756E-3,-5.8843243E-1,1.5620539E-1,5.6436837E-1,1.2395069E-2,-3.2454276E-1,1.1667175E-1,5.0004387E-1,8.405079E-2,6.142094E-1,1.0406191E0,5.940752E-1,-6.328393E-1,-1.082811E0,-3.0918187E-4,-3.1072153E-2,-6.6111225E-1,-1.7344376E-2,-3.8147777E-1,-2.091348E-1,-5.267497E-1,-1.6901392E-1,-5.276183E-1,-5.1389314E-2,-2.3384555E-5,2.8359148E-1,-1.129444E-2,3.048232E-3,1.07413465E-2,7.56473E-1,-4.9187517E-1,-5.153342E-2,-2.9395935E-1,3.2792755E-3,9.1618735E-1,-1.1285067E-2,-7.577099E-1,1.9060416E-2,-1.7057902E-1,1.9148117E-1,4.5642474E-1,9.293663E-1,-4.97109E-1,-1.5306021E-1,1.9673437E-1,-2.5089754E-2,4.034489E-1,7.500536E-1,2.9241785E-1,-1.4719215E-1,7.103517E-1,2.3309821E-1,4.0987805E-1,1.0759337E0,6.412591E-1,-2.1960754E-3,-1.3587684E-2,-3.256952E-2,-6.0653172E-2,-4.59186E-2,-2.543792E-2,-3.8740322E-2,-2.1773323E-2,-1.0740179E-2,-1.2182537E-2,-5.411093E-3,-4.3810714E-2,-2.0572439E-2,-9.113058E-3,6.7046555E-3,-3.911157E-2,-1.1443573E-2,5.759099E-3,1.7348956E-2,4.707201E-2,2.5027888E-2,-2.855795E-2,-1.513777E-2,-8.256247E-3,-1.83846E-2,1.3668906E-2,6.39027E-2,-9.739482E-3,3.1571314E-3,-3.888436E-2,-1.6512288E-2,-3.2294397E-3,4.8432443E-3,3.1840135E-3,-1.7814137E-2,1.003148E-2,-6.400395E-3,1.32437125E-2,2.5735281E-2,1.9425703E-2,4.836753E-2,-9.955569E-3,-2.9144747E-2,-1.1031016E-2,-2.4163227E-4,-3.543095E-3,1.2935936E-2,2.14818E-2,2.0360132E-3,2.394665E-2,4.6676565E-2,1.8037299E-2,5.7408814E-3,-2.1330644E-3,-1.7963123E-2,2.4428802E-2,4.470245E-2,2.6023882E-2,7.624048E-5,8.914882E-4,3.3812E-2,4.771279E-2,7.338174E-2,1.757837E-2,3.6484037E-2],"categories":[],"categories_nodes":[],"categories_segments":[],"categories_sizes":[],"default_left":[0,0,0,0,0,0,0,0,0,0,0,0,0,0,0,0,0,0,0,0,0,0,0,0,0,0,0,0,0,0,0,0,0,0,0,0,0,0,0,0,0,0,0,0,0,0,0,0,0,0,0,0,0,0,0,0,0,0,0,0,0,0,0,0,0,0,0,0,0,0,0,0,0,0,0,0,0,0,0,0,0,0,0,0,0,0,0,0,0,0,0,0,0,0,0,0,0,0,0,0,0,0,0,0,0,0,0,0,0,0,0,0,0,0,0,0,0,0,0,0,0,0,0,0,0,0,0,0,0,0,0,0,0,0,0,0,0,0,0,0,0,0,0,0,0,0,0,0,0,0,0,0,0,0,0,0,0,0,0,0,0,0,0,0,0,0,0],"id":4,"left_children":[1,3,5,7,9,11,13,15,17,19,21,23,25,27,29,31,-1,33,35,37,39,41,43,45,47,49,-1,51,53,55,57,59,61,63,-1,65,-1,67,69,-1,-1,71,73,-1,75,77,79,81,83,85,87,-1,89,91,93,95,97,99,101,103,105,-1,-1,107,-1,109,111,113,115,117,-1,-1,119,-1,-1,-1,121,123,-1,125,-1,127,129,131,133,135,137,139,141,143,145,147,-1,149,151,153,155,157,159,161,163,165,-1,-1,-1,-1,-1,-1,-1,-1,-1,-1,-1,-1,-1,-1,-1,-1,-1,-1,-1,-1,-1,-1,-1,-1,-1,-1,-1,-1,-1,-1,-1,-1,-1,-1,-1,-1,-1,-1,-1,-1,-1,-1,-1,-1,-1,-1,-1,-1,-1,-1,-1,-1,-1,-1,-1,-1,-1,-1,-1,-1,-1,-1,-1,-1,-1],"loss_changes":[2.23778E2,6.2943237E1,1.24710144E2,2.2575424E1,2.754839E1,3.4102085E1,2.8242294E1,5.680847E0,3.172701E0,1.4284264E1,3.8618279E0,1.8205517E1,7.983917E0,1.1976628E1,2.52984E1,4.203903E0,0E0,5.495548E-1,7.570367E-1,8.82457E0,9.502569E0,6.479232E-1,1.616005E0,2.849968E0,1.503849E1,9.493521E0,0E0,2.4746695E0,5.242626E0,9.6828785E0,9.575882E0,4.0817413E0,1.3266318E0,3.6066437E-1,0E0,1.936357E-1,0E0,4.665983E0,3.6926117E0,0E0,0E0,3.0288386E-1,3.0513152E-1,0E0,8.964672E-1,1.8992195E0,6.661124E-1,9.254419E0,4.7448454E0,1.5081925E0,3.7127304E0,0E0,9.59636E-1,2.9072433E0,2.5712051E0,3.12678E0,2.6557693E0,3.5015564E0,2.2708054E0,5.279579E-1,1.9389191E0,0E0,0E0,5.573883E-1,0E0,1.0476351E-1,7.967752E-2,1.4636774E0,1.0427699E0,2.7384253E0,0E0,0E0,1.7258584E-1,0E0,0E0,0E0,9.698353E-1,1.6031952E0,0E0,7.9238844E-1,0E0,2.7799845E0,7.804478E0,9.128399E-1,9.133186E-2,6.965436E-1,1.0153694E0,1.2599907E0,9.3956566E-1,5.0515604E-1,2.3973131E-1,1.1157938E0,0E0,1.9307413E0,1.4070492E0,5.124357E-1,7.3904234E-1,2.3382778E0,1.299076E0,1.3704052E0,2.0250092E0,2.3741455E0,0E0,0E0,0E0,0E0,0E0,0E0,0E0,0E0,0E0,0E0,0E0,0E0,0E0,0E0,0E0,0E0,0E0,0E0,0E0,0E0,0E0,0E0,0E0,0E0,0E0,0E0,0E0,0E0,0E0,0E0,0E0,0E0,0E0,0E0,0E0,0E0,0E0,0E0,0E0,0E0,0E0,0E0,0E0,0E0,0E0,0E0,0E0,0E0,0E0,0E0,0E0,0E0,0E0,0E0,0E0,0E0,0E0,0E0,0E0,0E0,0E0,0E0,0E0,0E0,0E0],"parents":[2147483647,0,0,1,1,2,2,3,3,4,4,5,5,6,6,7,7,8,8,9,9,10,10,11,11,12,12,13,13,14,14,15,15,17,17,18,18,19,19,20,20,21,21,22,22,23,23,24,24,25,25,27,27,28,28,29,29,30,30,31,31,32,32,33,33,35,35,37,37,38,38,41,41,42,42,44,44,45,45,46,46,47,47,48,48,49,49,50,50,52,52,53,53,54,54,55,55,56,56,57,57,58,58,59,59,60,60,63,63,65,65,66,66,67,67,68,68,69,69,72,72,76,76,77,77,79,79,81,81,82,82,83,83,84,84,85,85,86,86,87,87,88,88,89,89,90,90,91,91,93,93,94,94,95,95,96,96,97,97,98,98,99,99,100,100,101,101],"right_children":[2,4,6,8,10,12,14,16,18,20,22,24,26,28,30,32,-1,34,36,38,40,42,44,46,48,50,-1,52,54,56,58,60,62,64,-1,66,-1,68,70,-1,-1,72,74,-1,76,78,80,82,84,86,88,-1,90,92,94,96,98,100,102,104,106,-1,-1,108,-1,110,112,114,116,118,-1,-1,120,-1,-1,-1,122,124,-1,126,-1,128,130,132,134,136,138,140,142,144,146,148,-1,150,152,154,156,158,160,162,164,166,-1,-1,-1,-1,-1,-1,-1,-1,-1,-1,-1,-1,-1,-1,-1,-1,-1,-1,-1,-1,-1,-1,-1,-1,-1,-1,-1,-1,-1,-1,-1,-1,-1,-1,-1,-1,-1,-1,-1,-1,-1,-1,-1,-1,-1,-1,-1,-1,-1,-1,-1,-1,-1,-1,-1,-1,-1,-1,-1,-1,-1,-1,-1,-1,-1],"split_conditions":[1.0119178E10,7.7943926E0,8.847733E4,1E0,1.5057492E0,8.9257425E5,4.443E3,1.4159094E8,4.902346E-1,6.082581E3,3.094928E5,4.55E2,6.26477E0,1.5993735E-1,2.1152368E-1,8.723E3,-9.488208E-2,2.457193E2,3.1275E2,5.0727264E7,5.396127E9,1.6449378E-1,3.191E3,7.725141E4,3.9771576E7,9.99E2,-2.6612697E-2,8E0,1.166E3,1.3428E4,8.4E1,1.3454538E8,8.50999E9,1.7E3,-1.3865441E-2,1.129E4,2.8420188E-3,2.41E3,1.2199979E10,6.293314E-2,-1.5679054E-2,2.695E3,1.52721E6,5.992864E-3,1.8977505E0,2.3537684E5,2.601E3,8E0,1.27E2,5.862757E1,3.7476598E6,1.2395069E-2,5.24E2,3.3625042E0,2.2515285E6,2.1864318E7,1.8323593E1,6.274101E4,3.7616174E2,1.905E3,1.4761002E5,-3.0918187E-4,-3.1072153E-2,3.9903192E2,-1.7344376E-2,1.3350591E-1,4.763018E0,1E0,2.1025046E3,3.290303E1,-5.1389314E-2,-2.3384555E-5,8.674699E-1,-1.129444E-2,3.048232E-3,1.07413465E-2,2.0928004E0,4.64E2,-5.153342E-2,9.307693E0,3.2792755E-3,7.537E3,7.959718E4,2.4502628E6,9.522554E7,2E0,6.346204E-7,5.4863016E7,3.430587E7,1.1444633E5,3.186685E5,6.07E2,-2.5089754E-2,2.2E1,2.997E3,6.651711E1,8.727959E7,4.1331047E-1,4.4375E0,1.542688E0,1.8114515E1,1.2219E4,-2.1960754E-3,-1.3587684E-2,-3.256952E-2,-6.0653172E-2,-4.59186E-2,-2.543792E-2,-3.8740322E-2,-2.1773323E-2,-1.0740179E-2,-1.2182537E-2,-5.411093E-3,-4.3810714E-2,-2.0572439E-2,-9.113058E-3,6.7046555E-3,-3.911157E-2,-1.1443573E-2,5.759099E-3,1.7348956E-2,4.707201E-2,2.5027888E-2,-2.855795E-2,-1.513777E-2,-8.256247E-3,-1.83846E-2,1.3668906E-2,6.39027E-2,-9.739482E-3,3.1571314E-3,-3.888436E-2,-1.6512288E-2,-3.2294397E-3,4.8432443E-3,3.1840135E-3,-1.7814137E-2,1.003148E-2,-6.400395E-3,1.32437125E-2,2.5735281E-2,1.9425703E-2,4.836753E-2,-9.955569E-3,-2.9144747E-2,-1.1031016E-2,-2.4163227E-4,-3.543095E-3,1.2935936E-2,2.14818E-2,2.0360132E-3,2.394665E-2,4.6676565E-2,1.8037299E-2,5.7408814E-3,-2.1330644E-3,-1.7963123E-2,2.4428802E-2,4.470245E-2,2.6023882E-2,7.624048E-5,8.914882E-4,3.3812E-2,4.771279E-2,7.338174E-2,1.757837E-2,3.6484037E-2],"split_indices":[20,56,33,102,42,28,2,45,41,52,28,2,53,38,38,2,0,52,52,45,12,27,2,28,45,2,0,3,2,2,8,7,5,10,0,29,0,2,5,0,0,2,1,0,42,47,29,18,3,47,28,0,29,53,28,45,57,28,58,1,33,0,0,4,0,57,54,102,52,56,0,0,57,0,0,0,39,1,0,58,0,1,28,32,7,8,37,7,7,33,28,2,0,3,2,54,45,35,53,39,35,2,0,0,0,0,0,0,0,0,0,0,0,0,0,0,0,0,0,0,0,0,0,0,0,0,0,0,0,0,0,0,0,0,0,0,0,0,0,0,0,0,0,0,0,0,0,0,0,0,0,0,0,0,0,0,0,0,0,0,0,0,0,0,0,0,0],"split_type":[0,0,0,0,0,0,0,0,0,0,0,0,0,0,0,0,0,0,0,0,0,0,0,0,0,0,0,0,0,0,0,0,0,0,0,0,0,0,0,0,0,0,0,0,0,0,0,0,0,0,0,0,0,0,0,0,0,0,0,0,0,0,0,0,0,0,0,0,0,0,0,0,0,0,0,0,0,0,0,0,0,0,0,0,0,0,0,0,0,0,0,0,0,0,0,0,0,0,0,0,0,0,0,0,0,0,0,0,0,0,0,0,0,0,0,0,0,0,0,0,0,0,0,0,0,0,0,0,0,0,0,0,0,0,0,0,0,0,0,0,0,0,0,0,0,0,0,0,0,0,0,0,0,0,0,0,0,0,0,0,0,0,0,0,0,0,0],"sum_hessian":[2.165E3,6.14E2,1.551E3,3.16E2,2.98E2,9.51E2,6E2,2.03E2,1.13E2,2.3E2,6.8E1,7.11E2,2.4E2,2.12E2,3.88E2,1.98E2,5E0,7E1,4.3E1,2.18E2,1.2E1,3E1,3.8E1,1.67E2,5.44E2,2.31E2,9E0,4.2E1,1.7E2,1.39E2,2.49E2,1.87E2,1.1E1,6.1E1,9E0,3.6E1,7E0,1.67E2,5.1E1,7E0,5E0,1.9E1,1.1E1,7E0,3.1E1,9.1E1,7.6E1,4.99E2,4.5E1,1.27E2,1.04E2,8E0,3.4E1,5.2E1,1.18E2,6.3E1,7.6E1,1.76E2,7.3E1,2.9E1,1.58E2,6E0,5E0,5.1E1,1E1,1.5E1,2.1E1,5.4E1,1.13E2,3.2E1,1.9E1,5E0,1.4E1,5E0,6E0,5E0,2.6E1,8.6E1,5E0,7.1E1,5E0,1E1,4.89E2,3.5E1,1E1,1.2E1,1.15E2,8.2E1,2.2E1,1.6E1,1.8E1,4.7E1,5E0,8.7E1,3.1E1,3.3E1,3E1,6E1,1.6E1,1E1,1.66E2,6.8E1,5E0,6E0,2.3E1,4E1,1.18E2,3.4E1,1.7E1,8E0,7E0,1.2E1,9E0,7E0,4.7E1,1.04E2,9E0,1.4E1,1.8E1,6E0,8E0,1E1,1.6E1,4.7E1,3.9E1,3.5E1,3.6E1,5E0,5E0,1.39E2,3.5E2,2.8E1,7E0,5E0,5E0,6E0,6E0,1.07E2,8E0,3.2E1,5E1,5E0,1.7E1,6E0,1E1,1.1E1,7E0,1.1E1,3.6E1,7.4E1,1.3E1,1.8E1,1.3E1,2E1,1.3E1,2.2E1,8E0,3.7E1,2.3E1,6E0,1E1,5E0,5E0,1.56E2,1E1,2.6E1,4.2E1],"tree_param":{"num_deleted":"0","num_feature":"108","num_nodes":"167","size_leaf_vector":"1"}},{"base_weights":[2.2923218E-3,-4.5989472E-1,1.9678445E-1,-7.8308994E-1,-1.6775772E-1,-2.1519555E-2,5.0216967E-1,-9.673015E-1,-4.124294E-1,-2.9648244E-1,3.402446E-1,-2.7971047E-1,1.4183617E-1,4.144876E-1,1.0304763E0,-7.497462E-1,-1.1115294E0,-5.078755E-1,-1.3863175E-1,5.412802E-2,-3.2849258E-1,2.0045673E-2,4.8969844E-1,-3.2351E-1,6.438741E-1,1.8001035E-1,-4.781549E-1,1.20995E-1,5.217754E-1,1.080618E0,6.8530003E-3,-7.9482627E-1,-1.4424734E-3,-1.1860589E0,-6.5292233E-1,-5.5756706E-1,-5.733758E-3,-2.0866731E-1,2.8882774E-3,-2.4620768E-1,-7.166766E-1,1.0149562E-2,-6.337329E-2,2.3007719E-1,5.821984E-1,-5.889366E-1,-2.3085909E-1,6.482347E-2,2.2006766E-3,-5.6764977E-3,3.1266266E-1,-5.5626343E-4,-5.6402546E-1,2.2729398E-1,-4.1108775E-1,-1.2076207E-1,5.63E-1,1.1237926E0,2.0273533E-2,-1.4696042E-2,-8.227294E-1,-1.0153191E0,-1.3307062E0,-3.7063804E-2,-1.6018996E-2,-5.980805E-1,-3.2204035E-1,-2.808003E-3,-1.3623088E-2,-2.9672495E-1,3.399993E-1,-9.372567E-1,-3.2148224E-1,4.820079E-3,-1.6435802E-1,1.6479347E-2,4.1752495E-3,7.4858274E-3,6.664321E-1,-5.0739866E-1,-8.852417E-1,1.2303213E-1,-2.7666724E-1,-8.94955E-2,2.976194E-1,2.8662416E-1,7.135731E-2,-3.559228E-2,-2.8218183E-1,1.519799E-1,5.514133E-1,-2.7730143E-2,-1.5591076E-1,-3.0457985E-1,8.563272E-3,5.2478564E-1,1.1283518E0,9.8472494E-1,6.7472234E-2,-2.9405795E-2,-4.063255E-2,-5.109851E-2,-3.0657303E-2,-6.3344344E-2,-3.641511E-2,-2.369135E-2,-3.879593E-2,-2.0377778E-2,-5.9711593E-3,-1.9267531E-2,-6.5825596E-3,-3.6394288E-4,2.190921E-2,-3.1491786E-2,-5.736731E-2,-2.6801364E-3,-2.6715752E-2,-2.9506222E-3,-1.0965217E-2,3.5408296E-2,2.0401815E-2,-2.822299E-2,-1.54109225E-2,-1.880986E-2,-4.8512146E-2,-1.8482044E-2,2.3826025E-2,-1.7863978E-2,-4.8539336E-3,-2.0688288E-3,-1.8681264E-2,9.810634E-3,2.1483634E-2,1.638392E-2,-8.500663E-4,-1.8598434E-2,-7.2279335E-3,4.60758E-4,1.6764661E-2,2.8659765E-2,1.4070471E-2,-9.773273E-4,-1.3260471E-2,-6.049807E-3,-2.3508841E-2,2.722784E-2,1.4259168E-2,3.164184E-2,5.6037802E-2,3.6006905E-2,5.2342214E-2],"categories":[],"categories_nodes":[],"categories_segments":[],"categories_sizes":[],"default_left":[0,0,0,0,0,0,0,0,0,0,0,0,0,0,0,0,0,0,0,0,0,0,0,0,0,0,0,0,0,0,0,0,0,0,0,0,0,0,0,0,0,0,0,0,0,0,0,0,0,0,0,0,0,0,0,0,0,0,0,0,0,0,0,0,0,0,0,0,0,0,0,0,0,0,0,0,0,0,0,0,0,0,0,0,0,0,0,0,0,0,0,0,0,0,0,0,0,0,0,0,0,0,0,0,0,0,0,0,0,0,0,0,0,0,0,0,0,0,0,0,0,0,0,0,0,0,0,0,0,0,0,0,0,0,0,0,0,0,0,0,0,0,0,0,0,0,0,0,0,0,0],"id":5,"left_children":[1,3,5,7,9,11,13,15,17,19,21,23,25,27,29,31,33,35,37,-1,39,41,43,45,47,49,51,53,55,57,-1,59,-1,61,63,65,-1,67,-1,69,71,-1,73,75,77,79,81,-1,-1,83,85,-1,87,89,91,93,95,97,-1,-1,99,101,103,-1,-1,105,107,-1,-1,109,111,113,115,-1,117,-1,-1,-1,119,121,123,125,127,129,131,133,-1,-1,135,137,139,-1,141,143,-1,145,147,149,-1,-1,-1,-1,-1,-1,-1,-1,-1,-1,-1,-1,-1,-1,-1,-1,-1,-1,-1,-1,-1,-1,-1,-1,-1,-1,-1,-1,-1,-1,-1,-1,-1,-1,-1,-1,-1,-1,-1,-1,-1,-1,-1,-1,-1,-1,-1,-1,-1,-1,-1,-1,-1],"loss_changes":[1.9515558E2,6.057895E1,1.018777E2,2.0426453E1,2.226892E1,3.7661522E1,2.9080643E1,5.53627E0,2.6212845E0,1.3124126E1,3.2921753E0,1.4204889E1,1.3032278E1,1.7192383E1,3.8202896E0,2.69598E0,3.3271637E0,1.379921E0,4.075482E-1,0E0,8.320036E0,3.9712766E-1,9.947529E-1,8.003998E0,7.180928E0,1.2711777E1,1.2740102E0,8.464296E0,1.0689812E1,1.8613434E0,0E0,7.888069E-1,0E0,1.1679993E0,5.917368E-1,4.4670677E-1,0E0,2.500918E-1,0E0,6.645484E0,3.708601E0,0E0,3.0512637E-1,2.1559125E-1,1.0951376E0,1.6044388E0,4.038183E0,0E0,0E0,5.517779E0,9.216597E0,0E0,1.3551846E0,2.943129E0,1.1143899E0,1.4635305E0,7.55278E0,2.2659225E0,0E0,0E0,2.2566223E-1,8.99086E-1,7.1746826E-2,0E0,0E0,7.2203255E-1,2.1866286E-1,0E0,0E0,3.730219E0,8.4536767E-1,1.4110813E0,1.1851437E0,0E0,6.5588E-2,0E0,0E0,0E0,2.920761E-1,1.0392113E0,9.1445446E-1,6.1678557E0,4.0977936E0,2.3756018E0,5.7210016E-1,6.158903E0,0E0,0E0,1.3389564E-1,3.052992E0,2.0343542E-1,0E0,2.0610622E-1,5.01173E-1,0E0,4.786354E0,3.559494E-2,9.1482544E-1,0E0,0E0,0E0,0E0,0E0,0E0,0E0,0E0,0E0,0E0,0E0,0E0,0E0,0E0,0E0,0E0,0E0,0E0,0E0,0E0,0E0,0E0,0E0,0E0,0E0,0E0,0E0,0E0,0E0,0E0,0E0,0E0,0E0,0E0,0E0,0E0,0E0,0E0,0E0,0E0,0E0,0E0,0E0,0E0,0E0,0E0,0E0,0E0,0E0,0E0,0E0,0E0,0E0],"parents":[2147483647,0,0,1,1,2,2,3,3,4,4,5,5,6,6,7,7,8,8,9,9,10,10,11,11,12,12,13,13,14,14,15,15,16,16,17,17,18,18,20,20,21,21,22,22,23,23,24,24,25,25,26,26,27,27,28,28,29,29,31,31,33,33,34,34,35,35,37,37,39,39,40,40,42,42,43,43,44,44,45,45,46,46,49,49,50,50,52,52,53,53,54,54,55,55,56,56,57,57,60,60,61,61,62,62,65,65,66,66,69,69,70,70,71,71,72,72,74,74,78,78,79,79,80,80,81,81,82,82,83,83,84,84,85,85,88,88,89,89,90,90,92,92,93,93,95,95,96,96,97,97],"right_children":[2,4,6,8,10,12,14,16,18,20,22,24,26,28,30,32,34,36,38,-1,40,42,44,46,48,50,52,54,56,58,-1,60,-1,62,64,66,-1,68,-1,70,72,-1,74,76,78,80,82,-1,-1,84,86,-1,88,90,92,94,96,98,-1,-1,100,102,104,-1,-1,106,108,-1,-1,110,112,114,116,-1,118,-1,-1,-1,120,122,124,126,128,130,132,134,-1,-1,136,138,140,-1,142,144,-1,146,148,150,-1,-1,-1,-1,-1,-1,-1,-1,-1,-1,-1,-1,-1,-1,-1,-1,-1,-1,-1,-1,-1,-1,-1,-1,-1,-1,-1,-1,-1,-1,-1,-1,-1,-1,-1,-1,-1,-1,-1,-1,-1,-1,-1,-1,-1,-1,-1,-1,-1,-1,-1,-1,-1],"split_conditions":[1.0119178E10,6.526919E0,1.6134042E8,1E0,1.5475359E0,1.760632E5,2.9965258E6,6.748543E-1,1.4569545E-1,1.1280869E9,1.0188571E3,1.5758423E3,4.0496764E-1,2.6238853E-1,1.7114428E7,5.339E3,1.2025111E0,4.155419E6,2.3952727E2,5.412802E-2,7.150216E7,1.0119178E10,3.094928E5,7.9E1,6.73881E7,7.62E2,5.5224115E2,4.7374536E7,2.8684334E4,4.7523403E0,6.8530003E-3,1.4810644E7,-1.4424734E-3,1.7615028E11,1.2593641E6,2.003E3,-5.733758E-3,2.0218372E0,2.8882774E-3,2.1025046E3,6.564523E1,1.0149562E-2,1.0275E4,5.376E3,3.43E3,1.5211386E8,1E0,6.482347E-2,2.2006766E-3,2.3314082E6,1.0269E4,-5.5626343E-4,2.662913E6,1.4847834E9,1.7817609E3,1.330838E5,6.8545566E0,1.6621517E3,2.0273533E-2,-1.4696042E-2,1.4918033E0,1.9107901E0,9.680723E8,-3.7063804E-2,-1.6018996E-2,2.00429E5,4.7700775E2,-2.808003E-3,-1.3623088E-2,2.562723E-1,7.094791E1,1.4792529E10,1.281E3,4.820079E-3,2.0136518E0,1.6479347E-2,4.1752495E-3,7.4858274E-3,2.1704E4,4.1625E1,1.5E1,1.35E2,3.568E3,2E0,4.8443035E6,2.3E1,7.135731E-2,-3.559228E-2,1.6912528E6,1.6595395E5,1.5779017E7,-2.7730143E-2,1.8159722E-1,8.0731575E5,8.563272E-3,1.0112028E1,4.7746178E1,4.476796E6,6.7472234E-2,-2.9405795E-2,-4.063255E-2,-5.109851E-2,-3.0657303E-2,-6.3344344E-2,-3.641511E-2,-2.369135E-2,-3.879593E-2,-2.0377778E-2,-5.9711593E-3,-1.9267531E-2,-6.5825596E-3,-3.6394288E-4,2.190921E-2,-3.1491786E-2,-5.736731E-2,-2.6801364E-3,-2.6715752E-2,-2.9506222E-3,-1.0965217E-2,3.5408296E-2,2.0401815E-2,-2.822299E-2,-1.54109225E-2,-1.880986E-2,-4.8512146E-2,-1.8482044E-2,2.3826025E-2,-1.7863978E-2,-4.8539336E-3,-2.0688288E-3,-1.8681264E-2,9.810634E-3,2.1483634E-2,1.638392E-2,-8.500663E-4,-1.8598434E-2,-7.2279335E-3,4.60758E-4,1.6764661E-2,2.8659765E-2,1.4070471E-2,-9.773273E-4,-1.3260471E-2,-6.049807E-3,-2.3508841E-2,2.722784E-2,1.4259168E-2,3.164184E-2,5.6037802E-2,3.6006905E-2,5.2342214E-2],"split_indices":[20,56,7,102,42,28,28,27,38,31,4,52,27,42,45,2,39,9,52,0,45,19,28,29,7,2,33,45,33,38,0,5,0,31,32,10,0,58,0,52,56,0,9,2,2,31,79,0,0,28,2,0,32,7,4,28,35,52,0,0,54,53,7,0,0,1,4,0,0,39,56,5,0,0,39,0,0,0,9,4,3,2,2,6,28,3,0,0,48,28,45,0,27,45,0,53,56,28,0,0,0,0,0,0,0,0,0,0,0,0,0,0,0,0,0,0,0,0,0,0,0,0,0,0,0,0,0,0,0,0,0,0,0,0,0,0,0,0,0,0,0,0,0,0,0,0,0,0,0,0,0],"split_type":[0,0,0,0,0,0,0,0,0,0,0,0,0,0,0,0,0,0,0,0,0,0,0,0,0,0,0,0,0,0,0,0,0,0,0,0,0,0,0,0,0,0,0,0,0,0,0,0,0,0,0,0,0,0,0,0,0,0,0,0,0,0,0,0,0,0,0,0,0,0,0,0,0,0,0,0,0,0,0,0,0,0,0,0,0,0,0,0,0,0,0,0,0,0,0,0,0,0,0,0,0,0,0,0,0,0,0,0,0,0,0,0,0,0,0,0,0,0,0,0,0,0,0,0,0,0,0,0,0,0,0,0,0,0,0,0,0,0,0,0,0,0,0,0,0,0,0,0,0,0,0],"sum_hessian":[2.169E3,6.42E2,1.527E3,3.04E2,3.38E2,8.91E2,6.36E2,2.02E2,1.02E2,2.7E2,6.8E1,3.45E2,5.46E2,5.47E2,8.9E1,8.3E1,1.19E2,7.5E1,2.7E1,5E0,2.65E2,2.2E1,4.6E1,3.3E2,1.5E1,5.15E2,3.1E1,1.47E2,4E2,8.4E1,5E0,7.8E1,5E0,1.01E2,1.8E1,6.6E1,9E0,2E1,7E0,2.2E2,4.5E1,6E0,1.6E1,1.3E1,3.3E1,8.4E1,2.46E2,6E0,9E0,2.15E2,3E2,5E0,2.6E1,1.23E2,2.4E1,2.4E1,3.76E2,7.8E1,6E0,5E0,7.3E1,5E1,5.1E1,1.1E1,7E0,5.5E1,1.1E1,8E0,1.2E1,2.03E2,1.7E1,2.8E1,1.7E1,6E0,1E1,6E0,7E0,6E0,2.7E1,6.8E1,1.6E1,2.8E1,2.18E2,1.69E2,4.6E1,2.95E2,5E0,1.4E1,1.2E1,1.01E2,2.2E1,1.3E1,1.1E1,1.5E1,9E0,3.54E2,2.2E1,5.8E1,2E1,2E1,5.3E1,3.8E1,1.2E1,4.6E1,5E0,4.3E1,1.2E1,6E0,5E0,1.13E2,9E1,5E0,1.2E1,1.7E1,1.1E1,9E0,8E0,5E0,5E0,1.7E1,1E1,4.1E1,2.7E1,5E0,1.1E1,1.2E1,1.6E1,1.32E2,8.6E1,1.49E2,2E1,3.2E1,1.4E1,2.41E2,5.4E1,5E0,7E0,6.1E1,4E1,1.6E1,6E0,6E0,5E0,9E0,6E0,2.71E2,8.3E1,5E0,1.7E1,2.7E1,3.1E1],"tree_param":{"num_deleted":"0","num_feature":"108","num_nodes":"151","size_leaf_vector":"1"}},{"base_weights":[8.140273E-3,-4.50237E-1,2.0428196E-1,-7.549082E-1,-1.3082944E-1,2.970685E-2,5.645902E-1,-9.2808825E-1,-4.3003553E-1,-1.8627247E-1,1.1928074E0,-5.69396E-2,4.0772778E-1,4.951938E-1,1.1631197E0,-7.069119E-1,-1.09137E0,-2.7605376E-1,-6.013955E-1,-2.888774E-1,3.017003E-1,8.648741E-2,2.4650464E-2,-3.529643E-1,2.1164715E-2,2.268013E-1,5.8629173E-1,3.2957938E-1,7.026384E-1,1.2641678E0,8.057663E-1,-8.162446E-1,-5.1346487E-1,-1.1818794E0,-7.4207455E-1,-3.1742337E-1,8.163047E-3,-6.8273395E-1,-3.389772E-1,-4.7513723E-2,-2.4162383E-1,7.3245704E-2,4.564739E-1,-2.4415186E-2,-2.823939E-1,5.62515E-2,-8.6210825E-4,2.9681447E-1,1.46004E-1,2.6271126E-1,6.6272444E-1,7.933568E-2,5.2742016E-1,5.280988E-1,9.2846036E-1,3.357533E-2,6.112359E-2,4.3457523E-2,2.1642342E-2,-1.2135435E-2,-8.62626E-1,-3.442353E-1,-7.9940903E-1,-4.9476683E-2,-1.438306E0,-3.938759E-2,-1.909238E-2,-3.9292E-1,-1.9903117E-1,-3.390653E-2,-1.2018112E-2,-2.1735532E-2,-9.185921E-3,-2.0520782E-1,-4.5461748E-2,-2.7718753E-2,9.572303E-3,5.94098E-1,2.8171867E-1,-1.4935979E-1,-4.2845932E-1,-1.6076915E-2,7.58538E-2,2.3938262E-1,4.4627815E-1,-8.689318E-3,2.0918508E-1,1.5212127E-3,1.6571755E-2,4.7619915E-1,7.484785E-1,2.0991805E-1,-2.3963176E-1,2.699107E-1,6.426338E-1,7.229879E-1,2.6418114E-1,7.225167E-1,1.0721562E0,-3.46968E-2,-4.8193377E-2,-2.0541277E-2,2.2307837E-3,-4.532166E-2,-2.3241596E-2,-7.268471E-2,-3.3443034E-2,-1.9218687E-2,-1.1109789E-2,-1.3179064E-2,-4.4973786E-3,-1.3382193E-2,1.6256949E-3,4.7237272E-3,-6.373472E-3,1.6836328E-2,4.01754E-2,1.7961575E-2,4.0788036E-3,-8.974884E-3,4.6811504E-3,-1.6185619E-2,-4.950488E-2,1.4210748E-3,-2.6096556E-2,5.471217E-3,1.2105816E-2,2.5236528E-2,1.1006783E-2,1.3936698E-2,3.660179E-3,1.6522832E-2,3.109461E-2,3.6201905E-2,1.6267963E-2,3.6183333E-3,1.4340057E-2,-1.581284E-2,-1.4434488E-3,1.8257275E-2,8.2581845E-4,3.4021247E-2,1.1474563E-2,2.3658205E-2,3.8155034E-2,-1.0114929E-2,1.669193E-2,3.9146584E-2,2.2974838E-2,4.2712424E-2,6.6362604E-2],"categories":[],"categories_nodes":[],"categories_segments":[],"categories_sizes":[],"default_left":[0,0,0,0,0,0,0,0,0,0,0,0,0,0,0,0,0,0,0,0,0,0,0,0,0,0,0,0,0,0,0,0,0,0,0,0,0,0,0,0,0,0,0,0,0,0,0,0,0,0,0,0,0,0,0,0,0,0,0,0,0,0,0,0,0,0,0,0,0,0,0,0,0,0,0,0,0,0,0,0,0,0,0,0,0,0,0,0,0,0,0,0,0,0,0,0,0,0,0,0,0,0,0,0,0,0,0,0,0,0,0,0,0,0,0,0,0,0,0,0,0,0,0,0,0,0,0,0,0,0,0,0,0,0,0,0,0,0,0,0,0,0,0,0,0,0,0,0,0,0,0],"id":6,"left_children":[1,3,5,7,9,11,13,15,17,19,21,23,25,27,29,31,33,35,37,39,41,-1,-1,43,45,47,49,51,53,55,57,59,61,63,65,67,-1,69,71,-1,73,75,77,-1,79,-1,81,83,85,87,89,91,93,95,97,-1,-1,-1,-1,-1,99,101,103,-1,105,-1,-1,107,109,-1,-1,-1,-1,111,-1,113,-1,115,117,119,121,123,-1,125,127,-1,129,-1,-1,131,133,135,137,139,141,143,145,147,149,-1,-1,-1,-1,-1,-1,-1,-1,-1,-1,-1,-1,-1,-1,-1,-1,-1,-1,-1,-1,-1,-1,-1,-1,-1,-1,-1,-1,-1,-1,-1,-1,-1,-1,-1,-1,-1,-1,-1,-1,-1,-1,-1,-1,-1,-1,-1,-1,-1,-1,-1,-1],"loss_changes":[1.9590918E2,6.344748E1,9.5969925E1,1.8392212E1,2.3705845E1,3.3727257E1,2.0108871E1,7.065262E0,2.947567E0,1.5508224E1,4.8257217E0,1.9382708E1,6.0699596E0,1.5159828E1,8.2297516E-1,1.5901489E0,3.0115356E0,1.254992E0,9.425278E-1,8.66754E0,1.875937E0,0E0,0E0,2.0206146E0,1.7506136E1,5.0538063E-1,2.20018E0,1.2384769E1,7.3138275E0,2.4934769E-1,1.9730282E-1,1.2879028E0,1.5152531E0,1.1804657E0,6.670065E-1,4.4915152E-1,0E0,7.0022964E-1,1.8303096E-1,0E0,6.316739E0,3.1697738E-1,6.0224867E-1,0E0,2.4038286E0,0E0,1.635346E1,3.309512E-1,1.031638E0,4.298985E-1,8.752136E-1,4.715274E0,3.9801483E0,5.6725464E0,1.7407684E0,0E0,0E0,0E0,0E0,0E0,3.0360794E-1,1.008229E0,2.0663738E-1,0E0,1.3772583E0,0E0,0E0,2.3747444E-2,1.9161338E-1,0E0,0E0,0E0,0E0,4.7062054E0,0E0,2.1484347E-1,0E0,7.5918055E-1,2.973926E-1,7.864902E-1,2.635355E0,1.6683525E1,0E0,7.621431E-2,1.4056373E-1,0E0,4.572909E-1,0E0,0E0,3.8934135E-1,4.394207E-1,1.0344448E0,6.959709E-1,1.4153402E0,3.3753586E0,9.901161E-1,2.428811E0,6.483803E-1,1.2502441E0,0E0,0E0,0E0,0E0,0E0,0E0,0E0,0E0,0E0,0E0,0E0,0E0,0E0,0E0,0E0,0E0,0E0,0E0,0E0,0E0,0E0,0E0,0E0,0E0,0E0,0E0,0E0,0E0,0E0,0E0,0E0,0E0,0E0,0E0,0E0,0E0,0E0,0E0,0E0,0E0,0E0,0E0,0E0,0E0,0E0,0E0,0E0,0E0,0E0,0E0,0E0,0E0],"parents":[2147483647,0,0,1,1,2,2,3,3,4,4,5,5,6,6,7,7,8,8,9,9,10,10,11,11,12,12,13,13,14,14,15,15,16,16,17,17,18,18,19,19,20,20,23,23,24,24,25,25,26,26,27,27,28,28,29,29,30,30,31,31,32,32,33,33,34,34,35,35,37,37,38,38,40,40,41,41,42,42,44,44,46,46,47,47,48,48,49,49,50,50,51,51,52,52,53,53,54,54,60,60,61,61,62,62,64,64,67,67,68,68,73,73,75,75,77,77,78,78,79,79,80,80,81,81,83,83,84,84,86,86,89,89,90,90,91,91,92,92,93,93,94,94,95,95,96,96,97,97,98,98],"right_children":[2,4,6,8,10,12,14,16,18,20,22,24,26,28,30,32,34,36,38,40,42,-1,-1,44,46,48,50,52,54,56,58,60,62,64,66,68,-1,70,72,-1,74,76,78,-1,80,-1,82,84,86,88,90,92,94,96,98,-1,-1,-1,-1,-1,100,102,104,-1,106,-1,-1,108,110,-1,-1,-1,-1,112,-1,114,-1,116,118,120,122,124,-1,126,128,-1,130,-1,-1,132,134,136,138,140,142,144,146,148,150,-1,-1,-1,-1,-1,-1,-1,-1,-1,-1,-1,-1,-1,-1,-1,-1,-1,-1,-1,-1,-1,-1,-1,-1,-1,-1,-1,-1,-1,-1,-1,-1,-1,-1,-1,-1,-1,-1,-1,-1,-1,-1,-1,-1,-1,-1,-1,-1,-1,-1,-1,-1],"split_conditions":[1.0119178E10,7.7943926E0,8.0320584E7,1E0,1.1458888E4,1.6345528E6,4.292844E6,6.748543E-1,5.1510445E6,1.5245426E0,1.4910537E-3,4.55E2,1.011E3,1.2798E4,2.131313E0,4.4450412E2,1.4414646E-1,3.7763092E2,2.003E3,1E0,1.5120084E3,8.648741E-2,2.4650464E-2,4.64E2,8E0,2E0,4.7563504E7,3.186685E5,1.556838E0,1.566E5,8.91942E5,1.4810644E7,2.691667E7,7.7573473E9,1.562288E6,2.0584858E8,8.163047E-3,2.457193E2,2.0125807E2,-4.7513723E-2,1.4159094E8,5.4629724E10,2.7268162E6,-2.4415186E-2,1.0037181E1,5.62515E-2,5.5081426E3,5.405423E6,1.736E3,2.9629E4,5.7932E4,2.5765368E7,3.608E3,2.5340332E7,6.992308E1,3.357533E-2,6.112359E-2,4.3457523E-2,2.1642342E-2,-1.2135435E-2,2.5943396E0,3.654E3,4.762033E5,-4.9476683E-2,8.283755E8,-3.938759E-2,-1.909238E-2,3.498605E7,2.2350473E5,-3.390653E-2,-1.2018112E-2,-2.1735532E-2,-9.185921E-3,1.0451592E3,-4.5461748E-2,1.3384E4,9.572303E-3,1.8964535E3,3.833302E7,4E2,4.4375E0,4.2343444E7,7.58538E-2,2.1827742E6,4.877E4,-8.689318E-3,2.8152496E-2,1.5212127E-3,1.6571755E-2,4.6490747E2,3.2E1,1.0080138E3,1.6E1,5.1510445E6,1.5636267E7,1.2414683E5,2.9848648E1,1.8076923E1,1.8941041E4,-3.46968E-2,-4.8193377E-2,-2.0541277E-2,2.2307837E-3,-4.532166E-2,-2.3241596E-2,-7.268471E-2,-3.3443034E-2,-1.9218687E-2,-1.1109789E-2,-1.3179064E-2,-4.4973786E-3,-1.3382193E-2,1.6256949E-3,4.7237272E-3,-6.373472E-3,1.6836328E-2,4.01754E-2,1.7961575E-2,4.0788036E-3,-8.974884E-3,4.6811504E-3,-1.6185619E-2,-4.950488E-2,1.4210748E-3,-2.6096556E-2,5.471217E-3,1.2105816E-2,2.5236528E-2,1.1006783E-2,1.3936698E-2,3.660179E-3,1.6522832E-2,3.109461E-2,3.6201905E-2,1.6267963E-2,3.6183333E-3,1.4340057E-2,-1.581284E-2,-1.4434488E-3,1.8257275E-2,8.2581845E-4,3.4021247E-2,1.1474563E-2,2.3658205E-2,3.8155034E-2,-1.0114929E-2,1.669193E-2,3.9146584E-2,2.2974838E-2,4.2712424E-2,6.6362604E-2],"split_indices":[20,56,12,102,52,28,28,27,45,42,57,2,2,2,54,4,38,52,10,75,4,0,0,1,18,8,7,28,41,1,9,5,45,5,1,7,0,52,52,0,45,31,47,0,58,0,52,28,12,1,1,45,2,45,56,0,0,0,0,0,56,2,28,0,7,0,0,12,28,0,0,0,0,52,0,10,0,4,32,2,53,45,0,28,12,0,38,0,0,52,3,52,18,45,45,28,56,54,52,0,0,0,0,0,0,0,0,0,0,0,0,0,0,0,0,0,0,0,0,0,0,0,0,0,0,0,0,0,0,0,0,0,0,0,0,0,0,0,0,0,0,0,0,0,0,0,0,0,0,0,0],"split_type":[0,0,0,0,0,0,0,0,0,0,0,0,0,0,0,0,0,0,0,0,0,0,0,0,0,0,0,0,0,0,0,0,0,0,0,0,0,0,0,0,0,0,0,0,0,0,0,0,0,0,0,0,0,0,0,0,0,0,0,0,0,0,0,0,0,0,0,0,0,0,0,0,0,0,0,0,0,0,0,0,0,0,0,0,0,0,0,0,0,0,0,0,0,0,0,0,0,0,0,0,0,0,0,0,0,0,0,0,0,0,0,0,0,0,0,0,0,0,0,0,0,0,0,0,0,0,0,0,0,0,0,0,0,0,0,0,0,0,0,0,0,0,0,0,0,0,0,0,0,0,0],"sum_hessian":[2.177E3,6.52E2,1.525E3,3.33E2,3.19E2,1.028E3,4.97E2,2.16E2,1.17E2,3.07E2,1.2E1,8.37E2,1.91E2,4.47E2,5E1,9.4E1,1.22E2,6.3E1,5.4E1,2.54E2,5.3E1,5E0,7E0,1.74E2,6.63E2,9.6E1,9.5E1,2.5E2,1.97E2,3.7E1,1.3E1,5.8E1,3.6E1,9.5E1,2.7E1,5.8E1,5E0,4E1,1.4E1,1.4E1,2.4E2,2.2E1,3.1E1,4.8E1,1.26E2,1.1E1,6.52E2,5E1,4.6E1,1.9E1,7.6E1,1.11E2,1.39E2,1.13E2,8.4E1,5E0,3.2E1,8E0,5E0,5E0,5.3E1,2.4E1,1.2E1,7E1,2.5E1,1.9E1,8E0,3.4E1,2.4E1,3.5E1,5E0,6E0,8E0,2.3E2,1E1,1.3E1,9E0,1.6E1,1.5E1,6.7E1,5.9E1,6.47E2,5E0,3.8E1,1.2E1,7E0,3.9E1,6E0,1.3E1,2.6E1,5E1,7.9E1,3.2E1,4.4E1,9.5E1,6.4E1,4.9E1,3.7E1,4.7E1,3.6E1,1.7E1,1.9E1,5E0,6E0,6E0,2E1,5E0,2.8E1,6E0,1.2E1,1.2E1,1.7E2,6E1,6E0,7E0,1E1,6E0,9E0,6E0,5.7E1,1E1,5.4E1,5E0,5.97E2,5E1,7E0,3.1E1,7E0,5E0,2.2E1,1.7E1,1.8E1,8E0,4.5E1,5E0,3.5E1,4.4E1,2.1E1,1.1E1,2.9E1,1.5E1,7.6E1,1.9E1,2.3E1,4.1E1,8E0,4.1E1,2.2E1,1.5E1,3.6E1,1.1E1],"tree_param":{"num_deleted":"0","num_feature":"108","num_nodes":"151","size_leaf_vector":"1"}},{"base_weights":[1.1364215E-3,-4.2762804E-1,1.8385574E-1,-7.281982E-1,-1.3657652E-1,1.6560677E-3,4.9038073E-1,-8.651231E-1,-4.0166998E-1,-2.8452608E-1,3.7813634E-1,-1.7636098E-1,1.60821E-1,-1.4192078E-2,5.5948734E-1,-7.876017E-1,-1.3104842E0,-5.109397E-1,-1.2783262E-1,-3.270689E-1,7.2551034E-2,1.8097632E-1,6.374146E-1,-3.4998986E-1,-5.1024605E-2,2.0993295E-1,-4.5472556E-1,2.0222823E-1,-4.9557403E-1,3.634691E-1,7.088365E-1,-8.5381114E-1,-1.6557825E-1,-1.4549026E0,-3.2113705E-2,-5.576411E-1,-2.6686928E-1,-6.7259613E-3,-2.5710934E-1,-2.4953331E-1,-8.07306E-1,3.5524315E-1,4.6666857E-2,1.4255667E-2,7.1711266E-1,-4.3179375E-1,-8.2742944E-2,1.0138472E0,-1.0093612E-1,6.75218E-2,3.973892E-1,-5.8647144E-1,9.813867E-3,-1.6327803E-1,3.1232947E-1,-2.5704067E-2,-1.3177879E-2,6.6876626E-1,2.7207536E-1,1.0438678E0,5.8854806E-1,-5.1489645E-1,-9.1176957E-1,1.0681082E-2,-3.9706194E-1,-7.5660005E-2,-4.372829E-2,-4.8221225E-1,-3.8296033E-2,-1.5480918E-2,-6.0622515E-3,-4.962559E-3,6.379378E-3,-1.5451291E-2,-6.089266E-3,-2.9714224E-1,3.0389738E-1,-5.041453E-1,-1.0656163E0,2.0165453E-2,4.8996187E-3,1.324366E-1,-3.6309835E-2,4.0349867E-2,2.4553735E-2,1.407751E-1,-4.749295E-1,7.978142E-3,-1.4955951E-1,2.5695581E-2,5.8241438E-2,-1.4747766E-1,3.331451E-1,-1.8871607E-2,2.268662E-1,4.675761E-1,5.686221E-2,-4.23872E-1,-3.6553938E-2,-1.6169446E-2,9.328144E-4,3.634718E-1,1.5663878E-3,3.4027436E-1,7.7498573E-1,3.0446142E-1,-1.1285861E-1,1.1168967E0,1.3936351E-2,5.0407964E-1,9.2854875E-1,-3.1530768E-2,-1.0816179E-2,-1.7997473E-2,-4.2819943E-2,-7.5856606E-3,-2.4108864E-2,-2.7338156E-2,-1.5792359E-2,-1.9317431E-2,-7.22753E-3,5.9912135E-3,2.1412553E-2,-3.4005728E-2,-1.1303656E-2,-5.8077235E-2,-2.1804344E-2,2.5530169E-3,8.024141E-3,-5.9752185E-3,3.4750665E-3,1.8421218E-2,-6.502092E-3,-2.0338753E-2,-3.3441093E-2,-8.748661E-3,8.624812E-4,-5.585345E-3,-3.3336695E-2,1.8898616E-2,3.651832E-3,-3.914645E-3,9.918728E-3,-6.0100164E-3,1.3164366E-2,1.6073778E-2,3.1353988E-2,-1.3888497E-2,7.091217E-3,-1.1172112E-2,-2.3240933E-2,9.67225E-3,2.2493927E-2,2.2255247E-2,8.027398E-3,3.7821792E-2,1.89934E-2,3.265627E-3,1.6260805E-2,-1.43769635E-2,3.4586892E-3,5.980115E-2,3.9449535E-2,2.7065082E-2,1.4506533E-2,3.1869147E-2,5.011633E-2],"categories":[],"categories_nodes":[],"categories_segments":[],"categories_sizes":[],"default_left":[0,0,0,0,0,0,0,0,0,0,0,0,0,0,0,0,0,0,0,0,0,0,0,0,0,0,0,0,0,0,0,0,0,0,0,0,0,0,0,0,0,0,0,0,0,0,0,0,0,0,0,0,0,0,0,0,0,0,0,0,0,0,0,0,0,0,0,0,0,0,0,0,0,0,0,0,0,0,0,0,0,0,0,0,0,0,0,0,0,0,0,0,0,0,0,0,0,0,0,0,0,0,0,0,0,0,0,0,0,0,0,0,0,0,0,0,0,0,0,0,0,0,0,0,0,0,0,0,0,0,0,0,0,0,0,0,0,0,0,0,0,0,0,0,0,0,0,0,0,0,0,0,0,0,0,0,0,0,0,0,0,0,0,0,0,0,0],"id":7,"left_children":[1,3,5,7,9,11,13,15,17,19,21,23,25,27,29,31,33,35,37,39,-1,41,43,45,47,49,51,53,55,57,59,61,63,65,-1,67,69,71,73,75,77,79,81,-1,83,85,87,89,91,93,95,97,-1,99,101,-1,-1,103,105,107,109,111,113,-1,115,-1,-1,117,-1,-1,-1,-1,-1,-1,-1,119,121,123,125,-1,-1,127,129,-1,-1,131,133,-1,135,-1,-1,137,139,141,143,145,147,149,-1,-1,-1,151,-1,153,155,157,159,161,-1,163,165,-1,-1,-1,-1,-1,-1,-1,-1,-1,-1,-1,-1,-1,-1,-1,-1,-1,-1,-1,-1,-1,-1,-1,-1,-1,-1,-1,-1,-1,-1,-1,-1,-1,-1,-1,-1,-1,-1,-1,-1,-1,-1,-1,-1,-1,-1,-1,-1,-1,-1,-1,-1,-1,-1,-1,-1],"loss_changes":[1.7172935E2,5.720086E1,8.58387E1,1.4049072E1,2.5542204E1,2.7370743E1,1.9988052E1,6.770523E0,2.8371315E0,2.1037653E1,3.7185917E0,9.905622E0,1.5513113E1,7.3928776E0,1.4497055E1,7.889473E0,1.8310127E0,6.3767433E-1,4.5230252E-1,9.293596E0,0E0,1.0132722E0,6.170206E-1,4.139881E0,1.4240067E1,1.2600311E1,3.4649963E0,2.0228882E0,1.23324394E-1,5.956541E0,1.0871246E1,2.9877014E0,1.9291571E0,7.779274E-1,0E0,7.678299E-1,7.647389E-2,2.4831042E-1,9.172189E-2,5.9132605E0,2.2036076E0,3.3903146E-1,1.898479E-1,0E0,2.614622E-1,3.6727943E0,8.1111825E-1,6.55694E-1,5.200847E0,3.7211838E0,4.849121E0,7.313595E-1,0E0,4.184472E-1,5.287409E-1,0E0,0E0,1.4809055E0,2.1661339E0,3.6733704E0,5.6204376E0,1.1592655E0,8.3823395E-1,0E0,2.9248452E-1,0E0,0E0,5.210371E-1,0E0,0E0,0E0,0E0,0E0,0E0,0E0,3.4102612E0,4.4068336E-1,9.0384626E-1,1.4567356E0,0E0,0E0,3.1831875E-2,1.5509593E-1,0E0,0E0,8.5556644E-1,8.512535E-1,0E0,2.517622E-1,0E0,0E0,3.4335914E0,4.508288E-1,2.7278223E0,2.0104537E0,4.0327606E0,1.290845E0,1.6710043E-1,0E0,0E0,0E0,5.072088E-1,0E0,2.4627328E-1,2.5502968E-1,1.7344818E0,5.449396E-1,2.0265427E0,0E0,2.4941254E0,7.8263474E-1,0E0,0E0,0E0,0E0,0E0,0E0,0E0,0E0,0E0,0E0,0E0,0E0,0E0,0E0,0E0,0E0,0E0,0E0,0E0,0E0,0E0,0E0,0E0,0E0,0E0,0E0,0E0,0E0,0E0,0E0,0E0,0E0,0E0,0E0,0E0,0E0,0E0,0E0,0E0,0E0,0E0,0E0,0E0,0E0,0E0,0E0,0E0,0E0,0E0,0E0,0E0,0E0,0E0,0E0,0E0,0E0],"parents":[2147483647,0,0,1,1,2,2,3,3,4,4,5,5,6,6,7,7,8,8,9,9,10,10,11,11,12,12,13,13,14,14,15,15,16,16,17,17,18,18,19,19,21,21,22,22,23,23,24,24,25,25,26,26,27,27,28,28,29,29,30,30,31,31,32,32,33,33,35,35,36,36,37,37,38,38,39,39,40,40,41,41,42,42,44,44,45,45,46,46,47,47,48,48,49,49,50,50,51,51,53,53,54,54,57,57,58,58,59,59,60,60,61,61,62,62,64,64,67,67,75,75,76,76,77,77,78,78,81,81,82,82,85,85,86,86,88,88,91,91,92,92,93,93,94,94,95,95,96,96,97,97,101,101,103,103,104,104,105,105,106,106,107,107,109,109,110,110],"right_children":[2,4,6,8,10,12,14,16,18,20,22,24,26,28,30,32,34,36,38,40,-1,42,44,46,48,50,52,54,56,58,60,62,64,66,-1,68,70,72,74,76,78,80,82,-1,84,86,88,90,92,94,96,98,-1,100,102,-1,-1,104,106,108,110,112,114,-1,116,-1,-1,118,-1,-1,-1,-1,-1,-1,-1,120,122,124,126,-1,-1,128,130,-1,-1,132,134,-1,136,-1,-1,138,140,142,144,146,148,150,-1,-1,-1,152,-1,154,156,158,160,162,-1,164,166,-1,-1,-1,-1,-1,-1,-1,-1,-1,-1,-1,-1,-1,-1,-1,-1,-1,-1,-1,-1,-1,-1,-1,-1,-1,-1,-1,-1,-1,-1,-1,-1,-1,-1,-1,-1,-1,-1,-1,-1,-1,-1,-1,-1,-1,-1,-1,-1,-1,-1,-1,-1,-1,-1,-1,-1],"split_conditions":[1.0119178E10,6.526919E0,8.847733E4,1E0,1.5823852E0,2.2079942E5,2.2046472E-1,6.59059E7,2.1039949E8,1.5005797E4,1.2060912E3,1.029E3,4.828443E-1,5.7759056E7,1.1364985E3,3.796E3,9.680723E8,2.003E3,3.0200147E8,7.40578E7,7.2551034E-2,5.542059E0,2.7391272E5,1.378926E6,8E0,1.042E3,3.1488398E3,1.2E1,1.6151537E3,8E0,2E0,1.3454538E8,1E0,1E0,-3.2113705E-2,2.00429E5,2.2587704E7,5.9957256E0,3.0694887E-1,2.2788274E3,1.3769011E10,9.536408E7,1.3384E4,1.4255667E-2,2.0928004E0,1.962298E0,1.5517242E0,7.537E3,1.29186E9,1.6826808E6,1.05039425E1,4.352552E9,9.813867E-3,2.0158867E8,1.6912528E6,-2.5704067E-2,-1.3177879E-2,2.0064912E7,2.6104508E10,5.2506565E1,4.147809E0,2.3194444E0,2.0318625E-2,1.0681082E-2,1.653489E7,-7.5660005E-2,-4.372829E-2,7.07812E7,-3.8296033E-2,-1.5480918E-2,-6.0622515E-3,-4.962559E-3,6.379378E-3,-1.5451291E-2,-6.089266E-3,1.9805251E-1,1.2647728E2,6.1248717E0,2.7938022E3,2.0165453E-2,4.8996187E-3,4.857E2,5.411285E10,4.0349867E-2,2.4553735E-2,1.4E2,9.07021E5,7.978142E-3,1.9548979E2,2.5695581E-2,5.8241438E-2,1E0,9.502881E-2,4.155419E6,1.18664E5,5.674375E2,4.7563504E7,7.525637E-1,-3.6553938E-2,-1.6169446E-2,9.328144E-4,9.29E2,1.5663878E-3,2.1639645E0,2.557E4,2.7745795E2,2.539E3,1.6063418E7,1.3936351E-2,1.0112028E1,7.4333336E1,-3.1530768E-2,-1.0816179E-2,-1.7997473E-2,-4.2819943E-2,-7.5856606E-3,-2.4108864E-2,-2.7338156E-2,-1.5792359E-2,-1.9317431E-2,-7.22753E-3,5.9912135E-3,2.1412553E-2,-3.4005728E-2,-1.1303656E-2,-5.8077235E-2,-2.1804344E-2,2.5530169E-3,8.024141E-3,-5.9752185E-3,3.4750665E-3,1.8421218E-2,-6.502092E-3,-2.0338753E-2,-3.3441093E-2,-8.748661E-3,8.624812E-4,-5.585345E-3,-3.3336695E-2,1.8898616E-2,3.651832E-3,-3.914645E-3,9.918728E-3,-6.0100164E-3,1.3164366E-2,1.6073778E-2,3.1353988E-2,-1.3888497E-2,7.091217E-3,-1.1172112E-2,-2.3240933E-2,9.67225E-3,2.2493927E-2,2.2255247E-2,8.027398E-3,3.7821792E-2,1.89934E-2,3.265627E-3,1.6260805E-2,-1.43769635E-2,3.4586892E-3,5.980115E-2,3.9449535E-2,2.7065082E-2,1.4506533E-2,3.1869147E-2,5.011633E-2],"split_indices":[20,56,33,102,41,28,42,45,7,4,52,2,27,45,52,2,7,10,7,45,0,54,28,9,18,2,4,18,4,3,17,7,75,104,0,1,12,54,38,52,5,32,10,0,39,54,53,1,7,28,54,5,0,7,48,0,0,12,19,56,35,54,27,0,45,0,0,7,0,0,0,0,0,0,0,39,56,54,52,0,0,52,31,0,0,12,9,0,52,0,0,6,38,9,7,52,7,27,0,0,0,10,0,56,29,55,2,50,0,53,56,0,0,0,0,0,0,0,0,0,0,0,0,0,0,0,0,0,0,0,0,0,0,0,0,0,0,0,0,0,0,0,0,0,0,0,0,0,0,0,0,0,0,0,0,0,0,0,0,0,0,0,0,0,0,0,0],"split_type":[0,0,0,0,0,0,0,0,0,0,0,0,0,0,0,0,0,0,0,0,0,0,0,0,0,0,0,0,0,0,0,0,0,0,0,0,0,0,0,0,0,0,0,0,0,0,0,0,0,0,0,0,0,0,0,0,0,0,0,0,0,0,0,0,0,0,0,0,0,0,0,0,0,0,0,0,0,0,0,0,0,0,0,0,0,0,0,0,0,0,0,0,0,0,0,0,0,0,0,0,0,0,0,0,0,0,0,0,0,0,0,0,0,0,0,0,0,0,0,0,0,0,0,0,0,0,0,0,0,0,0,0,0,0,0,0,0,0,0,0,0,0,0,0,0,0,0,0,0,0,0,0,0,0,0,0,0,0,0,0,0,0,0,0,0,0,0],"sum_hessian":[2.19E3,6.54E2,1.536E3,3.21E2,3.33E2,9.64E2,5.72E2,2.25E2,9.6E1,2.59E2,7.4E1,4.55E2,5.09E2,6.9E1,5.03E2,1.94E2,3.1E1,6.8E1,2.8E1,2.54E2,5E0,4.3E1,3.1E1,1.9E2,2.65E2,4.72E2,3.7E1,4.8E1,2.1E1,2.19E2,2.84E2,1.75E2,1.9E1,2.4E1,7E0,5.6E1,1.2E1,1.5E1,1.3E1,2.2E2,3.4E1,1.8E1,2.5E1,7E0,2.4E1,1.45E2,4.5E1,1.1E1,2.54E2,2.69E2,2.03E2,3.1E1,6E0,1.1E1,3.7E1,1.5E1,6E0,4.9E1,1.7E2,7.3E1,2.11E2,2.7E1,1.48E2,7E0,1.2E1,1.6E1,8E0,4.6E1,1E1,7E0,5E0,9E0,6E0,7E0,6E0,2.03E2,1.7E1,1.7E1,1.7E1,1.3E1,5E0,1.2E1,1.3E1,1.1E1,1.3E1,1E1,1.35E2,9E0,3.6E1,5E0,6E0,2.3E2,2.4E1,1.75E2,9.4E1,1.68E2,3.5E1,1.9E1,1.2E1,5E0,6E0,3.1E1,6E0,1.3E1,3.6E1,1.57E2,1.3E1,6.6E1,7E0,1.71E2,4E1,1.6E1,1.1E1,5E0,1.43E2,5E0,7E0,2.4E1,2.2E1,1.08E2,9.5E1,9E0,8E0,8E0,9E0,1.2E1,5E0,5E0,7E0,7E0,6E0,5E0,5E0,1.21E2,1.4E1,2.9E1,7E0,2.21E2,9E0,1.8E1,6E0,1.37E2,3.8E1,1.3E1,8.1E1,1.09E2,5.9E1,7E0,2.8E1,7E0,1.2E1,1.5E1,1.6E1,6E0,7E0,3.1E1,5E0,2.7E1,1.3E2,6E0,7E0,3.7E1,2.9E1,1.18E2,5.3E1,1.8E1,2.2E1],"tree_param":{"num_deleted":"0","num_feature":"108","num_nodes":"167","size_leaf_vector":"1"}},{"base_weights":[-3.5043212E-3,-4.0704057E-1,1.7082982E-1,-6.7625695E-1,-1.2244231E-1,-1.4610457E-2,4.70971E-1,-8.368341E-1,-3.6570162E-1,8.030182E-2,-1.5706608E-1,-7.016553E-2,4.4849175E-1,3.3745098E-1,7.4603105E-1,-7.4181914E-1,-1.0785655E0,-4.6576723E-1,-2.3848003E-1,-2.7178204E-1,3.1339538E-1,-4.834127E-1,-2.600892E-2,2.7798986E-1,6.8544704E-1,-6.45881E-2,4.3595767E-1,5.325917E-1,9.0513176E-1,-7.7860993E-1,-1.5931045E-1,-1.2534076E0,-6.858467E-1,-5.036806E-1,-2.5634304E-1,-2.8535786E-1,1.2753541E-3,-5.598822E-1,-1.6094305E-1,8.947085E-2,5.4165715E-1,-5.460598E-1,1.852501E-2,-3.5383422E-2,5.4126427E-2,2.356849E-1,2.4421273E-2,9.23625E-3,7.6080036E-1,-4.1377178E-1,6.897447E-2,3.448427E-1,7.735119E-1,5.646329E-1,1.0137352E-3,9.747925E-1,3.6778188E-1,-8.191583E-1,-4.0365162E-1,-3.598545E-4,-1.3128618E-2,-3.506424E-2,-1.3883198E0,-4.6908405E-1,-4.8600573E-2,-2.6703525E-1,-5.5800766E-1,-4.836051E-3,-1.6149476E-2,-3.3065343E-1,-4.120789E-3,-4.4208914E-1,-5.0901886E-2,-1.1475747E-1,-5.408547E-1,-6.458122E-3,1.8128878E-1,9.069427E-3,6.3417965E-1,-4.5528218E-1,-8.3967E-1,-8.500354E-2,2.050329E-1,4.432098E-3,2.5445172E-1,5.625954E-1,4.1159403E-2,-4.0780427E-3,-5.0430363E-1,-2.579183E-1,1.7884758E-1,1.7360154E-1,4.449878E-1,1.177269E-2,8.7082666E-1,4.3502957E-1,7.730859E-1,6.466132E-2,8.839923E-1,1.7493569E-3,2.5254985E-2,-3.8527466E-2,-1.6081713E-2,-2.207205E-2,-8.673838E-3,-6.937466E-2,-4.35533E-2,-1.1883582E-2,-2.5365034E-2,-6.504442E-3,-1.5565927E-2,-2.76116E-2,-9.812739E-3,-9.192926E-3,-1.748805E-2,-2.6451282E-2,-1.0262851E-2,-8.87391E-3,1.45617565E-2,-9.502078E-3,-3.2580264E-2,1.1900726E-2,-1.7195533E-4,3.2510526E-2,1.42019E-2,-2.360093E-2,-3.5266518E-3,-2.356639E-2,-4.706953E-2,-4.6941376E-4,-1.1104359E-2,6.386938E-3,1.6078478E-2,1.6440012E-2,1.0039637E-2,3.0748146E-2,1.4780727E-2,-1.3147555E-2,-2.907493E-2,-1.8258998E-2,-6.9115525E-3,4.762364E-3,2.1330917E-2,-1.3172507E-2,9.340921E-3,2.6137505E-2,1.0371122E-2,4.4901233E-2,1.4178945E-2,2.5752349E-2,1.1457139E-2,2.428864E-2,4.043222E-2,4.244701E-2,1.3474605E-2],"categories":[],"categories_nodes":[],"categories_segments":[],"categories_sizes":[],"default_left":[0,0,0,0,0,0,0,0,0,0,0,0,0,0,0,0,0,0,0,0,0,0,0,0,0,0,0,0,0,0,0,0,0,0,0,0,0,0,0,0,0,0,0,0,0,0,0,0,0,0,0,0,0,0,0,0,0,0,0,0,0,0,0,0,0,0,0,0,0,0,0,0,0,0,0,0,0,0,0,0,0,0,0,0,0,0,0,0,0,0,0,0,0,0,0,0,0,0,0,0,0,0,0,0,0,0,0,0,0,0,0,0,0,0,0,0,0,0,0,0,0,0,0,0,0,0,0,0,0,0,0,0,0,0,0,0,0,0,0,0,0,0,0,0,0,0,0,0,0,0,0,0,0,0,0],"id":8,"left_children":[1,3,5,7,9,11,13,15,17,-1,19,21,23,25,27,29,31,33,35,37,39,41,43,45,47,49,51,53,55,57,59,61,63,65,67,69,-1,71,73,75,77,79,-1,81,-1,83,-1,-1,85,87,89,91,93,95,-1,97,99,101,103,-1,-1,-1,105,107,-1,109,111,-1,-1,113,-1,115,-1,117,119,-1,121,-1,123,125,127,129,131,-1,133,135,-1,-1,137,139,141,143,145,-1,147,149,151,-1,153,-1,-1,-1,-1,-1,-1,-1,-1,-1,-1,-1,-1,-1,-1,-1,-1,-1,-1,-1,-1,-1,-1,-1,-1,-1,-1,-1,-1,-1,-1,-1,-1,-1,-1,-1,-1,-1,-1,-1,-1,-1,-1,-1,-1,-1,-1,-1,-1,-1,-1,-1,-1,-1,-1,-1,-1],"loss_changes":[1.5483984E2,5.07919E1,8.5553635E1,1.669899E1,2.1152649E1,2.449849E1,2.1306412E1,4.344757E0,1.3911257E0,0E0,1.7301428E1,1.5497885E1,3.9303894E0,1.5750767E1,6.0039825E0,3.3906326E0,3.3288422E0,3.8698292E-1,6.8147564E-1,8.116604E0,3.171682E0,4.762966E0,8.677999E0,5.2261066E-1,1.384222E0,3.7129314E0,9.544502E0,1.3619785E0,3.6841736E0,2.0107574E0,2.0606723E-1,1.6792679E0,1.1747293E0,5.4522896E-1,1.332261E-1,3.7915063E-1,0E0,4.0482273E0,3.2191167E0,7.2015905E-1,8.6577415E-1,1.6700115E0,0E0,9.131556E0,0E0,1.1716962E-1,0E0,0E0,4.2929268E-1,6.0370517E-1,2.1292982E0,4.2614384E0,3.1593018E0,1.7979641E0,0E0,2.4312363E0,8.063469E-1,6.899338E-1,1.8278337E-1,0E0,0E0,0E0,1.5500641E-1,1.13271E-1,0E0,5.855745E-2,4.6538925E-1,0E0,0E0,1.5843344E-1,0E0,1.5964651E0,0E0,5.652211E0,9.581027E-1,0E0,3.4019995E-1,0E0,3.3057976E-1,1.2496872E0,4.852295E-1,7.3729687E0,1.2030315E0,0E0,9.946132E-2,2.124381E-1,0E0,0E0,2.8843737E-1,1.6403425E-1,8.9544225E-1,1.3069308E0,4.1126366E0,0E0,2.903984E0,1.0304832E0,2.7353668E-1,0E0,1.4166832E0,0E0,0E0,0E0,0E0,0E0,0E0,0E0,0E0,0E0,0E0,0E0,0E0,0E0,0E0,0E0,0E0,0E0,0E0,0E0,0E0,0E0,0E0,0E0,0E0,0E0,0E0,0E0,0E0,0E0,0E0,0E0,0E0,0E0,0E0,0E0,0E0,0E0,0E0,0E0,0E0,0E0,0E0,0E0,0E0,0E0,0E0,0E0,0E0,0E0,0E0,0E0,0E0,0E0,0E0,0E0,0E0],"parents":[2147483647,0,0,1,1,2,2,3,3,4,4,5,5,6,6,7,7,8,8,10,10,11,11,12,12,13,13,14,14,15,15,16,16,17,17,18,18,19,19,20,20,21,21,22,22,23,23,24,24,25,25,26,26,27,27,28,28,29,29,30,30,31,31,32,32,33,33,34,34,35,35,37,37,38,38,39,39,40,40,41,41,43,43,45,45,48,48,49,49,50,50,51,51,52,52,53,53,55,55,56,56,57,57,58,58,62,62,63,63,65,65,66,66,69,69,71,71,73,73,74,74,76,76,78,78,79,79,80,80,81,81,82,82,84,84,85,85,88,88,89,89,90,90,91,91,92,92,94,94,95,95,96,96,98,98],"right_children":[2,4,6,8,10,12,14,16,18,-1,20,22,24,26,28,30,32,34,36,38,40,42,44,46,48,50,52,54,56,58,60,62,64,66,68,70,-1,72,74,76,78,80,-1,82,-1,84,-1,-1,86,88,90,92,94,96,-1,98,100,102,104,-1,-1,-1,106,108,-1,110,112,-1,-1,114,-1,116,-1,118,120,-1,122,-1,124,126,128,130,132,-1,134,136,-1,-1,138,140,142,144,146,-1,148,150,152,-1,154,-1,-1,-1,-1,-1,-1,-1,-1,-1,-1,-1,-1,-1,-1,-1,-1,-1,-1,-1,-1,-1,-1,-1,-1,-1,-1,-1,-1,-1,-1,-1,-1,-1,-1,-1,-1,-1,-1,-1,-1,-1,-1,-1,-1,-1,-1,-1,-1,-1,-1,-1,-1,-1,-1,-1,-1],"split_conditions":[1.0119178E10,7.7943926E0,8.847733E4,1E0,2.1E1,2.3314082E6,1.3821E4,3.0155066E7,1.508999E8,8.030182E-2,1.5245426E0,7.9E1,1.09E3,1.5490769E-1,2.1152368E-1,3.654E3,7.3940814E2,1.793E3,2.437E3,1E0,3.164136E6,1.5487725E3,6.082581E3,7.82261E6,3.7788504E7,5.24E2,2.9965258E6,3.19E2,4.19E2,1.9E1,3.658627E10,6.956321E-1,9E0,1.03452736E9,7.946341E4,3.257032E6,1.2753541E-3,2.6844707E8,9.19517E7,7.7760535E2,1.9161586E0,1.5211386E8,1.852501E-2,9.749826E6,5.4126427E-2,1.18664E5,2.4421273E-2,9.23625E-3,3.820085E6,1E0,3.290375E-2,5.8586346E2,2.464E3,6.4683E4,1.0137352E-3,4.0460785E1,6.2193125E-2,3.069055E6,3.9627235E0,-3.598545E-4,-1.3128618E-2,-3.506424E-2,2.1671045E0,1.7017946E0,-4.8600573E-2,4.8E1,2.8866198E1,-4.836051E-3,-1.6149476E-2,2.4722E4,-4.120789E-3,1.0037181E1,-5.0901886E-2,1.767635E3,1.3769011E10,-6.458122E-3,2.29849E5,9.069427E-3,4.742497E-1,5.7711864E0,1.8E1,5.8658333E0,4.0449125E5,4.432098E-3,1.901875E2,1.8887112E0,4.1159403E-2,-4.0780427E-3,1.0195397E8,2.3338731E8,1.107296E9,4.99E2,2.2E1,1.177269E-2,1E0,2.246883E7,5.3149715E6,6.466132E-2,4.5481584E7,1.7493569E-3,2.5254985E-2,-3.8527466E-2,-1.6081713E-2,-2.207205E-2,-8.673838E-3,-6.937466E-2,-4.35533E-2,-1.1883582E-2,-2.5365034E-2,-6.504442E-3,-1.5565927E-2,-2.76116E-2,-9.812739E-3,-9.192926E-3,-1.748805E-2,-2.6451282E-2,-1.0262851E-2,-8.87391E-3,1.45617565E-2,-9.502078E-3,-3.2580264E-2,1.1900726E-2,-1.7195533E-4,3.2510526E-2,1.42019E-2,-2.360093E-2,-3.5266518E-3,-2.356639E-2,-4.706953E-2,-4.6941376E-4,-1.1104359E-2,6.386938E-3,1.6078478E-2,1.6440012E-2,1.0039637E-2,3.0748146E-2,1.4780727E-2,-1.3147555E-2,-2.907493E-2,-1.8258998E-2,-6.9115525E-3,4.762364E-3,2.1330917E-2,-1.3172507E-2,9.340921E-3,2.6137505E-2,1.0371122E-2,4.4901233E-2,1.4178945E-2,2.5752349E-2,1.1457139E-2,2.428864E-2,4.043222E-2,4.244701E-2,1.3474605E-2],"split_indices":[20,56,33,102,0,28,2,45,7,0,42,29,2,38,38,2,52,10,2,16,1,55,52,28,7,29,28,3,8,3,31,27,3,31,33,9,0,7,45,4,42,31,0,9,0,7,0,0,28,67,38,52,2,2,0,58,57,9,54,0,0,0,54,53,0,10,58,0,0,29,0,58,0,52,5,0,29,0,38,54,3,53,28,0,4,53,0,0,31,7,7,2,3,0,6,45,32,0,47,0,0,0,0,0,0,0,0,0,0,0,0,0,0,0,0,0,0,0,0,0,0,0,0,0,0,0,0,0,0,0,0,0,0,0,0,0,0,0,0,0,0,0,0,0,0,0,0,0,0,0,0,0,0,0,0],"split_type":[0,0,0,0,0,0,0,0,0,0,0,0,0,0,0,0,0,0,0,0,0,0,0,0,0,0,0,0,0,0,0,0,0,0,0,0,0,0,0,0,0,0,0,0,0,0,0,0,0,0,0,0,0,0,0,0,0,0,0,0,0,0,0,0,0,0,0,0,0,0,0,0,0,0,0,0,0,0,0,0,0,0,0,0,0,0,0,0,0,0,0,0,0,0,0,0,0,0,0,0,0,0,0,0,0,0,0,0,0,0,0,0,0,0,0,0,0,0,0,0,0,0,0,0,0,0,0,0,0,0,0,0,0,0,0,0,0,0,0,0,0,0,0,0,0,0,0,0,0,0,0,0,0,0,0],"sum_hessian":[2.199E3,6.63E2,1.536E3,3.4E2,3.23E2,9.5E2,5.86E2,2.23E2,1.17E2,5E0,3.18E2,8.49E2,1.01E2,3.96E2,1.9E2,1.63E2,6E1,6.4E1,5.3E1,2.56E2,6.2E1,8.1E1,7.68E2,6E1,4.1E1,7.8E1,3.18E2,8.3E1,1.07E2,1.53E2,1E1,4E1,2E1,5.3E1,1.1E1,4.5E1,8E0,7E1,1.86E2,3.2E1,3E1,7.6E1,5E0,7.63E2,5E0,5.3E1,7E0,6E0,3.5E1,2.1E1,5.7E1,2.52E2,6.6E1,7.8E1,5E0,9.4E1,1.3E1,1.37E2,1.6E1,5E0,5E0,1E1,3E1,1.4E1,6E0,1.1E1,4.2E1,5E0,6E0,3.6E1,9E0,5.9E1,1.1E1,1.67E2,1.9E1,9E0,2.3E1,7E0,2.3E1,6E1,1.6E1,6.33E2,1.3E2,7E0,4.6E1,1.6E1,1.9E1,5E0,1.6E1,1.4E1,4.3E1,9.4E1,1.58E2,1.1E1,5.5E1,5E1,2.8E1,1.4E1,8E1,5E0,8E0,1.32E2,5E0,1.1E1,5E0,2.2E1,8E0,5E0,9E0,5E0,6E0,3.7E1,5E0,1.1E1,2.5E1,3.6E1,2.3E1,1.42E2,2.5E1,7E0,1.2E1,1.6E1,7E0,1.8E1,5E0,5.2E1,8E0,7E0,9E0,4.28E2,2.05E2,9E1,4E1,1E1,3.6E1,1E1,6E0,7E0,9E0,5E0,9E0,3.5E1,8E0,5E0,8.9E1,1.01E2,5.7E1,4.6E1,9E0,2.9E1,2.1E1,1E1,1.8E1,7.5E1,5E0],"tree_param":{"num_deleted":"0","num_feature":"108","num_nodes":"155","size_leaf_vector":"1"}},{"base_weights":[9.214176E-3,-3.923436E-1,1.7078479E-1,-6.7047936E-1,-1.3144997E-1,-1.3719386E-2,4.1662222E-1,-7.98905E-1,-3.8294291E-1,-2.1048899E-1,6.01989E-1,-2.2509046E-1,1.3188194E-1,3.4959868E-1,9.258081E-1,-8.589341E-1,-2.06692E-1,-5.124752E-1,-2.2704385E-1,-9.344713E-2,-5.2696043E-1,7.796421E-2,3.2817662E-1,-3.262852E-1,-4.6058625E-2,-4.387432E-1,1.7965694E-1,2.3648466E-1,5.9122336E-1,9.706415E-1,1.6238675E-2,-8.0129623E-1,-1.5554556E0,4.519455E-3,-4.6476802E-1,-5.5921704E-1,-3.5329207E-3,-3.255729E-1,-1.3137077E-1,-2.6162106E-1,1.0898465E-1,-7.922631E-1,-3.3094645E-1,-9.441276E-3,4.9818158E-1,2.8257945E-1,-3.6174762E-1,5.8044415E-2,-1.19833425E-1,-4.932426E-1,-5.142619E-3,1.0817496E-2,3.2405153E-1,2.8691852E-1,-3.8500997E-1,6.950464E-1,1.4797236E-1,2.6670283E-2,1.043277E0,-4.6493036E-1,-8.4753036E-1,-4.3330204E-2,-8.423385E-2,-2.6406927E-2,-1.2943981E-2,-4.9352044E-1,-3.4165923E-2,-7.301774E-3,-3.680243E-1,-4.6559457E-2,-1.2356103E-2,-1.6038159E-1,-4.7933045E-1,-6.580197E-3,2.7805585E-1,-4.574743E-1,-9.236455E-1,-5.5867344E-1,-2.1385735E-1,2.8541245E-2,1.4619137E-2,-1.153859E-2,2.9860541E-2,-4.128512E-1,-1.4263655E-1,-2.7402827E-1,4.8122145E-3,-8.162833E-3,-5.547495E-1,5.8345005E-2,-3.6223087E-1,2.9797012E-1,6.285969E-2,1.5103987E-1,4.5438138E-1,-2.6042039E-2,-1.685324E-1,5.868949E-1,1.084299E0,-3.6429547E-2,3.245133E-1,1.102214E0,3.2171264E-2,-5.6840777E-3,-2.5541276E-2,-4.1468024E-2,-2.8870746E-2,-2.6398117E-2,-1.5983535E-2,-2.2735218E-2,-1.1279375E-2,-8.648861E-3,1.5899531E-3,-1.2710577E-2,-1.7852911E-3,-2.6958417E-2,-1.1532133E-2,4.2379987E-3,-6.9148145E-3,6.0785296E-3,2.4483506E-2,-2.5943086E-2,-1.2790277E-2,-2.5488256E-2,-4.6206314E-2,-1.436606E-2,-4.0558856E-2,-2.5504502E-3,-1.7043065E-2,-1.7088076E-2,-3.06371E-2,-2.613812E-3,-1.4347595E-2,-1.4297653E-2,3.1402041E-3,-3.2391187E-3,4.325658E-3,-1.2910149E-2,-2.9241443E-2,3.3245782E-5,1.2451715E-2,-9.624116E-3,-2.8289763E-2,1.0076295E-2,2.3936644E-2,2.846523E-3,1.2025799E-2,1.5837654E-2,2.711286E-2,-2.8054375E-4,-1.2753867E-2,2.9392166E-2,1.9069199E-2,5.4641683E-2,2.194327E-2,2.0919563E-2,-8.342513E-3,3.605696E-2,5.4437645E-2],"categories":[],"categories_nodes":[],"categories_segments":[],"categories_sizes":[],"default_left":[0,0,0,0,0,0,0,0,0,0,0,0,0,0,0,0,0,0,0,0,0,0,0,0,0,0,0,0,0,0,0,0,0,0,0,0,0,0,0,0,0,0,0,0,0,0,0,0,0,0,0,0,0,0,0,0,0,0,0,0,0,0,0,0,0,0,0,0,0,0,0,0,0,0,0,0,0,0,0,0,0,0,0,0,0,0,0,0,0,0,0,0,0,0,0,0,0,0,0,0,0,0,0,0,0,0,0,0,0,0,0,0,0,0,0,0,0,0,0,0,0,0,0,0,0,0,0,0,0,0,0,0,0,0,0,0,0,0,0,0,0,0,0,0,0,0,0,0,0,0,0,0,0,0,0,0,0,0,0],"id":9,"left_children":[1,3,5,7,9,11,13,15,17,19,21,23,25,27,29,31,33,35,37,39,41,-1,43,45,47,49,51,53,55,57,-1,59,61,-1,63,65,-1,67,69,71,73,75,77,-1,79,81,83,-1,85,87,-1,89,91,93,95,97,99,-1,101,103,105,-1,-1,-1,-1,107,-1,-1,109,111,-1,113,115,117,119,121,123,125,127,-1,-1,-1,-1,129,131,133,135,-1,137,139,141,143,-1,145,147,-1,149,151,153,-1,155,157,-1,-1,-1,-1,-1,-1,-1,-1,-1,-1,-1,-1,-1,-1,-1,-1,-1,-1,-1,-1,-1,-1,-1,-1,-1,-1,-1,-1,-1,-1,-1,-1,-1,-1,-1,-1,-1,-1,-1,-1,-1,-1,-1,-1,-1,-1,-1,-1,-1,-1,-1,-1,-1,-1,-1,-1,-1],"loss_changes":[1.3793686E2,4.4175804E1,6.876848E1,1.0587555E1,1.8445324E1,2.6712397E1,2.1859177E1,7.0391235E0,1.7616844E0,1.0544315E1,8.66575E0,6.3984184E0,1.4091293E1,1.5602913E1,1.5894165E0,6.1404877E0,1.6174386E0,9.7613525E-1,3.7199855E-1,7.1777E0,3.7420368E0,0E0,2.4560544E0,4.9819717E0,1.2550325E1,6.587744E-1,1.1576757E1,1.2460144E1,8.318748E0,1.3678818E0,0E0,2.2808304E0,4.429474E-1,0E0,5.693674E-2,1.6876602E-1,0E0,9.1104984E-2,2.6473132E-1,2.4578147E0,1.8775433E0,9.8498726E-1,1.1070838E0,0E0,2.396574E-1,2.6809788E0,2.337347E0,0E0,2.3653433E0,5.638037E-1,0E0,3.9217474E0,6.5187473E0,8.236807E0,1.0667E0,5.5941696E0,6.209726E0,0E0,3.9677048E-1,6.2479115E-1,1.119461E0,0E0,0E0,0E0,0E0,2.1658802E-1,0E0,0E0,1.2589169E-1,1.8878691E-1,0E0,1.1077006E0,7.173042E-1,8.302708E-1,1.3699169E0,5.1492214E-2,7.648659E-2,9.13651E-1,7.673484E-1,0E0,0E0,0E0,0E0,1.6113338E0,5.896362E-1,6.900244E-1,4.6607125E-1,0E0,4.2729855E-1,2.3860564E0,8.351159E-1,4.299406E0,0E0,1.9686704E0,2.2092323E0,0E0,2.6060274E-1,7.5429535E-1,1.304882E0,0E0,2.0935361E0,2.3608017E-1,0E0,0E0,0E0,0E0,0E0,0E0,0E0,0E0,0E0,0E0,0E0,0E0,0E0,0E0,0E0,0E0,0E0,0E0,0E0,0E0,0E0,0E0,0E0,0E0,0E0,0E0,0E0,0E0,0E0,0E0,0E0,0E0,0E0,0E0,0E0,0E0,0E0,0E0,0E0,0E0,0E0,0E0,0E0,0E0,0E0,0E0,0E0,0E0,0E0,0E0,0E0,0E0,0E0,0E0,0E0,0E0,0E0],"parents":[2147483647,0,0,1,1,2,2,3,3,4,4,5,5,6,6,7,7,8,8,9,9,10,10,11,11,12,12,13,13,14,14,15,15,16,16,17,17,18,18,19,19,20,20,22,22,23,23,24,24,25,25,26,26,27,27,28,28,29,29,31,31,32,32,34,34,35,35,37,37,38,38,39,39,40,40,41,41,42,42,44,44,45,45,46,46,48,48,49,49,51,51,52,52,53,53,54,54,55,55,56,56,58,58,59,59,60,60,65,65,68,68,69,69,71,71,72,72,73,73,74,74,75,75,76,76,77,77,78,78,83,83,84,84,85,85,86,86,88,88,89,89,90,90,91,91,93,93,94,94,96,96,97,97,98,98,100,100,101,101],"right_children":[2,4,6,8,10,12,14,16,18,20,22,24,26,28,30,32,34,36,38,40,42,-1,44,46,48,50,52,54,56,58,-1,60,62,-1,64,66,-1,68,70,72,74,76,78,-1,80,82,84,-1,86,88,-1,90,92,94,96,98,100,-1,102,104,106,-1,-1,-1,-1,108,-1,-1,110,112,-1,114,116,118,120,122,124,126,128,-1,-1,-1,-1,130,132,134,136,-1,138,140,142,144,-1,146,148,-1,150,152,154,-1,156,158,-1,-1,-1,-1,-1,-1,-1,-1,-1,-1,-1,-1,-1,-1,-1,-1,-1,-1,-1,-1,-1,-1,-1,-1,-1,-1,-1,-1,-1,-1,-1,-1,-1,-1,-1,-1,-1,-1,-1,-1,-1,-1,-1,-1,-1,-1,-1,-1,-1,-1,-1,-1,-1,-1,-1,-1,-1],"split_conditions":[1.0119178E10,6.631579E0,1.6134042E8,1E0,4.462568E3,1.7959783E5,2.9965258E6,4.917E3,1.2674087E-1,3.383792E7,6.737403E7,3.135E3,1.2E1,1.3821E4,2.1E1,9.19517E7,4.0863316E7,4.4576E4,2.0761798E8,4.857E2,2.4571428E1,7.796421E-2,1E0,7E0,1.6E1,1.9710754E6,7.9E2,4.7374536E7,4.0863316E7,5.130175E2,1.6238675E-2,1.3454538E8,2.41E3,4.519455E-3,2.4104478E0,1E0,-3.5329207E-3,3.4051E4,5.57E2,1.6278354E7,1.5057492E0,1.6803426E8,1.9454805E3,-9.441276E-3,6.5970147E-1,5.79E2,1.378926E6,5.8044415E-2,1.051844E6,3.9553946E-1,-5.142619E-3,6.4153387E-6,7.197E3,4.0449125E5,5.991E3,6.7652373E3,3.8914214E3,2.6670283E-2,2.395631E7,1.335375E2,9.821357E-1,-4.3330204E-2,-8.423385E-2,-2.6406927E-2,-1.2943981E-2,1.074E3,-3.4165923E-2,-7.301774E-3,3.4E2,1.94E2,-1.2356103E-2,2.9257855E2,1.0188571E3,1.17303155E-1,2.160042E9,6.822511E5,1.1890752E-1,4.3927316E11,2.3061689E5,2.8541245E-2,1.4619137E-2,-1.153859E-2,2.9860541E-2,1E0,1.9E1,1.0385817E0,9.348053E2,-8.162833E-3,4.5E1,2.9965258E6,6.18826E5,2.2214102E6,6.285969E-2,9.777776E4,4.204E3,-2.6042039E-2,1.691E3,2.3885958E7,1.93E2,-3.6429547E-2,2.3580047E10,1.7322274E8,3.2171264E-2,-5.6840777E-3,-2.5541276E-2,-4.1468024E-2,-2.8870746E-2,-2.6398117E-2,-1.5983535E-2,-2.2735218E-2,-1.1279375E-2,-8.648861E-3,1.5899531E-3,-1.2710577E-2,-1.7852911E-3,-2.6958417E-2,-1.1532133E-2,4.2379987E-3,-6.9148145E-3,6.0785296E-3,2.4483506E-2,-2.5943086E-2,-1.2790277E-2,-2.5488256E-2,-4.6206314E-2,-1.436606E-2,-4.0558856E-2,-2.5504502E-3,-1.7043065E-2,-1.7088076E-2,-3.06371E-2,-2.613812E-3,-1.4347595E-2,-1.4297653E-2,3.1402041E-3,-3.2391187E-3,4.325658E-3,-1.2910149E-2,-2.9241443E-2,3.3245782E-5,1.2451715E-2,-9.624116E-3,-2.8289763E-2,1.0076295E-2,2.3936644E-2,2.846523E-3,1.2025799E-2,1.5837654E-2,2.711286E-2,-2.8054375E-4,-1.2753867E-2,2.9392166E-2,1.9069199E-2,5.4641683E-2,2.194327E-2,2.0919563E-2,-8.342513E-3,3.605696E-2,5.4437645E-2],"split_indices":[20,56,7,102,52,28,28,2,39,45,7,2,18,2,3,45,45,11,7,52,56,0,102,3,0,48,2,45,45,52,0,7,2,0,56,100,0,1,0,45,42,7,55,0,57,1,9,0,1,27,0,37,2,28,2,52,52,0,47,55,41,0,0,0,0,2,0,0,0,0,0,52,4,38,5,32,27,31,33,0,0,0,0,6,3,38,52,0,10,28,9,28,0,33,2,0,11,45,8,0,5,12,0,0,0,0,0,0,0,0,0,0,0,0,0,0,0,0,0,0,0,0,0,0,0,0,0,0,0,0,0,0,0,0,0,0,0,0,0,0,0,0,0,0,0,0,0,0,0,0,0,0,0,0,0,0,0,0,0],"split_type":[0,0,0,0,0,0,0,0,0,0,0,0,0,0,0,0,0,0,0,0,0,0,0,0,0,0,0,0,0,0,0,0,0,0,0,0,0,0,0,0,0,0,0,0,0,0,0,0,0,0,0,0,0,0,0,0,0,0,0,0,0,0,0,0,0,0,0,0,0,0,0,0,0,0,0,0,0,0,0,0,0,0,0,0,0,0,0,0,0,0,0,0,0,0,0,0,0,0,0,0,0,0,0,0,0,0,0,0,0,0,0,0,0,0,0,0,0,0,0,0,0,0,0,0,0,0,0,0,0,0,0,0,0,0,0,0,0,0,0,0,0,0,0,0,0,0,0,0,0,0,0,0,0,0,0,0,0,0,0],"sum_hessian":[2.124E3,6.09E2,1.515E3,2.94E2,3.15E2,8.66E2,6.49E2,2.02E2,9.2E1,2.85E2,3E1,3.53E2,5.13E2,5.75E2,7.4E1,1.83E2,1.9E1,4.9E1,4.3E1,2.09E2,7.6E1,5E0,2.5E1,2.25E2,1.28E2,3.9E1,4.74E2,3.93E2,1.82E2,6.8E1,6E0,1.71E2,1.2E1,9E0,1E1,4.4E1,5E0,2E1,2.3E1,1.14E2,9.5E1,3.1E1,4.5E1,6E0,1.9E1,1.2E1,2.13E2,6E0,1.22E2,3.3E1,6E0,2.19E2,2.55E2,3.64E2,2.9E1,1.47E2,3.5E1,1.2E1,5.6E1,2.2E1,1.49E2,5E0,7E0,5E0,5E0,3.5E1,9E0,5E0,1.5E1,1.5E1,8E0,7.9E1,3.5E1,5.7E1,3.8E1,1E1,2.1E1,1.4E1,3.1E1,1E1,9E0,5E0,7E0,1.72E2,4.1E1,5.4E1,6.8E1,6E0,2.7E1,1.95E2,2.4E1,2.5E2,5E0,2.02E2,1.62E2,1.5E1,1.4E1,1.17E2,3E1,5E0,3E1,4.6E1,1E1,5E0,1.7E1,1.19E2,3E1,2.1E1,1.4E1,6E0,9E0,5E0,1E1,4E1,3.9E1,2.3E1,1.2E1,3.4E1,2.3E1,2.5E1,1.3E1,5E0,5E0,5E0,1.6E1,9E0,5E0,1.6E1,1.5E1,1.49E2,2.3E1,2.8E1,1.3E1,4.9E1,5E0,3.7E1,3.1E1,7E0,2E1,1.54E2,4.1E1,1.6E1,8E0,1.85E2,6.5E1,1.12E2,9E1,9E1,7.2E1,6E0,8E0,8.9E1,2.8E1,2.5E1,5E0,2.4E1,6E0,1.1E1,3.5E1],"tree_param":{"num_deleted":"0","num_feature":"108","num_nodes":"159","size_leaf_vector":"1"}},{"base_weights":[8.623768E-3,-3.8417754E-1,1.6650143E-1,-6.4658314E-1,-1.3372907E-1,-4.828765E-3,4.4231647E-1,-7.791104E-1,-3.5710135E-1,-2.5951084E-1,2.7185625E-1,-2.9828343E-1,7.291397E-2,2.9468063E-1,6.5762126E-1,-7.150497E-1,-1.1796985E0,-4.5525485E-1,-1.927248E-1,-3.1405678E-1,4.8731154E-1,1.3962838E-1,6.9016665E-1,-4.21145E-1,-1.7368503E-1,2.1135472E-1,-4.7248047E-2,-3.6437586E-1,3.4602448E-1,3.5785487E-1,7.9703325E-1,-7.5370914E-1,-2.369708E-1,-6.1187375E-2,-3.427079E-2,-4.925398E-1,-1.7364795E-3,-8.515272E-2,-3.710517E-1,-8.081907E-1,-2.6002294E-1,6.0958873E-2,3.0379364E-2,2.9533023E-1,2.4423394E-2,3.782561E-2,1.711677E-2,-3.9612302E-1,-3.4504533E-2,9.6053235E-2,-2.1819526E-1,4.8302736E-2,1.7872763E-1,-1.399698E-1,3.8353404E-1,-4.6902594E-1,-6.152416E-4,3.1174555E-1,4.096849E-2,2.8841826E-1,3.4847762E-2,5.062293E-2,7.126715E-1,-4.4345045E-1,-7.952981E-1,-1.5763182E-2,-1.0877664E-3,-3.3610937E-1,-5.4809815E-1,-1.9519089E-1,5.032121E-2,-2.0298274E-2,-9.536778E-3,-2.1521134E-2,-4.3264274E-2,-2.3385899E-1,-3.7391443E-2,1.6819023E-2,-1.2011172E-2,4.695136E-3,3.9791292E-1,-6.787842E-2,2.3197994E-1,-4.5437545E-1,-2.3258457E-1,-9.078597E-4,8.099404E-3,-2.544364E-1,-1.1049558E-2,-4.4946262E-1,2.0515688E-1,-4.0772858E-1,-7.3754E-2,2.831421E-1,6.653301E-2,-2.8204998E-2,-1.5967341E-2,2.9209676E-1,5.812529E-2,-2.292476E-3,3.385803E-1,6.498154E-1,4.930789E-2,-2.8336538E-2,-8.217694E-3,-4.4725694E-2,-3.3804353E-2,-6.893349E-3,-1.9602424E-2,-2.2147331E-2,-3.6618065E-2,-3.3925525E-3,-1.280671E-2,-2.9513068E-3,8.091106E-3,-1.4552313E-2,-2.0731958E-3,1.0662724E-2,2.319153E-2,3.9265645E-3,-8.104135E-3,1.5531508E-2,4.1097333E-3,-1.7579513E-2,-2.3971932E-2,-6.631565E-3,-2.4020236E-2,-6.6448515E-3,-1.5697854E-2,2.0148973E-3,-2.6560528E-3,-1.2787793E-2,-2.6899958E-2,4.132883E-3,1.6032081E-2,-2.8397333E-2,-8.990061E-3,-1.13996975E-2,-5.3705217E-4,1.8321244E-2,-1.1387193E-3,1.4236848E-2,-1.26634E-2,1.1667235E-2,-1.1861334E-2,1.1942253E-2,2.5430419E-2,3.503736E-2,2.1330068E-2],"categories":[],"categories_nodes":[],"categories_segments":[],"categories_sizes":[],"default_left":[0,0,0,0,0,0,0,0,0,0,0,0,0,0,0,0,0,0,0,0,0,0,0,0,0,0,0,0,0,0,0,0,0,0,0,0,0,0,0,0,0,0,0,0,0,0,0,0,0,0,0,0,0,0,0,0,0,0,0,0,0,0,0,0,0,0,0,0,0,0,0,0,0,0,0,0,0,0,0,0,0,0,0,0,0,0,0,0,0,0,0,0,0,0,0,0,0,0,0,0,0,0,0,0,0,0,0,0,0,0,0,0,0,0,0,0,0,0,0,0,0,0,0,0,0,0,0,0,0,0,0,0,0,0,0,0,0,0,0,0,0,0,0,0,0,0,0,0,0],"id":10,"left_children":[1,3,5,7,9,11,13,15,17,19,21,23,25,27,29,31,33,35,37,39,41,43,45,47,49,51,53,55,57,59,61,63,65,-1,-1,67,-1,69,71,73,75,-1,77,79,81,-1,-1,83,-1,85,87,-1,89,91,93,95,-1,97,-1,99,-1,-1,101,103,105,-1,-1,107,109,111,113,-1,-1,-1,-1,115,-1,-1,-1,-1,117,119,121,123,125,-1,-1,127,129,131,133,135,137,139,-1,-1,-1,141,-1,143,145,147,-1,-1,-1,-1,-1,-1,-1,-1,-1,-1,-1,-1,-1,-1,-1,-1,-1,-1,-1,-1,-1,-1,-1,-1,-1,-1,-1,-1,-1,-1,-1,-1,-1,-1,-1,-1,-1,-1,-1,-1,-1,-1,-1,-1,-1,-1,-1],"loss_changes":[1.3432547E2,4.0725075E1,7.3011795E1,1.1346146E1,1.6344414E1,2.1786274E1,1.8623947E1,4.468483E0,1.477273E0,1.0092655E1,4.1073666E0,2.9885235E0,1.25696535E1,1.2071077E1,9.744621E0,3.166687E0,7.3256683E-1,9.158125E-1,6.973578E-1,5.8774414E0,6.427765E0,1.0511072E0,4.3770218E-1,5.197334E-1,1.2335758E0,9.370495E0,1.6230545E1,9.4893456E-1,5.8070374E0,1.9309835E0,3.3319626E0,1.802185E0,3.2602203E-1,0E0,0E0,2.9378605E-1,0E0,3.8250482E-1,6.6975355E-2,5.3172207E-1,2.7873821E0,0E0,1.2582096E0,4.5621395E-1,6.86271E-1,0E0,0E0,7.9933834E-1,0E0,1.4112988E-1,6.503148E-1,0E0,5.7204905E0,5.8917027E0,7.2331963E0,1.3823175E-1,0E0,5.3997765E0,0E0,9.9239635E-1,0E0,0E0,2.2070541E0,8.845744E-1,8.920212E-1,0E0,0E0,2.172668E-1,2.7409363E-1,1.1957395E-1,1.8236803E-1,0E0,0E0,0E0,0E0,3.0410662E0,0E0,0E0,0E0,0E0,1.6268778E-1,4.2623335E-1,1.3416904E-1,1.315031E-1,6.1617184E-1,0E0,0E0,6.503463E-1,3.807635E-2,1.6005349E-1,5.322978E0,2.793522E0,2.8896885E0,2.3519297E0,0E0,0E0,0E0,2.8786697E0,0E0,7.786736E-1,8.4151554E-1,1.9615402E0,0E0,0E0,0E0,0E0,0E0,0E0,0E0,0E0,0E0,0E0,0E0,0E0,0E0,0E0,0E0,0E0,0E0,0E0,0E0,0E0,0E0,0E0,0E0,0E0,0E0,0E0,0E0,0E0,0E0,0E0,0E0,0E0,0E0,0E0,0E0,0E0,0E0,0E0,0E0,0E0,0E0,0E0,0E0,0E0,0E0,0E0,0E0],"parents":[2147483647,0,0,1,1,2,2,3,3,4,4,5,5,6,6,7,7,8,8,9,9,10,10,11,11,12,12,13,13,14,14,15,15,16,16,17,17,18,18,19,19,20,20,21,21,22,22,23,23,24,24,25,25,26,26,27,27,28,28,29,29,30,30,31,31,32,32,35,35,37,37,38,38,39,39,40,40,42,42,43,43,44,44,47,47,49,49,50,50,52,52,53,53,54,54,55,55,57,57,59,59,62,62,63,63,64,64,67,67,68,68,69,69,70,70,75,75,80,80,81,81,82,82,83,83,84,84,87,87,88,88,89,89,90,90,91,91,92,92,93,93,97,97,99,99,100,100,101,101],"right_children":[2,4,6,8,10,12,14,16,18,20,22,24,26,28,30,32,34,36,38,40,42,44,46,48,50,52,54,56,58,60,62,64,66,-1,-1,68,-1,70,72,74,76,-1,78,80,82,-1,-1,84,-1,86,88,-1,90,92,94,96,-1,98,-1,100,-1,-1,102,104,106,-1,-1,108,110,112,114,-1,-1,-1,-1,116,-1,-1,-1,-1,118,120,122,124,126,-1,-1,128,130,132,134,136,138,140,-1,-1,-1,142,-1,144,146,148,-1,-1,-1,-1,-1,-1,-1,-1,-1,-1,-1,-1,-1,-1,-1,-1,-1,-1,-1,-1,-1,-1,-1,-1,-1,-1,-1,-1,-1,-1,-1,-1,-1,-1,-1,-1,-1,-1,-1,-1,-1,-1,-1,-1,-1,-1,-1],"split_conditions":[1.0119178E10,6.631579E0,1.0798428E6,1E0,1.4717165E0,4.68E2,1.5271363E0,6.8286584E7,1.7443357E8,4.462568E3,1.0346507E7,7.274005E4,2E1,2.911362E4,3.3948784E8,7.687313E2,9.127105E2,5.478521E7,5.57E2,1E0,6.737403E7,7.991156E-3,9.826212E9,9.424805E-7,1.2058823E0,2.74614E5,8.583E3,1.054949E0,6.2521395E6,3.1993368E6,1.6976744E0,1.3454538E8,1.0269E4,-6.1187375E-2,-3.427079E-2,4.398424E9,-1.7364795E-3,1.2577E5,6.461627E-2,1.6507992E9,1.2347183E8,6.0958873E-2,1.8454938E9,2.2350473E5,5.536626E8,3.782561E-2,1.711677E-2,3.9768696E1,-3.4504533E-2,8.216892E6,1.840826E2,4.8302736E-2,1.599041E4,1.2106E4,9.134542E3,7.519768E-2,-6.152416E-4,3.5400216E5,4.096849E-2,3.9122257E0,3.4847762E-2,5.062293E-2,2.602509E0,2.3194444E0,1.4761002E5,-1.5763182E-2,-1.0877664E-3,4.7058824E-1,3.5400216E5,1.1722791E5,1.0697302E-1,-2.0298274E-2,-9.536778E-3,-2.1521134E-2,-4.3264274E-2,6.977645E2,-3.7391443E-2,1.6819023E-2,-1.2011172E-2,4.695136E-3,3.854E3,1.0275E4,5.998024E-1,9.55188E5,2.46E2,-9.078597E-4,8.099404E-3,9.307693E0,1.6E1,1.5211386E8,9.61E2,7.427971E2,4.5454027E4,2.2971932E7,6.653301E-2,-2.8204998E-2,-1.5967341E-2,1.0429407E3,5.812529E-2,1.5E1,2.4482103E5,9.60094E5,4.930789E-2,-2.8336538E-2,-8.217694E-3,-4.4725694E-2,-3.3804353E-2,-6.893349E-3,-1.9602424E-2,-2.2147331E-2,-3.6618065E-2,-3.3925525E-3,-1.280671E-2,-2.9513068E-3,8.091106E-3,-1.4552313E-2,-2.0731958E-3,1.0662724E-2,2.319153E-2,3.9265645E-3,-8.104135E-3,1.5531508E-2,4.1097333E-3,-1.7579513E-2,-2.3971932E-2,-6.631565E-3,-2.4020236E-2,-6.6448515E-3,-1.5697854E-2,2.0148973E-3,-2.6560528E-3,-1.2787793E-2,-2.6899958E-2,4.132883E-3,1.6032081E-2,-2.8397333E-2,-8.990061E-3,-1.13996975E-2,-5.3705217E-4,1.8321244E-2,-1.1387193E-3,1.4236848E-2,-1.26634E-2,1.1667235E-2,-1.1861334E-2,1.1942253E-2,