{"learner":{"attributes":{},"feature_names":["numTasks_sum","duration_sum","duration_max","duration_min","duration_mean","input_recordsRead_sum","output_recordsWritten_sum","peakExecutionMemory_max","resultSerializationTime_sum","resultSize_max","sr_localBlocksFetched_sum","sr_remoteBlocksFetched_sum","sw_recordsWritten_sum","sqlOp_Exchange","sqlOp_Scan parquet","sqlOp_Sort","numExecutors","executorCores","maxMem","maxOnHeapMem","maxOffHeapMem","executorMemory","numGpusPerExecutor","executorOffHeap","taskCpu","taskGpu","cache_hit_ratio","scan_bw","scan_time","decode_time","data_size","shuffle_read_bw","shuffle_write_bw","diskBytesSpilledRatio","memoryBytesSpilledRatio","input_bytesReadRatio","output_bytesWrittenRatio","sr_localBytesReadRatio","sr_remoteBytesReadRatio","sr_remoteBytesReadToDiskRatio","sr_totalBytesReadRatio","sw_bytesWrittenRatio","diskBytesSpilled_mean","memoryBytesSpilled_mean","input_bytesRead_mean","output_bytesWritten_mean","sr_localBytesRead_mean","sr_remoteBytesRead_mean","sr_remoteBytesReadToDisk_mean","sr_totalBytesRead_mean","sw_bytesWritten_mean","executorCPUTime_mean","executorDeserializeCPUTime_mean","executorDeserializeTime_mean","executorRunTime_mean","jvmGCTime_mean","sr_fetchWaitTime_mean","sw_writeTime_mean","platform_databricks-aws","platform_databricks-azure","platform_dataproc","platform_emr","platform_onprem","sqlOp_AQEShuffleRead","sqlOp_BatchEvalPython","sqlOp_BroadcastExchange","sqlOp_BroadcastHashJoin","sqlOp_BroadcastNestedLoopJoin","sqlOp_CartesianProduct","sqlOp_ColumnarToRow","sqlOp_CommandResult","sqlOp_CustomShuffleReader","sqlOp_DeserializeToObject","sqlOp_Execute InsertIntoHadoopFsRelationCommand csv","sqlOp_Execute InsertIntoHadoopFsRelationCommand json","sqlOp_Execute InsertIntoHadoopFsRelationCommand orc","sqlOp_Execute InsertIntoHadoopFsRelationCommand parquet","sqlOp_Execute InsertIntoHadoopFsRelationCommand text","sqlOp_Execute InsertIntoHadoopFsRelationCommand unknown","sqlOp_Expand","sqlOp_Filter","sqlOp_Generate","sqlOp_GenerateBloomFilter","sqlOp_GlobalLimit","sqlOp_HashAggregate","sqlOp_HashAggregatePrefixGroupingSets","sqlOp_LocalLimit","sqlOp_LocalTableScan","sqlOp_MapElements","sqlOp_ObjectHashAggregate","sqlOp_OutputAdapter","sqlOp_PartialWindow","sqlOp_Project","sqlOp_ReusedSort","sqlOp_RunningWindowFunction","sqlOp_Scan ExistingRDD","sqlOp_Scan ExistingRDD Delta Table Checkpoint","sqlOp_Scan ExistingRDD Delta Table State","sqlOp_Scan OneRowRelation","sqlOp_Scan csv","sqlOp_Scan jdbc","sqlOp_Scan json","sqlOp_Scan orc","sqlOp_Scan text","sqlOp_Scan unknown","sqlOp_SerializeFromObject","sqlOp_SortAggregate","sqlOp_SortMergeJoin","sqlOp_Subquery","sqlOp_SubqueryBroadcast","sqlOp_SubqueryOutputBroadcast","sqlOp_TakeOrderedAndProject","sqlOp_Window","sqlOp_WindowGroupLimit","sqlOp_WindowSort"],"feature_types":["float","float","float","float","float","float","float","float","float","float","float","float","float","float","float","float","float","float","float","float","float","float","float","float","float","float","float","float","float","float","float","float","float","float","float","float","float","float","float","float","float","float","float","float","float","float","float","float","float","float","float","float","float","float","float","float","float","float","float","float","float","float","float","float","float","float","float","float","float","float","float","float","float","float","float","float","float","float","float","float","float","float","float","float","float","float","float","float","float","float","float","float","float","float","float","float","float","float","float","float","float","float","float","float","float","float","float","float","float","float","float","float","float","float","float"],"gradient_booster":{"model":{"gbtree_model_param":{"num_parallel_tree":"1","num_trees":"95"},"iteration_indptr":[0,1,2,3,4,5,6,7,8,9,10,11,12,13,14,15,16,17,18,19,20,21,22,23,24,25,26,27,28,29,30,31,32,33,34,35,36,37,38,39,40,41,42,43,44,45,46,47,48,49,50,51,52,53,54,55,56,57,58,59,60,61,62,63,64,65,66,67,68,69,70,71,72,73,74,75,76,77,78,79,80,81,82,83,84,85,86,87,88,89,90,91,92,93,94,95],"tree_info":[0,0,0,0,0,0,0,0,0,0,0,0,0,0,0,0,0,0,0,0,0,0,0,0,0,0,0,0,0,0,0,0,0,0,0,0,0,0,0,0,0,0,0,0,0,0,0,0,0,0,0,0,0,0,0,0,0,0,0,0,0,0,0,0,0,0,0,0,0,0,0,0,0,0,0,0,0,0,0,0,0,0,0,0,0,0,0,0,0,0,0,0,0,0,0],"trees":[{"base_weights":[-1.072645E-1,-6.220444E-1,1.9525845E-1,-3.574447E-1,-8.611123E-1,3.9173424E-2,4.314317E-1,-2.3384592E-2,-4.897678E-3,-2.5254954E-2,-4.8926707E-2,-5.2764706E-2,1.2743061E-2,1.1988305E-2,2.5544703E-2,2.7265228E-2,-1.3291139E-2,-2.9731796E-3,6.560979E-3],"categories":[],"categories_nodes":[],"categories_segments":[],"categories_sizes":[],"default_left":[0,0,0,0,0,0,0,0,0,0,0,0,0,0,0,0,0,0,0],"id":0,"left_children":[1,3,5,7,9,11,13,-1,-1,-1,-1,15,-1,-1,-1,17,-1,-1,-1],"loss_changes":[1.1801414E1,1.4634047E0,1.7525284E0,4.1193867E-1,1.4484501E-1,6.215492E-1,1.8914962E-1,0E0,0E0,0E0,0E0,3.9112976E-1,0E0,0E0,0E0,1.669099E-1,0E0,0E0,0E0],"parents":[2147483647,0,0,1,1,2,2,3,3,4,4,5,5,6,6,11,11,15,15],"right_children":[2,4,6,8,10,12,14,-1,-1,-1,-1,16,-1,-1,-1,18,-1,-1,-1],"split_conditions":[1.0420895E-2,8.28645E-1,5.517496E-1,4.2332153E0,9.29295E5,1.6E1,4.650193E-1,-2.3384592E-2,-4.897678E-3,-2.5254954E-2,-4.8926707E-2,2.5042E4,1.2743061E-2,1.1988305E-2,2.5544703E-2,1.419E3,-1.3291139E-2,-2.9731796E-3,6.560979E-3],"split_indices":[37,26,41,53,27,3,26,0,0,0,0,9,0,0,0,0,0,0,0],"split_type":[0,0,0,0,0,0,0,0,0,0,0,0,0,0,0,0,0,0,0],"sum_hessian":[7.4E1,2.7E1,4.7E1,1.4E1,1.3E1,2.9E1,1.8E1,9E0,5E0,5E0,8E0,2.1E1,8E0,7E0,1.1E1,1.6E1,5E0,9E0,7E0],"tree_param":{"num_deleted":"0","num_feature":"115","num_nodes":"19","size_leaf_vector":"1"}},{"base_weights":[-5.796369E-2,-4.728356E-1,2.014669E-1,-5.9635687E-1,3.9015252E-3,9.149514E-2,2.4364186E-2,-4.3475255E-1,-4.436388E-2,1.6905628E-1,-1.1381246E-2,-2.4862707E-2,-1.0749935E-2,-3.074874E-3,2.2214615E-1,1.830552E-2,1.470209E-1,8.941129E-4,1.2739913E-2],"categories":[],"categories_nodes":[],"categories_segments":[],"categories_sizes":[],"default_left":[0,0,0,0,0,0,0,0,0,0,0,0,0,0,0,0,0,0,0],"id":1,"left_children":[1,3,5,7,-1,9,-1,11,-1,13,-1,-1,-1,-1,15,-1,17,-1,-1],"loss_changes":[7.8446546E0,1.9575887E0,1.4134684E0,7.492504E-1,0E0,8.9179873E-1,0E0,1.5201807E-1,0E0,3.5832006E-1,0E0,0E0,0E0,0E0,2.0559418E-1,0E0,2.4156329E-1,0E0,0E0],"parents":[2147483647,0,0,1,1,2,2,3,3,5,5,7,7,9,9,14,14,16,16],"right_children":[2,4,6,8,-1,10,-1,12,-1,14,-1,-1,-1,-1,16,-1,18,-1,-1],"split_conditions":[1.0420895E-2,1.962943E3,9.306648E-1,1.2427474E8,3.9015252E-3,1.0232127E12,2.4364186E-2,8.60448E5,-4.436388E-2,7.233348E10,-1.1381246E-2,-2.4862707E-2,-1.0749935E-2,-3.074874E-3,2.325535E7,1.830552E-2,1.381E3,8.941129E-4,1.2739913E-2],"split_indices":[37,4,38,44,0,30,0,1,0,30,0,0,0,0,44,0,0,0,0],"split_type":[0,0,0,0,0,0,0,0,0,0,0,0,0,0,0,0,0,0,0],"sum_hessian":[7.1E1,2.7E1,4.4E1,2.2E1,5E0,3.3E1,1.1E1,1.6E1,6E0,2.7E1,6E0,1.1E1,5E0,5E0,2.2E1,6E0,1.6E1,8E0,8E0],"tree_param":{"num_deleted":"0","num_feature":"115","num_nodes":"19","size_leaf_vector":"1"}},{"base_weights":[4.2534076E-2,-4.109137E-1,2.1991473E-1,-5.4405105E-1,1.7082373E-3,6.1845727E-2,4.2809653E-1,-3.171518E-2,-1.5029646E-2,-9.706842E-3,1.3933185E-1,7.851151E-3,5.086054E-1,1.6156761E-2,6.5949626E-2,2.9382257E-2,1.5782023E-2,-5.597345E-3,1.5121883E-1,1.2171325E-2,-9.340632E-4],"categories":[],"categories_nodes":[],"categories_segments":[],"categories_sizes":[],"default_left":[0,0,0,0,0,0,0,0,0,0,0,0,0,0,0,0,0,0,0,0,0],"id":2,"left_children":[1,3,5,7,-1,9,11,-1,-1,-1,13,-1,15,-1,17,-1,-1,-1,19,-1,-1],"loss_changes":[6.283697E0,1.3244188E0,1.8163209E0,2.1456003E-1,0E0,6.9125545E-1,4.368453E-1,0E0,0E0,0E0,3.403449E-1,0E0,1.1035776E-1,0E0,3.2414103E-1,0E0,0E0,0E0,2.3517966E-1,0E0,0E0],"parents":[2147483647,0,0,1,1,2,2,3,3,5,5,6,6,10,10,12,12,14,14,18,18],"right_children":[2,4,6,8,-1,10,12,-1,-1,-1,14,-1,16,-1,18,-1,-1,-1,20,-1,-1],"split_conditions":[1.6405078E-2,4.3646493E0,5.451147E-1,7.801514E2,1.7082373E-3,2.3428571E0,2.4460206E0,-3.171518E-2,-1.5029646E-2,-9.706842E-3,2.8216465E0,7.851151E-3,3.1198547E0,1.6156761E-2,8.110699E5,2.9382257E-2,1.5782023E-2,-5.597345E-3,2.829E4,1.2171325E-2,-9.340632E-4],"split_indices":[40,53,41,4,0,55,55,0,0,0,52,0,53,0,31,0,0,0,10,0,0],"split_type":[0,0,0,0,0,0,0,0,0,0,0,0,0,0,0,0,0,0,0,0,0],"sum_hessian":[7.6E1,2.1E1,5.5E1,1.6E1,5E0,3.2E1,2.3E1,1E1,6E0,7E0,2.5E1,6E0,1.7E1,6E0,1.9E1,1E1,7E0,6E0,1.3E1,8E0,5E0],"tree_param":{"num_deleted":"0","num_feature":"115","num_nodes":"21","size_leaf_vector":"1"}},{"base_weights":[-3.9800555E-3,-3.698022E-1,2.938747E-1,-2.1407835E-2,-6.300276E-1,2.0628484E-1,3.9258026E-2,-9.047106E-3,1.3783639E-2,-1.57717E-2,-3.6301717E-2,7.225239E-2,3.5119575E-1,1.0640476E-2,1.3556869E-2,2.0926505E-2,8.46258E-3,-3.7834013E-3,8.711106E-3],"categories":[],"categories_nodes":[],"categories_segments":[],"categories_sizes":[],"default_left":[0,0,0,0,0,0,0,0,0,0,0,0,0,0,0,0,0,0,0],"id":3,"left_children":[1,3,5,7,9,11,-1,-1,-1,-1,-1,13,15,-1,17,-1,-1,-1,-1],"loss_changes":[8.498739E0,3.1596494E0,1.7399123E0,8.3914095E-1,4.3800068E-1,7.1269035E-1,0E0,0E0,0E0,0E0,0E0,1.751479E-1,1.680963E-1,0E0,2.5127968E-1,0E0,0E0,0E0,0E0],"parents":[2147483647,0,0,1,1,2,2,3,3,4,4,5,5,11,11,12,12,14,14],"right_children":[2,4,6,8,10,12,-1,-1,-1,-1,-1,14,16,-1,18,-1,-1,-1,-1],"split_conditions":[7.2921924E-2,5.8871865E-1,5.661358E3,6.9983356E2,5.689896E5,5.596155E-1,3.9258026E-2,-9.047106E-3,1.3783639E-2,-1.57717E-2,-3.6301717E-2,7.9600364E-2,3.3934937E0,1.0640476E-2,2.6597537E3,2.0926505E-2,8.46258E-3,-3.7834013E-3,8.711106E-3],"split_indices":[41,26,51,51,27,38,0,0,0,0,0,38,53,0,4,0,0,0,0],"split_type":[0,0,0,0,0,0,0,0,0,0,0,0,0,0,0,0,0,0,0],"sum_hessian":[7.6E1,3.4E1,4.2E1,1.5E1,1.9E1,3.7E1,5E0,1E1,5E0,6E0,1.3E1,2E1,1.7E1,5E0,1.5E1,1.1E1,6E0,1E1,5E0],"tree_param":{"num_deleted":"0","num_feature":"115","num_nodes":"19","size_leaf_vector":"1"}},{"base_weights":[6.6942396E-3,-4.546203E-1,2.0676103E-1,-5.827659E-1,2.74271E-4,9.7575545E-2,3.582547E-2,-2.0036664E-2,-3.9222516E-2,-8.146377E-3,2.3013526E-1,1.1121949E-1,-1.0309598E-1,1.630624E-2,7.3477356E-3,9.844743E-3,-5.648591E-4,-1.1767243E-2,-5.319224E-4],"categories":[],"categories_nodes":[],"categories_segments":[],"categories_sizes":[],"default_left":[0,0,0,0,0,0,0,0,0,0,0,0,0,0,0,0,0,0,0],"id":4,"left_children":[1,3,5,7,-1,9,-1,-1,-1,11,13,15,17,-1,-1,-1,-1,-1,-1],"loss_changes":[7.016027E0,1.3596454E0,2.9550443E0,3.5342503E-1,0E0,6.325258E-1,0E0,0E0,0E0,3.0614358E-1,1.14454865E-1,1.3382536E-1,1.8642808E-1,0E0,0E0,0E0,0E0,0E0,0E0],"parents":[2147483647,0,0,1,1,2,2,3,3,5,5,9,9,10,10,11,11,12,12],"right_children":[2,4,6,8,-1,10,-1,-1,-1,12,14,16,18,-1,-1,-1,-1,-1,-1],"split_conditions":[4.823969E-3,1.962943E3,4.0235266E3,9.1569895E-1,2.74271E-4,5.096104E-1,3.582547E-2,-2.0036664E-2,-3.9222516E-2,1.6547014E5,2.156825E7,1.219233E6,5.7E1,1.630624E-2,7.3477356E-3,9.844743E-3,-5.648591E-4,-1.1767243E-2,-5.319224E-4],"split_indices":[38,4,51,26,0,41,0,0,0,32,44,31,8,0,0,0,0,0,0],"split_type":[0,0,0,0,0,0,0,0,0,0,0,0,0,0,0,0,0,0,0],"sum_hessian":[7.4E1,2.2E1,5.2E1,1.7E1,5E0,4.4E1,8E0,1.1E1,6E0,2.5E1,1.9E1,1.1E1,1.4E1,7E0,1.2E1,6E0,5E0,5E0,9E0],"tree_param":{"num_deleted":"0","num_feature":"115","num_nodes":"19","size_leaf_vector":"1"}},{"base_weights":[3.1985685E-3,-4.3204668E-1,1.482242E-1,-1.1138079E-2,-2.9163573E-2,-1.9296741E-2,3.1063396E-1,-1.2987757E-1,1.7346075E-1,3.9995566E-1,6.289656E-3,3.035823E-3,-9.9546965E-3,1.4737003E-2,8.758123E-4,2.4306571E-2,1.3001604E-2],"categories":[],"categories_nodes":[],"categories_segments":[],"categories_sizes":[],"default_left":[0,0,0,0,0,0,0,0,0,0,0,0,0,0,0,0,0],"id":5,"left_children":[1,3,5,-1,-1,7,9,11,13,15,-1,-1,-1,-1,-1,-1,-1],"loss_changes":[4.7981687E0,4.966805E-1,1.5567951E0,0E0,0E0,6.406719E-1,4.2155433E-1,2.780279E-1,2.1155488E-1,1.1314678E-1,0E0,0E0,0E0,0E0,0E0,0E0,0E0],"parents":[2147483647,0,0,1,1,2,2,5,5,6,6,7,7,8,8,9,9],"right_children":[2,4,6,-1,-1,8,10,12,14,16,-1,-1,-1,-1,-1,-1,-1],"split_conditions":[1.9956966E-1,1.4E1,3.8151306E-1,-1.1138079E-2,-2.9163573E-2,1.1813418E3,3.3027112E0,2.2519132E-1,1.23E2,1.1213404E6,6.289656E-3,3.035823E-3,-9.9546965E-3,1.4737003E-2,8.758123E-4,2.4306571E-2,1.3001604E-2],"split_indices":[56,3,41,0,0,51,53,26,8,31,0,0,0,0,0,0,0],"split_type":[0,0,0,0,0,0,0,0,0,0,0,0,0,0,0,0,0],"sum_hessian":[7.4E1,1.8E1,5.6E1,9E0,9E0,2.8E1,2.8E1,1.8E1,1E1,1.8E1,1E1,5E0,1.3E1,5E0,5E0,9E0,9E0],"tree_param":{"num_deleted":"0","num_feature":"115","num_nodes":"17","size_leaf_vector":"1"}},{"base_weights":[-1.4080282E-2,-3.8578752E-1,1.8343948E-1,-1.5024497E-1,-5.236113E-1,1.1118091E-1,2.951148E-2,-1.5254649E-2,1.7314352E-3,-1.6642386E-2,-3.8040355E-2,1.604537E-1,-1.077198E-2,-4.9628825E-3,2.0314433E-1,2.0489473E-2,1.400877E-1,1.1425914E-3,9.232242E-3],"categories":[],"categories_nodes":[],"categories_segments":[],"categories_sizes":[],"default_left":[0,0,0,0,0,0,0,0,0,0,0,0,0,0,0,0,0,0,0],"id":6,"left_children":[1,3,5,7,9,11,-1,-1,-1,-1,-1,13,-1,-1,15,-1,17,-1,-1],"loss_changes":[5.5038133E0,7.653775E-1,1.4119945E0,3.3842024E-1,4.7946024E-1,7.356386E-1,0E0,0E0,0E0,0E0,0E0,4.4481814E-1,0E0,0E0,3.8725293E-1,0E0,1.4689004E-1,0E0,0E0],"parents":[2147483647,0,0,1,1,2,2,3,3,4,4,5,5,11,11,14,14,16,16],"right_children":[2,4,6,8,10,12,-1,-1,-1,-1,-1,14,-1,-1,16,-1,18,-1,-1],"split_conditions":[7.2921924E-2,5.0415697E5,4.0235266E3,1.3E1,1.1686677E8,1.1269586E12,2.951148E-2,-1.5254649E-2,1.7314352E-3,-1.6642386E-2,-3.8040355E-2,2.00809E5,-1.077198E-2,-4.9628825E-3,1.3024019E7,2.0489473E-2,5.316E3,1.1425914E-3,9.232242E-3],"split_indices":[41,27,51,3,44,30,0,0,0,0,0,1,0,0,44,0,2,0,0],"split_type":[0,0,0,0,0,0,0,0,0,0,0,0,0,0,0,0,0,0,0],"sum_hessian":[7.3E1,2.5E1,4.8E1,1E1,1.5E1,4.2E1,6E0,5E0,5E0,1E1,5E0,3.7E1,5E0,5E0,3.2E1,6E0,2.6E1,8E0,1.8E1],"tree_param":{"num_deleted":"0","num_feature":"115","num_nodes":"19","size_leaf_vector":"1"}},{"base_weights":[7.320848E-2,-2.4420697E-2,6.2570214E-1,-4.7607082E-1,6.977877E-2,3.924833E-2,1.7069722E-2,-2.9825568E-2,-1.3024502E-2,-3.675304E-2,2.4739392E-1,1.13071175E-2,-1.2908012E-2,1.3994735E-3,1.5634663E-2,1.4494884E-1,-9.155462E-2,1.34142395E-2,1.5032827E-3,-8.204917E-3,7.045104E-4],"categories":[],"categories_nodes":[],"categories_segments":[],"categories_sizes":[],"default_left":[0,0,0,0,0,0,0,0,0,0,0,0,0,0,0,0,0,0,0,0,0],"id":7,"left_children":[1,3,5,7,9,-1,-1,-1,-1,11,13,15,-1,-1,-1,17,19,-1,-1,-1,-1],"loss_changes":[3.9528635E0,2.7135673E0,2.5334978E-1,1.4357567E-1,1.0119407E0,0E0,0E0,0E0,0E0,3.7253714E-1,3.0201757E-1,4.1192272E-1,0E0,0E0,0E0,1.822944E-1,1.3844934E-1,0E0,0E0,0E0,0E0],"parents":[2147483647,0,0,1,1,2,2,3,3,4,4,9,9,10,10,11,11,15,15,16,16],"right_children":[2,4,6,8,10,-1,-1,-1,-1,12,14,16,-1,-1,-1,18,20,-1,-1,-1,-1],"split_conditions":[4.0235266E3,1.5278552E4,8.982776E9,9.408949E2,5.517496E-1,3.924833E-2,1.7069722E-2,-2.9825568E-2,-1.3024502E-2,1.2932927E1,8.69E2,3.5228616E-1,-1.2908012E-2,1.3994735E-3,1.5634663E-2,1.3E1,1.0390377E8,1.34142395E-2,1.5032827E-3,-8.204917E-3,7.045104E-4],"split_indices":[51,50,5,4,41,0,0,0,0,56,10,26,0,0,0,3,12,0,0,0,0],"split_type":[0,0,0,0,0,0,0,0,0,0,0,0,0,0,0,0,0,0,0,0,0],"sum_hessian":[7.2E1,6.2E1,1E1,1E1,5.2E1,5E0,5E0,5E0,5E0,3.3E1,1.9E1,2.8E1,5E0,5E0,1.4E1,1.2E1,1.6E1,5E0,7E0,9E0,7E0],"tree_param":{"num_deleted":"0","num_feature":"115","num_nodes":"21","size_leaf_vector":"1"}},{"base_weights":[-2.7427694E-2,-2.9992643E-1,8.911279E-2,-2.0627676E-2,-5.2185045E-3,1.3426933E-1,-1.1872929E-2,7.572837E-2,1.8342061E-2,1.3145997E-1,-2.8386184E-3,1.133267E-2,6.113696E-2,-1.7572212E-3,9.370952E-3],"categories":[],"categories_nodes":[],"categories_segments":[],"categories_sizes":[],"default_left":[0,0,0,0,0,0,0,0,0,0,0,0,0,0,0],"id":8,"left_children":[1,3,5,-1,-1,7,-1,9,-1,11,-1,-1,13,-1,-1],"loss_changes":[2.1226983E0,4.2095172E-1,7.3486066E-1,0E0,0E0,5.601606E-1,0E0,2.680986E-1,0E0,1.6058901E-1,0E0,0E0,2.0803542E-1,0E0,0E0],"parents":[2147483647,0,0,1,1,2,2,5,5,7,7,9,9,12,12],"right_children":[2,4,6,-1,-1,8,-1,10,-1,12,-1,-1,14,-1,-1],"split_conditions":[2.0113895E-2,1.528E3,1.15266744E8,-2.0627676E-2,-5.2185045E-3,3.6591887E3,-1.1872929E-2,1.7444956E5,1.8342061E-2,3.9130908E6,-2.8386184E-3,1.133267E-2,2.4106981E-1,-1.7572212E-3,9.370952E-3],"split_indices":[40,11,44,0,0,4,0,32,0,50,0,0,41,0,0],"split_type":[0,0,0,0,0,0,0,0,0,0,0,0,0,0,0],"sum_hessian":[6.5E1,1.9E1,4.6E1,1.1E1,8E0,4.1E1,5E0,3.4E1,7E0,2.4E1,1E1,9E0,1.5E1,9E0,6E0],"tree_param":{"num_deleted":"0","num_feature":"115","num_nodes":"15","size_leaf_vector":"1"}},{"base_weights":[1.937342E-2,-1.7052306E-1,3.2243285E-1,7.04902E-3,-3.484476E-1,2.1515913E-1,3.0746972E-2,-4.9066176E-3,6.6146934E-3,-2.999712E-2,-1.600734E-1,1.3851354E-2,5.005458E-3,-1.8943113E-3,-1.2700653E-2],"categories":[],"categories_nodes":[],"categories_segments":[],"categories_sizes":[],"default_left":[0,0,0,0,0,0,0,0,0,0,0,0,0,0,0],"id":9,"left_children":[1,3,5,7,9,11,-1,-1,-1,-1,13,-1,-1,-1,-1],"loss_changes":[3.7381773E0,1.2662337E0,6.8010354E-1,3.0034244E-1,8.91356E-1,1.22870445E-1,0E0,0E0,0E0,0E0,1.4577648E-1,0E0,0E0,0E0,0E0],"parents":[2147483647,0,0,1,1,2,2,3,3,4,4,5,5,10,10],"right_children":[2,4,6,8,10,12,-1,-1,-1,-1,14,-1,-1,-1,-1],"split_conditions":[4.7985215E-2,6.7376137E-1,1.91E4,4.2332153E0,1.0781229E3,2.4832625E6,3.0746972E-2,-4.9066176E-3,6.6146934E-3,-2.999712E-2,1.5368E4,1.3851354E-2,5.005458E-3,-1.8943113E-3,-1.2700653E-2],"split_indices":[37,26,2,53,4,31,0,0,0,0,9,0,0,0,0],"split_type":[0,0,0,0,0,0,0,0,0,0,0,0,0,0,0],"sum_hessian":[6.3E1,3.9E1,2.4E1,2E1,1.9E1,1.9E1,5E0,1.1E1,9E0,7E0,1.2E1,1.1E1,8E0,6E0,6E0],"tree_param":{"num_deleted":"0","num_feature":"115","num_nodes":"15","size_leaf_vector":"1"}},{"base_weights":[-6.0487296E-3,-3.2768604E-1,1.7005561E-1,-4.9076512E-1,4.381319E-3,2.350399E-1,-9.9433444E-2,-1.6171254E-2,-3.286129E-2,1.4184609E-1,4.1795236E-1,2.136249E-3,-1.1086032E-2,-2.5427341E-4,1.9554526E-1,2.845483E-2,1.2949227E-2,1.5328273E-2,5.2323313E-3],"categories":[],"categories_nodes":[],"categories_segments":[],"categories_sizes":[],"default_left":[0,0,0,0,0,0,0,0,0,0,0,0,0,0,0,0,0,0,0],"id":10,"left_children":[1,3,5,7,-1,9,11,-1,-1,13,15,-1,-1,-1,17,-1,-1,-1,-1],"loss_changes":[4.643705E0,2.015569E0,9.5153594E-1,3.847084E-1,0E0,6.737063E-1,2.0853591E-1,0E0,0E0,2.3786682E-1,1.9605112E-1,0E0,0E0,0E0,1.950891E-1,0E0,0E0,0E0,0E0],"parents":[2147483647,0,0,1,1,2,2,3,3,5,5,6,6,9,9,10,10,14,14],"right_children":[2,4,6,8,-1,10,12,-1,-1,14,16,-1,-1,-1,18,-1,-1,-1,-1],"split_conditions":[7.2921924E-2,1.9315491E3,1.8E2,8.616169E-1,4.381319E-3,2.8544061E9,1.4181119E12,-1.6171254E-2,-3.286129E-2,3.6696808E2,6.5560097E-1,2.136249E-3,-1.1086032E-2,-2.5427341E-4,2.325535E7,2.845483E-2,1.2949227E-2,1.5328273E-2,5.2323313E-3],"split_indices":[41,4,8,26,0,12,30,0,0,51,26,0,0,0,44,0,0,0,0],"split_type":[0,0,0,0,0,0,0,0,0,0,0,0,0,0,0,0,0,0,0],"sum_hessian":[8E1,2.8E1,5.2E1,2E1,8E0,4.2E1,1E1,1.2E1,8E0,2.9E1,1.3E1,5E0,5E0,8E0,2.1E1,5E0,8E0,8E0,1.3E1],"tree_param":{"num_deleted":"0","num_feature":"115","num_nodes":"19","size_leaf_vector":"1"}},{"base_weights":[-4.3166887E-2,-3.0879998E-1,1.4933993E-1,-4.7703913E-1,-2.6680864E-3,4.0612917E-2,2.6131046E-1,-2.4898025E-1,-3.5746824E-2,5.122726E-3,-6.2384936E-3,6.3061225E-3,-5.0605547E-2,1.734972E-2,7.142151E-3,-5.167443E-3,-1.6525716E-2,3.212682E-3,-7.0128473E-3],"categories":[],"categories_nodes":[],"categories_segments":[],"categories_sizes":[],"default_left":[0,0,0,0,0,0,0,0,0,0,0,0,0,0,0,0,0,0,0],"id":11,"left_children":[1,3,5,7,9,11,13,15,-1,-1,-1,-1,17,-1,-1,-1,-1,-1,-1],"loss_changes":[3.779057E0,1.5953314E0,5.12879E-1,9.639082E-1,1.7300643E-1,1.9077814E-1,1.7257595E-1,1.157006E-1,0E0,0E0,0E0,0E0,1.3778844E-1,0E0,0E0,0E0,0E0,0E0,0E0],"parents":[2147483647,0,0,1,1,2,2,3,3,4,4,5,5,6,6,7,7,12,12],"right_children":[2,4,6,8,10,12,14,16,-1,-1,-1,-1,18,-1,-1,-1,-1,-1,-1],"split_conditions":[1.1576994E-2,1.7493458E3,5.517496E-1,1.0370839E6,2.805454E-1,3.652811E5,1.7329262E7,9.502012E2,-3.5746824E-2,5.122726E-3,-6.2384936E-3,6.3061225E-3,1.8020144E-1,1.734972E-2,7.142151E-3,-5.167443E-3,-1.6525716E-2,3.212682E-3,-7.0128473E-3],"split_indices":[37,4,41,27,26,27,44,4,0,0,0,0,40,0,0,0,0,0,0],"split_type":[0,0,0,0,0,0,0,0,0,0,0,0,0,0,0,0,0,0,0],"sum_hessian":[7.2E1,3E1,4.2E1,1.9E1,1.1E1,2.2E1,2E1,1.1E1,8E0,6E0,5E0,1.1E1,1.1E1,1E1,1E1,5E0,6E0,5E0,6E0],"tree_param":{"num_deleted":"0","num_feature":"115","num_nodes":"19","size_leaf_vector":"1"}},{"base_weights":[6.161666E-3,-2.8142956E-1,1.4983879E-1,5.264393E-3,-2.4228318E-2,1.4601785E-2,2.652347E-1,1.2467932E-1,-1.1503882E-1,3.578173E-1,7.91129E-3,-5.6681415E-4,1.5132903E-2,-1.0279862E-2,6.974771E-4,8.275241E-3,2.5676768E-2],"categories":[],"categories_nodes":[],"categories_segments":[],"categories_sizes":[],"default_left":[0,0,0,0,0,0,0,0,0,0,0,0,0,0,0,0,0],"id":12,"left_children":[1,3,5,-1,-1,7,9,11,13,15,-1,-1,-1,-1,-1,-1,-1],"loss_changes":[3.2238305E0,2.1958828E0,8.0762863E-1,0E0,0E0,3.7110594E-1,2.1218133E-1,3.5362798E-1,1.4930281E-1,3.4952545E-1,0E0,0E0,0E0,0E0,0E0,0E0,0E0],"parents":[2147483647,0,0,1,1,2,2,5,5,6,6,7,7,8,8,9,9],"right_children":[2,4,6,-1,-1,8,10,12,14,16,-1,-1,-1,-1,-1,-1,-1],"split_conditions":[7.2921924E-2,5.8871865E-1,5.517496E-1,5.264393E-3,-2.4228318E-2,3.3406114E11,1.3996E4,3.7057927E0,3.2414E-1,1.2253E4,7.91129E-3,-5.6681415E-4,1.5132903E-2,-1.0279862E-2,6.974771E-4,8.275241E-3,2.5676768E-2],"split_indices":[41,26,41,0,0,30,9,56,26,9,0,0,0,0,0,0,0],"split_type":[0,0,0,0,0,0,0,0,0,0,0,0,0,0,0,0,0],"sum_hessian":[7.6E1,2.5E1,5.1E1,9E0,1.6E1,2.4E1,2.7E1,1.3E1,1.1E1,1.3E1,1.4E1,8E0,5E0,6E0,5E0,7E0,6E0],"tree_param":{"num_deleted":"0","num_feature":"115","num_nodes":"17","size_leaf_vector":"1"}},{"base_weights":[5.2636985E-2,-9.513471E-2,2.4494243E-1,7.337656E-2,-2.2457552E-1,8.028527E-2,3.3972245E-1,-4.407692E-3,1.38059E-1,-2.2352083E-2,-1.2238035E-1,-1.012086E-3,8.332232E-3,9.366022E-3,2.0773357E-2,1.1558115E-2,-1.5217743E-3,-2.3664015E-3,-1.289764E-2],"categories":[],"categories_nodes":[],"categories_segments":[],"categories_sizes":[],"default_left":[0,0,0,0,0,0,0,0,0,0,0,0,0,0,0,0,0,0,0],"id":13,"left_children":[1,3,5,7,9,11,13,-1,15,-1,17,-1,-1,-1,-1,-1,-1,-1,-1],"loss_changes":[2.0977654E0,9.325925E-1,4.721241E-1,2.1290693E-1,5.101299E-1,1.2080502E-1,1.6773319E-1,0E0,2.3773542E-1,0E0,1.7470732E-1,0E0,0E0,0E0,0E0,0E0,0E0,0E0,0E0],"parents":[2147483647,0,0,1,1,2,2,3,3,4,4,5,5,6,6,8,8,10,10],"right_children":[2,4,6,8,10,12,14,-1,16,-1,18,-1,-1,-1,-1,-1,-1,-1,-1],"split_conditions":[3.839604E-1,5.81609E-1,4.620608E-1,7.348946E4,1.346E3,2.1933217E0,3.6120827E0,-4.407692E-3,1.13219306E-1,-2.2352083E-2,3.6979167E0,-1.012086E-3,8.332232E-3,9.366022E-3,2.0773357E-2,1.1558115E-2,-1.5217743E-3,-2.3664015E-3,-1.289764E-2],"split_indices":[41,26,26,32,11,56,55,0,41,0,53,0,0,0,0,0,0,0,0],"split_type":[0,0,0,0,0,0,0,0,0,0,0,0,0,0,0,0,0,0,0],"sum_hessian":[7.2E1,4.1E1,3.1E1,1.8E1,2.3E1,1.2E1,1.9E1,5E0,1.3E1,6E0,1.7E1,6E0,6E0,8E0,1.1E1,8E0,5E0,1.2E1,5E0],"tree_param":{"num_deleted":"0","num_feature":"115","num_nodes":"19","size_leaf_vector":"1"}},{"base_weights":[4.634194E-2,-2.899864E-2,2.7199874E-2,-2.091426E-1,6.1703745E-2,-3.651765E-1,-6.102604E-2,1.2529667E-2,7.7365725E-3,-7.94981E-3,-2.4918912E-2,1.7878206E-3,-8.875272E-3,-4.2854853E-2,9.391212E-2,-4.1592973E-3,4.7552474E-3,9.89459E-3,5.756966E-4],"categories":[],"categories_nodes":[],"categories_segments":[],"categories_sizes":[],"default_left":[0,0,0,0,0,0,0,0,0,0,0,0,0,0,0,0,0,0,0],"id":14,"left_children":[1,3,-1,5,7,9,11,-1,13,-1,-1,-1,-1,15,17,-1,-1,-1,-1],"loss_changes":[2.9612415E0,1.12399E0,0E0,5.0927246E-1,4.7840765E-1,2.3615372E-1,1.5827627E-1,0E0,1.653351E-1,0E0,0E0,0E0,0E0,1.4858091E-1,1.2147268E-1,0E0,0E0,0E0,0E0],"parents":[2147483647,0,0,1,1,3,3,4,4,5,5,6,6,8,8,13,13,14,14],"right_children":[2,4,-1,6,8,10,12,-1,14,-1,-1,-1,-1,16,18,-1,-1,-1,-1],"split_conditions":[3.9514639E3,6.6504064E0,2.7199874E-2,3.3237658E0,1.7329262E7,2.7288842E0,2.7623658E8,1.2529667E-2,2.3239934E-1,-7.94981E-3,-2.4918912E-2,1.7878206E-3,-8.875272E-3,5.0175633E0,3.2449896E0,-4.1592973E-3,4.7552474E-3,9.89459E-3,5.756966E-4],"split_indices":[51,57,0,53,44,53,7,0,38,0,0,0,0,53,53,0,0,0,0],"split_type":[0,0,0,0,0,0,0,0,0,0,0,0,0,0,0,0,0,0,0],"sum_hessian":[7.6E1,6.7E1,9E0,2.2E1,4.5E1,1E1,1.2E1,9E0,3.6E1,5E0,5E0,7E0,5E0,2.3E1,1.3E1,1.8E1,5E0,5E0,8E0],"tree_param":{"num_deleted":"0","num_feature":"115","num_nodes":"19","size_leaf_vector":"1"}},{"base_weights":[-2.5526343E-2,3.7216682E-2,-2.6441526E-2,-1.5603109E-1,1.1673054E-1,1.2331113E-3,-2.4224122E-1,7.5995736E-2,1.6513858E-2,-1.6436853E-2,-4.351622E-3,-6.2105646E-3,9.482339E-3,5.270621E-3,-2.0650811E-3],"categories":[],"categories_nodes":[],"categories_segments":[],"categories_sizes":[],"default_left":[0,0,0,0,0,0,0,0,0,0,0,0,0,0,0],"id":15,"left_children":[1,3,-1,5,7,-1,9,11,-1,-1,-1,13,-1,-1,-1],"loss_changes":[2.659654E0,1.1552883E0,0E0,3.4965348E-1,4.48615E-1,0E0,1.835773E-1,4.4418722E-1,0E0,0E0,0E0,1.1852024E-1,0E0,0E0,0E0],"parents":[2147483647,0,0,1,1,3,3,4,4,6,6,7,7,11,11],"right_children":[2,4,-1,6,8,-1,10,12,-1,-1,-1,14,-1,-1,-1],"split_conditions":[1.5414109E8,2.0113895E-2,-2.6441526E-2,5.6660336E-1,1.0302285E8,1.2331113E-3,4.593E3,6.3104886E-1,1.6513858E-2,-1.6436853E-2,-4.351622E-3,1.7970878E6,9.482339E-3,5.270621E-3,-2.0650811E-3],"split_indices":[44,40,0,26,44,0,2,40,0,0,0,47,0,0,0],"split_type":[0,0,0,0,0,0,0,0,0,0,0,0,0,0,0],"sum_hessian":[8.1E1,7.3E1,8E0,2.1E1,5.2E1,7E0,1.4E1,4.5E1,7E0,8E0,6E0,2.7E1,1.8E1,6E0,2.1E1],"tree_param":{"num_deleted":"0","num_feature":"115","num_nodes":"15","size_leaf_vector":"1"}},{"base_weights":[-2.4680318E-2,-2.9581618E-1,9.901199E-2,-3.9835843E-1,4.678472E-3,3.9854974E-2,1.7734792E-2,-1.2945204E-2,-2.7857706E-2,7.2641626E-2,-9.368809E-3,9.721887E-2,-4.2677824E-3,-1.0250885E-3,1.264454E-1,1.1811204E-2,3.8880985E-3],"categories":[],"categories_nodes":[],"categories_segments":[],"categories_sizes":[],"default_left":[0,0,0,0,0,0,0,0,0,0,0,0,0,0,0,0,0],"id":16,"left_children":[1,3,5,7,-1,9,-1,-1,-1,11,-1,13,-1,-1,15,-1,-1],"loss_changes":[2.6787455E0,1.0405939E0,8.38775E-1,3.0578494E-1,0E0,3.6177745E-1,0E0,0E0,0E0,1.6924502E-1,0E0,1.2689805E-1,0E0,0E0,1.373381E-1,0E0,0E0],"parents":[2147483647,0,0,1,1,2,2,3,3,5,5,9,9,11,11,14,14],"right_children":[2,4,6,8,-1,10,-1,-1,-1,12,-1,14,-1,-1,16,-1,-1],"split_conditions":[7.2921924E-2,1.9315491E3,1.1997641E0,9.29295E5,4.678472E-3,6.2012E4,1.7734792E-2,-1.2945204E-2,-2.7857706E-2,2.8192934E5,-9.368809E-3,7.095772E2,-4.2677824E-3,-1.0250885E-3,2.2103658E7,1.1811204E-2,3.8880985E-3],"split_indices":[41,4,38,27,0,10,0,0,0,32,0,4,0,0,44,0,0],"split_type":[0,0,0,0,0,0,0,0,0,0,0,0,0,0,0,0,0],"sum_hessian":[7.8E1,2.4E1,5.4E1,1.9E1,5E0,4.5E1,9E0,1.2E1,7E0,4E1,5E0,3.5E1,5E0,7E0,2.8E1,7E0,2.1E1],"tree_param":{"num_deleted":"0","num_feature":"115","num_nodes":"17","size_leaf_vector":"1"}},{"base_weights":[-2.094883E-2,-3.1796566E-1,1.24956325E-1,-4.4023082E-1,-9.036691E-4,5.833958E-2,2.5348932E-2,-1.1327739E-2,-3.1768367E-2,-1.1450506E-2,1.1192482E-1,1.4096776E-2,6.875149E-2,4.9823998E-3,-2.8462426E-3],"categories":[],"categories_nodes":[],"categories_segments":[],"categories_sizes":[],"default_left":[0,0,0,0,0,0,0,0,0,0,0,0,0,0,0],"id":17,"left_children":[1,3,5,7,-1,9,-1,-1,-1,-1,11,-1,13,-1,-1],"loss_changes":[3.1599443E0,8.709123E-1,1.2473835E0,5.873859E-1,0E0,6.97931E-1,0E0,0E0,0E0,0E0,2.6013714E-1,0E0,1.3447507E-1,0E0,0E0],"parents":[2147483647,0,0,1,1,2,2,3,3,5,5,10,10,12,12],"right_children":[2,4,6,8,-1,10,-1,-1,-1,-1,12,-1,14,-1,-1],"split_conditions":[4.856813E0,1.650581E3,3.3077192E3,1.0789844E6,-9.036691E-4,6.015076E-2,2.5348932E-2,-1.1327739E-2,-3.1768367E-2,-1.1450506E-2,8.403455E6,1.4096776E-2,4.800481E5,4.9823998E-3,-2.8462426E-3],"split_indices":[57,4,51,27,0,38,0,0,0,0,44,0,27,0,0],"split_type":[0,0,0,0,0,0,0,0,0,0,0,0,0,0,0],"sum_hessian":[7.1E1,2.3E1,4.8E1,1.6E1,7E0,4.2E1,6E0,9E0,7E0,6E0,3.6E1,6E0,3E1,2.4E1,6E0],"tree_param":{"num_deleted":"0","num_feature":"115","num_nodes":"15","size_leaf_vector":"1"}},{"base_weights":[-1.5666451E-3,-2.6866388E-1,1.0623693E-1,-1.4039582E-1,-2.9883765E-2,-1.8703036E-2,2.5592315E-1,-1.3464021E-2,1.1745162E-3,9.708145E-3,-6.6109106E-2,3.765722E-1,6.9883196E-3,-5.4734135E-3,-1.0282227E-2,8.484132E-3,2.7077582E-2,3.7645334E-3,-3.9108815E-3],"categories":[],"categories_nodes":[],"categories_segments":[],"categories_sizes":[],"default_left":[0,0,0,0,0,0,0,0,0,0,0,0,0,0,0,0,0,0,0],"id":18,"left_children":[1,3,5,7,-1,9,11,-1,-1,-1,13,15,-1,17,-1,-1,-1,-1,-1],"loss_changes":[2.303271E0,9.17678E-1,1.0707887E0,4.0244764E-1,0E0,3.4141752E-1,3.0268633E-1,0E0,0E0,0E0,2.3350114E-1,3.3249366E-1,0E0,1.27998E-1,0E0,0E0,0E0,0E0,0E0],"parents":[2147483647,0,0,1,1,2,2,3,3,5,5,6,6,10,10,11,11,13,13],"right_children":[2,4,6,8,-1,10,12,-1,-1,-1,14,16,-1,18,-1,-1,-1,-1,-1],"split_conditions":[6.6504064E0,7.916317E11,6.012512E-1,5.84957E5,-2.9883765E-2,2.9862975E5,3.827309E6,-1.3464021E-2,1.1745162E-3,9.708145E-3,1.1658537E1,3.5615184E0,6.9883196E-3,6.5957415E-1,-1.0282227E-2,8.484132E-3,2.7077582E-2,3.7645334E-3,-3.9108815E-3],"split_indices":[57,30,41,1,0,31,46,0,0,0,56,55,0,26,0,0,0,0,0],"split_type":[0,0,0,0,0,0,0,0,0,0,0,0,0,0,0,0,0,0,0],"sum_hessian":[7.8E1,2.2E1,5.6E1,1.7E1,5E0,3.1E1,2.5E1,9E0,8E0,5E0,2.6E1,1.1E1,1.4E1,1.9E1,7E0,6E0,5E0,9E0,1E1],"tree_param":{"num_deleted":"0","num_feature":"115","num_nodes":"19","size_leaf_vector":"1"}},{"base_weights":[1.6054535E-2,-1.8598679E-1,1.2345314E-1,5.0387103E-3,-3.659999E-1,8.4036686E-2,1.7951837E-2,-9.659654E-3,-2.6085056E-2,7.698176E-3,5.270578E-4],"categories":[],"categories_nodes":[],"categories_segments":[],"categories_sizes":[],"default_left":[0,0,0,0,0,0,0,0,0,0,0],"id":19,"left_children":[1,3,5,-1,7,9,-1,-1,-1,-1,-1],"loss_changes":[1.4984899E0,1.2844851E0,3.9887303E-1,0E0,3.151493E-1,2.1166578E-1,0E0,0E0,0E0,0E0,0E0],"parents":[2147483647,0,0,1,1,2,2,4,4,5,5],"right_children":[2,4,6,-1,8,10,-1,-1,-1,-1,-1],"split_conditions":[6.015076E-2,5.8871865E-1,6.5317163E3,5.0387103E-3,9.5728264E7,1.181508E6,1.7951837E-2,-9.659654E-3,-2.6085056E-2,7.698176E-3,5.270578E-4],"split_indices":[38,26,4,0,44,31,0,0,0,0,0],"split_type":[0,0,0,0,0,0,0,0,0,0,0],"sum_hessian":[6.7E1,2.3E1,4.4E1,9E0,1.4E1,3.9E1,5E0,8E0,6E0,1.9E1,2E1],"tree_param":{"num_deleted":"0","num_feature":"115","num_nodes":"11","size_leaf_vector":"1"}},{"base_weights":[-2.9041283E-2,-2.5280547E-1,8.97217E-2,4.3057264E-3,-4.194248E-1,1.45868445E-2,5.1703043E-2,8.21035E-3,-6.6750594E-3,-1.1245698E-2,-2.9700289E-2,-2.2421088E-3,5.986851E-3,1.7973605E-3,-5.816663E-3],"categories":[],"categories_nodes":[],"categories_segments":[],"categories_sizes":[],"default_left":[0,0,0,0,0,0,0,0,0,0,0,0,0,0,0],"id":20,"left_children":[1,3,5,7,9,-1,11,-1,-1,-1,-1,13,-1,-1,-1],"loss_changes":[2.1486742E0,1.2013174E0,4.025311E-1,2.9697874E-1,4.6184087E-1,0E0,1.7457435E-1,0E0,0E0,0E0,0E0,1.2626818E-1,0E0,0E0,0E0],"parents":[2147483647,0,0,1,1,2,2,3,3,4,4,6,6,11,11],"right_children":[2,4,6,8,10,-1,12,-1,-1,-1,-1,14,-1,-1,-1],"split_conditions":[1.4865639E-2,5.0415697E5,2.9862975E5,1.0689756E5,2.5036643E8,1.45868445E-2,6.304023E-1,8.21035E-3,-6.6750594E-3,-1.1245698E-2,-2.9700289E-2,3.9250955E-1,5.986851E-3,1.7973605E-3,-5.816663E-3],"split_indices":[37,27,31,32,7,0,40,0,0,0,0,40,0,0,0],"split_type":[0,0,0,0,0,0,0,0,0,0,0,0,0,0,0],"sum_hessian":[7.9E1,2.7E1,5.2E1,1.1E1,1.6E1,7E0,4.5E1,5E0,6E0,9E0,7E0,2.6E1,1.9E1,2E1,6E0],"tree_param":{"num_deleted":"0","num_feature":"115","num_nodes":"15","size_leaf_vector":"1"}},{"base_weights":[-3.0049921E-3,-2.4526216E-1,1.4126725E-1,-1.2291123E-1,-2.6625287E-2,1.3159894E-3,2.1802947E-1,-1.0123482E-2,-4.3591075E-2,1.3538176E-2,1.4827667E-3,2.998949E-3,-6.9224844E-3],"categories":[],"categories_nodes":[],"categories_segments":[],"categories_sizes":[],"default_left":[0,0,0,0,0,0,0,0,0,0,0,0,0],"id":21,"left_children":[1,3,5,7,-1,-1,9,-1,11,-1,-1,-1,-1],"loss_changes":[2.3414125E0,8.419758E-1,3.6318392E-1,1.165365E-1,0E0,0E0,2.627275E-1,0E0,1.207742E-1,0E0,0E0,0E0,0E0],"parents":[2147483647,0,0,1,1,2,2,3,3,6,6,8,8],"right_children":[2,4,6,8,-1,-1,10,-1,12,-1,-1,-1,-1],"split_conditions":[1.7489342E-2,1.5135763E8,2.5222173E-1,1.346E3,-2.6625287E-2,1.3159894E-3,3.3934937E0,-1.0123482E-2,9.837914E0,1.3538176E-2,1.4827667E-3,2.998949E-3,-6.9224844E-3],"split_indices":[37,44,38,11,0,0,53,0,55,0,0,0,0],"split_type":[0,0,0,0,0,0,0,0,0,0,0,0,0],"sum_hessian":[6.5E1,2.4E1,4.1E1,1.8E1,6E0,1.7E1,2.4E1,8E0,1E1,1.8E1,6E0,5E0,5E0],"tree_param":{"num_deleted":"0","num_feature":"115","num_nodes":"13","size_leaf_vector":"1"}},{"base_weights":[-7.7880896E-4,6.1643828E-2,-2.216756E-2,1.4499612E-2,2.5667531E-2,-8.34008E-3,6.911146E-2,1.0648367E-2,2.330869E-2,-5.5685276E-3,4.821752E-2,6.6294437E-3,-1.0623133E-2,-3.4819979E-3,5.4738694E-3],"categories":[],"categories_nodes":[],"categories_segments":[],"categories_sizes":[],"default_left":[0,0,0,0,0,0,0,0,0,0,0,0,0,0,0],"id":22,"left_children":[1,3,-1,5,-1,-1,7,-1,9,-1,11,-1,13,-1,-1],"loss_changes":[2.081806E0,1.4056114E0,0E0,6.1588556E-1,0E0,0E0,3.1307715E-1,0E0,1.3148472E-1,0E0,1.648986E-1,0E0,1.5518305E-1,0E0,0E0],"parents":[2147483647,0,0,1,1,3,3,6,6,8,8,10,10,12,12],"right_children":[2,4,-1,6,-1,-1,8,-1,10,-1,12,-1,14,-1,-1],"split_conditions":[1.4899646E8,3.4414336E3,-2.216756E-2,2.2839906E8,2.5667531E-2,-8.34008E-3,1.7329262E7,1.0648367E-2,4.57563E5,-5.5685276E-3,5.7229916E7,6.6294437E-3,9.250027E7,-3.4819979E-3,5.4738694E-3],"split_indices":[44,51,0,7,0,0,44,0,1,0,44,0,44,0,0],"split_type":[0,0,0,0,0,0,0,0,0,0,0,0,0,0,0],"sum_hessian":[7.2E1,6.4E1,8E0,5.9E1,5E0,1.3E1,4.6E1,1E1,3.6E1,5E0,3.1E1,1.2E1,1.9E1,1.3E1,6E0],"tree_param":{"num_deleted":"0","num_feature":"115","num_nodes":"15","size_leaf_vector":"1"}},{"base_weights":[-7.0366934E-3,-2.1274422E-1,9.167809E-2,-2.9697755E-1,3.7024175E-3,1.3440922E-1,-8.72939E-3,-7.8110406E-3,-2.206517E-2,-1.9364968E-3,1.7030679E-1,2.4369304E-1,3.8426183E-3,1.811467E-2,7.732006E-3],"categories":[],"categories_nodes":[],"categories_segments":[],"categories_sizes":[],"default_left":[0,0,0,0,0,0,0,0,0,0,0,0,0,0,0],"id":23,"left_children":[1,3,5,7,-1,9,-1,-1,-1,-1,11,13,-1,-1,-1],"loss_changes":[1.4409503E0,5.8066237E-1,5.766351E-1,3.0686724E-1,0E0,2.6883525E-1,0E0,0E0,0E0,0E0,2.1732771E-1,1.470772E-1,0E0,0E0,0E0],"parents":[2147483647,0,0,1,1,2,2,3,3,5,5,10,10,11,11],"right_children":[2,4,6,8,-1,10,-1,-1,-1,-1,12,14,-1,-1,-1],"split_conditions":[2.0113895E-2,1.7493458E3,3.45E2,1.0370839E6,3.7024175E-3,2.5547945E0,-8.72939E-3,-7.8110406E-3,-2.206517E-2,-1.9364968E-3,3.1419718E0,2.0571364E6,3.8426183E-3,1.811467E-2,7.732006E-3],"split_indices":[40,4,8,27,0,52,0,0,0,0,52,46,0,0,0],"split_type":[0,0,0,0,0,0,0,0,0,0,0,0,0,0,0],"sum_hessian":[6.9E1,2.2E1,4.7E1,1.7E1,5E0,4.1E1,6E0,1E1,7E0,7E0,3.4E1,1.8E1,1.6E1,6E0,1.2E1],"tree_param":{"num_deleted":"0","num_feature":"115","num_nodes":"15","size_leaf_vector":"1"}},{"base_weights":[-1.9457502E-2,-1.1716236E-1,8.904412E-2,-5.6788504E-2,-1.8000867E-2,1.2668326E-1,-6.520419E-3,-1.0848941E-2,1.7726362E-2,1.2323694E-2,2.144599E-3,7.6829125E-3,-3.4420106E-3],"categories":[],"categories_nodes":[],"categories_segments":[],"categories_sizes":[],"default_left":[0,0,0,0,0,0,0,0,0,0,0,0,0],"id":24,"left_children":[1,3,5,7,-1,9,-1,-1,11,-1,-1,-1,-1],"loss_changes":[8.4792227E-1,6.118115E-1,3.3414298E-1,4.3212637E-1,0E0,3.2958692E-1,0E0,0E0,3.1568074E-1,0E0,0E0,0E0,0E0],"parents":[2147483647,0,0,1,1,2,2,3,3,5,5,8,8],"right_children":[2,4,6,8,-1,10,-1,-1,12,-1,-1,-1,-1],"split_conditions":[3.2711282E-2,9.1671896E-1,2.292109E7,2.23E2,-1.8000867E-2,1.1667828E6,-6.520419E-3,-1.0848941E-2,2.217E3,1.2323694E-2,2.144599E-3,7.6829125E-3,-3.4420106E-3],"split_indices":[37,26,46,10,0,31,0,0,10,0,0,0,0],"split_type":[0,0,0,0,0,0,0,0,0,0,0,0,0],"sum_hessian":[7.8E1,4.1E1,3.7E1,3.4E1,7E0,3.2E1,5E0,1E1,2.4E1,1.2E1,2E1,9E0,1.5E1],"tree_param":{"num_deleted":"0","num_feature":"115","num_nodes":"13","size_leaf_vector":"1"}},{"base_weights":[5.206865E-3,4.1475102E-2,-1.9670278E-2,-1.9523042E-1,1.0768468E-1,-1.3634004E-2,-1.2388254E-3,4.1639794E-2,2.5781098E-1,1.3674739E-1,-6.066503E-2,2.1280596E-2,6.8029743E-3,2.4711913E-3,1.1624263E-2,-6.058208E-3,4.70435E-3],"categories":[],"categories_nodes":[],"categories_segments":[],"categories_sizes":[],"default_left":[0,0,0,0,0,0,0,0,0,0,0,0,0,0,0,0,0],"id":25,"left_children":[1,3,-1,5,7,-1,-1,9,11,13,15,-1,-1,-1,-1,-1,-1],"loss_changes":[1.0764529E0,1.0710589E0,0E0,2.0330131E-1,5.147639E-1,0E0,0E0,3.7803447E-1,2.7505088E-1,1.6094676E-1,1.9834189E-1,0E0,0E0,0E0,0E0,0E0,0E0],"parents":[2147483647,0,0,1,1,3,3,4,4,7,7,8,8,9,9,10,10],"right_children":[2,4,-1,6,8,-1,-1,10,12,14,16,-1,-1,-1,-1,-1,-1],"split_conditions":[3.698723E10,1.648E3,-1.9670278E-2,3.8251555E-1,1.892355E3,-1.3634004E-2,-1.2388254E-3,1.181508E6,1.383E4,3.015899E-2,1E0,2.1280596E-2,6.8029743E-3,2.4711913E-3,1.1624263E-2,-6.058208E-3,4.70435E-3],"split_indices":[5,11,0,57,51,0,0,31,10,37,80,0,0,0,0,0,0],"split_type":[0,0,0,0,0,0,0,0,0,0,0,0,0,0,0,0,0],"sum_hessian":[7.1E1,6.6E1,5E0,1.4E1,5.2E1,9E0,5E0,3.7E1,1.5E1,1.9E1,1.8E1,5E0,1E1,1.1E1,8E0,1.3E1,5E0],"tree_param":{"num_deleted":"0","num_feature":"115","num_nodes":"17","size_leaf_vector":"1"}},{"base_weights":[-1.647754E-2,3.7622735E-2,-2.8987297E-1,-9.913354E-3,8.4004186E-2,-2.0809948E-2,-7.5184917E-3,4.4491112E-2,1.186158E-2,1.0351287E-1,-7.2644226E-2,9.4982395E-3,2.526701E-3,-8.224554E-3,9.703081E-4],"categories":[],"categories_nodes":[],"categories_segments":[],"categories_sizes":[],"default_left":[0,0,0,0,0,0,0,0,0,0,0,0,0,0,0],"id":26,"left_children":[1,3,5,-1,7,-1,-1,9,-1,11,13,-1,-1,-1,-1],"loss_changes":[1.1645857E0,7.502485E-1,1.7326903E-1,0E0,3.3797675E-1,0E0,0E0,3.2554212E-1,0E0,1.3518E-1,1.4359155E-1,0E0,0E0,0E0,0E0],"parents":[2147483647,0,0,1,1,2,2,4,4,7,7,9,9,10,10],"right_children":[2,4,6,-1,8,-1,-1,10,-1,12,14,-1,-1,-1,-1],"split_conditions":[1.0232127E12,1.543E3,2.277961E6,-9.913354E-3,4.9891987E3,-2.0809948E-2,-7.5184917E-3,6.98494E7,1.186158E-2,1.7329262E7,1.962943E3,9.4982395E-3,2.526701E-3,-8.224554E-3,9.703081E-4],"split_indices":[30,2,1,0,4,0,0,44,0,44,4,0,0,0,0],"split_type":[0,0,0,0,0,0,0,0,0,0,0,0,0,0,0],"sum_hessian":[7.7E1,6.5E1,1.2E1,1E1,5.5E1,5E0,7E0,4.5E1,1E1,3E1,1.5E1,1E1,2E1,7E0,8E0],"tree_param":{"num_deleted":"0","num_feature":"115","num_nodes":"15","size_leaf_vector":"1"}},{"base_weights":[-1.6774865E-2,2.2359641E-2,-2.1500543E-2,-1.2565155E-1,8.171822E-2,-8.9705875E-3,-8.4445666E-5,1.2181568E-2,5.1314753E-2,1.6408395E-2,9.4877565E-3,-1.1270148E-3,4.9488926E-3],"categories":[],"categories_nodes":[],"categories_segments":[],"categories_sizes":[],"default_left":[0,0,0,0,0,0,0,0,0,0,0,0,0],"id":27,"left_children":[1,3,-1,5,7,-1,-1,-1,9,11,-1,-1,-1],"loss_changes":[1.163528E0,5.8134073E-1,0E0,1.3406095E-1,2.25052E-1,0E0,0E0,0E0,1.9996464E-1,1.1526482E-1,0E0,0E0,0E0],"parents":[2147483647,0,0,1,1,3,3,4,4,8,8,9,9],"right_children":[2,4,-1,6,8,-1,-1,-1,10,12,-1,-1,-1],"split_conditions":[1.5414109E8,1.438E3,-2.1500543E-2,2.741545E8,1.6256282E7,-8.9705875E-3,-8.4445666E-5,1.2181568E-2,1.6132394E2,1E0,9.4877565E-3,-1.1270148E-3,4.9488926E-3],"split_indices":[44,10,0,7,44,0,0,0,56,15,0,0,0],"split_type":[0,0,0,0,0,0,0,0,0,0,0,0,0],"sum_hessian":[6.9E1,6.4E1,5E0,1.8E1,4.6E1,1.2E1,6E0,6E0,4E1,3.3E1,7E0,2.3E1,1E1],"tree_param":{"num_deleted":"0","num_feature":"115","num_nodes":"13","size_leaf_vector":"1"}},{"base_weights":[4.0234547E-2,-1.8009594E-1,1.0566312E-1,-1.641945E-3,-1.585929E-2,5.9209943E-2,1.7788097E-2,-4.962642E-3,7.841298E-2,7.261781E-3,2.1453684E-2,-3.9354246E-3,2.9960868E-3],"categories":[],"categories_nodes":[],"categories_segments":[],"categories_sizes":[],"default_left":[0,0,0,0,0,0,0,0,0,0,0,0,0],"id":28,"left_children":[1,3,5,-1,-1,7,-1,-1,9,-1,11,-1,-1],"loss_changes":[1.1290545E0,3.6650872E-1,6.938956E-1,0E0,0E0,1.6798708E-1,0E0,0E0,1.8288276E-1,0E0,1.13460645E-1,0E0,0E0],"parents":[2147483647,0,0,1,1,2,2,5,5,8,8,10,10],"right_children":[2,4,6,-1,-1,8,-1,-1,10,-1,12,-1,-1],"split_conditions":[1.217012E-2,8.0159146E-1,3.9514639E3,-1.641945E-3,-1.585929E-2,2.074E3,1.7788097E-2,-4.962642E-3,4.8178736E7,7.261781E-3,1.0773855E3,-3.9354246E-3,2.9960868E-3],"split_indices":[40,26,51,0,0,2,0,0,44,0,51,0,0],"split_type":[0,0,0,0,0,0,0,0,0,0,0,0,0],"sum_hessian":[7.6E1,1.7E1,5.9E1,9E0,8E0,5.1E1,8E0,5E0,4.6E1,2E1,2.6E1,7E0,1.9E1],"tree_param":{"num_deleted":"0","num_feature":"115","num_nodes":"13","size_leaf_vector":"1"}},{"base_weights":[1.3357232E-2,-1.09336255E-2,6.514406E-2,1.07315265E-1,-1.0896942E-1,7.0487596E-2,1.5364354E-2,-3.5821355E-4,-1.0281824E-2,9.455917E-3,2.6307374E-2,-4.530428E-3,3.7667106E-3],"categories":[],"categories_nodes":[],"categories_segments":[],"categories_sizes":[],"default_left":[0,0,0,0,0,0,0,0,0,0,0,0,0],"id":29,"left_children":[1,-1,3,5,7,9,-1,-1,-1,-1,11,-1,-1],"loss_changes":[8.824686E-1,0E0,4.4490603E-1,3.4144813E-1,1.2103732E-1,2.215284E-1,0E0,0E0,0E0,0E0,1.9839323E-1,0E0,0E0],"parents":[2147483647,0,0,2,2,3,3,4,4,5,5,10,10],"right_children":[2,-1,4,6,8,10,-1,-1,-1,-1,12,-1,-1],"split_conditions":[1.528E3,-1.09336255E-2,1.96E2,1.0011831E8,4.901466E9,3.5175372E5,1.5364354E-2,-3.5821355E-4,-1.0281824E-2,9.455917E-3,4.46206E5,-4.530428E-3,3.7667106E-3],"split_indices":[11,0,8,44,12,31,0,0,0,0,1,0,0],"split_type":[0,0,0,0,0,0,0,0,0,0,0,0,0],"sum_hessian":[7E1,1.2E1,5.8E1,4.7E1,1.1E1,4.1E1,6E0,6E0,5E0,1E1,3.1E1,9E0,2.2E1],"tree_param":{"num_deleted":"0","num_feature":"115","num_nodes":"13","size_leaf_vector":"1"}},{"base_weights":[1.1344429E-3,4.542106E-2,-1.589505E-2,-1.4501415E-2,2.3358513E-1,-5.8184072E-2,7.3463065E-3,1.9264063E-2,6.172905E-3,2.2440087E-3,-4.8015625E-3],"categories":[],"categories_nodes":[],"categories_segments":[],"categories_sizes":[],"default_left":[0,0,0,0,0,0,0,0,0,0,0],"id":30,"left_children":[1,3,-1,5,7,9,-1,-1,-1,-1,-1],"loss_changes":[1.0794531E0,7.4755424E-1,0E0,3.7436986E-1,2.2468871E-1,1.7322114E-1,0E0,0E0,0E0,0E0,0E0],"parents":[2147483647,0,0,1,1,3,3,4,4,5,5],"right_children":[2,4,-1,6,8,10,-1,-1,-1,-1,-1],"split_conditions":[1.2159766E6,3.2311362E3,-1.589505E-2,5.5143005E-1,9.5E2,3.3207992E-1,7.3463065E-3,1.9264063E-2,6.172905E-3,2.2440087E-3,-4.8015625E-3],"split_indices":[27,4,0,38,0,26,0,0,0,0,0],"split_type":[0,0,0,0,0,0,0,0,0,0,0],"sum_hessian":[7.3E1,6.5E1,8E0,5E1,1.5E1,4E1,1E1,5E0,1E1,1.1E1,2.9E1],"tree_param":{"num_deleted":"0","num_feature":"115","num_nodes":"11","size_leaf_vector":"1"}},{"base_weights":[-1.9008998E-2,2.0432957E-2,-1.362022E-2,-1.6878393E-1,6.560678E-2,-1.2191049E-2,-1.699292E-3,3.5918865E-2,1.4587329E-2,8.3578415E-3,-2.2672575E-2,-4.1214605E-3,2.7168903E-3],"categories":[],"categories_nodes":[],"categories_segments":[],"categories_sizes":[],"default_left":[0,0,0,0,0,0,0,0,0,0,0,0,0],"id":31,"left_children":[1,3,-1,5,7,-1,-1,9,-1,-1,11,-1,-1],"loss_changes":[7.70101E-1,5.752183E-1,0E0,1.3012546E-1,3.6048335E-1,0E0,0E0,3.894863E-1,0E0,0E0,1.7195417E-1,0E0,0E0],"parents":[2147483647,0,0,1,1,3,3,4,4,7,7,10,10],"right_children":[2,4,-1,6,8,-1,-1,10,-1,-1,12,-1,-1],"split_conditions":[1.21144904E8,2.3140822E8,-1.362022E-2,1.3440569E1,4.146482E3,-1.2191049E-2,-1.699292E-3,2.325535E7,1.4587329E-2,8.3578415E-3,1.2052782E3,-4.1214605E-3,2.7168903E-3],"split_indices":[44,7,0,55,4,0,0,44,0,0,51,0,0],"split_type":[0,0,0,0,0,0,0,0,0,0,0,0,0],"sum_hessian":[7.4E1,6.5E1,9E0,1.2E1,5.3E1,7E0,5E0,4.8E1,5E0,1.4E1,3.4E1,1.9E1,1.5E1],"tree_param":{"num_deleted":"0","num_feature":"115","num_nodes":"13","size_leaf_vector":"1"}},{"base_weights":[-9.672453E-3,3.2812443E-2,-2.215897E-2,-6.3623213E-3,1.7276714E-2,-1.1557485E-1,5.4741472E-2,-9.425394E-3,-2.3214722E-3,7.2672334E-3,8.8617014E-4],"categories":[],"categories_nodes":[],"categories_segments":[],"categories_sizes":[],"default_left":[0,0,0,0,0,0,0,0,0,0,0],"id":32,"left_children":[1,3,-1,5,-1,7,9,-1,-1,-1,-1],"loss_changes":[1.4972064E0,9.1475964E-1,0E0,4.467645E-1,0E0,1.1615011E-1,1.4450203E-1,0E0,0E0,0E0,0E0],"parents":[2147483647,0,0,1,1,3,3,5,5,6,6],"right_children":[2,4,-1,6,-1,8,10,-1,-1,-1,-1],"split_conditions":[1.2427474E8,4.9891987E3,-2.215897E-2,7.0277144E7,1.7276714E-2,3.5618556E0,2.6529046E7,-9.425394E-3,-2.3214722E-3,7.2672334E-3,8.8617014E-4],"split_indices":[44,4,0,12,0,53,44,0,0,0,0],"split_type":[0,0,0,0,0,0,0,0,0,0,0],"sum_hessian":[7.8E1,7.2E1,6E0,6.5E1,7E0,2.3E1,4.2E1,1E1,1.3E1,1.1E1,3.1E1],"tree_param":{"num_deleted":"0","num_feature":"115","num_nodes":"11","size_leaf_vector":"1"}},{"base_weights":[-1.5570879E-2,-2.190597E-1,8.2088366E-2,8.5699797E-4,-3.5545832E-1,2.4372004E-3,1.1291955E-2,-1.0046729E-2,-2.342058E-2],"categories":[],"categories_nodes":[],"categories_segments":[],"categories_sizes":[],"default_left":[0,0,0,0,0,0,0,0,0],"id":33,"left_children":[1,3,5,-1,7,-1,-1,-1,-1],"loss_changes":[1.3494442E0,7.1593356E-1,2.0934469E-1,0E0,1.5910637E-1,0E0,0E0,0E0,0E0],"parents":[2147483647,0,0,1,1,2,2,4,4],"right_children":[2,4,6,-1,8,-1,-1,-1,-1],"split_conditions":[7.940699E-3,3.6588228E5,1.1997641E0,8.5699797E-4,9.3570206E5,2.4372004E-3,1.1291955E-2,-1.0046729E-2,-2.342058E-2],"split_indices":[37,27,38,0,27,0,0,0,0],"split_type":[0,0,0,0,0,0,0,0,0],"sum_hessian":[6.6E1,2.1E1,4.5E1,8E0,1.3E1,3.8E1,7E0,7E0,6E0],"tree_param":{"num_deleted":"0","num_feature":"115","num_nodes":"9","size_leaf_vector":"1"}},{"base_weights":[1.4198847E-3,-4.122868E-2,2.2194607E-2,-1.3280036E-1,7.040858E-2,-8.228565E-2,-2.0313371E-2,8.839084E-3,1.1655054E-3,3.7776062E-3,-1.382122E-1,-1.3436738E-3,-9.907611E-3],"categories":[],"categories_nodes":[],"categories_segments":[],"categories_sizes":[],"default_left":[0,0,0,0,0,0,0,0,0,0,0,0,0],"id":34,"left_children":[1,3,-1,5,7,9,-1,-1,-1,-1,11,-1,-1],"loss_changes":[1.5562164E0,7.6583827E-1,0E0,5.4784024E-1,1.6968237E-1,3.312218E-1,0E0,0E0,0E0,0E0,1.8479353E-1,0E0,0E0],"parents":[2147483647,0,0,1,1,3,3,4,4,5,5,10,10],"right_children":[2,4,-1,6,8,10,-1,-1,-1,-1,12,-1,-1],"split_conditions":[6.7780703E3,4.283039E1,2.2194607E-2,1.5135763E8,2.156825E7,3.459181E-1,-2.0313371E-2,8.839084E-3,1.1655054E-3,3.7776062E-3,1.5368E4,-1.3436738E-3,-9.907611E-3],"split_indices":[4,57,0,44,44,26,0,0,0,0,9,0,0],"split_type":[0,0,0,0,0,0,0,0,0,0,0,0,0],"sum_hessian":[7.9E1,7.3E1,6E0,4E1,3.3E1,3.5E1,5E0,9E0,2.4E1,9E0,2.6E1,1E1,1.6E1],"tree_param":{"num_deleted":"0","num_feature":"115","num_nodes":"13","size_leaf_vector":"1"}},{"base_weights":[2.3551324E-2,-2.4767287E-2,2.7618116E-1,-1.1624122E-1,3.0292E-2,1.9757818E-2,5.100631E-3,-9.066552E-3,2.787641E-3,-2.9648573E-4,5.7301046E-3],"categories":[],"categories_nodes":[],"categories_segments":[],"categories_sizes":[],"default_left":[0,0,0,0,0,0,0,0,0,0,0],"id":35,"left_children":[1,3,5,7,9,-1,-1,-1,-1,-1,-1],"loss_changes":[8.3689743E-1,2.9563755E-1,1.9747049E-1,2.7097008E-1,1.1687774E-1,0E0,0E0,0E0,0E0,0E0,0E0],"parents":[2147483647,0,0,1,1,2,2,3,3,4,4],"right_children":[2,4,6,8,10,-1,-1,-1,-1,-1,-1],"split_conditions":[2.1118015E3,1.1576994E-2,9.5E2,2.477407E6,1.1328785E-1,1.9757818E-2,5.100631E-3,-9.066552E-3,2.787641E-3,-2.9648573E-4,5.7301046E-3],"split_indices":[51,37,0,1,37,0,0,0,0,0,0],"split_type":[0,0,0,0,0,0,0,0,0,0,0],"sum_hessian":[6.7E1,5.7E1,1E1,2.1E1,3.6E1,5E0,5E0,1.5E1,6E0,2.6E1,1E1],"tree_param":{"num_deleted":"0","num_feature":"115","num_nodes":"11","size_leaf_vector":"1"}},{"base_weights":[1.6161116E-2,-3.6539175E-2,3.452665E-1,-1.606901E-1,3.3245545E-2,2.7661115E-2,3.4155506E-3,-6.1070785E-2,-1.7907323E-2,2.813106E-3,-6.5125767E-3,-8.6820815E-3,1.4079659E-3],"categories":[],"categories_nodes":[],"categories_segments":[],"categories_sizes":[],"default_left":[0,0,0,0,0,0,0,0,0,0,0,0,0],"id":36,"left_children":[1,3,5,7,9,-1,-1,11,-1,-1,-1,-1,-1],"loss_changes":[1.3827877E0,6.031471E-1,6.223842E-1,4.859256E-1,1.8716986E-1,0E0,0E0,1.9209798E-1,0E0,0E0,0E0,0E0,0E0],"parents":[2147483647,0,0,1,1,2,2,3,3,4,4,7,7],"right_children":[2,4,6,8,10,-1,-1,12,-1,-1,-1,-1,-1],"split_conditions":[4.9891987E3,8.161361E0,8.982776E9,7.916317E11,1.3312784E7,2.7661115E-2,3.4155506E-3,4E0,-1.7907323E-2,2.813106E-3,-6.5125767E-3,-8.6820815E-3,1.4079659E-3],"split_indices":[4,57,5,30,31,0,0,8,0,0,0,0,0],"split_type":[0,0,0,0,0,0,0,0,0,0,0,0,0],"sum_hessian":[7.8E1,6.8E1,1E1,2.4E1,4.4E1,5E0,5E0,1.7E1,7E0,3.9E1,5E0,7E0,1E1],"tree_param":{"num_deleted":"0","num_feature":"115","num_nodes":"13","size_leaf_vector":"1"}},{"base_weights":[-2.9478155E-2,3.134547E-2,-1.05996765E-1,9.182898E-3,-2.9935643E-2,-1.7123075E-1,-8.002812E-4,1.1299612E-2,-7.3593357E-3,-1.4833488E-2,-3.4214563E-3,-3.1115087E-3,5.170479E-3],"categories":[],"categories_nodes":[],"categories_segments":[],"categories_sizes":[],"default_left":[0,0,0,0,0,0,0,0,0,0,0,0,0],"id":37,"left_children":[1,3,5,-1,7,9,-1,11,-1,-1,-1,-1,-1],"loss_changes":[3.4772885E-1,4.0633434E-1,1.9029963E-1,0E0,1.550427E-1,2.3149824E-1,0E0,1.751737E-1,0E0,0E0,0E0,0E0,0E0],"parents":[2147483647,0,0,1,1,2,2,4,4,5,5,7,7],"right_children":[2,4,6,-1,8,10,-1,12,-1,-1,-1,-1,-1],"split_conditions":[6.7376137E-1,1.5199E4,1E0,9.182898E-3,1.6107566E5,1.4235585E3,-8.002812E-4,8.1637933E2,-7.3593357E-3,-1.4833488E-2,-3.4214563E-3,-3.1115087E-3,5.170479E-3],"split_indices":[26,9,15,0,32,4,0,51,0,0,0,0,0],"split_type":[0,0,0,0,0,0,0,0,0,0,0,0,0],"sum_hessian":[7.3E1,4.1E1,3.2E1,1.1E1,3E1,1.8E1,1.4E1,2.3E1,7E0,7E0,1.1E1,1.3E1,1E1],"tree_param":{"num_deleted":"0","num_feature":"115","num_nodes":"13","size_leaf_vector":"1"}},{"base_weights":[-3.0035045E-2,1.0828146E-3,-1.8288529E-2,-9.803892E-2,3.6744982E-2,-7.5814067E-3,1.9866752E-3,4.269513E-3,-6.3606974E-4],"categories":[],"categories_nodes":[],"categories_segments":[],"categories_sizes":[],"default_left":[0,0,0,0,0,0,0,0,0],"id":38,"left_children":[1,3,-1,5,7,-1,-1,-1,-1],"loss_changes":[7.677181E-1,2.4044046E-1,0E0,1.4681849E-1,1.259232E-1,0E0,0E0,0E0,0E0],"parents":[2147483647,0,0,1,1,3,3,4,4],"right_children":[2,4,-1,6,8,-1,-1,-1,-1],"split_conditions":[1.5414109E8,3.068E3,-1.8288529E-2,2.37321E6,6.854598E7,-7.5814067E-3,1.9866752E-3,4.269513E-3,-6.3606974E-4],"split_indices":[44,2,0,47,44,0,0,0,0],"split_type":[0,0,0,0,0,0,0,0,0],"sum_hessian":[7.1E1,6.6E1,5E0,1.7E1,4.9E1,1.2E1,5E0,2.4E1,2.5E1],"tree_param":{"num_deleted":"0","num_feature":"115","num_nodes":"9","size_leaf_vector":"1"}},{"base_weights":[6.0493905E-2,1.8862784E-2,1.4323112E-2,8.2179636E-2,-4.965037E-2,-1.1853584E-3,7.5804605E-3,-8.0141E-3,2.24567E-3],"categories":[],"categories_nodes":[],"categories_segments":[],"categories_sizes":[],"default_left":[0,0,0,0,0,0,0,0,0],"id":39,"left_children":[1,3,-1,5,7,-1,-1,-1,-1],"loss_changes":[6.298864E-1,2.5134835E-1,0E0,2.3410118E-1,3.1084996E-1,0E0,0E0,0E0,0E0],"parents":[2147483647,0,0,1,1,3,3,4,4],"right_children":[2,4,-1,6,8,-1,-1,-1,-1],"split_conditions":[6.5317163E3,5.7229916E7,1.4323112E-2,3.144E3,5.062801E11,-1.1853584E-3,7.5804605E-3,-8.0141E-3,2.24567E-3],"split_indices":[4,44,0,2,30,0,0,0,0],"split_type":[0,0,0,0,0,0,0,0,0],"sum_hessian":[6.5E1,5.6E1,9E0,2.9E1,2.7E1,1.2E1,1.7E1,1.2E1,1.5E1],"tree_param":{"num_deleted":"0","num_feature":"115","num_nodes":"9","size_leaf_vector":"1"}},{"base_weights":[7.97047E-3,-3.4158625E-2,1.666469E-2,3.7368038E-3,-1.3044306E-2,-5.386321E-3,4.9033236E-2,6.2351944E-3,-1.2828831E-2,-4.9604382E-3,3.4364306E-3],"categories":[],"categories_nodes":[],"categories_segments":[],"categories_sizes":[],"default_left":[0,0,0,0,0,0,0,0,0,0,0],"id":40,"left_children":[1,3,-1,5,-1,-1,7,-1,9,-1,-1],"loss_changes":[1.1147797E0,6.2395734E-1,0E0,3.2398638E-1,0E0,0E0,2.1867892E-1,0E0,1.9702259E-1,0E0,0E0],"parents":[2147483647,0,0,1,1,3,3,6,6,8,8],"right_children":[2,4,-1,6,-1,-1,8,-1,10,-1,-1],"split_conditions":[4.0235266E3,1.4899646E8,1.666469E-2,7.801514E2,-1.3044306E-2,-5.386321E-3,5.7229916E7,6.2351944E-3,1.0781599E3,-4.9604382E-3,3.4364306E-3],"split_indices":[51,44,0,4,0,0,44,0,51,0,0],"split_type":[0,0,0,0,0,0,0,0,0,0,0],"sum_hessian":[7.8E1,7E1,8E0,6.1E1,9E0,1.7E1,4.4E1,1.9E1,2.5E1,1.2E1,1.3E1],"tree_param":{"num_deleted":"0","num_feature":"115","num_nodes":"11","size_leaf_vector":"1"}},{"base_weights":[1.2421385E-2,-2.661511E-2,1.5661146E-2,8.515507E-3,-1.186941E-2,-5.6693163E-3,3.174948E-2,-5.650824E-3,4.9444146E-2,8.778609E-3,5.2509847E-4],"categories":[],"categories_nodes":[],"categories_segments":[],"categories_sizes":[],"default_left":[0,0,0,0,0,0,0,0,0,0,0],"id":41,"left_children":[1,3,-1,5,-1,-1,7,-1,9,-1,-1],"loss_changes":[9.539298E-1,5.386975E-1,0E0,1.8227701E-1,0E0,0E0,1.4340845E-1,0E0,2.3869595E-1,0E0,0E0],"parents":[2147483647,0,0,1,1,3,3,6,6,8,8],"right_children":[2,4,-1,6,-1,-1,8,-1,10,-1,-1],"split_conditions":[4.9891987E3,9.1569895E-1,1.5661146E-2,1.648E3,-1.186941E-2,-5.6693163E-3,2.5332227E0,-5.650824E-3,1.6256282E7,8.778609E-3,5.2509847E-4],"split_indices":[4,26,0,11,0,0,52,0,44,0,0],"split_type":[0,0,0,0,0,0,0,0,0,0,0],"sum_hessian":[7.8E1,7E1,8E0,6.1E1,9E0,9E0,5.2E1,5E0,4.7E1,1E1,3.7E1],"tree_param":{"num_deleted":"0","num_feature":"115","num_nodes":"11","size_leaf_vector":"1"}},{"base_weights":[9.186646E-3,-2.3591982E-2,1.9150686E-2,7.2749235E-2,-5.1189575E-2,-3.1576736E-3,7.924987E-3,-7.966798E-3,-1.6415874E-2,7.535355E-3,-8.1189135E-3,-4.0703155E-2,3.7512253E-3,-4.729123E-3,2.7750346E-3],"categories":[],"categories_nodes":[],"categories_segments":[],"categories_sizes":[],"default_left":[0,0,0,0,0,0,0,0,0,0,0,0,0,0,0],"id":42,"left_children":[1,3,-1,5,7,-1,-1,-1,9,11,-1,13,-1,-1,-1],"loss_changes":[9.4557226E-1,1.8983902E-1,0E0,2.0484525E-1,2.0978843E-1,0E0,0E0,0E0,1.5465544E-1,1.2935658E-1,0E0,1.298286E-1,0E0,0E0,0E0],"parents":[2147483647,0,0,1,1,3,3,4,4,8,8,9,9,11,11],"right_children":[2,4,-1,6,8,-1,-1,-1,10,12,-1,14,-1,-1,-1],"split_conditions":[4.0235266E3,1.7329262E7,1.9150686E-2,2.1262457E0,9.408949E2,-3.1576736E-3,7.924987E-3,-7.966798E-3,3.64E2,1.2052782E3,-8.1189135E-3,4.3646493E0,3.7512253E-3,-4.729123E-3,2.7750346E-3],"split_indices":[51,44,0,55,4,0,0,0,8,51,0,53,0,0,0],"split_type":[0,0,0,0,0,0,0,0,0,0,0,0,0,0,0],"sum_hessian":[7.4E1,6.9E1,5E0,1.5E1,5.4E1,6E0,9E0,1.2E1,4.2E1,3.7E1,5E0,2.2E1,1.5E1,1.4E1,8E0],"tree_param":{"num_deleted":"0","num_feature":"115","num_nodes":"15","size_leaf_vector":"1"}},{"base_weights":[-4.942342E-3,3.4710273E-2,-1.627301E-2,1.1842767E-2,1.382875E-2,7.971509E-2,-4.0837314E-2,8.768508E-3,1.5332443E-3,-7.4814674E-3,-3.079751E-4],"categories":[],"categories_nodes":[],"categories_segments":[],"categories_sizes":[],"default_left":[0,0,0,0,0,0,0,0,0,0,0],"id":43,"left_children":[1,3,-1,-1,5,7,9,-1,-1,-1,-1],"loss_changes":[9.566525E-1,2.8127292E-1,0E0,0E0,2.2296189E-1,1.2866971E-1,1.301358E-1,0E0,0E0,0E0,0E0],"parents":[2147483647,0,0,1,1,4,4,5,5,6,6],"right_children":[2,4,-1,-1,6,8,10,-1,-1,-1,-1],"split_conditions":[1.5414109E8,1E0,-1.627301E-2,1.1842767E-2,4.7293822E5,2.9124088E0,2.1836805E6,8.768508E-3,1.5332443E-3,-7.4814674E-3,-3.079751E-4],"split_indices":[44,63,0,0,31,52,50,0,0,0,0],"split_type":[0,0,0,0,0,0,0,0,0,0,0],"sum_hessian":[7.2E1,6.5E1,7E0,5E0,6E1,2.7E1,3.3E1,8E0,1.9E1,7E0,2.6E1],"tree_param":{"num_deleted":"0","num_feature":"115","num_nodes":"11","size_leaf_vector":"1"}},{"base_weights":[1.2136525E-3,7.74439E-2,-7.1138464E-2,5.237987E-3,-1.2470221E-3,-1.5859775E-1,1.9877737E-2,-3.7901737E-3,-1.4666451E-2,4.2365417E-3,-3.4800547E-3],"categories":[],"categories_nodes":[],"categories_segments":[],"categories_sizes":[],"default_left":[0,0,0,0,0,0,0,0,0,0,0],"id":44,"left_children":[1,3,5,-1,-1,7,9,-1,-1,-1,-1],"loss_changes":[4.191657E-1,1.1400004E-1,3.1360084E-1,0E0,0E0,2.0507336E-1,1.2667494E-1,0E0,0E0,0E0,0E0],"parents":[2147483647,0,0,1,1,2,2,5,5,6,6],"right_children":[2,4,6,-1,-1,8,10,-1,-1,-1,-1],"split_conditions":[6.585265E-1,6.7584877E8,7.673801E2,5.237987E-3,-1.2470221E-3,1.052686E6,1.3946067E7,-3.7901737E-3,-1.4666451E-2,4.2365417E-3,-3.4800547E-3],"split_indices":[26,7,51,0,0,27,46,0,0,0,0],"split_type":[0,0,0,0,0,0,0,0,0,0,0],"sum_hessian":[7.4E1,3.6E1,3.8E1,2.8E1,8E0,1.9E1,1.9E1,1.3E1,6E0,1.1E1,8E0],"tree_param":{"num_deleted":"0","num_feature":"115","num_nodes":"11","size_leaf_vector":"1"}},{"base_weights":[1.25434585E-2,-3.1279963E-2,1.6803306E-2,-2.9869617E-3,-1.586476E-2,-7.0873266E-3,7.082917E-4],"categories":[],"categories_nodes":[],"categories_segments":[],"categories_sizes":[],"default_left":[0,0,0,0,0,0,0],"id":45,"left_children":[1,3,-1,5,-1,-1,-1],"loss_changes":[1.1088532E0,5.6055737E-1,0E0,1.5717831E-1,0E0,0E0,0E0],"parents":[2147483647,0,0,1,1,3,3],"right_children":[2,4,-1,6,-1,-1,-1],"split_conditions":[3.3077192E3,1.5012118E6,1.6803306E-2,2.0435429E8,-1.586476E-2,-7.0873266E-3,7.082917E-4],"split_indices":[51,27,0,7,0,0,0],"split_type":[0,0,0,0,0,0,0],"sum_hessian":[7.5E1,6.7E1,8E0,6.2E1,5E0,6E0,5.6E1],"tree_param":{"num_deleted":"0","num_feature":"115","num_nodes":"7","size_leaf_vector":"1"}},{"base_weights":[-3.5548672E-2,-5.60212E-3,-1.8117001E-2,-4.7952808E-3,2.7003406E-2,-5.980847E-3,4.5828324E-2,1.0206075E-1,1.21624966E-4,1.8545174E-3,1.0607216E-2],"categories":[],"categories_nodes":[],"categories_segments":[],"categories_sizes":[],"default_left":[0,0,0,0,0,0,0,0,0,0,0],"id":46,"left_children":[1,3,-1,-1,5,-1,7,9,-1,-1,-1],"loss_changes":[7.2692984E-1,2.067753E-1,0E0,0E0,1.484654E-1,0E0,1.11882806E-1,1.3840435E-1,0E0,0E0,0E0],"parents":[2147483647,0,0,1,1,4,4,6,6,7,7],"right_children":[2,4,-1,-1,6,-1,8,10,-1,-1,-1],"split_conditions":[1.5414109E8,1.528E3,-1.8117001E-2,-4.7952808E-3,2.4742014E0,-5.980847E-3,3.6871E4,5.76824E2,1.21624966E-4,1.8545174E-3,1.0607216E-2],"split_indices":[44,11,0,0,52,0,11,51,0,0,0],"split_type":[0,0,0,0,0,0,0,0,0,0,0],"sum_hessian":[7.2E1,6.7E1,5E0,1.7E1,5E1,5E0,4.5E1,1.9E1,2.6E1,1.3E1,6E0],"tree_param":{"num_deleted":"0","num_feature":"115","num_nodes":"11","size_leaf_vector":"1"}},{"base_weights":[-1.3936535E-2,3.9373323E-2,-1.855898E-1,-2.2830173E-2,1.4937094E-1,-1.8054586E-2,-7.904547E-2,-2.8332032E-3,3.6145858E-3,1.4737386E-2,4.5075227E-2,9.192151E-4,-8.833915E-3,5.9456374E-3,-3.1327375E-3],"categories":[],"categories_nodes":[],"categories_segments":[],"categories_sizes":[],"default_left":[0,0,0,0,0,0,0,0,0,0,0,0,0,0,0],"id":47,"left_children":[1,3,5,7,9,-1,11,-1,-1,-1,13,-1,-1,-1,-1],"loss_changes":[6.5701485E-1,3.797332E-1,3.0086392E-1,1.2535831E-1,3.0104432E-1,0E0,1.2173442E-1,0E0,0E0,0E0,1.1534701E-1,0E0,0E0,0E0,0E0],"parents":[2147483647,0,0,1,1,2,2,3,3,4,4,6,6,10,10],"right_children":[2,4,6,8,10,-1,12,-1,-1,-1,14,-1,-1,-1,-1],"split_conditions":[1.0232127E12,1.2777201E3,1.65427E6,4.0614333E0,3.6274084E9,-1.8054586E-2,5.303548E9,-2.8332032E-3,3.6145858E-3,1.4737386E-2,3.5010372E5,9.192151E-4,-8.833915E-3,5.9456374E-3,-3.1327375E-3],"split_indices":[30,51,28,53,12,0,12,0,0,0,31,0,0,0,0],"split_type":[0,0,0,0,0,0,0,0,0,0,0,0,0,0,0],"sum_hessian":[7E1,5.4E1,1.6E1,3.5E1,1.9E1,5E0,1.1E1,2.6E1,9E0,7E0,1.2E1,6E0,5E0,7E0,5E0],"tree_param":{"num_deleted":"0","num_feature":"115","num_nodes":"15","size_leaf_vector":"1"}},{"base_weights":[1.9423576E-2,-5.6491535E-2,1.4887007E-1,-5.6541525E-4,-1.2278832E-2,2.5301895E-1,2.6975197E-3,3.158153E-3,1.781714E-2],"categories":[],"categories_nodes":[],"categories_segments":[],"categories_sizes":[],"default_left":[0,0,0,0,0,0,0,0,0],"id":48,"left_children":[1,3,5,-1,-1,7,-1,-1,-1],"loss_changes":[7.4543077E-1,4.150858E-1,2.6000005E-1,0E0,0E0,2.462179E-1,0E0,0E0,0E0],"parents":[2147483647,0,0,1,1,2,2,5,5],"right_children":[2,4,6,-1,-1,8,-1,-1,-1],"split_conditions":[1.1813418E3,9.635135E7,1.0956273E10,-5.6541525E-4,-1.2278832E-2,1.144E4,2.6975197E-3,3.158153E-3,1.781714E-2],"split_indices":[51,44,5,0,0,2,0,0,0],"split_type":[0,0,0,0,0,0,0,0,0],"sum_hessian":[7.4E1,4.7E1,2.7E1,3.9E1,8E0,1.2E1,1.5E1,5E0,7E0],"tree_param":{"num_deleted":"0","num_feature":"115","num_nodes":"9","size_leaf_vector":"1"}},{"base_weights":[-1.8203143E-2,3.948176E-2,-7.383702E-2,-4.91742E-3,3.7627732E-3,-2.033799E-3,-1.150748E-2],"categories":[],"categories_nodes":[],"categories_segments":[],"categories_sizes":[],"default_left":[0,0,0,0,0,0,0],"id":49,"left_children":[1,3,5,-1,-1,-1,-1],"loss_changes":[2.339801E-1,1.9448869E-1,1.8283024E-1,0E0,0E0,0E0,0E0],"parents":[2147483647,0,0,1,1,2,2],"right_children":[2,4,6,-1,-1,-1,-1],"split_conditions":[6.585265E-1,2.0435429E8,3E1,-4.91742E-3,3.7627732E-3,-2.033799E-3,-1.150748E-2],"split_indices":[26,7,3,0,0,0,0],"split_type":[0,0,0,0,0,0,0],"sum_hessian":[7.1E1,3.5E1,3.6E1,7E0,2.8E1,3.1E1,5E0],"tree_param":{"num_deleted":"0","num_feature":"115","num_nodes":"7","size_leaf_vector":"1"}},{"base_weights":[2.5208674E-2,-5.284616E-3,1.0246003E-2,-4.221731E-3,3.9235905E-2,6.4257034E-3,4.1273102E-4],"categories":[],"categories_nodes":[],"categories_segments":[],"categories_sizes":[],"default_left":[0,0,0,0,0,0,0],"id":50,"left_children":[1,3,-1,-1,5,-1,-1],"loss_changes":[3.9276403E-1,2.2255188E-1,0E0,0E0,1.1191535E-1,0E0,0E0],"parents":[2147483647,0,0,1,1,4,4],"right_children":[2,4,-1,-1,6,-1,-1],"split_conditions":[6.7780703E3,2.1647314E8,1.0246003E-2,-4.221731E-3,2.325535E7,6.4257034E-3,4.1273102E-4],"split_indices":[4,12,0,0,44,0,0],"split_type":[0,0,0,0,0,0,0],"sum_hessian":[6.9E1,6E1,9E0,2.1E1,3.9E1,9E0,3E1],"tree_param":{"num_deleted":"0","num_feature":"115","num_nodes":"7","size_leaf_vector":"1"}},{"base_weights":[1.4583331E-2,-9.185806E-3,1.3116717E-2,1.629297E-2,-1.4430714E-1,-5.6454637E-3,3.9866414E-2,-1.4945229E-3,-1.242595E-2,1.0730911E-1,2.040496E-4,-1.3348513E-3,7.7219913E-3],"categories":[],"categories_nodes":[],"categories_segments":[],"categories_sizes":[],"default_left":[0,0,0,0,0,0,0,0,0,0,0,0,0],"id":51,"left_children":[1,3,-1,5,7,-1,9,-1,-1,11,-1,-1,-1],"loss_changes":[4.88758E-1,2.6055562E-1,0E0,2.0265129E-1,1.4094786E-1,0E0,1.3201559E-1,0E0,0E0,1.3199131E-1,0E0,0E0,0E0],"parents":[2147483647,0,0,1,1,3,3,4,4,6,6,9,9],"right_children":[2,4,-1,6,8,-1,10,-1,-1,12,-1,-1,-1],"split_conditions":[4.0235266E3,1.0232127E12,1.3116717E-2,1.595E3,4.212135E8,-5.6454637E-3,4.654812E5,-1.4945229E-3,-1.242595E-2,2.4463703E-5,2.040496E-4,-1.3348513E-3,7.7219913E-3],"split_indices":[51,30,0,2,7,0,31,0,0,37,0,0,0],"split_type":[0,0,0,0,0,0,0,0,0,0,0,0,0],"sum_hessian":[8E1,7.4E1,6E0,6.3E1,1.1E1,9E0,5.4E1,6E0,5E0,1.8E1,3.6E1,5E0,1.3E1],"tree_param":{"num_deleted":"0","num_feature":"115","num_nodes":"13","size_leaf_vector":"1"}},{"base_weights":[-4.6967324E-3,-3.0794473E-2,1.4045407E-1,-1.2780759E-2,-9.514151E-3,1.5503837E-2,-2.8618781E-3,-6.064544E-3,5.427009E-4],"categories":[],"categories_nodes":[],"categories_segments":[],"categories_sizes":[],"default_left":[0,0,0,0,0,0,0,0,0],"id":52,"left_children":[1,3,5,7,-1,-1,-1,-1,-1],"loss_changes":[2.732809E-1,1.7662871E-1,4.0173334E-1,1.4918314E-1,0E0,0E0,0E0,0E0,0E0],"parents":[2147483647,0,0,1,1,2,2,3,3],"right_children":[2,4,6,8,-1,-1,-1,-1,-1],"split_conditions":[5.744167E3,1.5135763E8,5.1835245E-1,2.1339026E8,-9.514151E-3,1.5503837E-2,-2.8618781E-3,-6.064544E-3,5.427009E-4],"split_indices":[4,44,26,7,0,0,0,0,0],"split_type":[0,0,0,0,0,0,0,0,0],"sum_hessian":[7E1,6E1,1E1,5.5E1,5E0,5E0,5E0,9E0,4.6E1],"tree_param":{"num_deleted":"0","num_feature":"115","num_nodes":"9","size_leaf_vector":"1"}},{"base_weights":[-1.0094666E-2,-3.5785582E-2,8.388562E-3,-6.339316E-3,-6.482565E-3,2.856376E-3,-6.592214E-2,-1.3867484E-3,-9.17103E-3],"categories":[],"categories_nodes":[],"categories_segments":[],"categories_sizes":[],"default_left":[0,0,0,0,0,0,0,0,0],"id":53,"left_children":[1,3,-1,-1,5,-1,7,-1,-1],"loss_changes":[3.3619183E-1,1.7147234E-1,0E0,0E0,1.9216886E-1,0E0,1.13133766E-1,0E0,0E0],"parents":[2147483647,0,0,1,1,4,4,6,6],"right_children":[2,4,-1,-1,6,-1,8,-1,-1],"split_conditions":[4.4845093E3,3.731E3,8.388562E-3,-6.339316E-3,6.2597164E7,2.856376E-3,6.650418E-2,-1.3867484E-3,-9.17103E-3],"split_indices":[51,11,0,0,44,0,37,0,0],"split_type":[0,0,0,0,0,0,0,0,0],"sum_hessian":[7E1,6.2E1,8E0,1.4E1,4.8E1,2.3E1,2.5E1,2E1,5E0],"tree_param":{"num_deleted":"0","num_feature":"115","num_nodes":"9","size_leaf_vector":"1"}},{"base_weights":[9.499023E-3,-1.9454498E-2,1.1628415E-2,4.3340633E-4,-1.3712147E-2],"categories":[],"categories_nodes":[],"categories_segments":[],"categories_sizes":[],"default_left":[0,0,0,0,0],"id":54,"left_children":[1,3,-1,-1,-1],"loss_changes":[5.2464485E-1,5.24243E-1,0E0,0E0,0E0],"parents":[2147483647,0,0,1,1],"right_children":[2,4,-1,-1,-1],"split_conditions":[4.9891987E3,1.15266744E8,1.1628415E-2,4.3340633E-4,-1.3712147E-2],"split_indices":[4,44,0,0,0],"split_type":[0,0,0,0,0],"sum_hessian":[7.8E1,7E1,8E0,6.4E1,6E0],"tree_param":{"num_deleted":"0","num_feature":"115","num_nodes":"5","size_leaf_vector":"1"}},{"base_weights":[1.2096384E-2,-2.7100151E-2,2.3904929E-1,-2.5640659E-3,-1.2953998E-2,2.0477127E-2,1.0391646E-3,4.003879E-3,-2.577606E-2,-2.6870011E-3,3.6310458E-3],"categories":[],"categories_nodes":[],"categories_segments":[],"categories_sizes":[],"default_left":[0,0,0,0,0,0,0,0,0,0,0],"id":55,"left_children":[1,3,5,7,-1,-1,-1,-1,9,-1,-1],"loss_changes":[6.6476506E-1,3.7110174E-1,4.1788572E-1,1.1730173E-1,0E0,0E0,0E0,0E0,1.3977358E-1,0E0,0E0],"parents":[2147483647,0,0,1,1,2,2,3,3,8,8],"right_children":[2,4,6,8,-1,-1,-1,-1,10,-1,-1],"split_conditions":[4.2930435E3,1.4805952E8,8.982776E9,1.6256282E7,-1.2953998E-2,2.0477127E-2,1.0391646E-3,4.003879E-3,5.0175633E0,-2.6870011E-3,3.6310458E-3],"split_indices":[4,44,5,44,0,0,0,0,53,0,0],"split_type":[0,0,0,0,0,0,0,0,0,0,0],"sum_hessian":[7.3E1,6.3E1,1E1,5.8E1,5E0,5E0,5E0,1.2E1,4.6E1,3.6E1,1E1],"tree_param":{"num_deleted":"0","num_feature":"115","num_nodes":"11","size_leaf_vector":"1"}},{"base_weights":[2.3147348E-2,-2.1615578E-3,1.0398267E-2,3.6789202E-3,-6.499883E-2,-1.4884324E-2,-1.0007113E-2,-3.2078598E-3,3.6143311E-3],"categories":[],"categories_nodes":[],"categories_segments":[],"categories_sizes":[],"default_left":[0,0,0,0,0,0,0,0,0],"id":56,"left_children":[1,3,-1,-1,5,7,-1,-1,-1],"loss_changes":[3.6332348E-1,3.3429703E-1,0E0,0E0,2.6135135E-1,1.3430858E-1,0E0,0E0,0E0],"parents":[2147483647,0,0,1,1,4,4,5,5],"right_children":[2,4,-1,-1,6,8,-1,-1,-1],"split_conditions":[3.3077192E3,5.090285E7,1.0398267E-2,3.6789202E-3,1.2159766E6,1.775E3,-1.0007113E-2,-3.2078598E-3,3.6143311E-3],"split_indices":[51,44,0,0,27,0,0,0,0],"split_type":[0,0,0,0,0,0,0,0,0],"sum_hessian":[7.5E1,6.7E1,8E0,3E1,3.7E1,2.8E1,9E0,1.8E1,1E1],"tree_param":{"num_deleted":"0","num_feature":"115","num_nodes":"9","size_leaf_vector":"1"}},{"base_weights":[-3.319726E-2,-1.1683443E-2,-1.075212E-2,-5.882681E-2,5.7229344E-3,-7.3974794E-3,-4.6753042E-4],"categories":[],"categories_nodes":[],"categories_segments":[],"categories_sizes":[],"default_left":[0,0,0,0,0,0,0],"id":57,"left_children":[1,3,-1,5,-1,-1,-1],"loss_changes":[2.692679E-1,3.8172275E-1,0E0,2.0687792E-1,0E0,0E0,0E0],"parents":[2147483647,0,0,1,1,3,3],"right_children":[2,4,-1,6,-1,-1,-1],"split_conditions":[5.673536E2,1.2052782E3,-1.075212E-2,4.0770257E-3,5.7229344E-3,-7.3974794E-3,-4.6753042E-4],"split_indices":[57,51,0,37,0,0,0],"split_type":[0,0,0,0,0,0,0],"sum_hessian":[6.7E1,6.1E1,6E0,4.5E1,1.6E1,1.5E1,3E1],"tree_param":{"num_deleted":"0","num_feature":"115","num_nodes":"7","size_leaf_vector":"1"}},{"base_weights":[-2.6736325E-3,-1.1941707E-1,1.442405E-3,-1.4116995E-2,-1.52251115E-2,-5.0588553E-3,4.515846E-3],"categories":[],"categories_nodes":[],"categories_segments":[],"categories_sizes":[],"default_left":[0,0,0,0,0,0,0],"id":58,"left_children":[1,3,-1,5,-1,-1,-1],"loss_changes":[2.9538652E-1,3.369896E-1,0E0,1.2269549E-1,0E0,0E0,0E0],"parents":[2147483647,0,0,1,1,3,3],"right_children":[2,4,-1,6,-1,-1,-1],"split_conditions":[8.872871E-3,9.29295E5,1.442405E-3,2.0672107E8,-1.52251115E-2,-5.0588553E-3,4.515846E-3],"split_indices":[40,27,0,7,0,0,0],"split_type":[0,0,0,0,0,0,0],"sum_hessian":[7.7E1,1.6E1,6.1E1,1.1E1,5E0,6E0,5E0],"tree_param":{"num_deleted":"0","num_feature":"115","num_nodes":"7","size_leaf_vector":"1"}},{"base_weights":[3.865119E-2,1.2201436E-2,1.1065193E-2,5.735236E-3,-2.152015E-2,-4.7150054E-3,1.7552887E-3],"categories":[],"categories_nodes":[],"categories_segments":[],"categories_sizes":[],"default_left":[0,0,0,0,0,0,0],"id":59,"left_children":[1,3,-1,-1,5,-1,-1],"loss_changes":[3.5779712E-1,2.3182508E-1,0E0,0E0,2.1682681E-1,0E0,0E0],"parents":[2147483647,0,0,1,1,4,4],"right_children":[2,4,-1,-1,6,-1,-1],"split_conditions":[4.9891987E3,1.7329262E7,1.1065193E-2,5.735236E-3,7.4374756E2,-4.7150054E-3,1.7552887E-3],"split_indices":[4,44,0,0,51,0,0],"split_type":[0,0,0,0,0,0,0],"sum_hessian":[7.2E1,6.4E1,8E0,1.5E1,4.9E1,2.1E1,2.8E1],"tree_param":{"num_deleted":"0","num_feature":"115","num_nodes":"7","size_leaf_vector":"1"}},{"base_weights":[-1.0897434E-2,2.6469478E-2,-1.526777E-1,-2.9688086E-3,2.8831253E-3,-3.0205812E-2,-1.7269867E-2,-6.1113243E-3,3.3925665E-3],"categories":[],"categories_nodes":[],"categories_segments":[],"categories_sizes":[],"default_left":[0,0,0,0,0,0,0,0,0],"id":60,"left_children":[1,3,5,-1,-1,7,-1,-1,-1],"loss_changes":[4.06681E-1,1.746145E-1,3.7949267E-1,0E0,0E0,1.1158453E-1,0E0,0E0,0E0],"parents":[2147483647,0,0,1,1,2,2,5,5],"right_children":[2,4,6,-1,-1,8,-1,-1,-1],"split_conditions":[1.0232127E12,7.095772E2,3.5715E4,-2.9688086E-3,2.8831253E-3,7.575E3,-1.7269867E-2,-6.1113243E-3,3.3925665E-3],"split_indices":[30,4,9,0,0,2,0,0,0],"split_type":[0,0,0,0,0,0,0,0,0],"sum_hessian":[7.5E1,6E1,1.5E1,1.6E1,4.4E1,1E1,5E0,5E0,5E0],"tree_param":{"num_deleted":"0","num_feature":"115","num_nodes":"9","size_leaf_vector":"1"}},{"base_weights":[4.039818E-3,2.2525087E-2,-9.363859E-3,-9.92935E-3,6.717436E-3,1.3164226E-3,-7.1289785E-2,-9.660784E-3,-6.0964015E-4],"categories":[],"categories_nodes":[],"categories_segments":[],"categories_sizes":[],"default_left":[0,0,0,0,0,0,0,0,0],"id":61,"left_children":[1,3,-1,5,-1,-1,7,-1,-1],"loss_changes":[2.4912001E-1,2.3505925E-1,0E0,1.1464001E-1,0E0,0E0,1.3792285E-1,0E0,0E0],"parents":[2147483647,0,0,1,1,3,3,6,6],"right_children":[2,4,-1,6,-1,-1,8,-1,-1],"split_conditions":[1.06102504E8,3.1672727E3,-9.363859E-3,6.1358623E9,6.717436E-3,1.3164226E-3,1.27426E6,-9.660784E-3,-6.0964015E-4],"split_indices":[50,4,0,5,0,0,1,0,0],"split_type":[0,0,0,0,0,0,0,0,0],"sum_hessian":[6.7E1,6.2E1,5E0,4.9E1,1.3E1,3.1E1,1.8E1,5E0,1.3E1],"tree_param":{"num_deleted":"0","num_feature":"115","num_nodes":"9","size_leaf_vector":"1"}},{"base_weights":[2.03194E-3,2.5173092E-2,-1.2792875E-2,-1.556973E-3,6.578646E-2,1.3811609E-3,9.443853E-3],"categories":[],"categories_nodes":[],"categories_segments":[],"categories_sizes":[],"default_left":[0,0,0,0,0,0,0],"id":62,"left_children":[1,3,-1,-1,5,-1,-1],"loss_changes":[4.5017925E-1,1.5919018E-1,0E0,0E0,1.852264E-1,0E0,0E0],"parents":[2147483647,0,0,1,1,4,4],"right_children":[2,4,-1,-1,6,-1,-1],"split_conditions":[2.8800072E10,1.3E1,-1.2792875E-2,-1.556973E-3,6.254855E6,1.3811609E-3,9.443853E-3],"split_indices":[5,3,0,0,1,0,0],"split_type":[0,0,0,0,0,0,0],"sum_hessian":[7.2E1,6.7E1,5E0,2.8E1,3.9E1,3.1E1,8E0],"tree_param":{"num_deleted":"0","num_feature":"115","num_nodes":"7","size_leaf_vector":"1"}},{"base_weights":[-1.7721854E-2,9.4442405E-3,-3.8477477E-2,-1.8571196E-2,-1.0554522E-2,-6.5618195E-2,3.3457435E-3,-3.3343695E-2,-1.2455826E-2,-5.8482266E-3,7.5279386E-3,3.6893128E-3,-3.2339357E-3],"categories":[],"categories_nodes":[],"categories_segments":[],"categories_sizes":[],"default_left":[0,0,0,0,0,0,0,0,0,0,0,0,0],"id":63,"left_children":[1,-1,3,5,-1,7,-1,9,-1,-1,11,-1,-1],"loss_changes":[3.3880022E-1,0E0,2.419545E-1,2.655844E-1,0E0,2.4650148E-1,0E0,1.3061237E-1,0E0,0E0,1.3399036E-1,0E0,0E0],"parents":[2147483647,0,0,2,2,3,3,5,5,7,7,10,10],"right_children":[2,-1,4,6,-1,8,-1,10,-1,-1,12,-1,-1],"split_conditions":[1E0,9.4442405E-3,6.174736E2,1.0781599E3,-1.0554522E-2,9.8788344E5,3.3457435E-3,6.51289E2,-1.2455826E-2,-5.8482266E-3,5.7229916E7,3.6893128E-3,-3.2339357E-3],"split_indices":[63,0,57,51,0,27,0,54,0,0,44,0,0],"split_type":[0,0,0,0,0,0,0,0,0,0,0,0,0],"sum_hessian":[7.5E1,6E0,6.9E1,6.3E1,6E0,4.1E1,2.2E1,3.6E1,5E0,1.1E1,2.5E1,1.3E1,1.2E1],"tree_param":{"num_deleted":"0","num_feature":"115","num_nodes":"13","size_leaf_vector":"1"}},{"base_weights":[-2.504406E-2,7.6711266E-3,-1.665611E-1,3.0940183E-2,-4.5387764E-3,-1.3064414E-2,-2.983536E-4,-1.1108434E-2,5.959388E-3,-2.228569E-3,6.024879E-3],"categories":[],"categories_nodes":[],"categories_segments":[],"categories_sizes":[],"default_left":[0,0,0,0,0,0,0,0,0,0,0],"id":64,"left_children":[1,3,5,7,-1,-1,-1,9,-1,-1,-1],"loss_changes":[3.207309E-1,1.3565277E-1,2.060585E-1,1.8009207E-1,0E0,0E0,0E0,1.5698038E-1,0E0,0E0,0E0],"parents":[2147483647,0,0,1,1,2,2,3,3,7,7],"right_children":[2,4,6,8,-1,-1,-1,10,-1,-1,-1],"split_conditions":[1.0232127E12,6.349519E6,4.0950096E10,1.2052782E3,-4.5387764E-3,-1.3064414E-2,-2.983536E-4,9.306648E-1,5.959388E-3,-2.228569E-3,6.024879E-3],"split_indices":[30,31,5,51,0,0,0,38,0,0,0],"split_type":[0,0,0,0,0,0,0,0,0,0,0],"sum_hessian":[6.8E1,5.6E1,1.2E1,4.6E1,1E1,7E0,5E0,3.2E1,1.4E1,2.6E1,6E0],"tree_param":{"num_deleted":"0","num_feature":"115","num_nodes":"11","size_leaf_vector":"1"}},{"base_weights":[5.645277E-4,1.9174173E-2,-8.460074E-3,-4.6539283E-3,1.2482908E-2,-2.4433006E-2,5.4074517E-3,-3.4774726E-3,1.823826E-3],"categories":[],"categories_nodes":[],"categories_segments":[],"categories_sizes":[],"default_left":[0,0,0,0,0,0,0,0,0],"id":65,"left_children":[1,3,-1,5,-1,7,-1,-1,-1],"loss_changes":[2.3173374E-1,3.652897E-1,0E0,1.389249E-1,0E0,1.512104E-1,0E0,0E0,0E0],"parents":[2147483647,0,0,1,1,3,3,5,5],"right_children":[2,4,-1,6,-1,8,-1,-1,-1],"split_conditions":[7.149144E7,2.1118015E3,-8.460074E-3,1.0379711E0,1.2482908E-2,7.673801E2,5.4074517E-3,-3.4774726E-3,1.823826E-3],"split_indices":[47,51,0,41,0,51,0,0,0],"split_type":[0,0,0,0,0,0,0,0,0],"sum_hessian":[7E1,6.4E1,6E0,5.9E1,5E0,5.1E1,8E0,2.9E1,2.2E1],"tree_param":{"num_deleted":"0","num_feature":"115","num_nodes":"9","size_leaf_vector":"1"}},{"base_weights":[-7.0295446E-3,1.3844832E-3,-1.1624204E-1,-5.692552E-4,-1.5887374E-2],"categories":[],"categories_nodes":[],"categories_segments":[],"categories_sizes":[],"default_left":[0,0,0,0,0],"id":66,"left_children":[1,-1,3,-1,-1],"loss_changes":[2.84146E-1,0E0,3.868443E-1,0E0,0E0],"parents":[2147483647,0,0,2,2],"right_children":[2,-1,4,-1,-1],"split_conditions":[1.0232127E12,1.3844832E-3,1.0302285E8,-5.692552E-4,-1.5887374E-2],"split_indices":[30,0,44,0,0],"split_type":[0,0,0,0,0],"sum_hessian":[7.2E1,5.5E1,1.7E1,1.2E1,5E0],"tree_param":{"num_deleted":"0","num_feature":"115","num_nodes":"5","size_leaf_vector":"1"}},{"base_weights":[3.235737E-3,1.8166335E-2,-9.641216E-3,-3.755254E-3,1.0601117E-2,-1.1551724E-3,4.3851454E-3],"categories":[],"categories_nodes":[],"categories_segments":[],"categories_sizes":[],"default_left":[0,0,0,0,0,0,0],"id":67,"left_children":[1,3,-1,5,-1,-1,-1],"loss_changes":[2.5689772E-1,3.476345E-1,0E0,1.3645498E-1,0E0,0E0,0E0],"parents":[2147483647,0,0,1,1,3,3],"right_children":[2,4,-1,6,-1,-1,-1],"split_conditions":[1.3866357E8,4.9891987E3,-9.641216E-3,5.2518907E0,1.0601117E-2,-1.1551724E-3,4.3851454E-3],"split_indices":[47,4,0,53,0,0,0],"split_type":[0,0,0,0,0,0,0],"sum_hessian":[8.4E1,7.9E1,5E0,7.2E1,7E0,6E1,1.2E1],"tree_param":{"num_deleted":"0","num_feature":"115","num_nodes":"7","size_leaf_vector":"1"}},{"base_weights":[3.0160226E-2,8.513849E-2,-7.6134055E-4,2.2429074E-3,1.3490965E-2],"categories":[],"categories_nodes":[],"categories_segments":[],"categories_sizes":[],"default_left":[0,0,0,0,0],"id":68,"left_children":[1,3,-1,-1,-1],"loss_changes":[1.9966793E-1,2.5681683E-1,0E0,0E0,0E0],"parents":[2147483647,0,0,1,1],"right_children":[2,4,-1,-1,-1],"split_conditions":[5.81609E-1,3.3077192E3,-7.6134055E-4,2.2429074E-3,1.3490965E-2],"split_indices":[26,51,0,0,0],"split_type":[0,0,0,0,0],"sum_hessian":[7.8E1,3.5E1,4.3E1,3E1,5E0],"tree_param":{"num_deleted":"0","num_feature":"115","num_nodes":"5","size_leaf_vector":"1"}},{"base_weights":[-2.5746262E-2,-6.5625873E-3,-9.935627E-3,-4.2345333E-3,8.1055466E-4],"categories":[],"categories_nodes":[],"categories_segments":[],"categories_sizes":[],"default_left":[0,0,0,0,0],"id":69,"left_children":[1,3,-1,-1,-1],"loss_changes":[2.7651963E-1,1.3932057E-1,0E0,0E0,0E0],"parents":[2147483647,0,0,1,1],"right_children":[2,4,-1,-1,-1],"split_conditions":[1.5135763E8,4.96576E5,-9.935627E-3,-4.2345333E-3,8.1055466E-4],"split_indices":[44,1,0,0,0],"split_type":[0,0,0,0,0],"sum_hessian":[8.1E1,7.4E1,7E0,1.6E1,5.8E1],"tree_param":{"num_deleted":"0","num_feature":"115","num_nodes":"5","size_leaf_vector":"1"}},{"base_weights":[-2.2393899E-2,-7.88017E-2,3.3593888E-4,-1.7641761E-3,-1.0239334E-2],"categories":[],"categories_nodes":[],"categories_segments":[],"categories_sizes":[],"default_left":[0,0,0,0,0],"id":70,"left_children":[1,3,-1,-1,-1],"loss_changes":[1.2092841E-1,1.3156827E-1,0E0,0E0,0E0],"parents":[2147483647,0,0,1,1],"right_children":[2,4,-1,-1,-1],"split_conditions":[2.289789E6,5.9481585E-1,3.3593888E-4,-1.7641761E-3,-1.0239334E-2],"split_indices":[50,56,0,0,0],"split_type":[0,0,0,0,0],"sum_hessian":[7.2E1,2.4E1,4.8E1,1.9E1,5E0],"tree_param":{"num_deleted":"0","num_feature":"115","num_nodes":"5","size_leaf_vector":"1"}},{"base_weights":[1.5220827E-2,3.3491213E-2,-1.0739114E-2,1.38611635E-2,1.2774472E-2,4.2835763E-3,-7.183633E-4],"categories":[],"categories_nodes":[],"categories_segments":[],"categories_sizes":[],"default_left":[0,0,0,0,0,0,0],"id":71,"left_children":[1,3,-1,5,-1,-1,-1],"loss_changes":[3.5356608E-1,3.346139E-1,0E0,1.497447E-1,0E0,0E0,0E0],"parents":[2147483647,0,0,1,1,3,3],"right_children":[2,4,-1,6,-1,-1,-1],"split_conditions":[2.1050402E7,1.6173E4,-1.0739114E-2,1.7329262E7,1.2774472E-2,4.2835763E-3,-7.183633E-4],"split_indices":[46,2,0,44,0,0,0],"split_type":[0,0,0,0,0,0,0],"sum_hessian":[8E1,7.5E1,5E0,7E1,5E0,1.9E1,5.1E1],"tree_param":{"num_deleted":"0","num_feature":"115","num_nodes":"7","size_leaf_vector":"1"}},{"base_weights":[9.86926E-3,9.521191E-3,-5.1882323E-3,3.5291424E-4,-7.2000236E-3],"categories":[],"categories_nodes":[],"categories_segments":[],"categories_sizes":[],"default_left":[0,0,0,0,0],"id":72,"left_children":[1,-1,3,-1,-1],"loss_changes":[2.1995823E-1,0E0,1.3061874E-1,0E0,0E0],"parents":[2147483647,0,0,2,2],"right_children":[2,-1,4,-1,-1],"split_conditions":[1E0,9.521191E-3,1.5414109E8,3.5291424E-4,-7.2000236E-3],"split_indices":[63,0,44,0,0],"split_type":[0,0,0,0,0],"sum_hessian":[7.8E1,5E0,7.3E1,6.8E1,5E0],"tree_param":{"num_deleted":"0","num_feature":"115","num_nodes":"5","size_leaf_vector":"1"}},{"base_weights":[-3.761863E-3,1.3387413E-2,-9.419713E-3,-3.7431791E-3,3.6302008E-2,5.9039367E-4,6.2292283E-3],"categories":[],"categories_nodes":[],"categories_segments":[],"categories_sizes":[],"default_left":[0,0,0,0,0,0,0],"id":73,"left_children":[1,3,-1,-1,5,-1,-1],"loss_changes":[2.7031484E-1,1.6091447E-1,0E0,0E0,1.3480818E-1,0E0,0E0],"parents":[2147483647,0,0,1,1,4,4],"right_children":[2,4,-1,-1,6,-1,-1],"split_conditions":[3.698723E10,3.2716873E0,-9.419713E-3,-3.7431791E-3,6.7469894E5,5.9039367E-4,6.2292283E-3],"split_indices":[5,55,0,0,27,0,0],"split_type":[0,0,0,0,0,0,0],"sum_hessian":[8.2E1,7.6E1,6E0,1.5E1,6.1E1,4.9E1,1.2E1],"tree_param":{"num_deleted":"0","num_feature":"115","num_nodes":"7","size_leaf_vector":"1"}},{"base_weights":[1.5921641E-2,3.533586E-2,-6.188995E-3,9.485208E-4,9.308668E-3],"categories":[],"categories_nodes":[],"categories_segments":[],"categories_sizes":[],"default_left":[0,0,0,0,0],"id":74,"left_children":[1,3,-1,-1,-1],"loss_changes":[2.0567802E-1,1.5693486E-1,0E0,0E0,0E0],"parents":[2147483647,0,0,1,1],"right_children":[2,4,-1,-1,-1],"split_conditions":[1.5414109E8,4.146482E3,-6.188995E-3,9.485208E-4,9.308668E-3],"split_indices":[44,4,0,0,0],"split_type":[0,0,0,0,0],"sum_hessian":[7.2E1,6.4E1,8E0,5.9E1,5E0],"tree_param":{"num_deleted":"0","num_feature":"115","num_nodes":"5","size_leaf_vector":"1"}},{"base_weights":[-4.9867425E-3,7.547285E-4,-9.7099785E-3],"categories":[],"categories_nodes":[],"categories_segments":[],"categories_sizes":[],"default_left":[0,0,0],"id":75,"left_children":[1,-1,-1],"loss_changes":[3.288281E-1,0E0,0E0],"parents":[2147483647,0,0],"right_children":[2,-1,-1],"split_conditions":[1.5414109E8,7.547285E-4,-9.7099785E-3],"split_indices":[44,0,0],"split_type":[0,0,0],"sum_hessian":[8.2E1,7.5E1,7E0],"tree_param":{"num_deleted":"0","num_feature":"115","num_nodes":"3","size_leaf_vector":"1"}},{"base_weights":[4.638584E-3,-2.2545266E-3,1.822349E-3],"categories":[],"categories_nodes":[],"categories_segments":[],"categories_sizes":[],"default_left":[0,0,0],"id":76,"left_children":[1,-1,-1],"loss_changes":[1.2158522E-1,0E0,0E0],"parents":[2147483647,0,0],"right_children":[2,-1,-1],"split_conditions":[3.21252E8,-2.2545266E-3,1.822349E-3],"split_indices":[7,0,0],"split_type":[0,0,0],"sum_hessian":[7.2E1,2.8E1,4.4E1],"tree_param":{"num_deleted":"0","num_feature":"115","num_nodes":"3","size_leaf_vector":"1"}},{"base_weights":[-1.9765327E-2,-5.3712655E-2,1.9641162E-3,-3.0514078E-2,-1.0070168E-2,-7.2246315E-3,-5.080012E-4],"categories":[],"categories_nodes":[],"categories_segments":[],"categories_sizes":[],"default_left":[0,0,0,0,0,0,0],"id":77,"left_children":[1,3,-1,5,-1,-1,-1],"loss_changes":[1.7259221E-1,1.834068E-1,0E0,1.1138721E-1,0E0,0E0,0E0],"parents":[2147483647,0,0,1,1,3,3],"right_children":[2,4,-1,6,-1,-1,-1],"split_conditions":[1.2052782E3,9.8788344E5,1.9641162E-3,2.0672107E8,-1.0070168E-2,-7.2246315E-3,-5.080012E-4],"split_indices":[51,27,0,7,0,0,0],"split_type":[0,0,0,0,0,0,0],"sum_hessian":[8.3E1,5.3E1,3E1,4.7E1,6E0,6E0,4.1E1],"tree_param":{"num_deleted":"0","num_feature":"115","num_nodes":"7","size_leaf_vector":"1"}},{"base_weights":[1.180388E-2,-5.4423185E-3,8.842814E-3,1.5580512E-2,-4.7720824E-3,-1.6885188E-3,3.366301E-3],"categories":[],"categories_nodes":[],"categories_segments":[],"categories_sizes":[],"default_left":[0,0,0,0,0,0,0],"id":78,"left_children":[1,3,-1,5,-1,-1,-1],"loss_changes":[2.1868587E-1,1.346169E-1,0E0,1.532887E-1,0E0,0E0,0E0],"parents":[2147483647,0,0,1,1,3,3],"right_children":[2,4,-1,6,-1,-1,-1],"split_conditions":[4.4845093E3,4.501324E7,8.842814E-3,7.281736E2,-4.7720824E-3,-1.6885188E-3,3.366301E-3],"split_indices":[51,49,0,51,0,0,0],"split_type":[0,0,0,0,0,0,0],"sum_hessian":[7.4E1,6.8E1,6E0,5.6E1,1.2E1,2.9E1,2.7E1],"tree_param":{"num_deleted":"0","num_feature":"115","num_nodes":"7","size_leaf_vector":"1"}},{"base_weights":[2.5241738E-2,5.121224E-4,9.879386E-3],"categories":[],"categories_nodes":[],"categories_segments":[],"categories_sizes":[],"default_left":[0,0,0],"id":79,"left_children":[1,-1,-1],"loss_changes":[2.012054E-1,0E0,0E0],"parents":[2147483647,0,0],"right_children":[2,-1,-1],"split_conditions":[4.0235266E3,5.121224E-4,9.879386E-3],"split_indices":[51,0,0],"split_type":[0,0,0],"sum_hessian":[7.7E1,7.2E1,5E0],"tree_param":{"num_deleted":"0","num_feature":"115","num_nodes":"3","size_leaf_vector":"1"}},{"base_weights":[6.71125E-4,3.1779505E-2,-1.5233433E-1,8.267778E-3,1.1688988E-2,1.8855729E-4,-1.2982552E-2,-3.5211432E-3,1.8684041E-3],"categories":[],"categories_nodes":[],"categories_segments":[],"categories_sizes":[],"default_left":[0,0,0,0,0,0,0,0,0],"id":80,"left_children":[1,3,5,7,-1,-1,-1,-1,-1],"loss_changes":[3.3802375E-1,2.8422165E-1,2.1110639E-1,1.3139966E-1,0E0,0E0,0E0,0E0,0E0],"parents":[2147483647,0,0,1,1,2,2,3,3],"right_children":[2,4,6,8,-1,-1,-1,-1,-1],"split_conditions":[1.0232127E12,6.7780703E3,1.3E1,2.4786325E0,1.1688988E-2,1.8855729E-4,-1.2982552E-2,-3.5211432E-3,1.8684041E-3],"split_indices":[30,4,3,55,0,0,0,0,0],"split_type":[0,0,0,0,0,0,0,0,0],"sum_hessian":[6.9E1,5.8E1,1.1E1,5.3E1,5E0,5E0,6E0,1.4E1,3.9E1],"tree_param":{"num_deleted":"0","num_feature":"115","num_nodes":"9","size_leaf_vector":"1"}},{"base_weights":[6.398545E-3,-6.491392E-4,7.619856E-3],"categories":[],"categories_nodes":[],"categories_segments":[],"categories_sizes":[],"default_left":[0,0,0],"id":81,"left_children":[1,-1,-1],"loss_changes":[2.0059113E-1,0E0,0E0],"parents":[2147483647,0,0],"right_children":[2,-1,-1],"split_conditions":[6.7780703E3,-6.491392E-4,7.619856E-3],"split_indices":[4,0,0],"split_type":[0,0,0],"sum_hessian":[6.7E1,6E1,7E0],"tree_param":{"num_deleted":"0","num_feature":"115","num_nodes":"3","size_leaf_vector":"1"}},{"base_weights":[-3.1757005E-3,1.2169152E-2,-6.9138585E-3,-8.774195E-4,4.333356E-3],"categories":[],"categories_nodes":[],"categories_segments":[],"categories_sizes":[],"default_left":[0,0,0,0,0],"id":82,"left_children":[1,3,-1,-1,-1],"loss_changes":[1.4745684E-1,1.4559397E-1,0E0,0E0,0E0],"parents":[2147483647,0,0,1,1],"right_children":[2,4,-1,-1,-1],"split_conditions":[3.698723E10,1.1778256E3,-6.9138585E-3,-8.774195E-4,4.333356E-3],"split_indices":[5,51,0,0,0],"split_type":[0,0,0,0,0],"sum_hessian":[6.8E1,6.2E1,6E0,4.5E1,1.7E1],"tree_param":{"num_deleted":"0","num_feature":"115","num_nodes":"5","size_leaf_vector":"1"}},{"base_weights":[-1.725164E-2,7.355011E-5,-7.3685083E-3,1.6620966E-2,-8.797967E-3,-3.1616262E-3,2.0725317E-3],"categories":[],"categories_nodes":[],"categories_segments":[],"categories_sizes":[],"default_left":[0,0,0,0,0,0,0],"id":83,"left_children":[1,3,-1,5,-1,-1,-1],"loss_changes":[1.795191E-1,2.1063726E-1,0E0,1.3750044E-1,0E0,0E0,0E0],"parents":[2147483647,0,0,1,1,3,3],"right_children":[2,4,-1,6,-1,-1,-1],"split_conditions":[1.3237324E6,1.89293E7,-7.3685083E-3,6E0,-8.797967E-3,-3.1616262E-3,2.0725317E-3],"split_indices":[27,1,0,8,0,0,0],"split_type":[0,0,0,0,0,0,0],"sum_hessian":[7.7E1,6.9E1,8E0,6.4E1,5E0,1.5E1,4.9E1],"tree_param":{"num_deleted":"0","num_feature":"115","num_nodes":"7","size_leaf_vector":"1"}},{"base_weights":[-8.566814E-3],"categories":[],"categories_nodes":[],"categories_segments":[],"categories_sizes":[],"default_left":[0],"id":84,"left_children":[-1],"loss_changes":[0E0],"parents":[2147483647],"right_children":[-1],"split_conditions":[-4.2058897E-4],"split_indices":[0],"split_type":[0],"sum_hessian":[7.9E1],"tree_param":{"num_deleted":"0","num_feature":"115","num_nodes":"1","size_leaf_vector":"1"}},{"base_weights":[-1.3000159E-2,4.4473674E-4,-9.763806E-3],"categories":[],"categories_nodes":[],"categories_segments":[],"categories_sizes":[],"default_left":[0,0,0],"id":85,"left_children":[1,-1,-1],"loss_changes":[3.0931544E-1,0E0,0E0],"parents":[2147483647,0,0],"right_children":[2,-1,-1],"split_conditions":[1.5092398E8,4.4473674E-4,-9.763806E-3],"split_indices":[44,0,0],"split_type":[0,0,0],"sum_hessian":[7.4E1,6.7E1,7E0],"tree_param":{"num_deleted":"0","num_feature":"115","num_nodes":"3","size_leaf_vector":"1"}},{"base_weights":[5.5318503E-3,2.4580687E-2,-1.0060938E-2,3.0368129E-3,1.1758941E-2,2.0726004E-3,-4.4646367E-2,-7.2275703E-3,1.8371874E-4],"categories":[],"categories_nodes":[],"categories_segments":[],"categories_sizes":[],"default_left":[0,0,0,0,0,0,0,0,0],"id":86,"left_children":[1,3,-1,5,-1,-1,7,-1,-1],"loss_changes":[2.8967643E-1,3.0488443E-1,0E0,1.1584426E-1,0E0,0E0,1.3951956E-1,0E0,0E0],"parents":[2147483647,0,0,1,1,3,3,6,6],"right_children":[2,4,-1,6,-1,-1,8,-1,-1],"split_conditions":[1.06102504E8,3.2311362E3,-1.0060938E-2,1.181508E6,1.1758941E-2,2.0726004E-3,7.927819E5,-7.2275703E-3,1.8371874E-4],"split_indices":[50,4,0,31,0,0,46,0,0],"split_type":[0,0,0,0,0,0,0,0,0],"sum_hessian":[7E1,6.5E1,5E0,6E1,5E0,3.3E1,2.7E1,8E0,1.9E1],"tree_param":{"num_deleted":"0","num_feature":"115","num_nodes":"9","size_leaf_vector":"1"}},{"base_weights":[6.1434195E-3,-5.4629345E-4,9.86094E-3],"categories":[],"categories_nodes":[],"categories_segments":[],"categories_sizes":[],"default_left":[0,0,0],"id":87,"left_children":[1,-1,-1],"loss_changes":[2.4771747E-1,0E0,0E0],"parents":[2147483647,0,0],"right_children":[2,-1,-1],"split_conditions":[4.0235266E3,-5.4629345E-4,9.86094E-3],"split_indices":[51,0,0],"split_type":[0,0,0],"sum_hessian":[7.2E1,6.7E1,5E0],"tree_param":{"num_deleted":"0","num_feature":"115","num_nodes":"3","size_leaf_vector":"1"}},{"base_weights":[2.3054387E-2,-2.5247064E-4,9.521352E-2,1.7581216E-1,-3.9072707E-3,1.2977737E-2,2.4313477E-3],"categories":[],"categories_nodes":[],"categories_segments":[],"categories_sizes":[],"default_left":[0,0,0,0,0,0,0],"id":88,"left_children":[1,-1,3,5,-1,-1,-1],"loss_changes":[1.4495057E-1,0E0,2.9576367E-1,1.4342767E-1,0E0,0E0,0E0],"parents":[2147483647,0,0,2,2,3,3],"right_children":[2,-1,4,6,-1,-1,-1],"split_conditions":[1.462134E3,-2.5247064E-4,1.3946067E7,1.174E3,-3.9072707E-3,1.2977737E-2,2.4313477E-3],"split_indices":[51,0,46,0,0,0,0],"split_type":[0,0,0,0,0,0,0],"sum_hessian":[7E1,5.1E1,1.9E1,1.3E1,6E0,7E0,6E0],"tree_param":{"num_deleted":"0","num_feature":"115","num_nodes":"7","size_leaf_vector":"1"}},{"base_weights":[-1.51158E-3,1.7167503E-2,-8.203774E-3,-5.691452E-4,4.471863E-3],"categories":[],"categories_nodes":[],"categories_segments":[],"categories_sizes":[],"default_left":[0,0,0,0,0],"id":89,"left_children":[1,3,-1,-1,-1],"loss_changes":[2.4412507E-1,1.519949E-1,0E0,0E0,0E0],"parents":[2147483647,0,0,1,1],"right_children":[2,4,-1,-1,-1],"split_conditions":[1.06102504E8,9.334E3,-8.203774E-3,-5.691452E-4,4.471863E-3],"split_indices":[50,2,0,0,0],"split_type":[0,0,0,0,0],"sum_hessian":[7.7E1,7E1,7E0,5.1E1,1.9E1],"tree_param":{"num_deleted":"0","num_feature":"115","num_nodes":"5","size_leaf_vector":"1"}},{"base_weights":[-1.9875844E-3,1.4524038E-2,-8.305851E-3,-3.3125756E-4,1.0308427E-2],"categories":[],"categories_nodes":[],"categories_segments":[],"categories_sizes":[],"default_left":[0,0,0,0,0],"id":90,"left_children":[1,3,-1,-1,-1],"loss_changes":[2.1502304E-1,2.965888E-1,0E0,0E0,0E0],"parents":[2147483647,0,0,1,1],"right_children":[2,4,-1,-1,-1],"split_conditions":[9.1561624E7,3.9370352E3,-8.305851E-3,-3.3125756E-4,1.0308427E-2],"split_indices":[47,4,0,0,0],"split_type":[0,0,0,0,0],"sum_hessian":[7.6E1,7E1,6E0,6.4E1,6E0],"tree_param":{"num_deleted":"0","num_feature":"115","num_nodes":"5","size_leaf_vector":"1"}},{"base_weights":[-2.2242067E-2,-1.0352011E-2,-8.790527E-3,1.5853534E-3,-4.694518E-2,-4.212157E-3,2.5675911E-3],"categories":[],"categories_nodes":[],"categories_segments":[],"categories_sizes":[],"default_left":[0,0,0,0,0,0,0],"id":91,"left_children":[1,3,-1,-1,5,-1,-1],"loss_changes":[1.5849048E-1,1.2791313E-1,0E0,0E0,1.741364E-1,0E0,0E0],"parents":[2147483647,0,0,1,1,4,4],"right_children":[2,4,-1,-1,6,-1,-1],"split_conditions":[1.278211E8,1.5326E4,-8.790527E-3,1.5853534E-3,4.1067896E0,-4.212157E-3,2.5675911E-3],"split_indices":[47,9,0,0,52,0,0],"split_type":[0,0,0,0,0,0,0],"sum_hessian":[8.5E1,8E1,5E0,3.7E1,4.3E1,3.1E1,1.2E1],"tree_param":{"num_deleted":"0","num_feature":"115","num_nodes":"7","size_leaf_vector":"1"}},{"base_weights":[9.052075E-3,-1.2239711E-3,6.698479E-2,7.781008E-3,3.6058345E-4],"categories":[],"categories_nodes":[],"categories_segments":[],"categories_sizes":[],"default_left":[0,0,0,0,0],"id":92,"left_children":[1,-1,3,-1,-1],"loss_changes":[1.4932309E-1,0E0,1.5164006E-1,0E0,0E0],"parents":[2147483647,0,0,2,2],"right_children":[2,-1,4,-1,-1],"split_conditions":[1.1778256E3,-1.2239711E-3,3.6274084E9,7.781008E-3,3.6058345E-4],"split_indices":[51,0,12,0,0],"split_type":[0,0,0,0,0],"sum_hessian":[7.4E1,4.7E1,2.7E1,1E1,1.7E1],"tree_param":{"num_deleted":"0","num_feature":"115","num_nodes":"5","size_leaf_vector":"1"}},{"base_weights":[5.755616E-3,3.0328378E-2,-8.521617E-2,4.956823E-4,7.759264E-3,7.978966E-4,-1.0702596E-2],"categories":[],"categories_nodes":[],"categories_segments":[],"categories_sizes":[],"default_left":[0,0,0,0,0,0,0],"id":93,"left_children":[1,3,5,-1,-1,-1,-1],"loss_changes":[1.6800615E-1,1.5085879E-1,2.191115E-1,0E0,0E0,0E0,0E0],"parents":[2147483647,0,0,1,1,2,2],"right_children":[2,4,6,-1,-1,-1,-1],"split_conditions":[1.0232127E12,3.3077192E3,3.5715E4,4.956823E-4,7.759264E-3,7.978966E-4,-1.0702596E-2],"split_indices":[30,51,9,0,0,0,0],"split_type":[0,0,0,0,0,0,0],"sum_hessian":[7.3E1,5.8E1,1.5E1,5.1E1,7E0,9E0,6E0],"tree_param":{"num_deleted":"0","num_feature":"115","num_nodes":"7","size_leaf_vector":"1"}},{"base_weights":[3.1948206E-3,-1.7840095E-2,6.711048E-2,-1.2447803E-4,-7.298514E-3,5.3109317E-3,-2.9667115E-3],"categories":[],"categories_nodes":[],"categories_segments":[],"categories_sizes":[],"default_left":[0,0,0,0,0,0,0],"id":94,"left_children":[1,3,5,-1,-1,-1,-1],"loss_changes":[1.1950979E-1,1.3376793E-1,1.21761106E-1,0E0,0E0,0E0,0E0],"parents":[2147483647,0,0,1,1,2,2],"right_children":[2,4,6,-1,-1,-1,-1],"split_conditions":[4.946992E6,7.9606894E11,3.8218057E2,-1.2447803E-4,-7.298514E-3,5.3109317E-3,-2.9667115E-3],"split_indices":[1,30,57,0,0,0,0],"split_type":[0,0,0,0,0,0,0],"sum_hessian":[8.7E1,6.6E1,2.1E1,6E1,6E0,1.6E1,5E0],"tree_param":{"num_deleted":"0","num_feature":"115","num_nodes":"7","size_leaf_vector":"1"}}]},"name":"gbtree"},"learner_model_param":{"base_score":"-3.1569883E-1","boost_from_average":"1","num_class":"0","num_feature":"115","num_target":"1"},"objective":{"name":"reg:squarederror","reg_loss_param":{"scale_pos_weight":"1"}}},"version":[2,0,3]}