{"learner":{"attributes":{},"feature_names":["numTasks_sum","duration_sum","duration_max","duration_min","duration_mean","input_recordsRead_sum","output_recordsWritten_sum","peakExecutionMemory_max","resultSerializationTime_sum","resultSize_max","sr_localBlocksFetched_sum","sr_remoteBlocksFetched_sum","sw_recordsWritten_sum","sqlOp_AQEShuffleRead","sqlOp_BroadcastExchange","sqlOp_BroadcastHashJoin","sqlOp_ColumnarToRow","sqlOp_Exchange","sqlOp_Expand","sqlOp_Filter","sqlOp_HashAggregate","sqlOp_Project","sqlOp_Scan parquet","sqlOp_Sort","sqlOp_SortAggregate","sqlOp_SortMergeJoin","numExecutors","executorCores","maxMem","maxOnHeapMem","maxOffHeapMem","executorMemory","numGpusPerExecutor","executorOffHeap","taskCpu","taskGpu","cache_hit_ratio","scan_bw","scan_time","decode_time","data_size","shuffle_read_bw","shuffle_write_bw","diskBytesSpilledRatio","memoryBytesSpilledRatio","input_bytesReadRatio","output_bytesWrittenRatio","sr_localBytesReadRatio","sr_remoteBytesReadRatio","sr_remoteBytesReadToDiskRatio","sr_totalBytesReadRatio","sw_bytesWrittenRatio","diskBytesSpilled_mean","memoryBytesSpilled_mean","input_bytesRead_mean","output_bytesWritten_mean","sr_localBytesRead_mean","sr_remoteBytesRead_mean","sr_remoteBytesReadToDisk_mean","sr_totalBytesRead_mean","sw_bytesWritten_mean","executorCPUTime_mean","executorDeserializeCPUTime_mean","executorDeserializeTime_mean","executorRunTime_mean","jvmGCTime_mean","sr_fetchWaitTime_mean","sw_writeTime_mean","platform_dataproc","platform_databricks-aws","platform_databricks-azure","platform_emr","platform_onprem","sqlOp_BatchEvalPython","sqlOp_BroadcastNestedLoopJoin","sqlOp_CartesianProduct","sqlOp_CommandResult","sqlOp_CustomShuffleReader","sqlOp_DeserializeToObject","sqlOp_Execute InsertIntoHadoopFsRelationCommand csv","sqlOp_Execute InsertIntoHadoopFsRelationCommand json","sqlOp_Execute InsertIntoHadoopFsRelationCommand orc","sqlOp_Execute InsertIntoHadoopFsRelationCommand parquet","sqlOp_Execute InsertIntoHadoopFsRelationCommand text","sqlOp_Execute InsertIntoHadoopFsRelationCommand unknown","sqlOp_Generate","sqlOp_GenerateBloomFilter","sqlOp_GlobalLimit","sqlOp_HashAggregatePrefixGroupingSets","sqlOp_LocalLimit","sqlOp_LocalTableScan","sqlOp_MapElements","sqlOp_ObjectHashAggregate","sqlOp_OutputAdapter","sqlOp_PartialWindow","sqlOp_ReusedSort","sqlOp_RunningWindowFunction","sqlOp_Scan ExistingRDD","sqlOp_Scan ExistingRDD Delta Table Checkpoint","sqlOp_Scan ExistingRDD Delta Table State","sqlOp_Scan OneRowRelation","sqlOp_Scan csv","sqlOp_Scan jdbc","sqlOp_Scan json","sqlOp_Scan orc","sqlOp_Scan text","sqlOp_Scan unknown","sqlOp_SerializeFromObject","sqlOp_Subquery","sqlOp_SubqueryBroadcast","sqlOp_SubqueryOutputBroadcast","sqlOp_TakeOrderedAndProject","sqlOp_Window","sqlOp_WindowGroupLimit","sqlOp_WindowSort"],"feature_types":["int","int","int","int","float","int","int","int","int","int","int","int","int","int","int","int","int","int","int","int","int","int","int","int","int","int","int","int","int","int","int","int","int","int","int","int","float","float","int","int","int","float","float","float","float","float","float","float","float","float","float","float","float","float","float","float","float","float","float","float","float","float","float","float","float","float","float","float","int","int","int","int","int","int","int","int","int","int","int","int","int","int","int","int","int","int","int","int","int","int","int","int","int","int","int","int","int","int","int","int","int","int","int","int","int","int","int","int","int","int","int","int","int","int","int"],"gradient_booster":{"model":{"gbtree_model_param":{"num_parallel_tree":"1","num_trees":"97"},"iteration_indptr":[0,1,2,3,4,5,6,7,8,9,10,11,12,13,14,15,16,17,18,19,20,21,22,23,24,25,26,27,28,29,30,31,32,33,34,35,36,37,38,39,40,41,42,43,44,45,46,47,48,49,50,51,52,53,54,55,56,57,58,59,60,61,62,63,64,65,66,67,68,69,70,71,72,73,74,75,76,77,78,79,80,81,82,83,84,85,86,87,88,89,90,91,92,93,94,95,96,97],"tree_info":[0,0,0,0,0,0,0,0,0,0,0,0,0,0,0,0,0,0,0,0,0,0,0,0,0,0,0,0,0,0,0,0,0,0,0,0,0,0,0,0,0,0,0,0,0,0,0,0,0,0,0,0,0,0,0,0,0,0,0,0,0,0,0,0,0,0,0,0,0,0,0,0,0,0,0,0,0,0,0,0,0,0,0,0,0,0,0,0,0,0,0,0,0,0,0,0,0],"trees":[{"base_weights":[-2.9023793E-3,-2.8369835E-1,5.416892E-1,-6.1223924E-1,-1.8412052E-1,6.33682E-1,-5.82664E-1,-6.5558666E-1,-3.0437765E-1,-2.173319E-1,3.440377E-1,3.2511374E-1,8.968922E-1,-4.689302E-2,-5.7365548E-2,-3.0585064E-2,-1.3588668E-2,-1.7759481E-2,-2.785241E-3,-3.3582267E-1,-1.2250839E-1,2.1855064E-2,9.24113E-3,4.668868E-2,2.8010365E-1,7.8835046E-1,1.3677841E0,-9.834596E-3,5.2406043E-3,-1.7206868E-2,-3.431305E-3,-8.125904E-3,6.5788818E-3,-3.0713265E-3,1.4952179E-2,3.757484E-2,2.328943E-3,2.491815E-2,7.060135E-2],"categories":[],"categories_nodes":[],"categories_segments":[],"categories_sizes":[],"default_left":[0,0,0,0,0,0,0,0,0,0,0,0,0,0,0,0,0,0,0,0,0,0,0,0,0,0,0,0,0,0,0,0,0,0,0,0,0,0,0],"id":0,"left_children":[1,3,5,7,9,11,13,15,17,19,21,23,25,-1,27,-1,-1,-1,-1,29,31,-1,-1,-1,33,35,37,-1,-1,-1,-1,-1,-1,-1,-1,-1,-1,-1,-1],"loss_changes":[7.4166534E1,1.0356199E1,1.7435574E1,7.8798485E-1,4.407364E0,1.2134808E1,2.9599957E0,9.464836E-2,2.006079E-1,2.5767794E0,1.8820691E-1,1.9669976E0,3.1128464E0,0E0,2.1416774E-1,0E0,0E0,0E0,0E0,1.0515356E0,1.9461876E0,0E0,0E0,0E0,1.1392713E0,1.6246643E0,1.1771832E0,0E0,0E0,0E0,0E0,0E0,0E0,0E0,0E0,0E0,0E0,0E0,0E0],"parents":[2147483647,0,0,1,1,2,2,3,3,4,4,5,5,6,6,7,7,8,8,9,9,10,10,11,11,12,12,14,14,19,19,20,20,24,24,25,25,26,26],"right_children":[2,4,6,8,10,12,14,16,18,20,22,24,26,-1,28,-1,-1,-1,-1,30,32,-1,-1,-1,34,36,38,-1,-1,-1,-1,-1,-1,-1,-1,-1,-1,-1,-1],"split_conditions":[1.0043E4,7.41718E5,1.0434409E3,3.5002026E8,1.4777102E9,3.9837E4,1.6857977E4,2.5050928E6,3.49399E5,7.3822034E2,6.1614815E6,8.504733E7,1.152089E1,-4.689302E-2,1.6130411E5,-3.0585064E-2,-1.3588668E-2,-1.7759481E-2,-2.785241E-3,7.164074E8,2.103E3,2.1855064E-2,9.24113E-3,4.668868E-2,3.0811954E-2,5.22E2,6.069097E4,-9.834596E-3,5.2406043E-3,-1.7206868E-2,-3.431305E-3,-8.125904E-3,6.5788818E-3,-3.0713265E-3,1.4952179E-2,3.757484E-2,2.328943E-3,2.491815E-2,7.060135E-2],"split_indices":[2,1,67,7,7,2,42,59,1,61,54,7,62,0,37,0,0,0,0,7,0,0,0,0,47,3,37,0,0,0,0,0,0,0,0,0,0,0,0],"split_type":[0,0,0,0,0,0,0,0,0,0,0,0,0,0,0,0,0,0,0,0,0,0,0,0,0,0,0,0,0,0,0,0,0,0,0,0,0,0,0],"sum_hessian":[4.83E2,3.19E2,1.64E2,7.3E1,2.46E2,1.52E2,1.2E1,6.3E1,1E1,2.32E2,1.4E1,7.1E1,8.1E1,6E0,6E0,6E1,3E0,7E0,3E0,1.02E2,1.3E2,6E0,8E0,3E0,6.8E1,6.8E1,1.3E1,3E0,3E0,8.8E1,1.4E1,1.08E2,2.2E1,8E0,6E1,6.5E1,3E0,3E0,1E1],"tree_param":{"num_deleted":"0","num_feature":"115","num_nodes":"39","size_leaf_vector":"1"}},{"base_weights":[1.4164956E-2,-2.9536834E-1,5.3674215E-1,-5.921586E-1,-1.9601977E-1,3.9247462E-1,1.0593588E0,-6.143498E-1,-1.5368152E-3,-2.2959144E-1,3.0719486E-1,4.3075106E-1,-4.871125E-2,1.9363787E-3,1.1743835E0,-2.92901E-2,-1.4746343E-2,-2.74807E-1,-5.3567626E-2,3.8989517E-1,-8.1020093E-4,2.8436318E-1,6.504831E-1,7.007735E-1,1.3357966E0,-1.356109E-2,1.8585974E-3,-3.6748396E-3,1.1314127E-2,2.4594612E-2,9.5055625E-3,5.630435E-3,1.6241182E-2,-2.5435318E-3,3.2984715E-2,3.6877707E-2,1.4432959E-2,3.6415048E-2,6.7015715E-2],"categories":[],"categories_nodes":[],"categories_segments":[],"categories_sizes":[],"default_left":[0,0,0,0,0,0,0,0,0,0,0,0,0,0,0,0,0,0,0,0,0,0,0,0,0,0,0,0,0,0,0,0,0,0,0,0,0,0,0],"id":1,"left_children":[1,3,5,7,9,11,13,15,-1,17,19,21,-1,-1,23,-1,-1,25,27,29,-1,31,33,35,37,-1,-1,-1,-1,-1,-1,-1,-1,-1,-1,-1,-1,-1,-1],"loss_changes":[7.958027E1,8.995007E0,1.3381805E1,9.33815E-1,4.006776E0,8.544607E0,4.5127296E0,3.4947205E-1,0E0,1.728303E0,4.0994263E-1,4.382612E0,0E0,0E0,1.7395477E0,0E0,0E0,1.1939669E0,3.898111E-1,2.1093476E-1,0E0,9.4645596E-1,2.8201733E0,1.913395E-1,5.716591E-1,0E0,0E0,0E0,0E0,0E0,0E0,0E0,0E0,0E0,0E0,0E0,0E0,0E0,0E0],"parents":[2147483647,0,0,1,1,2,2,3,3,4,4,5,5,6,6,7,7,9,9,10,10,11,11,14,14,17,17,18,18,19,19,21,21,22,22,23,23,24,24],"right_children":[2,4,6,8,10,12,14,16,-1,18,20,22,-1,-1,24,-1,-1,26,28,30,-1,32,34,36,38,-1,-1,-1,-1,-1,-1,-1,-1,-1,-1,-1,-1,-1,-1],"split_conditions":[9.134E3,7.41718E5,6.0500806E3,1.2852292E7,1.4096699E9,4.673502E7,5.3140095E1,2.9778808E7,-1.5368152E-3,9.570385E4,1.5E2,4.1331047E-1,-4.871125E-2,1.9363787E-3,6.069097E4,-2.92901E-2,-1.4746343E-2,2.9063344E5,1.4998456E5,6.088569E6,-8.1020093E-4,1.2587E4,2.7011695E4,5.3412586E4,9.430977E3,-1.356109E-2,1.8585974E-3,-3.6748396E-3,1.1314127E-2,2.4594612E-2,9.5055625E-3,5.630435E-3,1.6241182E-2,-2.5435318E-3,3.2984715E-2,3.6877707E-2,1.4432959E-2,3.6415048E-2,6.7015715E-2],"split_indices":[2,1,61,9,7,57,65,12,0,42,3,44,0,0,37,0,0,37,37,54,0,2,42,37,4,0,0,0,0,0,0,0,0,0,0,0,0,0,0],"split_type":[0,0,0,0,0,0,0,0,0,0,0,0,0,0,0,0,0,0,0,0,0,0,0,0,0,0,0,0,0,0,0,0,0,0,0,0,0,0,0],"sum_hessian":[4.9E2,3.08E2,1.82E2,7.6E1,2.32E2,1.44E2,3.8E1,7.3E1,3E0,2.18E2,1.4E1,1.41E2,3E0,4E0,3.4E1,6.6E1,7E0,1.73E2,4.5E1,1.1E1,3E0,8.6E1,5.5E1,1E1,2.4E1,1.62E2,1.1E1,4.2E1,3E0,5E0,6E0,2.7E1,5.9E1,5E0,5E1,7E0,3E0,6E0,1.8E1],"tree_param":{"num_deleted":"0","num_feature":"115","num_nodes":"39","size_leaf_vector":"1"}},{"base_weights":[2.0740048E-3,-2.7225897E-1,4.8837975E-1,-5.59318E-1,-1.6748437E-1,3.4900758E-1,9.853364E-1,-5.7867086E-1,-1.4840708E-3,-2.0295937E-1,2.889353E-1,4.152262E-1,-6.536197E-1,1.8654893E-3,1.0952635E0,-2.7665831E-2,-1.5419739E-2,-2.564603E-1,-1.7569283E-2,-1.8276778E-3,3.6226118E-1,2.680009E-1,6.6421986E-1,-2.590668E-3,-5.124853E-2,6.884409E-2,8.6210287E-1,-4.7414824E-3,-1.4298119E-2,-2.3293286E-3,1.3084776E-2,2.1624502E-2,8.441571E-3,5.6841597E-3,1.6624851E-2,2.2817368E-2,3.6455166E-2,4.26724E-2,1.2677028E-2],"categories":[],"categories_nodes":[],"categories_segments":[],"categories_sizes":[],"default_left":[0,0,0,0,0,0,0,0,0,0,0,0,0,0,0,0,0,0,0,0,0,0,0,0,0,0,0,0,0,0,0,0,0,0,0,0,0,0,0],"id":2,"left_children":[1,3,5,7,9,11,13,15,-1,17,19,21,23,-1,25,-1,-1,27,29,-1,31,33,35,-1,-1,-1,37,-1,-1,-1,-1,-1,-1,-1,-1,-1,-1,-1,-1],"loss_changes":[6.510349E1,9.290188E0,1.18462105E1,8.2756805E-1,3.7826843E0,9.499968E0,3.9010353E0,2.9699516E-1,0E0,2.118062E0,4.2442358E-1,4.6242085E0,2.4419715E0,0E0,1.9465256E0,0E0,0E0,1.3881884E0,5.102579E-1,0E0,1.873424E-1,1.1058311E0,6.553459E-1,0E0,0E0,0E0,7.3010254E-1,0E0,0E0,0E0,0E0,0E0,0E0,0E0,0E0,0E0,0E0,0E0,0E0],"parents":[2147483647,0,0,1,1,2,2,3,3,4,4,5,5,6,6,7,7,9,9,10,10,11,11,12,12,14,14,17,17,18,18,20,20,21,21,22,22,26,26],"right_children":[2,4,6,8,10,12,14,16,-1,18,20,22,24,-1,26,-1,-1,28,30,-1,32,34,36,-1,-1,-1,38,-1,-1,-1,-1,-1,-1,-1,-1,-1,-1,-1,-1],"split_conditions":[9.508E3,7.41718E5,6.0500806E3,1.2852292E7,1.4777102E9,8.625407E2,5.3140095E1,2.9778808E7,-1.4840708E-3,9.570385E4,2.0532622E3,4.1331047E-1,1.805424E-1,1.8654893E-3,1.417988E6,-2.7665831E-2,-1.5419739E-2,7.556039E6,1.4998456E5,-1.8276778E-3,6.1614815E6,1.3664E4,1.30817086E5,-2.590668E-3,-5.124853E-2,6.884409E-2,1.5096262E7,-4.7414824E-3,-1.4298119E-2,-2.3293286E-3,1.3084776E-2,2.1624502E-2,8.441571E-3,5.6841597E-3,1.6624851E-2,2.2817368E-2,3.6455166E-2,4.26724E-2,1.2677028E-2],"split_indices":[2,1,61,9,7,67,65,12,0,42,4,44,47,0,38,0,0,54,37,0,54,2,37,0,0,0,9,0,0,0,0,0,0,0,0,0,0,0,0],"split_type":[0,0,0,0,0,0,0,0,0,0,0,0,0,0,0,0,0,0,0,0,0,0,0,0,0,0,0,0,0,0,0,0,0,0,0,0,0,0,0],"sum_hessian":[4.86E2,3.11E2,1.75E2,8.2E1,2.29E2,1.38E2,3.7E1,7.9E1,3E0,2.13E2,1.6E1,1.3E2,8E0,4E0,3.3E1,7E1,9E0,1.65E2,4.8E1,3E0,1.3E1,8.3E1,4.7E1,4E0,4E0,1E1,2.3E1,4.5E1,1.2E2,4.4E1,4E0,7E0,6E0,3.4E1,4.9E1,2.3E1,2.4E1,2E1,3E0],"tree_param":{"num_deleted":"0","num_feature":"115","num_nodes":"39","size_leaf_vector":"1"}},{"base_weights":[3.8712027E-3,-2.660465E-1,5.154369E-1,-5.40148E-1,-1.702005E-1,3.6596426E-1,9.995473E-1,-5.58607E-1,-1.4331349E-3,-2.0318787E-1,2.077682E-1,4.435388E-1,-2.73858E-1,7.373477E-1,6.1629973E-2,-2.664765E-2,-1.3922579E-2,-2.546438E-1,-2.3648268E-2,-3.8227865E-3,3.1043908E-1,2.9789838E-1,6.6030926E-1,-3.8902644E-2,1.2973577E-2,4.0914126E-2,2.0661907E-1,-5.9421887E-3,-1.3482051E-2,-2.90974E-3,1.0821002E-2,1.9681184E-2,5.1374417E-3,1.5984075E-2,5.558315E-3,2.1808362E-2,3.3853136E-2,1.158259E-2,-4.974969E-3,2.2245297E-2,-5.6986716E-3],"categories":[],"categories_nodes":[],"categories_segments":[],"categories_sizes":[],"default_left":[0,0,0,0,0,0,0,0,0,0,0,0,0,0,0,0,0,0,0,0,0,0,0,0,0,0,0,0,0,0,0,0,0,0,0,0,0,0,0,0,0],"id":3,"left_children":[1,3,5,7,9,11,13,15,-1,17,19,21,23,25,-1,-1,-1,27,29,-1,31,33,35,-1,37,-1,39,-1,-1,-1,-1,-1,-1,-1,-1,-1,-1,-1,-1,-1,-1],"loss_changes":[6.87632E1,8.472586E0,1.2080338E1,7.7147484E-1,3.0719876E0,6.7227764E0,2.648552E0,3.113041E-1,0E0,2.0633755E0,6.2410456E-1,3.5601883E0,2.4903636E0,1.8947144E0,0E0,0E0,0E0,8.296776E-1,5.44824E-1,0E0,3.0736482E-1,6.194935E-1,3.3368874E-1,0E0,3.4895334E-1,0E0,7.0841384E-1,0E0,0E0,0E0,0E0,0E0,0E0,0E0,0E0,0E0,0E0,0E0,0E0,0E0,0E0],"parents":[2147483647,0,0,1,1,2,2,3,3,4,4,5,5,6,6,7,7,9,9,10,10,11,11,12,12,13,13,17,17,18,18,20,20,21,21,22,22,24,24,26,26],"right_children":[2,4,6,8,10,12,14,16,-1,18,20,22,24,26,-1,-1,-1,28,30,-1,32,34,36,-1,38,-1,40,-1,-1,-1,-1,-1,-1,-1,-1,-1,-1,-1,-1,-1,-1],"split_conditions":[1.0043E4,7.41718E5,6.0500806E3,1.2730462E7,1.1576422E9,3.5301748E7,2.1678066E0,2.9778808E7,-1.4331349E-3,9.570385E4,2.1530056E3,4.1331047E-1,2.2782404E0,4.42384E5,6.1629973E-2,-2.664765E-2,-1.3922579E-2,7.556039E6,1.4998456E5,-3.8227865E-3,1.21E2,1.7458724E7,5.2060513E9,-3.8902644E-2,9.8E1,4.0914126E-2,1.4609149E4,-5.9421887E-3,-1.3482051E-2,-2.90974E-3,1.0821002E-2,1.9681184E-2,5.1374417E-3,1.5984075E-2,5.558315E-3,2.1808362E-2,3.3853136E-2,1.158259E-2,-4.974969E-3,2.2245297E-2,-5.6986716E-3],"split_indices":[2,1,61,9,7,54,51,12,0,42,4,44,63,2,0,0,0,54,37,0,3,54,12,0,3,0,4,0,0,0,0,0,0,0,0,0,0,0,0,0,0],"split_type":[0,0,0,0,0,0,0,0,0,0,0,0,0,0,0,0,0,0,0,0,0,0,0,0,0,0,0,0,0,0,0,0,0,0,0,0,0,0,0,0,0],"sum_hessian":[4.96E2,3.25E2,1.71E2,8.3E1,2.42E2,1.32E2,3.9E1,8E1,3E0,2.23E2,1.9E1,1.18E2,1.4E1,2.4E1,1.5E1,7.2E1,8E0,1.73E2,5E1,5E0,1.4E1,7.2E1,4.6E1,4E0,1E1,1.8E1,6E0,4.3E1,1.3E2,4.4E1,6E0,8E0,6E0,5.5E1,1.7E1,1.6E1,3E1,3E0,7E0,3E0,3E0],"tree_param":{"num_deleted":"0","num_feature":"115","num_nodes":"41","size_leaf_vector":"1"}},{"base_weights":[-2.3861953E-4,-2.4855125E-1,4.3679297E-1,-5.1567703E-1,-1.6337739E-1,3.1119695E-1,8.8141024E-1,-5.410147E-1,-2.3901467E-1,-1.8728054E-1,2.964297E-1,3.867461E-1,-3.8557732E-1,7.0723897E-4,9.828328E-1,-2.519192E-2,-1.162049E-2,-2.6608412E-3,-1.5371629E-2,-2.3148832E-1,-2.0362688E-2,4.0522805E-1,-1.0284487E-3,2.6468137E-1,5.9786826E-1,-1.20987885E-1,-4.6530556E-2,6.0209725E-2,7.893051E-1,-1.1407239E-2,2.72727E-3,-2.516094E-3,1.0577376E-2,2.2192454E-2,8.435039E-3,1.942211E-3,1.4783302E-2,1.5235469E-2,3.234325E-2,1.23613E-3,-1.3911094E-2,3.9697077E-2,8.309422E-3],"categories":[],"categories_nodes":[],"categories_segments":[],"categories_sizes":[],"default_left":[0,0,0,0,0,0,0,0,0,0,0,0,0,0,0,0,0,0,0,0,0,0,0,0,0,0,0,0,0,0,0,0,0,0,0,0,0,0,0,0,0,0,0],"id":4,"left_children":[1,3,5,7,9,11,13,15,17,19,21,23,25,-1,27,-1,-1,-1,-1,29,31,33,-1,35,37,39,-1,-1,41,-1,-1,-1,-1,-1,-1,-1,-1,-1,-1,-1,-1,-1,-1],"loss_changes":[5.241543E1,6.9234066E0,9.498085E0,3.8942719E-1,2.6383624E0,7.413537E0,3.3222523E0,4.2722702E-2,1.2066671E-1,1.6481972E0,4.2546165E-1,3.0630798E0,2.2152016E0,0E0,1.1519089E0,0E0,0E0,0E0,0E0,9.312887E-1,4.3064728E-1,6.912291E-2,0E0,1.0370159E0,1.0631237E0,3.0614066E-1,0E0,0E0,9.8263836E-1,0E0,0E0,0E0,0E0,0E0,0E0,0E0,0E0,0E0,0E0,0E0,0E0,0E0,0E0],"parents":[2147483647,0,0,1,1,2,2,3,3,4,4,5,5,6,6,7,7,8,8,9,9,10,10,11,11,12,12,14,14,19,19,20,20,21,21,23,23,24,24,25,25,28,28],"right_children":[2,4,6,8,10,12,14,16,18,20,22,24,26,-1,28,-1,-1,-1,-1,30,32,34,-1,36,38,40,-1,-1,42,-1,-1,-1,-1,-1,-1,-1,-1,-1,-1,-1,-1,-1,-1],"split_conditions":[9.134E3,7.41718E5,5.932891E3,5.609174E8,1.4096699E9,3.3503532E7,5.3140095E1,2.5050928E6,1.93E2,9.570385E4,1.5E2,4.1331047E-1,1.6244629E-1,7.0723897E-4,1.417988E6,-2.519192E-2,-1.162049E-2,-2.6608412E-3,-1.5371629E-2,2.9063344E5,1.4998456E5,7.200105E8,-1.0284487E-3,4.3290512E1,1E0,9.0301914E4,-4.6530556E-2,6.0209725E-2,4.42384E5,-1.1407239E-2,2.72727E-3,-2.516094E-3,1.0577376E-2,2.2192454E-2,8.435039E-3,1.942211E-3,1.4783302E-2,1.5235469E-2,3.234325E-2,1.23613E-3,-1.3911094E-2,3.9697077E-2,8.309422E-3],"split_indices":[2,1,61,7,7,54,65,59,10,42,3,44,47,0,38,0,0,0,0,37,37,5,0,65,109,37,0,0,2,0,0,0,0,0,0,0,0,0,0,0,0,0,0],"split_type":[0,0,0,0,0,0,0,0,0,0,0,0,0,0,0,0,0,0,0,0,0,0,0,0,0,0,0,0,0,0,0,0,0,0,0,0,0,0,0,0,0,0,0],"sum_hessian":[4.81E2,3.07E2,1.74E2,7.3E1,2.34E2,1.37E2,3.7E1,6.6E1,7E0,2.23E2,1.1E1,1.24E2,1.3E1,4E0,3.3E1,6.3E1,3E0,3E0,4E0,1.76E2,4.7E1,8E0,3E0,8E1,4.4E1,1E1,3E0,1E1,2.3E1,1.66E2,1E1,4.2E1,5E0,5E0,3E0,1.7E1,6.3E1,1.4E1,3E1,6E0,4E0,2E1,3E0],"tree_param":{"num_deleted":"0","num_feature":"115","num_nodes":"43","size_leaf_vector":"1"}},{"base_weights":[1.0015702E-2,-2.0717254E-1,5.2670485E-1,-4.690694E-1,-1.301758E-1,5.990116E-1,-4.085785E-1,-4.9186516E-1,-1.7333592E-3,-1.73698E-1,2.4907511E-1,4.7531593E-1,1.0347505E0,-1.204135E-1,-4.0396668E-2,-2.368167E-2,-1.3636736E-2,-2.891477E-1,-9.6596144E-2,1.14809126E-1,3.5778505E-1,3.2097438E-1,6.1540294E-1,1.1434951E0,1.2999823E-2,-1.1686763E-2,3.5878299E-3,-7.501257E-3,-1.5849506E-2,-6.639347E-3,1.0761006E-2,8.554554E-3,-5.1365593E-3,1.8764602E-2,9.657683E-3,1.7274572E-2,9.924703E-3,1.9247489E-2,3.1643283E-2,6.4290665E-2,4.006708E-2],"categories":[],"categories_nodes":[],"categories_segments":[],"categories_sizes":[],"default_left":[0,0,0,0,0,0,0,0,0,0,0,0,0,0,0,0,0,0,0,0,0,0,0,0,0,0,0,0,0,0,0,0,0,0,0,0,0,0,0,0,0],"id":5,"left_children":[1,3,5,7,9,11,13,15,-1,17,19,21,23,25,-1,-1,-1,27,29,31,33,35,37,39,-1,-1,-1,-1,-1,-1,-1,-1,-1,-1,-1,-1,-1,-1,-1,-1,-1],"loss_changes":[5.498412E1,6.895934E0,1.0050701E1,7.480583E-1,4.4668274E0,6.7845345E0,1.396783E0,2.1357155E-1,0E0,2.117303E0,3.6761224E-1,2.1159458E0,2.0424767E0,2.3469688E-1,0E0,0E0,0E0,6.308985E-1,2.382728E0,2.5026268E-1,2.850604E-2,2.2993517E-1,5.242615E-1,5.2093124E-1,0E0,0E0,0E0,0E0,0E0,0E0,0E0,0E0,0E0,0E0,0E0,0E0,0E0,0E0,0E0,0E0,0E0],"parents":[2147483647,0,0,1,1,2,2,3,3,4,4,5,5,6,6,7,7,9,9,10,10,11,11,12,12,13,13,17,17,18,18,19,19,20,20,21,21,22,22,23,23],"right_children":[2,4,6,8,10,12,14,16,-1,18,20,22,24,26,-1,-1,-1,28,30,32,34,36,38,40,-1,-1,-1,-1,-1,-1,-1,-1,-1,-1,-1,-1,-1,-1,-1,-1,-1],"split_conditions":[1.3664E4,7.32424E5,1.0434409E3,1.2852292E7,1.4777102E9,7.710634E3,7.339209E6,2.4434292E7,-1.7333592E-3,7.3822034E2,1.0284004E2,4.1331047E-1,1.92E2,1.6130411E5,-4.0396668E-2,-2.368167E-2,-1.3636736E-2,7.37365E6,2.3171705E5,5.78E2,5.88824E7,1.9470884E5,1E0,3.3616E4,1.2999823E-2,-1.1686763E-2,3.5878299E-3,-7.501257E-3,-1.5849506E-2,-6.639347E-3,1.0761006E-2,8.554554E-3,-5.1365593E-3,1.8764602E-2,9.657683E-3,1.7274572E-2,9.924703E-3,1.9247489E-2,3.1643283E-2,6.4290665E-2,4.006708E-2],"split_indices":[2,1,67,9,7,61,56,12,0,61,63,44,8,37,0,0,0,54,37,8,9,42,109,10,0,0,0,0,0,0,0,0,0,0,0,0,0,0,0,0,0],"split_type":[0,0,0,0,0,0,0,0,0,0,0,0,0,0,0,0,0,0,0,0,0,0,0,0,0,0,0,0,0,0,0,0,0,0,0,0,0,0,0,0,0],"sum_hessian":[4.88E2,3.44E2,1.44E2,7.7E1,2.67E2,1.34E2,1E1,7.3E1,4E0,2.4E2,2.7E1,1.06E2,2.8E1,7E0,3E0,6.3E1,1E1,9.5E1,1.45E2,1.3E1,1.4E1,5.2E1,5.4E1,2.4E1,4E0,4E0,3E0,3.1E1,6.4E1,1.27E2,1.8E1,1E1,3E0,9E0,5E0,3.2E1,2E1,1.7E1,3.7E1,1E1,1.4E1],"tree_param":{"num_deleted":"0","num_feature":"115","num_nodes":"41","size_leaf_vector":"1"}},{"base_weights":[7.730294E-3,-2.3478466E-1,4.0877026E-1,-4.757759E-1,-1.4981993E-1,2.9193845E-1,8.9112264E-1,-2.2545144E-2,-1.0712231E-2,-1.7569044E-1,2.835931E-1,3.6758724E-1,-2.7483538E-1,9.665825E-1,2.9591017E-3,-2.1047246E-1,2.0142893E-4,7.411203E-4,3.6219293E-1,2.4485473E-1,5.890527E-1,-7.604021E-2,-4.3547105E-2,5.365999E-1,1.0875517E0,-1.0092564E-2,1.2830353E-2,-8.791006E-3,2.062296E-3,2.070844E-2,8.298909E-3,7.517647E-3,1.636306E-2,3.6232192E-2,2.1298708E-2,9.6565543E-4,-1.5945915E-2,1.1958839E-2,3.2241344E-2,5.2912723E-2,2.081667E-2],"categories":[],"categories_nodes":[],"categories_segments":[],"categories_sizes":[],"default_left":[0,0,0,0,0,0,0,0,0,0,0,0,0,0,0,0,0,0,0,0,0,0,0,0,0,0,0,0,0,0,0,0,0,0,0,0,0,0,0,0,0],"id":6,"left_children":[1,3,5,7,9,11,13,-1,-1,15,17,19,21,23,-1,25,27,-1,29,31,33,35,-1,37,39,-1,-1,-1,-1,-1,-1,-1,-1,-1,-1,-1,-1,-1,-1,-1,-1],"loss_changes":[4.697442E1,6.091921E0,9.996294E0,2.0306778E-1,2.5614514E0,6.446636E0,2.1202526E0,0E0,0E0,1.2970319E0,2.673607E-1,3.416481E0,2.3493457E0,1.0808907E0,0E0,9.370804E-1,3.1925622E-1,0E0,8.129883E-2,7.223387E-1,7.842388E-1,4.0429926E-1,0E0,2.3196745E-1,5.174198E-1,0E0,0E0,0E0,0E0,0E0,0E0,0E0,0E0,0E0,0E0,0E0,0E0,0E0,0E0,0E0,0E0],"parents":[2147483647,0,0,1,1,2,2,3,3,4,4,5,5,6,6,9,9,10,10,11,11,12,12,13,13,15,15,16,16,18,18,19,19,20,20,21,21,23,23,24,24],"right_children":[2,4,6,8,10,12,14,-1,-1,16,18,20,22,24,-1,26,28,-1,30,32,34,36,-1,38,40,-1,-1,-1,-1,-1,-1,-1,-1,-1,-1,-1,-1,-1,-1,-1,-1],"split_conditions":[9.134E3,7.41718E5,6.651788E3,3.5002026E8,1.4096699E9,3.5301748E7,1.4656219E8,-2.2545144E-2,-1.0712231E-2,4.1619555E8,1E0,4.1331047E-1,1.6244629E-1,6.274818E4,2.9591017E-3,3.7069206E5,1.667732E1,7.411203E-4,7.200105E8,2.0663544E9,1.5990765E6,2.5503985E9,-4.3547105E-2,2.1152368E-1,2.7674397E5,-1.0092564E-2,1.2830353E-2,-8.791006E-3,2.062296E-3,2.070844E-2,8.298909E-3,7.517647E-3,1.636306E-2,3.6232192E-2,2.1298708E-2,9.6565543E-4,-1.5945915E-2,1.1958839E-2,3.2241344E-2,5.2912723E-2,2.081667E-2],"split_indices":[2,1,61,7,7,54,1,0,0,12,13,44,47,37,0,37,63,0,5,12,56,7,0,47,42,0,0,0,0,0,0,0,0,0,0,0,0,0,0,0,0],"split_type":[0,0,0,0,0,0,0,0,0,0,0,0,0,0,0,0,0,0,0,0,0,0,0,0,0,0,0,0,0,0,0,0,0,0,0,0,0,0,0,0,0],"sum_hessian":[4.81E2,3E2,1.81E2,7.7E1,2.23E2,1.47E2,3.4E1,7.1E1,6E0,2.11E2,1.2E1,1.3E2,1.7E1,3.1E1,3E0,1.76E2,3.5E1,3E0,9E0,8.5E1,4.5E1,1.4E1,3E0,8E0,2.3E1,1.73E2,3E0,6E0,2.9E1,5E0,4E0,5.1E1,3.4E1,1.5E1,3E1,1.1E1,3E0,4E0,4E0,2E1,3E0],"tree_param":{"num_deleted":"0","num_feature":"115","num_nodes":"41","size_leaf_vector":"1"}},{"base_weights":[6.199969E-3,-2.1495649E-1,4.3669865E-1,-4.456822E-1,-1.3016799E-1,3.0858037E-1,8.2915133E-1,-4.607872E-1,-6.0771324E-4,-1.8291743E-1,5.6865532E-2,3.908224E-1,-2.9668045E-1,-3.817022E-3,9.0339077E-1,-2.2161864E-2,-1.1836359E-2,-2.673573E-1,-7.418479E-2,-2.7957319E-3,2.2752598E-1,2.5294927E-1,5.751282E-1,-8.239187E-2,-4.205252E-2,5.4154027E-1,1.0132823E0,-1.2937103E-2,1.6283687E-3,-9.969236E-3,1.5046574E-3,-1.9762784E-3,9.132046E-3,-1.7538348E-3,1.3889329E-2,3.8052371E-3,1.35560455E-2,1.4653872E-2,2.9002858E-2,9.411755E-3,-8.666199E-3,2.8682448E-2,1.0784881E-2,4.8947424E-2,1.8664401E-2],"categories":[],"categories_nodes":[],"categories_segments":[],"categories_sizes":[],"default_left":[0,0,0,0,0,0,0,0,0,0,0,0,0,0,0,0,0,0,0,0,0,0,0,0,0,0,0,0,0,0,0,0,0,0,0,0,0,0,0,0,0,0,0,0,0],"id":7,"left_children":[1,3,5,7,9,11,13,15,-1,17,19,21,23,-1,25,-1,-1,27,29,31,33,35,37,39,-1,41,43,-1,-1,-1,-1,-1,-1,-1,-1,-1,-1,-1,-1,-1,-1,-1,-1,-1,-1],"loss_changes":[4.7412033E1,6.3781767E0,8.24152E0,5.686474E-1,2.3979526E0,6.5372944E0,2.8530254E0,2.7854538E-1,0E0,1.7154446E0,5.5045426E-1,2.7513561E0,2.057804E0,0E0,9.623108E-1,0E0,0E0,5.0295544E-1,1.2992272E0,3.4371802E-1,2.9445767E-1,4.677658E-1,5.147047E-1,4.3958727E-1,0E0,1.3907385E-1,5.187397E-1,0E0,0E0,0E0,0E0,0E0,0E0,0E0,0E0,0E0,0E0,0E0,0E0,0E0,0E0,0E0,0E0,0E0,0E0],"parents":[2147483647,0,0,1,1,2,2,3,3,4,4,5,5,6,6,7,7,9,9,10,10,11,11,12,12,14,14,17,17,18,18,19,19,20,20,21,21,22,22,23,23,25,25,26,26],"right_children":[2,4,6,8,10,12,14,16,-1,18,20,22,24,-1,26,-1,-1,28,30,32,34,36,38,40,-1,42,44,-1,-1,-1,-1,-1,-1,-1,-1,-1,-1,-1,-1,-1,-1,-1,-1,-1,-1],"split_conditions":[1.0262E4,7.41718E5,6.0500806E3,1.2852292E7,7.164074E8,3.5301748E7,5.0314346E1,2.9778808E7,-6.0771324E-4,2.735322E6,1.484798E9,4.1331047E-1,1.6244629E-1,-3.817022E-3,6.274818E4,-2.2161864E-2,-1.1836359E-2,5.368828E8,7.335186E2,1E0,2.0532622E3,4.3290512E1,5.4730445E9,1.869E4,-4.205252E-2,2.36316E5,8.75E3,-1.2937103E-2,1.6283687E-3,-9.969236E-3,1.5046574E-3,-1.9762784E-3,9.132046E-3,-1.7538348E-3,1.3889329E-2,3.8052371E-3,1.35560455E-2,1.4653872E-2,2.9002858E-2,9.411755E-3,-8.666199E-3,2.8682448E-2,1.0784881E-2,4.8947424E-2,1.8664401E-2],"split_indices":[2,1,61,9,7,54,65,12,0,1,7,44,47,0,37,0,0,41,61,108,4,65,5,9,0,2,0,0,0,0,0,0,0,0,0,0,0,0,0,0,0,0,0,0,0],"split_type":[0,0,0,0,0,0,0,0,0,0,0,0,0,0,0,0,0,0,0,0,0,0,0,0,0,0,0,0,0,0,0,0,0,0,0,0,0,0,0,0,0,0,0,0,0],"sum_hessian":[4.96E2,3.28E2,1.68E2,8.7E1,2.41E2,1.28E2,4E1,8.4E1,3E0,1.88E2,5.3E1,1.13E2,1.5E1,3E0,3.7E1,7.4E1,1E1,1.05E2,8.3E1,4E1,1.3E1,6.6E1,4.7E1,1.2E1,3E0,1E1,2.7E1,1E2,5E0,3.5E1,4.8E1,3.4E1,6E0,3E0,1E1,1.4E1,5.2E1,1E1,3.7E1,3E0,9E0,7E0,3E0,2.4E1,3E0],"tree_param":{"num_deleted":"0","num_feature":"115","num_nodes":"45","size_leaf_vector":"1"}},{"base_weights":[8.667423E-3,-1.7574525E-1,4.3931806E-1,-2.5154382E-1,7.320554E-2,5.05041E-1,-3.5310543E-1,-3.631672E-1,-1.1791023E-1,-1.2458875E-2,2.3019427E-1,3.9639425E-1,8.6726046E-1,-3.3332396E-2,1.9013008E-2,-4.4247004E-1,-2.8738716E-1,1.9672122E-2,-2.1241419E-1,-5.0359637E-2,1.3689142E-2,9.570006E-2,3.1950194E-1,4.743034E-1,2.5751093E-1,6.672631E-1,5.16336E-2,9.170901E-3,-7.6482864E-3,-2.0824073E-2,-5.6830035E-3,-2.6222907E-3,-1.384605E-2,-9.850916E-4,1.2891531E-2,-1.19486E-2,5.233007E-4,-1.1673393E-3,-1.4806172E-2,-4.036887E-3,8.568495E-3,1.6968098E-2,8.843776E-3,1.6790805E-2,2.7734455E-2,1.3933957E-2,-1.1585491E-2,3.32709E-2,1.5673168E-2],"categories":[],"categories_nodes":[],"categories_segments":[],"categories_sizes":[],"default_left":[0,0,0,0,0,0,0,0,0,0,0,0,0,0,0,0,0,0,0,0,0,0,0,0,0,0,0,0,0,0,0,0,0,0,0,0,0,0,0,0,0,0,0,0,0,0,0,0,0],"id":8,"left_children":[1,3,5,7,9,11,13,15,17,19,21,23,25,-1,27,29,31,33,35,37,-1,39,41,43,45,47,-1,-1,-1,-1,-1,-1,-1,-1,-1,-1,-1,-1,-1,-1,-1,-1,-1,-1,-1,-1,-1,-1,-1],"loss_changes":[3.9468254E1,6.5852146E0,7.9383106E0,3.9399204E0,1.1056324E0,5.0870705E0,1.6896647E0,7.4422836E-1,1.6034341E0,6.5279675E-1,3.177532E-1,1.0464516E0,8.6564827E-1,0E0,2.6985428E-1,2.198906E-1,2.5163603E-1,5.5664295E-1,7.986517E-1,3.2440352E-1,0E0,2.3538598E-1,3.8420916E-2,7.397547E-1,1.0607395E0,1.3931656E-1,0E0,0E0,0E0,0E0,0E0,0E0,0E0,0E0,0E0,0E0,0E0,0E0,0E0,0E0,0E0,0E0,0E0,0E0,0E0,0E0,0E0,0E0,0E0],"parents":[2147483647,0,0,1,1,2,2,3,3,4,4,5,5,6,6,7,7,8,8,9,9,10,10,11,11,12,12,14,14,15,15,16,16,17,17,18,18,19,19,21,21,22,22,23,23,24,24,25,25],"right_children":[2,4,6,8,10,12,14,16,18,20,22,24,26,-1,28,30,32,34,36,38,-1,40,42,44,46,48,-1,-1,-1,-1,-1,-1,-1,-1,-1,-1,-1,-1,-1,-1,-1,-1,-1,-1,-1,-1,-1,-1,-1],"split_conditions":[1.3428E4,7.164074E8,1.0434409E3,1.732734E6,1.5522031E9,4.026531E9,3.5226266E0,7.41718E5,1.4074289E7,3.5921E4,1.0284004E2,2.228899E6,8.010436E0,-3.3332396E-2,1.8431219E4,1.2254369E7,1.0885876E4,3.0224E4,1.4854412E3,1E0,1.3689142E-2,2.6978243E1,6.3349745E6,3.9417793E3,1.92144E5,4.547513E7,5.16336E-2,9.170901E-3,-7.6482864E-3,-2.0824073E-2,-5.6830035E-3,-2.6222907E-3,-1.384605E-2,-9.850916E-4,1.2891531E-2,-1.19486E-2,5.233007E-4,-1.1673393E-3,-1.4806172E-2,-4.036887E-3,8.568495E-3,1.6968098E-2,8.843776E-3,1.6790805E-2,2.7734455E-2,1.3933957E-2,-1.1585491E-2,3.32709E-2,1.5673168E-2],"split_indices":[2,7,67,1,7,7,63,1,54,10,63,9,62,0,42,9,37,10,61,18,0,67,54,61,2,38,0,0,0,0,0,0,0,0,0,0,0,0,0,0,0,0,0,0,0,0,0,0,0],"split_type":[0,0,0,0,0,0,0,0,0,0,0,0,0,0,0,0,0,0,0,0,0,0,0,0,0,0,0,0,0,0,0,0,0,0,0,0,0,0,0,0,0,0,0,0,0,0,0,0,0],"sum_hessian":[4.95E2,3.47E2,1.48E2,2.66E2,8.1E1,1.37E2,1.1E1,1.44E2,1.22E2,5.3E1,2.8E1,1.07E2,3E1,5E0,6E0,6.8E1,7.6E1,5E1,7.2E1,4.8E1,5E0,1.2E1,1.6E1,6.7E1,4E1,1.9E1,1.1E1,3E0,3E0,6.5E1,3E0,5E0,7.1E1,4.4E1,6E0,5.9E1,1.3E1,4.5E1,3E0,4E0,8E0,1E1,6E0,3.9E1,2.8E1,3.7E1,3E0,1.5E1,4E0],"tree_param":{"num_deleted":"0","num_feature":"115","num_nodes":"49","size_leaf_vector":"1"}},{"base_weights":[-4.881382E-3,-2.1856993E-1,3.0547476E-1,-2.6319763E-1,1.4807124E-1,9.048142E-2,5.8120775E-1,-4.1696098E-1,-2.0143463E-1,-1.2453343E-2,2.0092487E-1,-7.203054E-2,1.7710301E-1,5.090547E-1,3.8822487E-2,-4.3874806E-1,3.1370989E-3,-1.8439807E-1,-4.2581044E-2,2.387004E-1,-4.3403604E-3,-2.4853633E-1,-4.9107214E-3,8.873447E-2,2.7845615E-1,4.6070018E-1,8.3225906E-1,-2.113263E-2,-1.2498952E-2,-3.5042083E-3,-1.0318171E-2,-1.6993012E-3,1.2643617E-2,-1.4770551E-2,-1.7357897E-3,2.9479966E-3,-6.86496E-3,-4.876503E-5,8.821443E-3,1.8450662E-2,5.1678466E-3,2.209901E-2,3.0796474E-4,1.7308196E-2,4.7090225E-2],"categories":[],"categories_nodes":[],"categories_segments":[],"categories_sizes":[],"default_left":[0,0,0,0,0,0,0,0,0,0,0,0,0,0,0,0,0,0,0,0,0,0,0,0,0,0,0,0,0,0,0,0,0,0,0,0,0,0,0,0,0,0,0,0,0],"id":9,"left_children":[1,3,5,7,9,11,13,15,17,-1,19,21,23,25,-1,27,-1,29,-1,31,-1,33,35,37,39,41,43,-1,-1,-1,-1,-1,-1,-1,-1,-1,-1,-1,-1,-1,-1,-1,-1,-1,-1],"loss_changes":[3.2364388E1,4.7676945E0,1.1744282E1,2.3662052E0,7.65381E-1,1.6034627E0,1.245163E0,8.022671E-1,2.1386704E0,0E0,3.466556E-1,4.7266102E-1,6.38067E-1,7.261925E-1,0E0,1.4109421E-1,0E0,7.932811E-1,0E0,2.7986443E-1,0E0,1.5973514E-1,3.1147477E-1,3.8324252E-1,6.564634E-1,6.422186E-1,3.255329E-1,0E0,0E0,0E0,0E0,0E0,0E0,0E0,0E0,0E0,0E0,0E0,0E0,0E0,0E0,0E0,0E0,0E0,0E0],"parents":[2147483647,0,0,1,1,2,2,3,3,4,4,5,5,6,6,7,7,8,8,10,10,11,11,12,12,13,13,15,15,17,17,19,19,21,21,22,22,23,23,24,24,25,25,26,26],"right_children":[2,4,6,8,10,12,14,16,18,-1,20,22,24,26,-1,28,-1,30,-1,32,-1,34,36,38,40,42,44,-1,-1,-1,-1,-1,-1,-1,-1,-1,-1,-1,-1,-1,-1,-1,-1,-1,-1],"split_conditions":[9.570385E4,1.4777102E9,2.5096E4,7.41718E5,3.0972284E1,1.1021018E3,8.625562E0,8.332E3,5.825042E6,-1.2453343E-2,9.705148E-1,9.274153E-2,1.153215E9,4.2875492E1,3.8822487E-2,2.7299898E8,3.1370989E-3,7.2123305E6,-4.2581044E-2,1.9265735E3,-4.3403604E-3,9.407814E6,2.0421524E6,7.959718E4,1.1532659E7,1.2042546E4,1.3590209E7,-2.113263E-2,-1.2498952E-2,-3.5042083E-3,-1.0318171E-2,-1.6993012E-3,1.2643617E-2,-1.4770551E-2,-1.7357897E-3,2.9479966E-3,-6.86496E-3,-4.876503E-5,8.821443E-3,1.8450662E-2,5.1678466E-3,2.209901E-2,3.0796474E-4,1.7308196E-2,4.7090225E-2],"split_indices":[42,7,2,1,65,61,44,2,56,0,43,47,7,63,0,7,0,54,0,64,0,1,56,37,54,61,1,0,0,0,0,0,0,0,0,0,0,0,0,0,0,0,0,0,0],"split_type":[0,0,0,0,0,0,0,0,0,0,0,0,0,0,0,0,0,0,0,0,0,0,0,0,0,0,0,0,0,0,0,0,0,0,0,0,0,0,0,0,0,0,0,0,0],"sum_hessian":[4.86E2,2.88E2,1.98E2,2.57E2,3.1E1,1.12E2,8.6E1,7.2E1,1.85E2,3E0,2.8E1,3.9E1,7.3E1,7E1,1.6E1,6.9E1,3E0,1.82E2,3E0,2.5E1,3E0,1E1,2.9E1,4E1,3.3E1,6.3E1,7E0,5.9E1,1E1,5.1E1,1.31E2,3E0,2.2E1,7E0,3E0,2E1,9E0,2.2E1,1.8E1,1.8E1,1.5E1,6E1,3E0,3E0,4E0],"tree_param":{"num_deleted":"0","num_feature":"115","num_nodes":"45","size_leaf_vector":"1"}},{"base_weights":[3.4506149E-3,-2.0101179E-1,3.323031E-1,-3.9186963E-1,-1.3679254E-1,2.3629071E-1,7.337922E-1,-4.0725446E-1,-6.6127335E-3,-1.8223394E-1,4.7946773E-2,3.088444E-1,-2.9547727E-1,-5.1799896E-3,8.142212E-1,-1.8988257E-2,-1.019718E-2,-2.1545196E-1,2.791601E-2,-2.5366267E-2,1.8699412E-1,2.0485462E-1,4.6296114E-1,-8.198047E-2,-4.0127054E-2,8.6628276E-1,1.00768935E-2,-1.2250847E-2,-6.7228545E-3,-4.4408785E-3,4.5660753E-3,-4.0684724E-3,3.178166E-3,-3.3128096E-3,1.1551198E-2,6.237513E-3,1.329668E-2,2.6013503E-2,1.7053887E-2,-8.436664E-3,1.1241659E-2,5.0267298E-2,2.9766614E-2],"categories":[],"categories_nodes":[],"categories_segments":[],"categories_sizes":[],"default_left":[0,0,0,0,0,0,0,0,0,0,0,0,0,0,0,0,0,0,0,0,0,0,0,0,0,0,0,0,0,0,0,0,0,0,0,0,0,0,0,0,0,0,0],"id":10,"left_children":[1,3,5,7,9,11,13,15,-1,17,19,21,23,-1,25,-1,-1,27,29,31,33,35,37,39,-1,41,-1,-1,-1,-1,-1,-1,-1,-1,-1,-1,-1,-1,-1,-1,-1,-1,-1],"loss_changes":[3.3147877E1,3.6724463E0,7.112171E0,2.3038197E-1,1.9311495E0,6.0328426E0,2.544571E0,8.156776E-3,0E0,1.2904758E0,4.736666E-1,2.084772E0,2.286507E0,0E0,8.297806E-1,0E0,0E0,5.3018713E-1,2.4316482E-1,1.9293779E-1,2.8980893E-1,4.4805288E-1,3.025341E-1,5.4844683E-1,0E0,7.886791E-1,0E0,0E0,0E0,0E0,0E0,0E0,0E0,0E0,0E0,0E0,0E0,0E0,0E0,0E0,0E0,0E0,0E0],"parents":[2147483647,0,0,1,1,2,2,3,3,4,4,5,5,6,6,7,7,9,9,10,10,11,11,12,12,14,14,17,17,18,18,19,19,20,20,21,21,22,22,23,23,25,25],"right_children":[2,4,6,8,10,12,14,16,-1,18,20,22,24,-1,26,-1,-1,28,30,32,34,36,38,40,-1,42,-1,-1,-1,-1,-1,-1,-1,-1,-1,-1,-1,-1,-1,-1,-1,-1,-1],"split_conditions":[9.134E3,7.41718E5,6.651788E3,3.5002026E8,7.164074E8,3.5301748E7,5.3140095E1,2.4434292E7,-6.6127335E-3,4.1619555E8,1.2538845E9,2.7371603E-1,1.6244629E-1,-5.1799896E-3,1.93E2,-1.8988257E-2,-1.019718E-2,7.898574E2,7.424E3,9.470162E-2,2.0532622E3,7.228959E6,1.1532659E7,3.2996133E3,-4.0127054E-2,3.3616E4,1.00768935E-2,-1.2250847E-2,-6.7228545E-3,-4.4408785E-3,4.5660753E-3,-4.0684724E-3,3.178166E-3,-3.3128096E-3,1.1551198E-2,6.237513E-3,1.329668E-2,2.6013503E-2,1.7053887E-2,-8.436664E-3,1.1241659E-2,5.0267298E-2,2.9766614E-2],"split_indices":[2,1,61,7,7,54,65,12,0,12,7,44,47,0,8,0,0,61,10,47,4,1,54,61,0,10,0,0,0,0,0,0,0,0,0,0,0,0,0,0,0,0,0],"split_type":[0,0,0,0,0,0,0,0,0,0,0,0,0,0,0,0,0,0,0,0,0,0,0,0,0,0,0,0,0,0,0,0,0,0,0,0,0,0,0,0,0,0,0],"sum_hessian":[4.91E2,3.03E2,1.88E2,7.5E1,2.28E2,1.53E2,3.5E1,7E1,5E0,1.83E2,4.5E1,1.35E2,1.8E1,3E0,3.2E1,6.6E1,4E0,1.58E2,2.5E1,3E1,1.5E1,8.2E1,5.3E1,1.4E1,4E0,2.9E1,3E0,8.8E1,7E1,9E0,1.6E1,1.8E1,1.2E1,3E0,1.2E1,4.7E1,3.5E1,2.2E1,3.1E1,1.1E1,3E0,1.2E1,1.7E1],"tree_param":{"num_deleted":"0","num_feature":"115","num_nodes":"43","size_leaf_vector":"1"}},{"base_weights":[6.0572852E-3,-1.8199144E-1,3.4493575E-1,-3.790284E-1,-1.0879841E-1,3.8998207E-1,-6.55416E-1,-4.0758693E-1,-2.286107E-1,-1.3072756E-1,1.4622772E-1,3.06783E-1,7.5313985E-1,-3.8658034E-2,-1.1663204E-2,-4.1552907E-1,-7.8103016E-3,-1.1799377E-2,-3.498371E-3,-2.084759E-1,-6.1905928E-2,2.6840997E-1,-1.9353667E-2,2.1731754E-1,4.8487943E-1,5.1438544E-2,5.503083E-1,-1.9348415E-2,-8.847798E-3,-1.2831727E-2,-5.6384495E-3,2.6766814E-3,-6.9022686E-3,1.5864013E-2,4.812682E-3,-4.3719513E-3,2.7777737E-3,7.307238E-3,1.5415922E-2,2.3545159E-2,2.061297E-3,3.1516116E-2,-1.1195195E-2],"categories":[],"categories_nodes":[],"categories_segments":[],"categories_sizes":[],"default_left":[0,0,0,0,0,0,0,0,0,0,0,0,0,0,0,0,0,0,0,0,0,0,0,0,0,0,0,0,0,0,0,0,0,0,0,0,0,0,0,0,0,0,0],"id":11,"left_children":[1,3,5,7,9,11,13,15,17,19,21,23,25,-1,-1,27,-1,-1,-1,29,31,33,35,37,39,-1,41,-1,-1,-1,-1,-1,-1,-1,-1,-1,-1,-1,-1,-1,-1,-1,-1],"loss_changes":[3.160698E1,4.5592947E0,8.231607E0,2.762518E-1,1.3277631E0,4.9053974E0,3.9145732E-1,6.267357E-2,5.146146E-2,1.1428599E0,3.895858E-1,2.1253138E0,1.7136574E0,0E0,0E0,2.8243065E-2,0E0,0E0,0E0,5.8485794E-1,1.2507641E0,1.0406351E-1,6.0689148E-2,6.008439E-1,5.7648563E-1,0E0,2.58885E0,0E0,0E0,0E0,0E0,0E0,0E0,0E0,0E0,0E0,0E0,0E0,0E0,0E0,0E0,0E0,0E0],"parents":[2147483647,0,0,1,1,2,2,3,3,4,4,5,5,6,6,7,7,8,8,9,9,10,10,11,11,12,12,15,15,19,19,20,20,21,21,22,22,23,23,24,24,26,26],"right_children":[2,4,6,8,10,12,14,16,18,20,22,24,26,-1,-1,28,-1,-1,-1,30,32,34,36,38,40,-1,42,-1,-1,-1,-1,-1,-1,-1,-1,-1,-1,-1,-1,-1,-1,-1,-1],"split_conditions":[1.0043E4,7.41718E5,2.3033237E3,2.1915232E8,1.1576422E9,7.3073276E3,3.1E1,2.4434292E7,1.2511433E3,2.025313E6,1.24E2,6.0891E4,1.417988E6,-3.8658034E-2,-1.1663204E-2,3.74301E5,-7.8103016E-3,-1.1799377E-2,-3.498371E-3,3.006846E6,1.4074289E7,9.565983E6,2.8720352E3,1.5271514E5,7.217412E2,5.1438544E-2,1.5096262E7,-1.9348415E-2,-8.847798E-3,-1.2831727E-2,-5.6384495E-3,2.6766814E-3,-6.9022686E-3,1.5864013E-2,4.812682E-3,-4.3719513E-3,2.7777737E-3,7.307238E-3,1.5415922E-2,2.3545159E-2,2.061297E-3,3.1516116E-2,-1.1195195E-2],"split_indices":[2,1,67,7,7,61,3,12,4,1,3,2,38,0,0,38,0,0,0,9,54,54,4,37,67,0,9,0,0,0,0,0,0,0,0,0,0,0,0,0,0,0,0],"split_type":[0,0,0,0,0,0,0,0,0,0,0,0,0,0,0,0,0,0,0,0,0,0,0,0,0,0,0,0,0,0,0,0,0,0,0,0,0,0,0,0,0,0,0],"sum_hessian":[4.94E2,3.18E2,1.76E2,8.5E1,2.33E2,1.69E2,7E0,7E1,1.5E1,2.15E2,1.8E1,1.39E2,3E1,4E0,3E0,6.7E1,3E0,1.2E1,3E0,1E2,1.15E2,1E1,8E0,9.4E1,4.5E1,9E0,2.1E1,6.4E1,3E0,5.3E1,4.7E1,4.9E1,6.6E1,6E0,4E0,4E0,4E0,6.5E1,2.9E1,4.2E1,3E0,1.8E1,3E0],"tree_param":{"num_deleted":"0","num_feature":"115","num_nodes":"43","size_leaf_vector":"1"}},{"base_weights":[-5.54752E-3,-1.6443579E-1,3.2501355E-1,-3.552566E-1,-9.967609E-2,3.84754E-1,-3.3401087E-1,-3.6708194E-1,-1.0993207E-3,-1.4213769E-1,1.1100005E-1,2.3196991E-1,5.786293E-1,-6.0693152E-2,-3.7242793E-2,-3.8275248E-1,-1.0577338E-2,-2.3540384E-1,-6.0714696E-2,2.8739604E-1,4.8837747E-2,1.7508768E-1,3.4767663E-1,4.8590788E-1,4.1740857E-2,-2.2820817E-1,1.1332003E-2,-1.9530574E-2,-1.530939E-2,-6.5949857E-3,-1.2606876E-2,-4.6014627E-3,8.675451E-3,1.52983125E-2,5.570542E-3,-3.1721408E-3,5.908071E-3,-4.081322E-3,9.458382E-3,8.796002E-3,1.7524011E-2,2.4416724E-2,-3.583239E-3,-4.4600004E-3,-1.3815539E-2],"categories":[],"categories_nodes":[],"categories_segments":[],"categories_sizes":[],"default_left":[0,0,0,0,0,0,0,0,0,0,0,0,0,0,0,0,0,0,0,0,0,0,0,0,0,0,0,0,0,0,0,0,0,0,0,0,0,0,0,0,0,0,0,0,0],"id":12,"left_children":[1,3,5,7,9,11,13,15,-1,17,19,21,23,25,-1,27,-1,29,31,33,35,37,39,41,-1,43,-1,-1,-1,-1,-1,-1,-1,-1,-1,-1,-1,-1,-1,-1,-1,-1,-1,-1,-1],"loss_changes":[2.6209536E1,4.1290674E0,6.506521E0,3.2412338E-1,2.2790263E0,4.279314E0,1.7866625E0,8.6214066E-2,0E0,1.5880437E0,4.5746708E-1,4.985671E-1,1.5668049E0,5.7300144E-1,0E0,1.0064125E-2,0E0,3.189187E-1,1.1557894E0,4.47883E-2,3.2192686E-1,5.1115656E-1,7.441783E-2,1.4668427E0,0E0,3.8023084E-2,0E0,0E0,0E0,0E0,0E0,0E0,0E0,0E0,0E0,0E0,0E0,0E0,0E0,0E0,0E0,0E0,0E0,0E0,0E0],"parents":[2147483647,0,0,1,1,2,2,3,3,4,4,5,5,6,6,7,7,9,9,10,10,11,11,12,12,13,13,15,15,17,17,18,18,19,19,20,20,21,21,22,22,23,23,25,25],"right_children":[2,4,6,8,10,12,14,16,-1,18,20,22,24,26,-1,28,-1,30,32,34,36,38,40,42,-1,44,-1,-1,-1,-1,-1,-1,-1,-1,-1,-1,-1,-1,-1,-1,-1,-1,-1,-1,-1],"split_conditions":[1.2175E4,7.41718E5,1.0434409E3,1.2852292E7,3.53E2,6.8963E4,7.339209E6,2.9778808E7,-1.0993207E-3,7.898574E2,3.08031E5,1.5271514E5,1.1275989E1,3.236383E1,-3.7242793E-2,2.0011E5,-1.0577338E-2,7.37365E6,2.332E3,3.9032572E6,1.570662E5,2.8529238E1,1.5147E4,5.37E2,4.1740857E-2,2.2201815E9,1.1332003E-2,-1.9530574E-2,-1.530939E-2,-6.5949857E-3,-1.2606876E-2,-4.6014627E-3,8.675451E-3,1.52983125E-2,5.570542E-3,-3.1721408E-3,5.908071E-3,-4.081322E-3,9.458382E-3,8.796002E-3,1.7524011E-2,2.4416724E-2,-3.583239E-3,-4.4600004E-3,-1.3815539E-2],"split_indices":[2,1,67,9,8,2,56,12,0,61,38,37,44,65,0,9,0,54,0,54,56,65,2,3,0,7,0,0,0,0,0,0,0,0,0,0,0,0,0,0,0,0,0,0,0],"split_type":[0,0,0,0,0,0,0,0,0,0,0,0,0,0,0,0,0,0,0,0,0,0,0,0,0,0,0,0,0,0,0,0,0,0,0,0,0,0,0,0,0,0,0,0,0],"sum_hessian":[4.97E2,3.36E2,1.61E2,8.4E1,2.52E2,1.48E2,1.3E1,8.1E1,3E0,2.1E2,4.2E1,8.4E1,6.4E1,9E0,4E0,7.1E1,1E1,9.7E1,1.13E2,1E1,3.2E1,5.8E1,2.6E1,5.2E1,1.2E1,6E0,3E0,3.3E1,3.8E1,3.1E1,6.6E1,9.8E1,1.5E1,7E0,3E0,1.3E1,1.9E1,6E0,5.2E1,6E0,2E1,4.8E1,4E0,3E0,3E0],"tree_param":{"num_deleted":"0","num_feature":"115","num_nodes":"45","size_leaf_vector":"1"}},{"base_weights":[9.351734E-3,-1.3564564E-1,3.6082488E-1,-3.4785393E-1,-7.461422E-2,4.2306665E-1,-4.0190372E-1,-3.661468E-1,-8.477121E-4,-1.08813375E-1,1.8483797E-1,3.390708E-1,7.4277824E-1,-3.095027E-2,2.8685327E-3,-2.0979326E-2,-3.3095998E-1,-1.20707765E-1,2.0945638E-2,8.098962E-2,3.0515456E-1,2.4200372E-1,4.5164144E-1,4.495106E-3,8.225791E-1,-1.5631884E-2,-7.152537E-3,-7.450078E-3,-2.1503161E-4,6.3256975E-3,-2.5870404E-3,1.5792107E-2,7.5159776E-3,8.078379E-3,1.4451264E-2,1.691324E-2,2.5777254E-2,1.8159365E-2,4.204565E-2],"categories":[],"categories_nodes":[],"categories_segments":[],"categories_sizes":[],"default_left":[0,0,0,0,0,0,0,0,0,0,0,0,0,0,0,0,0,0,0,0,0,0,0,0,0,0,0,0,0,0,0,0,0,0,0,0,0,0,0],"id":13,"left_children":[1,3,5,7,9,11,13,15,-1,17,19,21,23,-1,-1,-1,25,27,-1,29,31,33,35,-1,37,-1,-1,-1,-1,-1,-1,-1,-1,-1,-1,-1,-1,-1,-1],"loss_changes":[2.425622E1,4.3386583E0,6.76886E0,4.4504642E-1,2.353724E0,3.21237E0,1.4448807E0,7.886505E-2,0E0,1.6253145E0,3.626207E-1,1.0270987E0,1.2565241E0,0E0,0E0,0E0,4.8763275E-2,1.117512E0,0E0,1.4951198E-1,2.2114992E-2,2.244637E-1,2.2236538E-1,0E0,5.7760525E-1,0E0,0E0,0E0,0E0,0E0,0E0,0E0,0E0,0E0,0E0,0E0,0E0,0E0,0E0],"parents":[2147483647,0,0,1,1,2,2,3,3,4,4,5,5,6,6,7,7,9,9,10,10,11,11,12,12,16,16,17,17,19,19,20,20,21,21,22,22,24,24],"right_children":[2,4,6,8,10,12,14,16,-1,18,20,22,24,-1,-1,-1,26,28,-1,30,32,34,36,-1,38,-1,-1,-1,-1,-1,-1,-1,-1,-1,-1,-1,-1,-1,-1],"split_conditions":[1.3428E4,7.41718E5,1.0434409E3,1.2852292E7,1.4777102E9,7.710634E3,3.5226266E0,1.44E2,-8.477121E-4,3.059144E3,1.1593098E2,5.9161E4,6.841449E1,-3.095027E-2,2.8685327E-3,-2.0979326E-2,7.338093E4,2.6919386E-1,2.0945638E-2,5.78E2,6.3349745E6,1.5271514E5,1.646359E5,4.495106E-3,6.274818E4,-1.5631884E-2,-7.152537E-3,-7.450078E-3,-2.1503161E-4,6.3256975E-3,-2.5870404E-3,1.5792107E-2,7.5159776E-3,8.078379E-3,1.4451264E-2,1.691324E-2,2.5777254E-2,1.8159365E-2,4.204565E-2],"split_indices":[2,1,67,9,7,61,63,0,0,61,63,2,65,0,0,0,42,48,0,8,54,37,37,0,37,0,0,0,0,0,0,0,0,0,0,0,0,0,0],"split_type":[0,0,0,0,0,0,0,0,0,0,0,0,0,0,0,0,0,0,0,0,0,0,0,0,0,0,0,0,0,0,0,0,0,0,0,0,0,0,0],"sum_hessian":[4.74E2,3.36E2,1.38E2,7.4E1,2.62E2,1.28E2,1E1,7E1,4E0,2.32E2,3E1,1.03E2,2.5E1,6E0,4E0,1.6E1,5.4E1,2.28E2,4E0,1.7E1,1.3E1,5.7E1,4.6E1,3E0,2.2E1,5E1,4E0,1.67E2,6.1E1,1.2E1,5E0,9E0,4E0,3.2E1,2.5E1,2.9E1,1.7E1,5E0,1.7E1],"tree_param":{"num_deleted":"0","num_feature":"115","num_nodes":"39","size_leaf_vector":"1"}},{"base_weights":[9.837996E-4,-1.5627488E-1,2.9572588E-1,-3.3217576E-1,-9.435746E-2,2.1544689E-1,7.277941E-1,-3.8198858E-1,-2.537642E-1,-1.3791156E-1,6.1442345E-2,2.644163E-1,-3.6565533E-1,8.213659E-1,-7.1319443E-4,-1.8712286E-2,-2.7391666E-1,-6.886825E-4,-2.750095E-1,-1.9168416E-1,-3.3165213E-2,8.293081E-3,2.1270503E-1,1.3458729E-1,3.6552E-1,-6.498087E-1,1.2263858E-3,4.509304E-2,4.3850297E-1,-6.1008167E-3,-1.3854988E-2,-5.7843095E-3,-1.3072114E-2,-9.726327E-3,2.09191E-3,4.5728395E-3,-8.54161E-3,-3.0642562E-3,2.946512E-3,1.2832553E-2,3.4631784E-3,-4.726832E-3,8.096637E-3,1.784909E-2,2.95372E-3,-3.607515E-2,-1.5963323E-2,2.3533747E-2,9.849201E-3],"categories":[],"categories_nodes":[],"categories_segments":[],"categories_sizes":[],"default_left":[0,0,0,0,0,0,0,0,0,0,0,0,0,0,0,0,0,0,0,0,0,0,0,0,0,0,0,0,0,0,0,0,0,0,0,0,0,0,0,0,0,0,0,0,0,0,0,0,0],"id":14,"left_children":[1,3,5,7,9,11,13,15,17,19,21,23,25,27,-1,-1,29,-1,31,33,35,37,39,41,43,45,-1,-1,47,-1,-1,-1,-1,-1,-1,-1,-1,-1,-1,-1,-1,-1,-1,-1,-1,-1,-1,-1,-1],"loss_changes":[2.3314291E1,3.5410128E0,5.913249E0,2.3506641E-1,1.6641893E0,4.3366647E0,1.8909006E0,3.3456326E-2,1.7843795E-1,1.0694473E0,4.3236905E-1,1.7622194E0,1.3556226E0,1.0750809E0,0E0,0E0,1.2364268E-2,0E0,1.6108751E-2,6.336627E-1,1.3669212E0,1.7738959E-1,1.0868412E-1,6.427827E-1,5.4319954E-1,1.683569E-2,0E0,0E0,4.156375E-2,0E0,0E0,0E0,0E0,0E0,0E0,0E0,0E0,0E0,0E0,0E0,0E0,0E0,0E0,0E0,0E0,0E0,0E0,0E0,0E0],"parents":[2147483647,0,0,1,1,2,2,3,3,4,4,5,5,6,6,7,7,8,8,9,9,10,10,11,11,12,12,13,13,16,16,18,18,19,19,20,20,21,21,22,22,23,23,24,24,25,25,28,28],"right_children":[2,4,6,8,10,12,14,16,18,20,22,24,26,28,-1,-1,30,-1,32,34,36,38,40,42,44,46,-1,-1,48,-1,-1,-1,-1,-1,-1,-1,-1,-1,-1,-1,-1,-1,-1,-1,-1,-1,-1,-1,-1],"split_conditions":[1.0262E4,7.41718E5,7.710634E3,1.425966E6,7.164074E8,9.064268E2,1.92E2,5.87114E5,2E1,1.1501869E3,1.4777102E9,2.5096E4,3.5226266E0,5.192243E6,-7.1319443E-4,-1.8712286E-2,1.1802526E3,-6.886825E-4,2.586E4,2.889654E5,6.935338E1,1.9252769E5,3.74301E5,4.3290512E1,1.773296E6,1.2799757E9,1.2263858E-3,4.509304E-2,1E0,-6.1008167E-3,-1.3854988E-2,-5.7843095E-3,-1.3072114E-2,-9.726327E-3,2.09191E-3,4.5728395E-3,-8.54161E-3,-3.0642562E-3,2.946512E-3,1.2832553E-2,3.4631784E-3,-4.726832E-3,8.096637E-3,1.784909E-2,2.95372E-3,-3.607515E-2,-1.5963323E-2,2.3533747E-2,9.849201E-3],"split_indices":[2,1,61,9,7,67,8,1,10,61,7,2,63,38,0,0,64,0,38,37,63,56,38,65,11,7,0,0,13,0,0,0,0,0,0,0,0,0,0,0,0,0,0,0,0,0,0,0,0],"split_type":[0,0,0,0,0,0,0,0,0,0,0,0,0,0,0,0,0,0,0,0,0,0,0,0,0,0,0,0,0,0,0,0,0,0,0,0,0,0,0,0,0,0,0,0,0,0,0,0,0],"sum_hessian":[5.01E2,3.27E2,1.74E2,8.4E1,2.43E2,1.48E2,2.6E1,4.9E1,3.5E1,1.9E2,5.3E1,1.37E2,1.1E1,2.3E1,3E0,3.7E1,1.2E1,3E0,3.2E1,1.25E2,6.5E1,4E1,1.3E1,6.1E1,7.6E1,6E0,5E0,1.5E1,8E0,3E0,9E0,3E0,2.9E1,1.15E2,1E1,3.5E1,3E1,1.7E1,2.3E1,8E0,5E0,9E0,5.2E1,7E1,6E0,3E0,3E0,5E0,3E0],"tree_param":{"num_deleted":"0","num_feature":"115","num_nodes":"49","size_leaf_vector":"1"}},{"base_weights":[7.4503543E-3,-1.4274189E-1,2.7536464E-1,-2.7888697E-1,-7.398962E-2,3.2289678E-1,-2.977144E-1,-3.167151E-1,-1.038172E-2,-9.6129835E-2,1.8302166E-1,2.539031E-1,6.610168E-1,-4.957422E-2,-3.3609677E-2,-3.2945514E-1,-5.260269E-3,-6.262431E-2,4.4013397E-3,-1.8678229E-1,-3.7426345E-2,-1.7217173E-3,2.329902E-1,1.5889613E-1,3.844585E-1,7.5692475E-1,-3.6465114E-3,-2.0931187E-1,1.1090787E-2,-1.6466646E-2,-1.0283511E-2,5.1922643E-6,-4.780639E-3,-9.3151005E-3,-8.58053E-4,-3.2641205E-3,6.62454E-3,1.4761844E-2,5.741886E-3,9.375822E-3,8.120591E-4,1.2277114E-2,2.2303073E-2,4.3872487E-2,2.6172591E-2,-4.4474704E-3,-1.2314802E-2],"categories":[],"categories_nodes":[],"categories_segments":[],"categories_sizes":[],"default_left":[0,0,0,0,0,0,0,0,0,0,0,0,0,0,0,0,0,0,0,0,0,0,0,0,0,0,0,0,0,0,0,0,0,0,0,0,0,0,0,0,0,0,0,0,0,0,0],"id":15,"left_children":[1,3,5,7,9,11,13,15,17,19,21,23,25,27,-1,29,-1,31,-1,33,35,-1,37,39,41,43,-1,45,-1,-1,-1,-1,-1,-1,-1,-1,-1,-1,-1,-1,-1,-1,-1,-1,-1,-1,-1],"loss_changes":[1.9716002E1,2.9184933E0,4.890315E0,1.0632019E0,1.2125537E0,3.634655E0,1.4807998E0,1.9861603E-1,8.3961904E-2,1.0254028E0,1.9619638E-1,1.6382151E0,1.9783745E0,5.170582E-1,0E0,1.9278336E-1,0E0,2.6263908E-2,0E0,2.1040654E-1,7.4534625E-1,0E0,9.43799E-2,5.221548E-1,5.507536E-1,3.4759808E-1,0E0,2.077794E-2,0E0,0E0,0E0,0E0,0E0,0E0,0E0,0E0,0E0,0E0,0E0,0E0,0E0,0E0,0E0,0E0,0E0,0E0,0E0],"parents":[2147483647,0,0,1,1,2,2,3,3,4,4,5,5,6,6,7,7,8,8,9,9,10,10,11,11,12,12,13,13,15,15,17,17,19,19,20,20,22,22,23,23,24,24,25,25,27,27],"right_children":[2,4,6,8,10,12,14,16,18,20,22,24,26,28,-1,30,-1,32,-1,34,36,-1,38,40,42,44,-1,46,-1,-1,-1,-1,-1,-1,-1,-1,-1,-1,-1,-1,-1,-1,-1,-1,-1,-1,-1],"split_conditions":[1.0262E4,9.54947E5,9.064268E2,1.2852292E7,1.4777102E9,7.710634E3,7.339209E6,1.6120845E5,4.17E2,7.317205E2,2.0532622E3,4.1331047E-1,1.4656219E8,3.236383E1,-3.3609677E-2,3.006846E6,-5.260269E-3,2.92E2,4.4013397E-3,7.164074E8,2.194E3,-1.7217173E-3,6.088569E6,1.99218E7,1.30817086E5,1.681178E6,-3.6465114E-3,2.2201815E9,1.1090787E-2,-1.6466646E-2,-1.0283511E-2,5.1922643E-6,-4.780639E-3,-9.3151005E-3,-8.58053E-4,-3.2641205E-3,6.62454E-3,1.4761844E-2,5.741886E-3,9.375822E-3,8.120591E-4,1.2277114E-2,2.2303073E-2,4.3872487E-2,2.6172591E-2,-4.4474704E-3,-1.2314802E-2],"split_indices":[2,1,67,9,7,61,56,37,0,61,4,44,1,65,0,9,0,0,0,7,0,0,54,54,37,38,0,7,0,0,0,0,0,0,0,0,0,0,0,0,0,0,0,0,0,0,0],"split_type":[0,0,0,0,0,0,0,0,0,0,0,0,0,0,0,0,0,0,0,0,0,0,0,0,0,0,0,0,0,0,0,0,0,0,0,0,0,0,0,0,0,0,0,0,0,0,0],"sum_hessian":[4.88E2,3.13E2,1.75E2,1.04E2,2.09E2,1.62E2,1.3E1,9.1E1,1.3E1,1.93E2,1.6E1,1.36E2,2.6E1,9E0,4E0,8.5E1,6E0,9E0,4E0,7.5E1,1.18E2,3E0,1.3E1,8E1,5.6E1,2.3E1,3E0,6E0,3E0,6.4E1,2.1E1,4E0,5E0,6.8E1,7E0,1E2,1.8E1,6E0,7E0,6E1,2E1,2.8E1,2.8E1,9E0,1.4E1,3E0,3E0],"tree_param":{"num_deleted":"0","num_feature":"115","num_nodes":"47","size_leaf_vector":"1"}},{"base_weights":[-7.99595E-3,-1.385066E-1,2.4992868E-1,-2.9344872E-1,-8.899087E-2,2.9560578E-1,-4.9219465E-1,-3.0558148E-1,4.775705E-4,-1.2904409E-1,4.5823995E-2,2.4229899E-1,3.1749E-2,-1.0556629E-2,-3.2379255E-2,-2.2660562E-1,-3.421168E-1,-1.8441938E-1,-4.8521247E-2,2.2674633E-2,1.3118576E-2,1.4190578E-1,3.699901E-1,-1.1103288E-2,-4.921961E-3,-1.756114E-2,-1.3048026E-2,-4.3618907E-3,-1.0046647E-2,2.4136025E-3,-7.153949E-3,-1.4814977E-3,4.7691492E-3,8.978257E-3,-1.4083548E-3,1.8628925E-2,-1.1916631E-2],"categories":[],"categories_nodes":[],"categories_segments":[],"categories_sizes":[],"default_left":[0,0,0,0,0,0,0,0,0,0,0,0,0,0,0,0,0,0,0,0,0,0,0,0,0,0,0,0,0,0,0,0,0,0,0,0,0],"id":16,"left_children":[1,3,5,7,9,11,13,15,-1,17,19,21,-1,-1,-1,23,25,27,29,31,-1,33,35,-1,-1,-1,-1,-1,-1,-1,-1,-1,-1,-1,-1,-1,-1],"loss_changes":[1.6629938E1,2.4903245E0,5.7725716E0,2.9445934E-1,1.3558558E0,3.1643772E0,3.999803E-1,1.4176512E-1,0E0,8.5163355E-1,3.1687793E-1,1.7422009E0,0E0,0E0,0E0,2.5421739E-2,9.214878E-3,3.3584762E-1,8.816263E-1,2.4577108E-1,0E0,7.560377E-1,1.532526E0,0E0,0E0,0E0,0E0,0E0,0E0,0E0,0E0,0E0,0E0,0E0,0E0,0E0,0E0],"parents":[2147483647,0,0,1,1,2,2,3,3,4,4,5,5,6,6,7,7,9,9,10,10,11,11,15,15,16,16,17,17,18,18,19,19,21,21,22,22],"right_children":[2,4,6,8,10,12,14,16,-1,18,20,22,-1,-1,-1,24,26,28,30,32,-1,34,36,-1,-1,-1,-1,-1,-1,-1,-1,-1,-1,-1,-1,-1,-1],"split_conditions":[1.0043E4,7.41718E5,1.0434409E3,1.2852292E7,7.10711E8,8.625562E0,1.805424E-1,4.3156998E1,4.775705E-4,2.735322E6,3.4540886E3,1.5333999E7,3.1749E-2,-1.0556629E-2,-3.2379255E-2,3.23251E5,6E1,7.477264E6,1.7377544E7,2.9124984E7,1.3118576E-2,1.8322262E7,5.37E2,-1.1103288E-2,-4.921961E-3,-1.756114E-2,-1.3048026E-2,-4.3618907E-3,-1.0046647E-2,2.4136025E-3,-7.153949E-3,-1.4814977E-3,4.7691492E-3,8.978257E-3,-1.4083548E-3,1.8628925E-2,-1.1916631E-2],"split_indices":[2,1,67,9,7,44,47,62,0,1,4,1,0,0,0,38,10,54,54,9,0,54,3,0,0,0,0,0,0,0,0,0,0,0,0,0,0],"split_type":[0,0,0,0,0,0,0,0,0,0,0,0,0,0,0,0,0,0,0,0,0,0,0,0,0,0,0,0,0,0,0,0,0,0,0,0,0],"sum_hessian":[4.92E2,3.27E2,1.65E2,7.8E1,2.49E2,1.56E2,9E0,7.5E1,3E0,1.92E2,5.7E1,1.39E2,1.7E1,5E0,4E0,2.6E1,4.9E1,1.13E2,7.9E1,5.3E1,4E0,7.9E1,6E1,2.2E1,4E0,2.5E1,2.4E1,3.3E1,8E1,4.1E1,3.8E1,3.2E1,2.1E1,6E1,1.9E1,5.7E1,3E0],"tree_param":{"num_deleted":"0","num_feature":"115","num_nodes":"37","size_leaf_vector":"1"}},{"base_weights":[-5.121914E-4,-1.4090703E-1,2.5518182E-1,-2.7925816E-1,-9.250209E-2,1.7495018E-1,5.482795E-1,-2.9009873E-1,4.6118032E-4,-1.5863063E-2,-1.6123353E-1,2.1920486E-1,-3.2274255E-1,-2.3998101E-3,6.2049496E-1,-3.581403E-1,-1.2056841E-2,-5.7497513E-2,1.6464311E-1,-2.0259802E-1,-5.793346E-2,1.0110612E-1,3.2385725E-1,-5.832638E-1,1.6011694E-3,8.5437363E-1,4.714933E-1,-7.735406E-3,-1.7461156E-2,-5.332491E-3,2.152004E-3,-1.0623375E-3,1.2522589E-2,-1.8799845E-3,-1.0160492E-2,-7.855312E-3,5.2932537E-5,7.7133235E-3,-1.0764947E-3,1.577317E-2,-5.321836E-4,-3.257219E-2,-1.4137187E-2,2.002481E-2,4.3230064E-2,2.3530787E-2,6.4096595E-3],"categories":[],"categories_nodes":[],"categories_segments":[],"categories_sizes":[],"default_left":[0,0,0,0,0,0,0,0,0,0,0,0,0,0,0,0,0,0,0,0,0,0,0,0,0,0,0,0,0,0,0,0,0,0,0,0,0,0,0,0,0,0,0,0,0,0,0],"id":17,"left_children":[1,3,5,7,9,11,13,15,-1,17,19,21,23,-1,25,27,-1,29,31,33,35,37,39,41,-1,43,45,-1,-1,-1,-1,-1,-1,-1,-1,-1,-1,-1,-1,-1,-1,-1,-1,-1,-1,-1,-1],"loss_changes":[1.8128609E1,2.157351E0,4.113391E0,2.663951E-1,1.2774472E0,3.198329E0,1.6810322E0,5.2396297E-2,0E0,8.8123846E-1,5.352013E-1,1.5863266E0,1.1387691E0,0E0,7.8201103E-1,2.4106503E-2,0E0,5.916362E-1,4.5685804E-1,2.7650404E-1,2.5555718E-1,5.3354996E-1,4.8606062E-1,2.6902676E-2,0E0,3.8276672E-2,2.535534E-1,0E0,0E0,0E0,0E0,0E0,0E0,0E0,0E0,0E0,0E0,0E0,0E0,0E0,0E0,0E0,0E0,0E0,0E0,0E0,0E0],"parents":[2147483647,0,0,1,1,2,2,3,3,4,4,5,5,6,6,7,7,9,9,10,10,11,11,12,12,14,14,15,15,17,17,18,18,19,19,20,20,21,21,22,22,23,23,25,25,26,26],"right_children":[2,4,6,8,10,12,14,16,-1,18,20,22,24,-1,26,28,-1,30,32,34,36,38,40,42,-1,44,46,-1,-1,-1,-1,-1,-1,-1,-1,-1,-1,-1,-1,-1,-1,-1,-1,-1,-1,-1,-1],"split_conditions":[1.0043E4,7.41718E5,6.651788E3,1.2852292E7,1.2885352E7,7.217412E2,5.3140095E1,3.088E3,4.6118032E-4,2.972948E6,7.194E3,2.5096E4,3.5226266E0,-2.3998101E-3,1.417988E6,6.795808E7,-1.2056841E-2,7.164074E8,7.28843E2,5.1698097E1,9.203515E7,1.3508742E7,9.677921E7,1.2799757E9,1.6011694E-3,9.256843E3,1.93E2,-7.735406E-3,-1.7461156E-2,-5.332491E-3,2.152004E-3,-1.0623375E-3,1.2522589E-2,-1.8799845E-3,-1.0160492E-2,-7.855312E-3,5.2932537E-5,7.7133235E-3,-1.0764947E-3,1.577317E-2,-5.321836E-4,-3.257219E-2,-1.4137187E-2,2.002481E-2,4.3230064E-2,2.3530787E-2,6.4096595E-3],"split_indices":[2,1,61,9,54,67,65,2,0,1,2,2,63,0,38,7,0,7,61,57,7,54,1,7,0,4,8,0,0,0,0,0,0,0,0,0,0,0,0,0,0,0,0,0,0,0,0],"split_type":[0,0,0,0,0,0,0,0,0,0,0,0,0,0,0,0,0,0,0,0,0,0,0,0,0,0,0,0,0,0,0,0,0,0,0,0,0,0,0,0,0,0,0,0,0,0,0],"sum_hessian":[5.03E2,3.25E2,1.78E2,8.3E1,2.42E2,1.41E2,3.7E1,8E1,3E0,1.15E2,1.27E2,1.3E2,1.1E1,4E0,3.3E1,1.9E1,6.1E1,9.4E1,2.1E1,9E1,3.7E1,6.2E1,6.8E1,6E0,5E0,1.1E1,2.2E1,3E0,1.6E1,6E1,3.4E1,8E0,1.3E1,1E1,8E1,1.2E1,2.5E1,4E1,2.2E1,6.4E1,4E0,3E0,3E0,3E0,8E0,1.9E1,3E0],"tree_param":{"num_deleted":"0","num_feature":"115","num_nodes":"47","size_leaf_vector":"1"}},{"base_weights":[3.2637094E-3,-1.2865132E-1,2.575953E-1,-1.44011E-1,5.831074E-1,1.9396739E-1,6.112431E-1,-1.8427028E-1,5.526809E-3,3.237513E-2,1.4321717E-2,2.1841075E-1,-1.9423488E-1,2.3519753E-2,4.10743E-2,-2.1033446E-1,-4.691209E-2,-8.909564E-2,7.8171596E-2,1.4280614E-1,3.4013584E-1,1.252525E-3,-1.4167759E-2,-1.2278425E-2,-6.880381E-3,-6.597268E-3,1.2805504E-3,-5.316319E-3,3.1819185E-3,-9.604111E-3,5.3581004E-3,-6.208454E-3,7.4091083E-3,2.2383817E-2,1.415858E-2],"categories":[],"categories_nodes":[],"categories_segments":[],"categories_sizes":[],"default_left":[0,0,0,0,0,0,0,0,0,0,0,0,0,0,0,0,0,0,0,0,0,0,0,0,0,0,0,0,0,0,0,0,0,0,0],"id":18,"left_children":[1,3,5,7,9,11,13,15,17,-1,-1,19,21,-1,-1,23,25,27,29,31,33,-1,-1,-1,-1,-1,-1,-1,-1,-1,-1,-1,-1,-1,-1],"loss_changes":[1.6405619E1,3.6042032E0,3.6392527E0,1.9034281E0,1.3764143E-2,1.3993449E0,2.3503399E-1,8.815851E-1,4.7438496E-1,0E0,0E0,1.1938286E0,2.3856279E-1,0E0,0E0,6.864872E-1,3.0267233E-1,1.3694105E-1,4.6174234E-1,4.7408545E-1,8.223772E-2,0E0,0E0,0E0,0E0,0E0,0E0,0E0,0E0,0E0,0E0,0E0,0E0,0E0,0E0],"parents":[2147483647,0,0,1,1,2,2,3,3,4,4,5,5,6,6,7,7,8,8,11,11,12,12,15,15,16,16,17,17,18,18,19,19,20,20],"right_children":[2,4,6,8,10,12,14,16,18,-1,-1,20,22,-1,-1,24,26,28,30,32,34,-1,-1,-1,-1,-1,-1,-1,-1,-1,-1,-1,-1,-1,-1],"split_conditions":[1.1576422E9,4.23218E3,7.765071E0,9.570385E4,1.3843572E5,1.4609149E4,1.354316E6,1.6120845E5,9.53E2,3.237513E-2,1.4321717E-2,4.1331047E-1,1.4459738E-1,2.3519753E-2,4.10743E-2,1.592757E6,4.863447E2,1.2175E4,1.5802073E3,5.767668E0,2.0159504E1,1.252525E-3,-1.4167759E-2,-1.2278425E-2,-6.880381E-3,-6.597268E-3,1.2805504E-3,-5.316319E-3,3.1819185E-3,-9.604111E-3,5.3581004E-3,-6.208454E-3,7.4091083E-3,2.2383817E-2,1.415858E-2],"split_indices":[7,61,44,42,42,4,2,37,0,0,0,44,47,0,0,9,61,2,4,63,65,0,0,0,0,0,0,0,0,0,0,0,0,0,0],"split_type":[0,0,0,0,0,0,0,0,0,0,0,0,0,0,0,0,0,0,0,0,0,0,0,0,0,0,0,0,0,0,0,0,0,0,0],"sum_hessian":[4.87E2,3.21E2,1.66E2,3.15E2,6E0,1.42E2,2.4E1,2.48E2,6.7E1,3E0,3E0,1.34E2,8E0,2E1,4E0,2.08E2,4E1,2.9E1,3.8E1,8.4E1,5E1,3E0,5E0,1.04E2,1.04E2,1.7E1,2.3E1,2.5E1,4E0,4E0,3.4E1,5E0,7.9E1,6E0,4.4E1],"tree_param":{"num_deleted":"0","num_feature":"115","num_nodes":"35","size_leaf_vector":"1"}},{"base_weights":[1.0813302E-2,-9.956078E-2,3.136165E-1,-1.3359281E-1,1.2557599E-1,3.4809306E-1,-1.8474811E-1,-2.0387933E-1,-5.212846E-2,3.3092376E-2,2.1282727E-1,3.0478802E-1,3.2767497E-2,-2.430644E-2,3.522746E-3,-2.2536732E-1,-3.682301E-2,2.4932796E-2,-1.386224E-1,-1.1522052E-1,1.0094006E-1,1.4346236E-2,1.1852562E-1,3.2235202E-1,-1.1039803E-2,-1.3808767E-2,-8.9100115E-3,6.2447255E-3,-4.0578255E-3,-2.857843E-4,1.0728757E-2,-7.684622E-3,1.7034257E-2,-7.1818815E-3,-1.5679937E-3,6.797058E-4,8.045405E-3,6.8299784E-3,1.5270178E-3,1.27066625E-2,2.5586266E-2],"categories":[],"categories_nodes":[],"categories_segments":[],"categories_sizes":[],"default_left":[0,0,0,0,0,0,0,0,0,0,0,0,0,0,0,0,0,0,0,0,0,0,0,0,0,0,0,0,0,0,0,0,0,0,0,0,0,0,0,0,0],"id":19,"left_children":[1,3,5,7,9,11,13,15,17,19,21,23,-1,-1,-1,25,27,29,31,33,35,-1,37,39,-1,-1,-1,-1,-1,-1,-1,-1,-1,-1,-1,-1,-1,-1,-1,-1,-1],"loss_changes":[1.6140448E1,2.7290752E0,2.280776E0,1.7529325E0,3.7221473E-1,1.7098093E0,8.5686713E-1,5.840025E-1,9.63264E-1,2.5313488E-1,1.906879E-1,1.1327257E0,0E0,0E0,0E0,2.8320932E-1,1.9179794E-1,5.044489E-1,1.0805231E0,2.1642908E-2,1.0696104E-1,0E0,3.1650662E-2,9.767113E-1,0E0,0E0,0E0,0E0,0E0,0E0,0E0,0E0,0E0,0E0,0E0,0E0,0E0,0E0,0E0,0E0,0E0],"parents":[2147483647,0,0,1,1,2,2,3,3,4,4,5,5,6,6,7,7,8,8,9,9,10,10,11,11,15,15,16,16,17,17,18,18,19,19,20,20,22,22,23,23],"right_children":[2,4,6,8,10,12,14,16,18,20,22,24,-1,-1,-1,26,28,30,32,34,36,-1,38,40,-1,-1,-1,-1,-1,-1,-1,-1,-1,-1,-1,-1,-1,-1,-1,-1,-1],"split_conditions":[1.7267E4,3.44E2,1.0434409E3,1.732734E6,1.4096699E9,1.6828056E1,2.8E1,7.164074E8,1.8071064E7,1.8374788E7,6.088569E6,5.37E2,3.2767497E-2,-2.430644E-2,3.522746E-3,4.48149E5,4.45E3,2.09216E5,2.6084324E3,1.662639E7,3.6828573E8,1.4346236E-2,1.1797827E9,8.1033794E3,-1.1039803E-2,-1.3808767E-2,-8.9100115E-3,6.2447255E-3,-4.0578255E-3,-2.857843E-4,1.0728757E-2,-7.684622E-3,1.7034257E-2,-7.1818815E-3,-1.5679937E-3,6.797058E-4,8.045405E-3,6.8299784E-3,1.5270178E-3,1.27066625E-2,2.5586266E-2],"split_indices":[2,8,67,1,7,44,3,7,54,12,54,3,0,0,0,1,2,11,61,54,5,0,5,61,0,0,0,0,0,0,0,0,0,0,0,0,0,0,0,0,0],"split_type":[0,0,0,0,0,0,0,0,0,0,0,0,0,0,0,0,0,0,0,0,0,0,0,0,0,0,0,0,0,0,0,0,0,0,0,0,0,0,0,0,0],"sum_hessian":[4.81E2,3.53E2,1.28E2,3.07E2,4.6E1,1.2E2,8E0,1.64E2,1.43E2,2.3E1,2.3E1,1.09E2,1.1E1,3E0,5E0,1.45E2,1.9E1,7.6E1,6.7E1,7E0,1.6E1,1E1,1.3E1,1.06E2,3E0,3.9E1,1.06E2,4E0,1.5E1,6.7E1,9E0,6.4E1,3E0,4E0,3E0,8E0,8E0,9E0,4E0,9.1E1,1.5E1],"tree_param":{"num_deleted":"0","num_feature":"115","num_nodes":"41","size_leaf_vector":"1"}},{"base_weights":[4.5635574E-3,-1.15034774E-1,2.6125193E-1,-2.4201158E-1,-5.9667528E-2,1.9689451E-1,5.2713513E-1,-2.703325E-1,-4.4684935E-2,-9.36484E-2,7.8971446E-2,2.1975856E-1,-1.39405355E-2,3.6334133E-1,7.425474E-1,-2.7929217E-1,-4.568914E-3,-3.7495426E-3,1.7734964E-3,-1.482942E-1,1.126635E-2,2.0973864E-1,1.7138738E-2,3.3460635E-1,1.538453E-1,1.8796742E-2,3.7916312E-3,1.8559486E-2,3.937053E-2,-5.956142E-3,-1.3229467E-2,-7.489307E-3,4.4332673E-3,-2.119928E-3,1.3885756E-2,1.1363509E-2,1.9018631E-3,-4.9462295E-3,4.756449E-3,7.075281E-4,1.6754884E-2,9.486797E-3,1.2782254E-3],"categories":[],"categories_nodes":[],"categories_segments":[],"categories_sizes":[],"default_left":[0,0,0,0,0,0,0,0,0,0,0,0,0,0,0,0,0,0,0,0,0,0,0,0,0,0,0,0,0,0,0,0,0,0,0,0,0,0,0,0,0,0,0],"id":20,"left_children":[1,3,5,7,9,11,13,15,17,19,21,23,-1,25,27,29,-1,-1,-1,31,33,35,37,39,41,-1,-1,-1,-1,-1,-1,-1,-1,-1,-1,-1,-1,-1,-1,-1,-1,-1,-1],"loss_changes":[1.51649065E1,2.3547897E0,2.5827227E0,5.579443E-1,1.1192086E0,1.534718E0,7.886982E-1,1.0806656E-1,4.669126E-2,1.0909688E0,3.764328E-1,8.796315E-1,0E0,2.186377E-1,1.273961E-1,8.518314E-2,0E0,0E0,0E0,4.8674035E-1,1.1246156E0,8.700764E-2,3.6993536E-1,4.370675E-1,5.327537E-1,0E0,0E0,0E0,0E0,0E0,0E0,0E0,0E0,0E0,0E0,0E0,0E0,0E0,0E0,0E0,0E0,0E0,0E0],"parents":[2147483647,0,0,1,1,2,2,3,3,4,4,5,5,6,6,7,7,8,8,9,9,10,10,11,11,13,13,14,14,15,15,19,19,20,20,21,21,22,22,23,23,24,24],"right_children":[2,4,6,8,10,12,14,16,18,20,22,24,-1,26,28,30,-1,-1,-1,32,34,36,38,40,42,-1,-1,-1,-1,-1,-1,-1,-1,-1,-1,-1,-1,-1,-1,-1,-1,-1,-1],"split_conditions":[1.2175E4,9.50639E5,4.026531E9,1.2852292E7,3.15E2,9.533205E6,2.2876814E1,2.5050928E6,4.17E2,1.1501869E3,4.16606E5,5.2245E4,-1.39405355E-2,1.3936486E8,2.502264E7,7.547656E1,-4.568914E-3,-3.7495426E-3,1.7734964E-3,2.889654E5,5.6024197E9,3.457E3,1.570662E5,5.274031E6,2.019058E7,1.8796742E-2,3.7916312E-3,1.8559486E-2,3.937053E-2,-5.956142E-3,-1.3229467E-2,-7.489307E-3,4.4332673E-3,-2.119928E-3,1.3885756E-2,1.1363509E-2,1.9018631E-3,-4.9462295E-3,4.756449E-3,7.075281E-4,1.6754884E-2,9.486797E-3,1.2782254E-3],"split_indices":[2,1,7,9,8,56,63,59,0,61,38,9,0,1,60,63,0,0,0,37,5,10,56,1,54,0,0,0,0,0,0,0,0,0,0,0,0,0,0,0,0,0,0],"split_type":[0,0,0,0,0,0,0,0,0,0,0,0,0,0,0,0,0,0,0,0,0,0,0,0,0,0,0,0,0,0,0,0,0,0,0,0,0,0,0,0,0,0,0],"sum_hessian":[4.92E2,3.36E2,1.56E2,1.01E2,2.35E2,1.27E2,2.9E1,8.8E1,1.3E1,1.89E2,4.6E1,1.22E2,5E0,1.8E1,1.1E1,8.3E1,5E0,9E0,4E0,1.24E2,6.5E1,1.4E1,3.2E1,4.3E1,7.9E1,1.5E1,3E0,4E0,7E0,6E0,7.7E1,1.17E2,7E0,5.5E1,1E1,1.1E1,3E0,1.3E1,1.9E1,4E0,3.9E1,5.5E1,2.4E1],"tree_param":{"num_deleted":"0","num_feature":"115","num_nodes":"43","size_leaf_vector":"1"}},{"base_weights":[1.759133E-5,-1.0045388E-1,2.64826E-1,-1.9448927E-1,-3.0218768E-3,1.839926E-1,5.1442856E-1,-2.4570806E-1,-1.11788094E-1,-1.8859867E-2,2.9793106E-2,2.0321615E-1,-9.978468E-3,3.414517E-1,7.276695E-1,-2.6021802E-1,-9.673854E-2,-4.832523E-2,-1.7024378E-1,6.0781274E-2,-1.2781258E-1,1.2712051E-1,2.962149E-1,1.7536273E-2,4.0754112E-3,1.4971137E-2,4.2883016E-2,-1.3409234E-2,-7.783203E-3,-7.404221E-3,6.2671147E-4,1.9375648E-3,-3.358868E-3,-9.219045E-3,-7.599327E-4,4.3969933E-4,1.0638248E-2,-2.3420542E-3,-1.0446638E-2,6.9209295E-3,-9.709174E-3,1.5343913E-2,2.6603852E-4],"categories":[],"categories_nodes":[],"categories_segments":[],"categories_sizes":[],"default_left":[0,0,0,0,0,0,0,0,0,0,0,0,0,0,0,0,0,0,0,0,0,0,0,0,0,0,0,0,0,0,0,0,0,0,0,0,0,0,0,0,0,0,0],"id":21,"left_children":[1,3,5,7,9,11,13,15,17,19,-1,21,-1,23,25,27,29,31,33,35,37,39,41,-1,-1,-1,-1,-1,-1,-1,-1,-1,-1,-1,-1,-1,-1,-1,-1,-1,-1,-1,-1],"loss_changes":[1.2478066E1,3.1145115E0,2.5080814E0,7.053356E-1,1.7526234E0,8.0945826E-1,8.9499474E-1,2.039504E-1,2.4403703E-1,1.4394931E0,0E0,6.346412E-1,0E0,1.6612148E-1,7.8384495E-1,2.3403406E-1,8.125058E-2,8.040193E-2,1.6450405E-1,8.412082E-1,5.272771E-1,4.7397548E-1,4.7478032E-1,0E0,0E0,0E0,0E0,0E0,0E0,0E0,0E0,0E0,0E0,0E0,0E0,0E0,0E0,0E0,0E0,0E0,0E0,0E0,0E0],"parents":[2147483647,0,0,1,1,2,2,3,3,4,4,5,5,6,6,7,7,8,8,9,9,11,11,13,13,14,14,15,15,16,16,17,17,18,18,19,19,20,20,21,21,22,22],"right_children":[2,4,6,8,10,12,14,16,18,20,-1,22,-1,24,26,28,30,32,34,36,38,40,42,-1,-1,-1,-1,-1,-1,-1,-1,-1,-1,-1,-1,-1,-1,-1,-1,-1,-1,-1,-1],"split_conditions":[1.3596371E9,1.732734E6,1.7552137E0,3.006846E6,5.2023345E3,1.505649E6,8.205238E0,2.1592189E5,1E0,1.9051096E7,2.9793106E-2,4.704E4,-9.978468E-3,2.228899E6,1.32737E5,4.9208847E5,5.987804E2,1.03E2,7.164074E8,2.8191E4,1E0,2.67E2,6.029086E10,1.7536273E-2,4.0754112E-3,1.4971137E-2,4.2883016E-2,-1.3409234E-2,-7.783203E-3,-7.404221E-3,6.2671147E-4,1.9375648E-3,-3.358868E-3,-9.219045E-3,-7.599327E-4,4.3969933E-4,1.0638248E-2,-2.3420542E-3,-1.0446638E-2,6.9209295E-3,-9.709174E-3,1.5343913E-2,2.6603852E-4],"split_indices":[7,1,51,9,61,2,62,37,23,54,0,10,0,9,2,60,61,3,7,10,22,3,5,0,0,0,0,0,0,0,0,0,0,0,0,0,0,0,0,0,0,0,0],"split_type":[0,0,0,0,0,0,0,0,0,0,0,0,0,0,0,0,0,0,0,0,0,0,0,0,0,0,0,0,0,0,0,0,0,0,0,0,0,0,0,0,0,0,0],"sum_hessian":[4.67E2,3.39E2,1.28E2,1.72E2,1.67E2,9.8E1,3E1,1.05E2,6.7E1,1.64E2,3E0,9.4E1,4E0,1.8E1,1.2E1,9.5E1,1E1,3.3E1,3.4E1,9.5E1,6.9E1,5.3E1,4.1E1,1.5E1,3E0,5E0,7E0,6.8E1,2.7E1,6E0,4E0,7E0,2.6E1,2.8E1,6E0,7.4E1,2.1E1,4E1,2.9E1,5E1,3E0,3.6E1,5E0],"tree_param":{"num_deleted":"0","num_feature":"115","num_nodes":"43","size_leaf_vector":"1"}},{"base_weights":[8.952157E-3,-1.1170179E-1,2.517495E-1,-1.4057007E-1,3.9924324E-2,1.7490384E-1,5.440607E-1,-2.0661587E-1,-6.878223E-2,-9.97552E-4,1.4814626E-1,1.9914955E-1,-2.0447334E-2,3.890815E-2,3.662429E-1,-2.1936809E-1,-7.890938E-2,-1.4594717E-1,-1.744641E-2,-2.4946311E-2,7.415825E-3,-2.0910115E-3,2.0516564E-1,1.1998548E-1,2.859305E-1,-4.168347E-3,4.432472E-1,-1.53345205E-2,-9.439565E-3,-5.384639E-4,-6.606648E-3,-4.605915E-3,-1.1828047E-2,-2.6197014E-3,6.4229956E-3,5.1650484E-3,-2.154635E-3,1.1604048E-2,2.6108394E-3,7.048788E-3,-3.7835005E-3,-1.1930676E-3,1.3899931E-2,1.5126617E-2,2.4333041E-2],"categories":[],"categories_nodes":[],"categories_segments":[],"categories_sizes":[],"default_left":[0,0,0,0,0,0,0,0,0,0,0,0,0,0,0,0,0,0,0,0,0,0,0,0,0,0,0,0,0,0,0,0,0,0,0,0,0,0,0,0,0,0,0,0,0],"id":22,"left_children":[1,3,5,7,9,11,13,15,17,19,21,23,-1,-1,25,27,29,31,33,35,-1,-1,37,39,41,-1,43,-1,-1,-1,-1,-1,-1,-1,-1,-1,-1,-1,-1,-1,-1,-1,-1,-1,-1],"loss_changes":[1.37672205E1,1.380049E0,3.4090462E0,1.2374883E0,2.2600868E-1,1.9732614E0,1.4307976E0,2.0579958E-1,5.045035E-1,1.5242773E-1,1.6411155E-1,7.9695463E-1,0E0,0E0,8.151374E-1,1.1873627E-1,5.9835054E-2,2.339313E-1,4.979266E-1,1.09044746E-1,0E0,0E0,6.4405054E-2,4.6124715E-1,3.2476473E-1,0E0,1.3703585E-2,0E0,0E0,0E0,0E0,0E0,0E0,0E0,0E0,0E0,0E0,0E0,0E0,0E0,0E0,0E0,0E0,0E0,0E0],"parents":[2147483647,0,0,1,1,2,2,3,3,4,4,5,5,6,6,7,7,8,8,9,9,10,10,11,11,14,14,15,15,16,16,17,17,18,18,19,19,22,22,23,23,24,24,26,26],"right_children":[2,4,6,8,10,12,14,16,18,20,22,24,-1,-1,26,28,30,32,34,36,-1,-1,38,40,42,-1,44,-1,-1,-1,-1,-1,-1,-1,-1,-1,-1,-1,-1,-1,-1,-1,-1,-1,-1],"split_conditions":[1.0262E4,7.164074E8,7.710634E3,1.533115E6,1.4096699E9,9.533205E6,3.0418E4,1.73E2,7.28843E2,1.2E3,2.4237612E3,4.1331047E-1,-2.0447334E-2,3.890815E-2,6.7211235E1,9.306416E0,1.21E2,6.9E1,1.4998456E5,1.4193897E-3,7.415825E-3,-2.0910115E-3,1.5E2,2.5916522E7,2.2782404E0,-4.168347E-3,1.2472753E5,-1.53345205E-2,-9.439565E-3,-5.384639E-4,-6.606648E-3,-4.605915E-3,-1.1828047E-2,-2.6197014E-3,6.4229956E-3,5.1650484E-3,-2.154635E-3,1.1604048E-2,2.6108394E-3,7.048788E-3,-3.7835005E-3,-1.1930676E-3,1.3899931E-2,1.5126617E-2,2.4333041E-2],"split_indices":[2,7,61,1,7,56,10,8,61,0,4,44,0,0,65,65,3,8,37,48,0,0,3,54,63,0,37,0,0,0,0,0,0,0,0,0,0,0,0,0,0,0,0,0,0],"split_type":[0,0,0,0,0,0,0,0,0,0,0,0,0,0,0,0,0,0,0,0,0,0,0,0,0,0,0,0,0,0,0,0,0,0,0,0,0,0,0,0,0,0,0,0,0],"sum_hessian":[4.68E2,3.13E2,1.55E2,2.63E2,5E1,1.24E2,3.1E1,1.36E2,1.27E2,3.7E1,1.3E1,1.2E2,4E0,1E1,2.1E1,1.23E2,1.3E1,5E1,7.7E1,3.3E1,4E0,3E0,1E1,6.4E1,5.6E1,3E0,1.8E1,1E1,1.13E2,7E0,6E0,3.7E1,1.3E1,6.2E1,1.5E1,4E0,2.9E1,7E0,3E0,5.5E1,9E0,3E0,5.3E1,1E1,8E0],"tree_param":{"num_deleted":"0","num_feature":"115","num_nodes":"45","size_leaf_vector":"1"}},{"base_weights":[-2.1667744E-3,-1.2127288E-1,1.8325698E-1,-1.4353812E-1,7.1075656E-2,8.068883E-2,3.903378E-1,-1.5101707E-1,1.8004254E-2,1.1933453E-1,-9.765024E-3,3.6026645E-2,2.2359821E-1,7.095136E-1,3.1809205E-1,-1.4314538E-1,-2.9047685E-2,7.386158E-2,1.7101413E-2,-6.5224795E-3,1.6563688E-1,1.1086878E-2,1.69146E-3,1.6691634E-2,3.9099272E-2,3.6655578E-1,-6.3939616E-3,-1.0443941E-2,-4.870731E-3,5.609958E-3,-4.6164338E-3,-2.4707336E-3,5.6118546E-3,9.125333E-3,-2.8155474E-3,5.033656E-3,1.774925E-2,-1.0972904E-2,8.310167E-3],"categories":[],"categories_nodes":[],"categories_segments":[],"categories_sizes":[],"default_left":[0,0,0,0,0,0,0,0,0,0,0,0,0,0,0,0,0,0,0,0,0,0,0,0,0,0,0,0,0,0,0,0,0,0,0,0,0,0,0],"id":23,"left_children":[1,3,5,7,9,11,13,15,-1,17,-1,19,21,23,25,27,-1,29,-1,31,33,-1,-1,-1,-1,35,37,-1,-1,-1,-1,-1,-1,-1,-1,-1,-1,-1,-1],"loss_changes":[1.09543495E1,1.3035731E0,4.0890436E0,1.1477523E0,4.6475905E-1,8.28071E-1,1.2500916E0,9.296484E-1,0E0,2.96275E-1,0E0,5.580754E-1,9.910226E-2,2.3786259E-1,8.5153675E-1,8.033376E-1,0E0,2.2524361E-1,0E0,4.7869667E-1,2.040714E-1,0E0,0E0,0E0,0E0,2.1427155E-1,3.9454627E-1,0E0,0E0,0E0,0E0,0E0,0E0,0E0,0E0,0E0,0E0,0E0,0E0],"parents":[2147483647,0,0,1,1,2,2,3,3,4,4,5,5,6,6,7,7,9,9,11,11,12,12,13,13,14,14,15,15,17,17,19,19,20,20,25,25,26,26],"right_children":[2,4,6,8,10,12,14,16,-1,18,-1,20,22,24,26,28,-1,30,-1,32,34,-1,-1,-1,-1,36,38,-1,-1,-1,-1,-1,-1,-1,-1,-1,-1,-1,-1],"split_conditions":[9.570385E4,1.577058E9,5.9161E4,3.7241616E3,1.505649E6,1.5271514E5,1.417988E6,5.825042E6,1.8004254E-2,4.79054E5,-9.765024E-3,1.29186E9,9.234E3,1.08E2,1.5096262E7,7.41718E5,-2.9047685E-2,1.6345643E3,1.7101413E-2,2.144067E3,6.969457E9,1.1086878E-2,1.69146E-3,1.6691634E-2,3.9099272E-2,1.3590209E7,3.677E3,-1.0443941E-2,-4.870731E-3,5.609958E-3,-4.6164338E-3,-2.4707336E-3,5.6118546E-3,9.125333E-3,-2.8155474E-3,5.033656E-3,1.774925E-2,-1.0972904E-2,8.310167E-3],"split_indices":[42,7,2,61,2,37,38,56,0,2,0,7,0,3,9,1,0,61,0,61,5,0,0,0,0,1,0,0,0,0,0,0,0,0,0,0,0,0,0],"split_type":[0,0,0,0,0,0,0,0,0,0,0,0,0,0,0,0,0,0,0,0,0,0,0,0,0,0,0,0,0,0,0,0,0,0,0,0,0,0,0],"sum_hessian":[4.94E2,3.01E2,1.93E2,2.7E2,3.1E1,1.3E2,6.3E1,2.67E2,3E0,2.7E1,4E0,1E2,3E1,1E1,5.3E1,2.64E2,3E0,2.4E1,3E0,7.6E1,2.4E1,2.7E1,3E0,4E0,6E0,4.6E1,7E0,7.8E1,1.86E2,1.9E1,5E0,5.6E1,2E1,2.1E1,3E0,4E0,4.2E1,3E0,4E0],"tree_param":{"num_deleted":"0","num_feature":"115","num_nodes":"39","size_leaf_vector":"1"}},{"base_weights":[9.987624E-3,-8.638789E-2,2.402963E-1,-1.2276193E-1,4.3696534E-2,1.7624399E-1,4.820904E-1,-4.522577E-2,-1.9190733E-1,6.138085E-2,-1.347163E-2,2.0553248E-1,-1.9805472E-1,2.7224964E-1,7.02462E-1,-1.4652E-1,3.840736E-2,-2.2607367E-1,-1.4690404E-1,1.47290705E-2,1.4694071E-1,1.4118236E-1,2.9391524E-1,-2.0136656E-2,3.8227234E-3,1.6813366E-2,-5.897846E-3,1.5371852E-2,3.5323035E-2,-3.7256468E-3,-1.0894622E-2,4.115184E-3,-5.0354768E-3,-1.0731238E-2,-2.4129942E-3,-5.922563E-3,-1.3602116E-2,-5.8799047E-5,8.933001E-3,1.5376214E-3,9.379647E-3,7.894357E-3,6.743421E-4,1.4449855E-2,-4.1070057E-4],"categories":[],"categories_nodes":[],"categories_segments":[],"categories_sizes":[],"default_left":[0,0,0,0,0,0,0,0,0,0,0,0,0,0,0,0,0,0,0,0,0,0,0,0,0,0,0,0,0,0,0,0,0,0,0,0,0,0,0,0,0,0,0,0,0],"id":24,"left_children":[1,3,5,7,9,11,13,15,17,19,-1,21,23,25,27,29,31,33,35,37,39,41,43,-1,-1,-1,-1,-1,-1,-1,-1,-1,-1,-1,-1,-1,-1,-1,-1,-1,-1,-1,-1,-1,-1],"loss_changes":[1.098564E1,1.6567261E0,2.1762056E0,1.4549475E0,4.784359E-1,1.3233359E0,1.196044E0,1.1069294E0,1.8820286E-1,2.932081E-1,0E0,5.784354E-1,6.500102E-1,6.962898E-1,9.7010136E-2,3.3229625E-1,5.605335E-1,1.04531765E-1,1.3235927E-1,1.4186944E-1,1.6410929E-1,2.549448E-1,3.0063272E-1,0E0,0E0,0E0,0E0,0E0,0E0,0E0,0E0,0E0,0E0,0E0,0E0,0E0,0E0,0E0,0E0,0E0,0E0,0E0,0E0,0E0,0E0],"parents":[2147483647,0,0,1,1,2,2,3,3,4,4,5,5,6,6,7,7,8,8,9,9,11,11,12,12,13,13,14,14,15,15,16,16,17,17,18,18,19,19,20,20,21,21,22,22],"right_children":[2,4,6,8,10,12,14,16,18,20,-1,22,24,26,28,30,32,34,36,38,40,42,44,-1,-1,-1,-1,-1,-1,-1,-1,-1,-1,-1,-1,-1,-1,-1,-1,-1,-1,-1,-1,-1,-1],"split_conditions":[1.3989E4,7.164074E8,7.710634E3,2.329099E1,1E0,9.064268E2,2.2876814E1,7.317205E2,4.822E3,1.5522031E9,-1.347163E-2,6.050605E9,3.5226266E0,1.4656219E8,1.8E1,1.7377544E7,2.8184534E7,1.7212875E5,9.6E3,2.478066E5,2.7777952E3,2.237815E7,9.677921E7,-2.0136656E-2,3.8227234E-3,1.6813366E-2,-5.897846E-3,1.5371852E-2,3.5323035E-2,-3.7256468E-3,-1.0894622E-2,4.115184E-3,-5.0354768E-3,-1.0731238E-2,-2.4129942E-3,-5.922563E-3,-1.3602116E-2,-5.8799047E-5,8.933001E-3,1.5376214E-3,9.379647E-3,7.894357E-3,6.743421E-4,1.4449855E-2,-4.1070057E-4],"split_indices":[2,7,61,62,18,67,63,61,2,7,0,12,63,1,8,54,54,37,10,37,4,54,1,0,0,0,0,0,0,0,0,0,0,0,0,0,0,0,0,0,0,0,0,0,0],"split_type":[0,0,0,0,0,0,0,0,0,0,0,0,0,0,0,0,0,0,0,0,0,0,0,0,0,0,0,0,0,0,0,0,0,0,0,0,0,0,0,0,0,0,0,0,0],"sum_hessian":[4.93E2,3.48E2,1.45E2,2.72E2,7.6E1,1.16E2,2.9E1,1.29E2,1.43E2,7.3E1,3E0,1.08E2,8E0,1.6E1,1.3E1,5.8E1,7.1E1,7.9E1,6.4E1,4.8E1,2.5E1,6.4E1,4.4E1,4E0,4E0,1.3E1,3E0,3E0,1E1,3.5E1,2.3E1,5.3E1,1.8E1,7.5E1,4E0,5.9E1,5E0,4.5E1,3E0,9E0,1.6E1,5.1E1,1.3E1,4.1E1,3E0],"tree_param":{"num_deleted":"0","num_feature":"115","num_nodes":"45","size_leaf_vector":"1"}},{"base_weights":[2.0551211E-3,-8.327889E-2,2.1325734E-1,-2.0591386E-1,-4.7805328E-2,2.5022858E-1,-2.4642365E-1,-2.161251E-1,1.6943301E-3,-8.310427E-2,4.4322267E-2,1.8848313E-1,4.4332737E-1,-4.4251984E-1,9.489792E-3,-2.3061031E-1,-1.1088288E-1,-1.101802E-1,4.5366615E-2,6.172092E-2,-1.3009269E-2,9.197824E-2,2.4523246E-1,3.248129E-2,3.197827E-1,-2.7359618E-2,-1.0512955E-2,-1.0997185E-2,-6.5679345E-3,-7.6037426E-3,-1.6989125E-3,-6.4740097E-3,-7.6238276E-4,1.1685205E-2,-1.6996297E-3,1.3675571E-3,7.543167E-3,1.0335041E-2,2.7820729E-3,1.2137661E-2,-1.8243744E-3,1.9176172E-2,-5.554152E-3],"categories":[],"categories_nodes":[],"categories_segments":[],"categories_sizes":[],"default_left":[0,0,0,0,0,0,0,0,0,0,0,0,0,0,0,0,0,0,0,0,0,0,0,0,0,0,0,0,0,0,0,0,0,0,0,0,0,0,0,0,0,0,0],"id":25,"left_children":[1,3,5,7,9,11,13,15,-1,17,19,21,23,25,-1,27,29,31,33,35,-1,37,39,-1,41,-1,-1,-1,-1,-1,-1,-1,-1,-1,-1,-1,-1,-1,-1,-1,-1,-1,-1],"loss_changes":[8.830875E0,1.5084105E0,2.4579544E0,2.0149732E-1,8.882293E-1,1.4783487E0,1.0706367E0,8.876324E-2,0E0,6.902567E-1,4.52061E-1,5.305791E-1,7.935562E-1,1.271056E-1,0E0,2.0441532E-2,3.8679406E-2,4.746586E-1,6.158659E-1,2.3472083E-1,0E0,1.4907199E-1,3.6987996E-1,0E0,1.0580323E0,0E0,0E0,0E0,0E0,0E0,0E0,0E0,0E0,0E0,0E0,0E0,0E0,0E0,0E0,0E0,0E0,0E0,0E0],"parents":[2147483647,0,0,1,1,2,2,3,3,4,4,5,5,6,6,7,7,9,9,10,10,11,11,12,12,13,13,15,15,16,16,17,17,18,18,19,19,21,21,22,22,24,24],"right_children":[2,4,6,8,10,12,14,16,-1,18,20,22,24,26,-1,28,30,32,34,36,-1,38,40,-1,42,-1,-1,-1,-1,-1,-1,-1,-1,-1,-1,-1,-1,-1,-1,-1,-1,-1,-1],"split_conditions":[1.3989E4,7.41718E5,1.0434409E3,1.2852292E7,7.164074E8,6.9428994E3,3.236383E1,2.9778808E7,1.6943301E-3,2.0964778E5,1E0,3.0561674E9,1.37893E6,1.2799757E9,9.489792E-3,9.703059E6,2.7011695E4,1.4675482E3,1.36E2,2.9920125E3,-1.3009269E-2,1.5963512E-2,1.773296E6,3.248129E-2,1.5096262E7,-2.7359618E-2,-1.0512955E-2,-1.0997185E-2,-6.5679345E-3,-7.6037426E-3,-1.6989125E-3,-6.4740097E-3,-7.6238276E-4,1.1685205E-2,-1.6996297E-3,1.3675571E-3,7.543167E-3,1.0335041E-2,2.7820729E-3,1.2137661E-2,-1.8243744E-3,1.9176172E-2,-5.554152E-3],"split_indices":[2,1,67,9,7,61,65,12,0,37,18,12,38,7,0,9,42,61,3,64,0,66,11,0,9,0,0,0,0,0,0,0,0,0,0,0,0,0,0,0,0,0,0],"split_type":[0,0,0,0,0,0,0,0,0,0,0,0,0,0,0,0,0,0,0,0,0,0,0,0,0,0,0,0,0,0,0,0,0,0,0,0,0,0,0,0,0,0,0],"sum_hessian":[4.88E2,3.48E2,1.4E2,7.7E1,2.71E2,1.3E2,1E1,7.4E1,3E0,1.96E2,7.5E1,1E2,3E1,7E0,3E0,6.4E1,1E1,1.62E2,3.4E1,7.2E1,3E0,3.8E1,6.2E1,8E0,2.2E1,3E0,4E0,5.6E1,8E0,5E0,5E0,1.21E2,4.1E1,9E0,2.5E1,5.6E1,1.6E1,6E0,3.2E1,5.8E1,4E0,1.8E1,4E0],"tree_param":{"num_deleted":"0","num_feature":"115","num_nodes":"43","size_leaf_vector":"1"}},{"base_weights":[4.3726824E-3,-8.5312314E-2,1.8261543E-1,-1.7494725E-1,-4.030824E-2,2.1477589E-1,-2.0498818E-1,-2.0211312E-1,-4.5311723E-2,1.7176989E-3,-1.1374238E-1,1.5998612E-1,4.2170453E-1,-3.4658757E-1,9.164092E-3,-2.4204604E-1,-1.6296114E-1,5.0600213E-3,-7.932522E-2,-2.5993159E-2,1.0326692E-1,-1.34878E-1,3.9367676E-3,9.789015E-2,2.5910148E-1,-4.7470024E-3,4.817062E-1,-1.6520885E-1,-2.6420606E-2,-1.2060605E-2,-4.432485E-3,-2.1427614E-3,-8.312467E-3,-5.9600407E-3,-2.4546615E-3,-2.7732125E-3,3.7817103E-3,7.834111E-3,5.8131922E-5,-2.6216016E-3,-7.968659E-3,2.4372325E-3,-5.5075856E-3,2.456323E-3,8.06052E-3,1.6264547E-2,8.442525E-3,9.073233E-3,2.6778135E-2,-2.8400288E-3,-1.0390352E-2],"categories":[],"categories_nodes":[],"categories_segments":[],"categories_sizes":[],"default_left":[0,0,0,0,0,0,0,0,0,0,0,0,0,0,0,0,0,0,0,0,0,0,0,0,0,0,0,0,0,0,0,0,0,0,0,0,0,0,0,0,0,0,0,0,0,0,0,0,0,0,0],"id":26,"left_children":[1,3,5,7,9,11,13,15,17,19,21,23,25,27,-1,29,31,-1,33,35,37,39,41,43,45,-1,47,49,-1,-1,-1,-1,-1,-1,-1,-1,-1,-1,-1,-1,-1,-1,-1,-1,-1,-1,-1,-1,-1,-1,-1],"loss_changes":[7.78463E0,1.2999437E0,2.0759058E0,3.7118173E-1,6.6988736E-1,1.6445069E0,8.153794E-1,9.970307E-2,1.14815354E-1,3.9383247E-1,1.9702148E-1,7.193508E-1,1.0273108E0,3.2317626E-1,0E0,1.0561776E-1,9.566152E-2,0E0,1.5246019E-2,4.1856134E-1,2.0763269E-1,1.9409835E-1,8.610439E-2,2.5348872E-1,2.6500678E-1,0E0,7.0505476E-1,3.0562937E-2,0E0,0E0,0E0,0E0,0E0,0E0,0E0,0E0,0E0,0E0,0E0,0E0,0E0,0E0,0E0,0E0,0E0,0E0,0E0,0E0,0E0,0E0,0E0],"parents":[2147483647,0,0,1,1,2,2,3,3,4,4,5,5,6,6,7,7,8,8,9,9,10,10,11,11,12,12,13,13,15,15,16,16,18,18,19,19,20,20,21,21,22,22,23,23,24,24,26,26,27,27],"right_children":[2,4,6,8,10,12,14,16,18,20,22,24,26,28,-1,30,32,-1,34,36,38,40,42,44,46,-1,48,50,-1,-1,-1,-1,-1,-1,-1,-1,-1,-1,-1,-1,-1,-1,-1,-1,-1,-1,-1,-1,-1,-1,-1],"split_conditions":[1.0863E4,9.50639E5,1.0434409E3,1.1482625E7,1.8071064E7,6.651788E3,3.236383E1,1.86005E5,2.409091E0,1.2833E4,6.7204064E8,5.9161E4,5.3140095E1,8.91995E5,9.164092E-3,7.6E1,1.43479E5,5.0600213E-3,5.90495E5,2.4259783E3,1.2035191E1,2.6E1,3.149453E1,1.5271514E5,1.1291153E7,-4.7470024E-3,6.274818E4,2.2201815E9,-2.6420606E-2,-1.2060605E-2,-4.432485E-3,-2.1427614E-3,-8.312467E-3,-5.9600407E-3,-2.4546615E-3,-2.7732125E-3,3.7817103E-3,7.834111E-3,5.8131922E-5,-2.6216016E-3,-7.968659E-3,2.4372325E-3,-5.5075856E-3,2.456323E-3,8.06052E-3,1.6264547E-2,8.442525E-3,9.073233E-3,2.6778135E-2,-2.8400288E-3,-1.0390352E-2],"split_indices":[2,1,67,9,54,61,65,9,67,10,7,2,65,9,0,8,12,0,1,64,62,8,67,37,54,0,37,7,0,0,0,0,0,0,0,0,0,0,0,0,0,0,0,0,0,0,0,0,0,0,0],"split_type":[0,0,0,0,0,0,0,0,0,0,0,0,0,0,0,0,0,0,0,0,0,0,0,0,0,0,0,0,0,0,0,0,0,0,0,0,0,0,0,0,0,0,0,0,0,0,0,0,0,0,0],"sum_hessian":[4.85E2,3.23E2,1.62E2,1.07E2,2.16E2,1.5E2,1.2E1,8.8E1,1.9E1,1.38E2,7.8E1,1.2E2,3E1,9E0,3E0,4.1E1,4.7E1,3E0,1.6E1,1.09E2,2.9E1,6.6E1,1.2E1,7.5E1,4.5E1,3E0,2.7E1,6E0,3E0,3.5E1,6E0,7E0,4E1,4E0,1.2E1,8.3E1,2.6E1,1.7E1,1.2E1,2.3E1,4.3E1,9E0,3E0,4.9E1,2.6E1,1.8E1,2.7E1,8E0,1.9E1,3E0,3E0],"tree_param":{"num_deleted":"0","num_feature":"115","num_nodes":"51","size_leaf_vector":"1"}},{"base_weights":[3.811055E-3,-7.425608E-2,2.0863526E-1,-8.729454E-2,3.7647733E-1,1.5081261E-1,4.1079882E-1,-1.2567924E-1,2.237106E-2,8.533514E-3,2.4216177E-2,2.2985299E-1,9.0031795E-2,2.8425124E-1,5.9203565E-1,-1.1823702E-1,-2.551382E-2,-2.2044735E-2,1.987914E-1,-2.542699E-3,2.5156286E-1,4.077246E-2,2.1512817E-1,1.4733343E-2,2.8536082E-3,1.3503745E-2,3.0500295E-2,-6.08231E-3,1.0733349E-4,-6.513869E-3,2.0077602E-4,2.9934722E-3,1.011815E-2,2.5245124E-3,1.293969E-2,3.1882767E-3,-9.35156E-3,4.6461895E-3,1.1086717E-2],"categories":[],"categories_nodes":[],"categories_segments":[],"categories_sizes":[],"default_left":[0,0,0,0,0,0,0,0,0,0,0,0,0,0,0,0,0,0,0,0,0,0,0,0,0,0,0,0,0,0,0,0,0,0,0,0,0,0,0],"id":27,"left_children":[1,3,5,7,9,11,13,15,17,-1,-1,19,21,23,25,27,-1,29,31,-1,33,35,37,-1,-1,-1,-1,-1,-1,-1,-1,-1,-1,-1,-1,-1,-1,-1,-1],"loss_changes":[7.706701E0,2.0838923E0,1.4927678E0,1.4340353E0,1.9145668E-1,4.8374033E-1,4.9683046E-1,7.440038E-1,7.01773E-1,0E0,0E0,2.928145E-1,3.6712068E-1,1.3889718E-1,4.656744E-2,4.4095945E-1,0E0,2.2956732E-1,3.9108515E-2,0E0,2.4176097E-1,3.330137E-1,2.7819991E-2,0E0,0E0,0E0,0E0,0E0,0E0,0E0,0E0,0E0,0E0,0E0,0E0,0E0,0E0,0E0,0E0],"parents":[2147483647,0,0,1,1,2,2,3,3,4,4,5,5,6,6,7,7,8,8,11,11,12,12,13,13,14,14,15,15,17,17,18,18,20,20,21,21,22,22],"right_children":[2,4,6,8,10,12,14,16,18,-1,-1,20,22,24,26,28,-1,30,32,-1,34,36,38,-1,-1,-1,-1,-1,-1,-1,-1,-1,-1,-1,-1,-1,-1,-1,-1],"split_conditions":[1.3596371E9,4.0297854E3,4.026531E9,9.570385E4,7.0331914E3,4.08326E5,8.010436E0,5.825042E6,1.5271514E5,8.533514E-3,2.4216177E-2,1.5963967E0,3.2318832E7,5.9108553E10,2.502264E7,2.0964778E5,-2.551382E-2,1.6861708E3,1.114E3,-2.542699E-3,2.4390244E-3,6.6901914E3,2.678316E3,1.4733343E-2,2.8536082E-3,1.3503745E-2,3.0500295E-2,-6.08231E-3,1.0733349E-4,-6.513869E-3,2.0077602E-4,2.9934722E-3,1.011815E-2,2.5245124E-3,1.293969E-2,3.1882767E-3,-9.35156E-3,4.6461895E-3,1.1086717E-2],"split_indices":[7,61,7,42,4,9,62,56,37,0,0,62,9,5,60,37,0,64,0,0,66,4,4,0,0,0,0,0,0,0,0,0,0,0,0,0,0,0,0],"split_type":[0,0,0,0,0,0,0,0,0,0,0,0,0,0,0,0,0,0,0,0,0,0,0,0,0,0,0,0,0,0,0,0,0,0,0,0,0,0,0],"sum_hessian":[4.8E2,3.48E2,1.32E2,3.39E2,9E0,1.04E2,2.8E1,2.51E2,8.8E1,5E0,4E0,4.4E1,6E1,1.8E1,1E1,2.48E2,3E0,7.1E1,1.7E1,3E0,4.1E1,4.4E1,1.6E1,1.5E1,3E0,3E0,7E0,2.21E2,2.7E1,1.2E1,5.9E1,3E0,1.4E1,6E0,3.5E1,4E1,4E0,4E0,1.2E1],"tree_param":{"num_deleted":"0","num_feature":"115","num_nodes":"39","size_leaf_vector":"1"}},{"base_weights":[7.0903655E-3,-7.571805E-2,1.826203E-1,-1.5553194E-1,-3.216871E-2,1.5030396E-1,3.2075886E-2,-1.7587933E-1,2.2341434E-2,1.9751757E-2,-8.927145E-2,-2.4831094E-1,1.7450981E-1,-2.5317472E-1,-1.5495977E-1,-1.0615393E-3,4.568957E-3,-1.6568152E-2,1.2803039E-1,-1.1371014E-1,7.595659E-2,2.9303753E-3,-1.8998235E-2,1.20274745E-1,2.4060974E-1,-1.2638962E-2,-5.6873625E-3,-1.2018092E-3,-7.517885E-3,-3.0773175E-3,3.3239902E-3,1.03559755E-2,2.9469247E-3,-2.877763E-3,-8.096997E-3,1.5075971E-2,-1.058307E-3,-2.0273305E-4,6.514007E-3,1.2790132E-2,-2.8218073E-3],"categories":[],"categories_nodes":[],"categories_segments":[],"categories_sizes":[],"default_left":[0,0,0,0,0,0,0,0,0,0,0,0,0,0,0,0,0,0,0,0,0,0,0,0,0,0,0,0,0,0,0,0,0,0,0,0,0,0,0,0,0],"id":28,"left_children":[1,3,5,7,9,11,-1,13,15,17,19,21,23,25,27,-1,-1,29,31,33,35,-1,-1,37,39,-1,-1,-1,-1,-1,-1,-1,-1,-1,-1,-1,-1,-1,-1,-1,-1],"loss_changes":[7.165223E0,1.1594042E0,2.5411515E0,4.3100142E-1,6.480899E-1,1.4906542E0,0E0,1.3216877E-1,4.8196934E-2,4.5437828E-1,4.2858464E-1,4.9560875E-1,4.801216E-1,2.7974725E-2,9.888363E-2,0E0,0E0,3.9819413E-1,1.667746E-1,2.8130496E-1,3.5925037E-1,0E0,0E0,2.2082853E-1,7.5773406E-1,0E0,0E0,0E0,0E0,0E0,0E0,0E0,0E0,0E0,0E0,0E0,0E0,0E0,0E0,0E0,0E0],"parents":[2147483647,0,0,1,1,2,2,3,3,4,4,5,5,7,7,8,8,9,9,10,10,11,11,12,12,13,13,14,14,17,17,18,18,19,19,20,20,23,23,24,24],"right_children":[2,4,6,8,10,12,-1,14,16,18,20,22,24,26,28,-1,-1,30,32,34,36,-1,-1,38,40,-1,-1,-1,-1,-1,-1,-1,-1,-1,-1,-1,-1,-1,-1,-1,-1],"split_conditions":[1.2175E4,1.039769E6,2.3767982E4,1.8126572E7,1.4074289E7,1.6857977E4,3.2075886E-2,1.44E2,4.17E2,2.4374688E3,1.7081438E3,9.0301914E4,6.8963E4,5.2E1,2E1,-1.0615393E-3,4.568957E-3,2.306533E6,6.088569E6,5.050505E-3,7.6E1,2.9303753E-3,-1.8998235E-2,4.3871765E0,7.217412E2,-1.2638962E-2,-5.6873625E-3,-1.2018092E-3,-7.517885E-3,-3.0773175E-3,3.3239902E-3,1.03559755E-2,2.9469247E-3,-2.877763E-3,-8.096997E-3,1.5075971E-2,-1.058307E-3,-2.0273305E-4,6.514007E-3,1.2790132E-2,-2.8218073E-3],"split_indices":[2,1,61,9,54,42,0,0,0,64,61,37,2,10,10,0,0,1,54,66,3,0,0,62,67,0,0,0,0,0,0,0,0,0,0,0,0,0,0,0,0],"split_type":[0,0,0,0,0,0,0,0,0,0,0,0,0,0,0,0,0,0,0,0,0,0,0,0,0,0,0,0,0,0,0,0,0,0,0,0,0,0,0,0,0],"sum_hessian":[4.91E2,3.34E2,1.57E2,1.17E2,2.17E2,1.49E2,8E0,1.05E2,1.2E1,1.14E2,1.03E2,8E0,1.41E2,2E1,8.5E1,8E0,4E0,8.6E1,2.8E1,9E1,1.3E1,3E0,5E0,7.9E1,6.2E1,1.6E1,4E0,6E0,7.9E1,5.5E1,3.1E1,1E1,1.8E1,5.1E1,3.9E1,3E0,1E1,1.2E1,6.7E1,5.5E1,7E0],"tree_param":{"num_deleted":"0","num_feature":"115","num_nodes":"41","size_leaf_vector":"1"}},{"base_weights":[-4.186655E-4,-7.713907E-2,1.7703274E-1,-1.0109513E-1,7.816912E-2,2.1298611E-1,-2.0994718E-1,-1.3058214E-1,-2.1579038E-2,3.7946194E-2,2.027015E-1,1.6340691E-1,3.9661357E-1,-2.2364609E-2,-2.3137348E-2,-1.4183837E-1,-3.509136E-2,-1.0775128E-1,7.398469E-2,9.5276386E-2,-2.4677124E-2,5.91718E-3,1.2123017E-2,1.1914915E-1,2.5231168E-1,3.1725693E-1,2.9045414E-2,-7.3839086E-3,8.773123E-3,-7.1266564E-3,-1.9578135E-3,5.9190067E-3,-3.406755E-3,-1.4518726E-3,-7.3776706E-3,-2.0646208E-3,5.6005726E-3,2.9115404E-3,9.063828E-3,7.989086E-4,-6.302295E-3,1.6392851E-2,4.5931037E-3,1.4575703E-2,5.2980892E-3,1.5716385E-2,4.897596E-3],"categories":[],"categories_nodes":[],"categories_segments":[],"categories_sizes":[],"default_left":[0,0,0,0,0,0,0,0,0,0,0,0,0,0,0,0,0,0,0,0,0,0,0,0,0,0,0,0,0,0,0,0,0,0,0,0,0,0,0,0,0,0,0,0,0,0,0],"id":29,"left_children":[1,3,5,7,9,11,13,15,17,19,21,23,25,27,-1,29,31,33,35,37,39,-1,-1,41,43,45,-1,-1,-1,-1,-1,-1,-1,-1,-1,-1,-1,-1,-1,-1,-1,-1,-1,-1,-1,-1,-1],"loss_changes":[6.6301303E0,1.272897E0,2.0899615E0,6.888664E-1,2.2272483E-1,1.1642447E0,7.0967895E-1,2.2611904E-1,6.7500216E-1,1.3159859E-1,1.5975684E-2,3.948877E-1,3.2768393E-1,2.9872975E-1,0E0,2.57622E-1,1.6493964E-1,1.6967607E-1,2.3034358E-1,4.921536E-2,8.8139996E-2,0E0,0E0,2.9627037E-1,2.794881E-1,8.98509E-2,0E0,0E0,0E0,0E0,0E0,0E0,0E0,0E0,0E0,0E0,0E0,0E0,0E0,0E0,0E0,0E0,0E0,0E0,0E0,0E0,0E0],"parents":[2147483647,0,0,1,1,2,2,3,3,4,4,5,5,6,6,7,7,8,8,9,9,10,10,11,11,12,12,13,13,15,15,16,16,17,17,18,18,19,19,20,20,23,23,24,24,25,25],"right_children":[2,4,6,8,10,12,14,16,18,20,22,24,26,28,-1,30,32,34,36,38,40,-1,-1,42,44,46,-1,-1,-1,-1,-1,-1,-1,-1,-1,-1,-1,-1,-1,-1,-1,-1,-1,-1,-1,-1,-1],"split_conditions":[1.3989E4,3.44E2,1.0434409E3,1.0980201E3,3.4540886E3,4.026531E9,7.339209E6,7.164074E8,9.0301914E4,1.16E2,1E0,1.486066E0,5.22E2,3.236383E1,-2.3137348E-2,2.1592189E5,4.45E3,7.094791E1,1.947899E6,2.9624592E3,3.6377136E-2,5.91718E-3,1.2123017E-2,7.201152E-4,1.6282871E7,4.547513E7,2.9045414E-2,-7.3839086E-3,8.773123E-3,-7.1266564E-3,-1.9578135E-3,5.9190067E-3,-3.406755E-3,-1.4518726E-3,-7.3776706E-3,-2.0646208E-3,5.6005726E-3,2.9115404E-3,9.063828E-3,7.989086E-4,-6.302295E-3,1.6392851E-2,4.5931037E-3,1.4575703E-2,5.2980892E-3,1.5716385E-2,4.897596E-3],"split_indices":[2,8,67,61,4,7,56,7,37,3,23,48,3,65,0,37,2,65,1,4,66,0,0,66,52,38,0,0,0,0,0,0,0,0,0,0,0,0,0,0,0,0,0,0,0,0,0],"split_type":[0,0,0,0,0,0,0,0,0,0,0,0,0,0,0,0,0,0,0,0,0,0,0,0,0,0,0,0,0,0,0,0,0,0,0,0,0,0,0,0,0,0,0,0,0,0,0],"sum_hessian":[4.85E2,3.39E2,1.46E2,2.94E2,4.5E1,1.34E2,1.2E1,2.14E2,8E1,3.5E1,1E1,1.07E2,2.7E1,8E0,4E0,1.91E2,2.3E1,4.2E1,3.8E1,1.8E1,1.7E1,6E0,4E0,7.3E1,3.4E1,2.2E1,5E0,5E0,3E0,1.67E2,2.4E1,4E0,1.9E1,1.8E1,2.4E1,1.1E1,2.7E1,1.5E1,3E0,1.3E1,4E0,4E0,6.9E1,2.2E1,1.2E1,1.9E1,3E0],"tree_param":{"num_deleted":"0","num_feature":"115","num_nodes":"47","size_leaf_vector":"1"}},{"base_weights":[1.1915521E-2,-8.040431E-2,1.5033385E-1,-1.4621255E-1,-4.7256604E-2,7.237246E-2,2.7856612E-1,-1.9948977E-1,-7.466696E-2,-3.7908748E-2,-1.5348245E-2,4.0055275E-2,1.7462909E-1,5.272563E-1,2.2099991E-1,-2.0988579E-1,-2.4506438E-3,3.3626903E-2,-1.281063E-1,-7.793448E-2,2.7309678E-2,-1.2921758E-1,6.640274E-2,1.9577096E-1,1.5556162E-3,1.2005338E-2,3.0204128E-2,1.0053219E-1,2.731036E-1,-1.054499E-2,-5.6700315E-3,4.395253E-3,-8.5382996E-4,-1.8410172E-3,-7.579894E-3,-4.5135356E-3,3.7918207E-3,3.156403E-3,-4.751555E-3,-6.7207767E-3,-2.4159597E-3,1.8244123E-3,7.254784E-3,3.1048192E-3,9.615928E-3,-2.7410374E-3,6.0573164E-3,-6.6352956E-4,1.3527064E-2],"categories":[],"categories_nodes":[],"categories_segments":[],"categories_sizes":[],"default_left":[0,0,0,0,0,0,0,0,0,0,0,0,0,0,0,0,0,0,0,0,0,0,0,0,0,0,0,0,0,0,0,0,0,0,0,0,0,0,0,0,0,0,0,0,0,0,0,0,0],"id":30,"left_children":[1,3,5,7,9,11,13,15,17,19,-1,21,23,25,27,29,-1,31,33,35,37,39,41,43,-1,-1,-1,45,47,-1,-1,-1,-1,-1,-1,-1,-1,-1,-1,-1,-1,-1,-1,-1,-1,-1,-1,-1,-1],"loss_changes":[6.197006E0,6.278758E-1,1.9192896E0,3.5484457E-1,5.12515E-1,3.9617205E-1,9.285555E-1,7.220411E-2,2.5315535E-1,4.981072E-1,0E0,4.2781198E-1,7.957041E-2,2.8410387E-1,3.5542965E-1,6.1550856E-2,0E0,5.0746545E-2,8.898395E-2,4.0087473E-1,4.0604046E-1,9.779111E-3,1.9414577E-1,3.166777E-2,0E0,0E0,0E0,1.1007352E-1,2.7601218E-1,0E0,0E0,0E0,0E0,0E0,0E0,0E0,0E0,0E0,0E0,0E0,0E0,0E0,0E0,0E0,0E0,0E0,0E0,0E0,0E0],"parents":[2147483647,0,0,1,1,2,2,3,3,4,4,5,5,6,6,7,7,8,8,9,9,11,11,12,12,13,13,14,14,15,15,17,17,18,18,19,19,20,20,21,21,22,22,23,23,27,27,28,28],"right_children":[2,4,6,8,10,12,14,16,18,20,-1,22,24,26,28,30,-1,32,34,36,38,40,42,44,-1,-1,-1,46,48,-1,-1,-1,-1,-1,-1,-1,-1,-1,-1,-1,-1,-1,-1,-1,-1,-1,-1,-1,-1],"split_conditions":[9.570385E4,9.50639E5,5.6503E4,1.49529E6,4.166257E7,1.5271514E5,1.417988E6,1.7626338E6,1.16E2,2.1721223E3,-1.5348245E-2,3.1547388E1,3.8158787E12,1.27E2,6.219584E5,7.6E1,-2.4506438E-3,9.1E1,3.6319303E-3,2.889654E5,3.5301748E7,4.016E4,1.3210104E9,3.059068E-1,1.5556162E-3,1.2005338E-2,3.0204128E-2,5.9209933E9,2.5111986E-3,-1.054499E-2,-5.6700315E-3,4.395253E-3,-8.5382996E-4,-1.8410172E-3,-7.579894E-3,-4.5135356E-3,3.7918207E-3,3.156403E-3,-4.751555E-3,-6.7207767E-3,-2.4159597E-3,1.8244123E-3,7.254784E-3,3.1048192E-3,9.615928E-3,-2.7410374E-3,6.0573164E-3,-6.6352956E-4,1.3527064E-2],"split_indices":[42,1,2,9,60,37,38,59,3,64,0,65,40,3,41,8,0,3,51,37,54,10,7,50,0,0,0,12,43,0,0,0,0,0,0,0,0,0,0,0,0,0,0,0,0,0,0,0,0],"split_type":[0,0,0,0,0,0,0,0,0,0,0,0,0,0,0,0,0,0,0,0,0,0,0,0,0,0,0,0,0,0,0,0,0,0,0,0,0,0,0,0,0,0,0,0,0,0,0,0,0],"sum_hessian":[4.83E2,2.9E2,1.93E2,9.6E1,1.94E2,1.21E2,7.2E1,5.4E1,4.2E1,1.89E2,5E0,9.3E1,2.8E1,1.2E1,6E1,5E1,4E0,1.4E1,2.8E1,1.17E2,7.2E1,1.2E1,8.1E1,2.4E1,4E0,5E0,7E0,1.9E1,4.1E1,3.9E1,1.1E1,6E0,8E0,9E0,1.9E1,1.04E2,1.3E1,5.5E1,1.7E1,9E0,3E0,6.4E1,1.7E1,3E0,2.1E1,3E0,1.6E1,3E0,3.8E1],"tree_param":{"num_deleted":"0","num_feature":"115","num_nodes":"49","size_leaf_vector":"1"}},{"base_weights":[2.6331411E-3,-4.6679188E-2,2.5098866E-1,-7.643797E-2,1.08683586E-1,4.4498965E-1,1.8849647E-1,-7.1285486E-2,-2.2665242E-2,1.637912E-1,-4.7369555E-2,2.1711913E-1,2.87548E-2,2.4021049E-1,5.609502E-2,-8.587654E-2,1.01043254E-1,1.9725366E-1,4.4177487E-2,-9.054679E-3,9.762862E-3,4.6153683E-3,1.1556524E-2,2.7829695E-1,2.927351E-2,1.296862E-1,-1.154535E-2,-6.787311E-3,-2.5230122E-3,-3.982445E-3,7.835241E-3,1.1015057E-3,9.92661E-3,5.146495E-3,-1.9609812E-3,-2.4372693E-3,2.9144476E-3,5.4038926E-3,1.4824232E-2,-4.4156215E-3,5.6758607E-3,-4.969474E-4,7.4570864E-3],"categories":[],"categories_nodes":[],"categories_segments":[],"categories_sizes":[],"default_left":[0,0,0,0,0,0,0,0,0,0,0,0,0,0,0,0,0,0,0,0,0,0,0,0,0,0,0,0,0,0,0,0,0,0,0,0,0,0,0,0,0,0,0],"id":31,"left_children":[1,3,5,7,9,11,13,15,-1,17,19,21,-1,23,25,27,29,31,33,-1,35,-1,-1,37,39,41,-1,-1,-1,-1,-1,-1,-1,-1,-1,-1,-1,-1,-1,-1,-1,-1,-1],"loss_changes":[5.988246E0,1.8946579E0,8.981285E-1,7.04931E-1,5.7534003E-1,6.5748525E-1,4.1788697E-1,8.635926E-1,0E0,1.8741167E-1,1.5670021E-1,1.5708327E-2,0E0,3.5337615E-1,4.639179E-1,5.945926E-1,3.7124255E-1,1.24203205E-1,7.613388E-2,0E0,5.0971065E-2,0E0,0E0,2.3964834E-1,1.07305855E-1,7.658258E-2,0E0,0E0,0E0,0E0,0E0,0E0,0E0,0E0,0E0,0E0,0E0,0E0,0E0,0E0,0E0,0E0,0E0],"parents":[2147483647,0,0,1,1,2,2,3,3,4,4,5,5,6,6,7,7,9,9,10,10,11,11,13,13,14,14,15,15,16,16,17,17,18,18,20,20,23,23,24,24,25,25],"right_children":[2,4,6,8,10,12,14,16,-1,18,20,22,-1,24,26,28,30,32,34,-1,36,-1,-1,38,40,42,-1,-1,-1,-1,-1,-1,-1,-1,-1,-1,-1,-1,-1,-1,-1,-1,-1],"split_conditions":[3.2996133E3,1.5522031E9,1.417988E6,3.372042E7,1.3508742E7,9.256843E3,1.5096262E7,2.48374E5,-2.2665242E-2,1.59E2,2.7011695E4,8.963466E6,2.87548E-2,2.2576077E10,1.92144E5,4.407E3,2.8346753E0,1.504E4,6.12E2,-9.054679E-3,4.2464733E-2,4.6153683E-3,1.1556524E-2,2.1360708E7,8.4E1,6.873727E0,-1.154535E-2,-6.787311E-3,-2.5230122E-3,-3.982445E-3,7.835241E-3,1.1015057E-3,9.92661E-3,5.146495E-3,-1.9609812E-3,-2.4372693E-3,2.9144476E-3,5.4038926E-3,1.4824232E-2,-4.4156215E-3,5.6758607E-3,-4.969474E-4,7.4570864E-3],"split_indices":[61,7,38,57,54,4,9,11,0,3,42,1,0,12,2,2,62,9,0,0,47,0,0,1,3,63,0,0,0,0,0,0,0,0,0,0,0,0,0,0,0,0,0],"split_type":[0,0,0,0,0,0,0,0,0,0,0,0,0,0,0,0,0,0,0,0,0,0,0,0,0,0,0,0,0,0,0,0,0,0,0,0,0,0,0,0,0,0,0],"sum_hessian":[4.87E2,4.07E2,8E1,3.42E2,6.5E1,1.8E1,6.2E1,3.39E2,3E0,4.8E1,1.7E1,9E0,9E0,4.4E1,1.8E1,3.13E2,2.6E1,3.7E1,1.1E1,4E0,1.3E1,3E0,6E0,3.7E1,7E0,1.5E1,3E0,1.02E2,2.11E2,7E0,1.9E1,4E0,3.3E1,6E0,5E0,6E0,7E0,9E0,2.8E1,3E0,4E0,3E0,1.2E1],"tree_param":{"num_deleted":"0","num_feature":"115","num_nodes":"43","size_leaf_vector":"1"}},{"base_weights":[7.9457E-3,-6.2385272E-2,1.587954E-1,-1.311308E-1,-2.7889103E-2,1.8439783E-1,-2.0010954E-1,-1.677639E-1,-5.4413773E-2,1.1632316E-2,-9.404997E-2,1.465143E-1,3.285226E-1,-3.223903E-1,5.08202E-4,-1.7740048E-1,-1.1793001E-3,-9.398161E-2,5.865846E-3,-1.7729132E-2,1.1403387E-1,4.6250675E-4,-1.5112284E-1,9.041029E-2,2.0801683E-1,2.6238462E-2,2.1342357E-1,-1.813062E-2,-7.6872855E-3,-8.463978E-3,-2.0911233E-4,6.941544E-4,-5.0846897E-3,1.8194494E-3,-2.6198428E-3,-2.0833449E-3,5.5245976E-3,2.3936636E-3,9.162659E-3,-3.2341685E-3,5.278153E-3,-7.95616E-3,-9.4451243E-4,-2.9197796E-3,4.917703E-3,1.3120946E-2,5.960282E-3,1.2363313E-2,-5.0094384E-3],"categories":[],"categories_nodes":[],"categories_segments":[],"categories_sizes":[],"default_left":[0,0,0,0,0,0,0,0,0,0,0,0,0,0,0,0,0,0,0,0,0,0,0,0,0,0,0,0,0,0,0,0,0,0,0,0,0,0,0,0,0,0,0,0,0,0,0,0,0],"id":32,"left_children":[1,3,5,7,9,11,13,15,17,19,21,23,25,27,-1,29,-1,31,33,35,37,39,41,43,45,-1,47,-1,-1,-1,-1,-1,-1,-1,-1,-1,-1,-1,-1,-1,-1,-1,-1,-1,-1,-1,-1,-1,-1],"loss_changes":[5.272172E0,8.0026686E-1,1.4887362E0,3.0844438E-1,5.946471E-1,7.5994015E-1,2.876831E-1,9.94215E-2,9.118635E-2,4.3197381E-1,4.5856822E-1,3.9180708E-1,7.2309065E-1,1.3217747E-2,0E0,9.18951E-2,0E0,4.4692263E-2,3.650357E-2,4.3654162E-1,1.5977788E-1,2.778289E-1,1.5366054E-1,1.7516798E-1,3.054366E-1,0E0,4.326656E-1,0E0,0E0,0E0,0E0,0E0,0E0,0E0,0E0,0E0,0E0,0E0,0E0,0E0,0E0,0E0,0E0,0E0,0E0,0E0,0E0,0E0,0E0],"parents":[2147483647,0,0,1,1,2,2,3,3,4,4,5,5,6,6,7,7,8,8,9,9,10,10,11,11,12,12,13,13,15,15,17,17,18,18,19,19,20,20,21,21,22,22,23,23,24,24,26,26],"right_children":[2,4,6,8,10,12,14,16,18,20,22,24,26,28,-1,30,-1,32,34,36,38,40,42,44,46,-1,48,-1,-1,-1,-1,-1,-1,-1,-1,-1,-1,-1,-1,-1,-1,-1,-1,-1,-1,-1,-1,-1,-1],"split_conditions":[1.2934E4,1.035048E6,1.0434409E3,3.006846E6,1.8071064E7,7.710634E3,1.31805E5,1.7367111E6,3.1633773E8,7.3229E4,1.4E4,4.1331047E-1,3.0418E4,4.4997E4,5.08202E-4,1.6120845E5,-1.1793001E-3,7.093639E2,2.678316E3,1.4777102E9,4.95E9,2.392867E6,2.8884522E8,4.3871765E0,6.148067E-1,2.6238462E-2,5.01E2,-1.813062E-2,-7.6872855E-3,-8.463978E-3,-2.0911233E-4,6.941544E-4,-5.0846897E-3,1.8194494E-3,-2.6198428E-3,-2.0833449E-3,5.5245976E-3,2.3936636E-3,9.162659E-3,-3.2341685E-3,5.278153E-3,-7.95616E-3,-9.4451243E-4,-2.9197796E-3,4.917703E-3,1.3120946E-2,5.960282E-3,1.2363313E-2,-5.0094384E-3],"split_indices":[2,1,67,9,54,61,37,60,7,11,11,44,10,10,0,37,0,56,4,7,5,1,12,62,43,0,3,0,0,0,0,0,0,0,0,0,0,0,0,0,0,0,0,0,0,0,0,0,0],"split_type":[0,0,0,0,0,0,0,0,0,0,0,0,0,0,0,0,0,0,0,0,0,0,0,0,0,0,0,0,0,0,0,0,0,0,0,0,0,0,0,0,0,0,0,0,0,0,0,0,0],"sum_hessian":[4.95E2,3.38E2,1.57E2,1.12E2,2.26E2,1.47E2,1E1,7.5E1,3.7E1,1.42E2,8.4E1,1.18E2,2.9E1,6E0,4E0,7E1,5E0,2.2E1,1.5E1,1.11E2,3.1E1,3.2E1,5.2E1,6.3E1,5.5E1,8E0,2.1E1,3E0,3E0,6.7E1,3E0,3E0,1.9E1,1E1,5E0,9.3E1,1.8E1,1.9E1,1.2E1,2E1,1.2E1,4.4E1,8E0,6E0,5.7E1,2.6E1,2.9E1,1.8E1,3E0],"tree_param":{"num_deleted":"0","num_feature":"115","num_nodes":"49","size_leaf_vector":"1"}},{"base_weights":[8.981127E-3,-5.680763E-2,1.53917E-1,-1.3481705E-1,-1.909911E-2,1.7986703E-1,-1.9506668E-1,-1.6923153E-1,-6.327448E-2,-5.210065E-2,4.461025E-2,1.1324777E-1,2.8318754E-1,-3.8021183E-1,4.720301E-3,-1.8663195E-1,-9.55781E-2,5.965641E-2,-9.3946904E-2,-7.809769E-2,6.9222815E-2,-2.8577497E-2,1.2240203E-1,8.303852E-2,2.2611493E-1,2.1805555E-1,2.7084261E-2,-2.1265078E-2,-9.183333E-3,-3.36892E-3,-9.072514E-3,-2.6646662E-3,-6.7782574E-3,5.4364405E-3,1.8801911E-5,-5.335444E-3,-7.824428E-4,-1.3770444E-3,-5.305012E-3,8.062002E-3,1.0516549E-3,-2.7704714E-3,1.7110998E-3,2.796911E-3,7.308661E-3,7.626032E-3,1.2788461E-3,7.373017E-3,1.3968081E-2,1.1198259E-2,-5.9326994E-3],"categories":[],"categories_nodes":[],"categories_segments":[],"categories_sizes":[],"default_left":[0,0,0,0,0,0,0,0,0,0,0,0,0,0,0,0,0,0,0,0,0,0,0,0,0,0,0,0,0,0,0,0,0,0,0,0,0,0,0,0,0,0,0,0,0,0,0,0,0,0,0],"id":33,"left_children":[1,3,5,7,9,11,13,15,17,19,21,23,25,27,-1,29,31,33,35,37,39,41,43,45,47,49,-1,-1,-1,-1,-1,-1,-1,-1,-1,-1,-1,-1,-1,-1,-1,-1,-1,-1,-1,-1,-1,-1,-1,-1,-1],"loss_changes":[4.642827E0,9.828676E-1,1.4116187E0,2.5766098E-1,4.7959334E-1,9.4533443E-1,6.465657E-1,7.571888E-2,1.4511633E-1,4.785138E-1,4.475835E-1,2.8127134E-1,9.7667265E-1,1.2916923E-2,0E0,6.15983E-2,2.2773698E-2,2.7982784E-2,5.021432E-2,2.2170085E-1,1.294825E-1,8.8717684E-2,7.712346E-2,3.2238427E-1,4.338813E-2,4.6728802E-1,0E0,0E0,0E0,0E0,0E0,0E0,0E0,0E0,0E0,0E0,0E0,0E0,0E0,0E0,0E0,0E0,0E0,0E0,0E0,0E0,0E0,0E0,0E0,0E0,0E0],"parents":[2147483647,0,0,1,1,2,2,3,3,4,4,5,5,6,6,7,7,8,8,9,9,10,10,11,11,12,12,13,13,15,15,16,16,17,17,18,18,19,19,20,20,21,21,22,22,23,23,24,24,25,25],"right_children":[2,4,6,8,10,12,14,16,18,20,22,24,26,28,-1,30,32,34,36,38,40,42,44,46,48,50,-1,-1,-1,-1,-1,-1,-1,-1,-1,-1,-1,-1,-1,-1,-1,-1,-1,-1,-1,-1,-1,-1,-1,-1,-1],"split_conditions":[1.227E4,9.50639E5,1.4246185E3,3.006846E6,1.0980201E3,9.3058E4,3.5226266E0,1.6395413E7,5.9073865E2,3.94E2,8.459549E4,4.23218E3,1.261448E1,1.2799757E9,4.720301E-3,6.738547E7,1.7509084E-2,1.19E2,1.425263E10,1.0270569E7,1.3212844E-3,1.91E2,2.0584187E3,7.8920895E6,1.0963892E5,2.0531621E4,2.7084261E-2,-2.1265078E-2,-9.183333E-3,-3.36892E-3,-9.072514E-3,-2.6646662E-3,-6.7782574E-3,5.4364405E-3,1.8801911E-5,-5.335444E-3,-7.824428E-4,-1.3770444E-3,-5.305012E-3,8.062002E-3,1.0516549E-3,-2.7704714E-3,1.7110998E-3,2.796911E-3,7.308661E-3,7.626032E-3,1.2788461E-3,7.373017E-3,1.3968081E-2,1.1198259E-2,-5.9326994E-3],"split_indices":[2,1,67,9,61,2,63,12,56,8,37,61,62,7,0,7,66,3,40,54,48,8,64,54,37,4,0,0,0,0,0,0,0,0,0,0,0,0,0,0,0,0,0,0,0,0,0,0,0,0,0],"split_type":[0,0,0,0,0,0,0,0,0,0,0,0,0,0,0,0,0,0,0,0,0,0,0,0,0,0,0,0,0,0,0,0,0,0,0,0,0,0,0,0,0,0,0,0,0,0,0,0,0,0,0],"sum_hessian":[4.85E2,3.34E2,1.51E2,1.08E2,2.26E2,1.41E2,1E1,7.2E1,3.6E1,1.49E2,7.7E1,8.7E1,5.4E1,6E0,4E0,5.7E1,1.5E1,7E0,2.9E1,1.23E2,2.6E1,4E1,3.7E1,7E1,1.7E1,4.6E1,8E0,3E0,3E0,6E0,5.1E1,1E1,5E0,3E0,4E0,2.2E1,7E0,5.5E1,6.8E1,7E0,1.9E1,2.7E1,1.3E1,1.5E1,2.2E1,2.7E1,4.3E1,1.1E1,6E0,4.3E1,3E0],"tree_param":{"num_deleted":"0","num_feature":"115","num_nodes":"51","size_leaf_vector":"1"}},{"base_weights":[1.2364988E-2,-2.8951822E-2,2.1983851E-1,-5.6487415E-2,1.20740294E-1,1.361953E-1,3.4495717E-1,-9.905442E-2,-3.0439734E-3,1.681064E-1,3.3114873E-2,1.7530361E-1,-8.614769E-2,2.694046E-2,2.1847898E-1,-1.4681533E-1,-5.6933086E-2,9.104628E-3,-2.0535236E-2,1.278845E-1,2.5130045E-1,-3.3204485E-2,1.08481854E-1,-3.7228284E-4,1.9482705E-1,-6.722885E-3,5.1909825E-4,1.1623707E-2,-2.239239E-4,-7.4176374E-3,-2.1682174E-3,-3.230565E-3,3.4071826E-3,-5.8270217E-4,6.791614E-3,8.332986E-3,2.9812614E-3,5.682349E-3,1.28077185E-2,2.8327599E-3,-4.59374E-3,1.1090884E-3,9.368738E-3,1.3574786E-2,7.001541E-3],"categories":[],"categories_nodes":[],"categories_segments":[],"categories_sizes":[],"default_left":[0,0,0,0,0,0,0,0,0,0,0,0,0,0,0,0,0,0,0,0,0,0,0,0,0,0,0,0,0,0,0,0,0,0,0,0,0,0,0,0,0,0,0,0,0],"id":34,"left_children":[1,3,5,7,9,11,13,15,17,19,21,23,25,-1,27,29,31,33,-1,35,37,39,41,-1,43,-1,-1,-1,-1,-1,-1,-1,-1,-1,-1,-1,-1,-1,-1,-1,-1,-1,-1,-1,-1],"loss_changes":[4.078133E0,1.6431993E0,7.7977943E-1,7.6407385E-1,2.517627E-1,4.4117945E-1,8.2710433E-1,3.6783922E-1,8.1628054E-1,1.0171139E-1,1.1856275E-1,1.5200198E-1,4.905771E-2,0E0,1.7582846E-1,1.24485135E-1,1.8656024E-1,4.4909698E-1,0E0,8.676696E-2,8.844495E-3,8.9274526E-2,8.4230855E-2,0E0,1.16438866E-1,0E0,0E0,0E0,0E0,0E0,0E0,0E0,0E0,0E0,0E0,0E0,0E0,0E0,0E0,0E0,0E0,0E0,0E0,0E0,0E0],"parents":[2147483647,0,0,1,1,2,2,3,3,4,4,5,5,6,6,7,7,8,8,9,9,10,10,11,11,12,12,14,14,15,15,16,16,17,17,19,19,20,20,21,21,22,22,24,24],"right_children":[2,4,6,8,10,12,14,16,18,20,22,24,26,-1,28,30,32,34,-1,36,38,40,42,-1,44,-1,-1,-1,-1,-1,-1,-1,-1,-1,-1,-1,-1,-1,-1,-1,-1,-1,-1,-1,-1],"split_conditions":[3.2996133E3,1.613448E9,7.3073276E3,2.025313E6,1.1532659E7,9.234E3,3.0418E4,1.38093E6,3.372042E7,3.0467994E9,8.4E1,3.6308475E1,5.767668E0,2.694046E-2,1.4656219E8,1.4910261E5,4.8384636E7,2.481428E5,-2.0535236E-2,7.200105E8,8.130405E6,1.3185959E7,1.2511627E7,-3.7228284E-4,2.1207E4,-6.722885E-3,5.1909825E-4,1.1623707E-2,-2.239239E-4,-7.4176374E-3,-2.1682174E-3,-3.230565E-3,3.4071826E-3,-5.8270217E-4,6.791614E-3,8.332986E-3,2.9812614E-3,5.682349E-3,1.28077185E-2,2.8327599E-3,-4.59374E-3,1.1090884E-3,9.368738E-3,1.3574786E-2,7.001541E-3],"split_indices":[61,7,61,1,54,0,10,9,57,7,3,65,63,0,1,56,9,37,0,5,1,54,1,0,9,0,0,0,0,0,0,0,0,0,0,0,0,0,0,0,0,0,0,0,0],"split_type":[0,0,0,0,0,0,0,0,0,0,0,0,0,0,0,0,0,0,0,0,0,0,0,0,0,0,0,0,0,0,0,0,0,0,0,0,0,0,0,0,0,0,0,0,0],"sum_hessian":[4.74E2,3.96E2,7.8E1,3.35E2,6.1E1,4.8E1,3E1,1.86E2,1.49E2,3.9E1,2.2E1,4.1E1,7E0,9E0,2.1E1,8.6E1,1E2,1.46E2,3E0,2.8E1,1.1E1,1.2E1,1E1,4E0,3.7E1,4E0,3E0,1.8E1,3E0,7.4E1,1.2E1,9.1E1,9E0,1.27E2,1.9E1,1.4E1,1.4E1,3E0,8E0,5E0,7E0,6E0,4E0,9E0,2.8E1],"tree_param":{"num_deleted":"0","num_feature":"115","num_nodes":"45","size_leaf_vector":"1"}},{"base_weights":[1.9450533E-3,-5.493704E-2,1.3884094E-1,-7.210964E-2,6.267588E-2,8.088057E-2,2.6584446E-1,-7.694234E-2,1.42220855E-2,3.3750013E-2,8.797171E-3,1.0633435E-1,-1.9112858E-1,2.068239E-1,4.7894627E-1,-1.1165362E-1,-3.4321804E-2,9.218999E-2,-2.3455465E-2,1.2517339E-1,-6.2547E-2,-2.8714624E-3,-1.1205209E-2,6.212401E-4,2.2347593E-1,2.7441924E-2,1.2009283E-2,-6.059403E-3,-1.6336644E-3,7.6565094E-4,-4.247392E-3,6.912194E-3,2.443928E-3,-5.3412314E-3,1.6355899E-3,4.681538E-3,1.0626707E-2,1.9636801E-3,-1.0592064E-2,1.1875931E-2,6.2131984E-3],"categories":[],"categories_nodes":[],"categories_segments":[],"categories_sizes":[],"default_left":[0,0,0,0,0,0,0,0,0,0,0,0,0,0,0,0,0,0,0,0,0,0,0,0,0,0,0,0,0,0,0,0,0,0,0,0,0,0,0,0,0],"id":35,"left_children":[1,3,5,7,9,11,13,15,-1,17,-1,19,21,23,25,27,29,31,33,35,37,-1,-1,-1,39,-1,-1,-1,-1,-1,-1,-1,-1,-1,-1,-1,-1,-1,-1,-1,-1],"loss_changes":[3.8465817E0,7.094017E-1,1.0458679E0,5.882914E-1,1.6215989E-1,7.1961343E-1,4.669249E-1,4.4295073E-1,0E0,1.2919965E-1,0E0,3.037144E-1,4.6718657E-2,1.1603129E-1,7.787657E-2,2.5700855E-1,4.1067523E-1,3.530577E-2,1.145898E-1,1.818918E-1,1.880668E-1,0E0,0E0,0E0,7.223666E-2,0E0,0E0,0E0,0E0,0E0,0E0,0E0,0E0,0E0,0E0,0E0,0E0,0E0,0E0,0E0,0E0],"parents":[2147483647,0,0,1,1,2,2,3,3,4,4,5,5,6,6,7,7,9,9,11,11,12,12,13,13,14,14,15,15,16,16,17,17,18,18,19,19,20,20,24,24],"right_children":[2,4,6,8,10,12,14,16,-1,18,-1,20,22,24,26,28,30,32,34,36,38,-1,-1,-1,40,-1,-1,-1,-1,-1,-1,-1,-1,-1,-1,-1,-1,-1,-1,-1,-1],"split_conditions":[1.3428E4,3.44E2,1.6452132E0,3.059144E3,1.3581547E5,2.8659653E2,2.3767982E4,1.732734E6,1.42220855E-2,1.3404826E-3,8.797171E-3,4.17E2,2.9991518E7,7.7444346E8,2.3879834E9,4.838871E8,1.8071064E7,7.202981E-4,1.570662E5,6.0500806E3,1.4864173E0,-2.8714624E-3,-1.1205209E-2,6.212401E-4,1.22342285E2,2.7441924E-2,1.2009283E-2,-6.059403E-3,-1.6336644E-3,7.6565094E-4,-4.247392E-3,6.912194E-3,2.443928E-3,-5.3412314E-3,1.6355899E-3,4.681538E-3,1.0626707E-2,1.9636801E-3,-1.0592064E-2,1.1875931E-2,6.2131984E-3],"split_indices":[2,8,48,61,42,67,61,1,0,66,0,3,54,7,5,7,54,48,56,61,51,0,0,0,67,0,0,0,0,0,0,0,0,0,0,0,0,0,0,0,0],"split_type":[0,0,0,0,0,0,0,0,0,0,0,0,0,0,0,0,