{"learner":{"attributes":{},"feature_names":["numTasks_sum","duration_sum","duration_max","duration_min","duration_mean","input_recordsRead_sum","output_recordsWritten_sum","peakExecutionMemory_max","resultSerializationTime_sum","resultSize_max","sr_localBlocksFetched_sum","sr_remoteBlocksFetched_sum","sw_recordsWritten_sum","sqlOp_AQEShuffleRead","sqlOp_BroadcastExchange","sqlOp_BroadcastHashJoin","sqlOp_BroadcastNestedLoopJoin","sqlOp_ColumnarToRow","sqlOp_Exchange","sqlOp_Expand","sqlOp_Filter","sqlOp_HashAggregate","sqlOp_LocalTableScan","sqlOp_ObjectHashAggregate","sqlOp_Project","sqlOp_Scan parquet ","sqlOp_Sort","sqlOp_SortMergeJoin","sqlOp_Subquery","sqlOp_SubqueryBroadcast","sqlOp_Window","sqlOp_WindowGroupLimit","numExecutors","executorCores","maxMem","maxOnHeapMem","maxOffHeapMem","executorMemory","numGpusPerExecutor","executorOffHeap","taskCpu","taskGpu","cache_hit_ratio","scan_bw","scan_time","decode_time","data_size","shuffle_read_bw","shuffle_write_bw","diskBytesSpilledRatio","memoryBytesSpilledRatio","input_bytesReadRatio","output_bytesWrittenRatio","sr_localBytesReadRatio","sr_remoteBytesReadRatio","sr_remoteBytesReadToDiskRatio","sr_totalBytesReadRatio","sw_bytesWrittenRatio","diskBytesSpilled_mean","memoryBytesSpilled_mean","input_bytesRead_mean","output_bytesWritten_mean","sr_localBytesRead_mean","sr_remoteBytesRead_mean","sr_remoteBytesReadToDisk_mean","sr_totalBytesRead_mean","sw_bytesWritten_mean","executorCPUTime_mean","executorDeserializeCPUTime_mean","executorDeserializeTime_mean","executorRunTime_mean","jvmGCTime_mean","sr_fetchWaitTime_mean","sw_writeTime_mean","platform_onprem","platform_databricks-aws","platform_databricks-azure","platform_dataproc","platform_emr","sqlOp_BatchEvalPython","sqlOp_CartesianProduct","sqlOp_CommandResult","sqlOp_CustomShuffleReader","sqlOp_DeserializeToObject","sqlOp_Execute InsertIntoHadoopFsRelationCommand","sqlOp_Generate","sqlOp_GenerateBloomFilter","sqlOp_GlobalLimit","sqlOp_HashAggregatePrefixGroupingSets","sqlOp_LocalLimit","sqlOp_MapElements","sqlOp_OutputAdapter","sqlOp_PartialWindow","sqlOp_ReusedSort","sqlOp_RunningWindowFunction","sqlOp_Scan ExistingRDD Delta Table Checkpoint","sqlOp_Scan ExistingRDD Delta Table State","sqlOp_Scan JDBCRelation","sqlOp_Scan OneRowRelation","sqlOp_Scan csv ","sqlOp_Scan json ","sqlOp_Scan orc ","sqlOp_Scan text ","sqlOp_SerializeFromObject","sqlOp_SortAggregate","sqlOp_SubqueryOutputBroadcast","sqlOp_TakeOrderedAndProject","sqlOp_WindowSort"],"feature_types":["float","float","float","float","float","float","float","float","float","float","float","float","float","float","float","float","float","float","float","float","float","float","float","float","float","float","float","float","float","float","float","float","float","float","float","float","float","float","float","float","float","float","float","float","float","float","float","float","float","float","float","float","float","float","float","float","float","float","float","float","float","float","float","float","float","float","float","float","float","float","float","float","float","float","float","float","float","float","float","float","float","float","float","float","float","float","float","float","float","float","float","float","float","float","float","float","float","float","float","float","float","float","float","float","float","float","float","float"],"gradient_booster":{"model":{"gbtree_model_param":{"num_parallel_tree":"1","num_trees":"97"},"iteration_indptr":[0,1,2,3,4,5,6,7,8,9,10,11,12,13,14,15,16,17,18,19,20,21,22,23,24,25,26,27,28,29,30,31,32,33,34,35,36,37,38,39,40,41,42,43,44,45,46,47,48,49,50,51,52,53,54,55,56,57,58,59,60,61,62,63,64,65,66,67,68,69,70,71,72,73,74,75,76,77,78,79,80,81,82,83,84,85,86,87,88,89,90,91,92,93,94,95,96,97],"tree_info":[0,0,0,0,0,0,0,0,0,0,0,0,0,0,0,0,0,0,0,0,0,0,0,0,0,0,0,0,0,0,0,0,0,0,0,0,0,0,0,0,0,0,0,0,0,0,0,0,0,0,0,0,0,0,0,0,0,0,0,0,0,0,0,0,0,0,0,0,0,0,0,0,0,0,0,0,0,0,0,0,0,0,0,0,0,0,0,0,0,0,0,0,0,0,0,0,0],"trees":[{"base_weights":[-6.402362E-3,-2.4523316E-1,7.527765E-1,-7.9334944E-1,-1.2797731E-2,8.9313674E-1,-8.549817E-1,1.4164068E-1,-8.570511E-1,-2.3116976E-1,1.8679497E-1,4.6862733E-1,1.2282823E0,-4.747277E-2,-1.9848734E-2,-2.7179467E-2,6.274407E-1,-9.3746585E-1,-4.206951E-1,-5.7018536E-1,-1.4245623E-1,2.4031329E-1,-1.1913411E-1,7.780455E-1,2.4382368E-1,1.4753878E0,8.611592E-1,1.3528141E-2,3.9124005E-2,-9.648778E-1,-1.117194E-2,-5.2076334E-1,4.01504E-3,-4.4771433E-1,-3.545599E-2,-2.08531E-1,6.927749E-2,1.1990176E-1,4.92295E-1,-1.5096304E-2,-2.5547275E-2,1.9807888E-3,8.614649E-1,5.065205E-1,4.4929E-2,1.541655E0,1.5723472E-2,9.382546E-1,4.6440673E-1,-8.6468446E-1,-1.2632029E0,-3.0350693E-2,-3.0086643E-1,-6.7960434E-3,-2.3241209E-2,-1.8385625E-1,-3.9150193E-2,1.274116E-1,-1.9809619E-2,7.953936E-2,4.5971745E-1,5.580417E-1,2.6458725E-1,-9.259682E-2,1.1784397E-2,4.3229546E-2,1.993755E-2,2.1213907E-1,6.745688E-1,-2.1931057E-1,3.4946442E-1,6.1926566E-2,8.834812E-2,2.2042576E-2,4.6724483E-2,2.9326314E-2,7.880433E-3,-5.148674E-2,-6.463469E-1,-4.800139E-2,-8.600156E-2,-1.9419955E-2,-6.54883E-3,-3.223094E-2,-1.6330779E-1,3.0261382E-1,7.159573E-3,-2.5366986E-2,2.289499E-1,2.7149804E-2,5.0458456E-3,3.8721576E-1,3.3676308E-2,-4.3962044E-3,3.7008542E-1,4.577744E-3,-1.4557897E-1,1.6054664E-2,2.7659276E-4,3.709171E-2,1.4770343E-2,-1.9512247E-2,-1.0357811E-1,-3.344575E-4,4.690525E-1,-1.3615662E-2,-3.8479965E-2,-1.4758109E-2,-5.210229E-3,8.349036E-3,2.0308219E-2,-2.350138E-3,3.2717814E-3,5.025244E-4,-1.7343385E-2,5.21226E-3,1.3881515E-2,1.30619705E-2,2.331783E-2,7.480599E-3,2.0660836E-2,-3.543782E-3,-1.0893526E-2,-9.141663E-3,3.5810042E-3,2.9111683E-2,6.939328E-3],"categories":[],"categories_nodes":[],"categories_segments":[],"categories_sizes":[],"default_left":[0,0,0,0,0,0,0,0,0,0,0,0,0,0,0,0,0,0,0,0,0,0,0,0,0,0,0,0,0,0,0,0,0,0,0,0,0,0,0,0,0,0,0,0,0,0,0,0,0,0,0,0,0,0,0,0,0,0,0,0,0,0,0,0,0,0,0,0,0,0,0,0,0,0,0,0,0,0,0,0,0,0,0,0,0,0,0,0,0,0,0,0,0,0,0,0,0,0,0,0,0,0,0,0,0,0,0,0,0,0,0,0,0,0,0,0,0,0,0,0,0,0,0,0,0,0,0],"id":0,"left_children":[1,3,5,7,9,11,13,15,17,19,21,23,25,-1,-1,-1,27,29,31,33,35,37,39,41,43,45,47,-1,-1,49,-1,51,-1,53,-1,55,57,59,61,63,-1,-1,65,67,69,71,-1,73,75,77,79,-1,81,-1,-1,83,-1,85,-1,87,89,91,93,95,-1,-1,-1,97,99,101,103,-1,-1,-1,-1,-1,-1,-1,105,-1,-1,-1,-1,-1,107,109,111,113,115,-1,-1,117,-1,-1,119,-1,121,-1,-1,-1,-1,-1,123,-1,125,-1,-1,-1,-1,-1,-1,-1,-1,-1,-1,-1,-1,-1,-1,-1,-1,-1,-1,-1,-1,-1,-1],"loss_changes":[1.2728662E2,6.802232E1,3.8675392E1,9.591492E0,1.6431314E1,2.1476616E1,4.2396164E-1,4.1414433E0,4.8339386E0,5.332321E0,3.2540722E0,4.6793756E0,6.5312195E0,0E0,0E0,0E0,2.2537589E-1,2.1891098E0,1.3055291E0,4.3577766E-1,2.029043E0,5.0383463E0,1.282968E0,1.7467041E0,2.1717007E0,3.296524E0,6.960163E-1,0E0,0E0,2.494545E0,0E0,3.2758665E-1,0E0,2.0275927E-1,0E0,1.4999137E0,1.0341562E0,1.5407487E0,6.607847E-1,5.281584E-1,0E0,0E0,8.930969E-2,7.473631E-1,2.088399E0,1.1579208E0,0E0,7.10907E-2,2.527827E-1,3.5505066E0,2.097416E0,0E0,9.865159E-2,0E0,0E0,9.638412E-1,0E0,6.720229E-1,0E0,1.6359156E0,3.9333844E-1,7.3838615E-1,5.6012636E-1,2.1317658E-1,0E0,0E0,0E0,2.005912E-1,1.6070652E-1,2.618168E-1,5.147822E-1,0E0,0E0,0E0,0E0,0E0,0E0,0E0,2.4879704E0,0E0,0E0,0E0,0E0,0E0,7.8765655E-1,1.2822402E-1,7.195107E-2,7.5125307E-1,2.8156924E-1,0E0,0E0,1.0639143E-1,0E0,0E0,7.59176E-2,0E0,7.678819E-2,0E0,0E0,0E0,0E0,0E0,1.694357E-1,0E0,3.1511676E-1,0E0,0E0,0E0,0E0,0E0,0E0,0E0,0E0,0E0,0E0,0E0,0E0,0E0,0E0,0E0,0E0,0E0,0E0,0E0,0E0,0E0,0E0],"parents":[2147483647,0,0,1,1,2,2,3,3,4,4,5,5,6,6,7,7,8,8,9,9,10,10,11,11,12,12,16,16,17,17,18,18,19,19,20,20,21,21,22,22,23,23,24,24,25,25,26,26,29,29,31,31,33,33,35,35,36,36,37,37,38,38,39,39,42,42,43,43,44,44,45,45,47,47,48,48,49,49,50,50,52,52,55,55,57,57,59,59,60,60,61,61,62,62,63,63,67,67,68,68,69,69,70,70,78,78,84,84,85,85,86,86,87,87,88,88,91,91,94,94,96,96,102,102,104,104],"right_children":[2,4,6,8,10,12,14,16,18,20,22,24,26,-1,-1,-1,28,30,32,34,36,38,40,42,44,46,48,-1,-1,50,-1,52,-1,54,-1,56,58,60,62,64,-1,-1,66,68,70,72,-1,74,76,78,80,-1,82,-1,-1,84,-1,86,-1,88,90,92,94,96,-1,-1,-1,98,100,102,104,-1,-1,-1,-1,-1,-1,-1,106,-1,-1,-1,-1,-1,108,110,112,114,116,-1,-1,118,-1,-1,120,-1,122,-1,-1,-1,-1,-1,124,-1,126,-1,-1,-1,-1,-1,-1,-1,-1,-1,-1,-1,-1,-1,-1,-1,-1,-1,-1,-1,-1,-1,-1],"split_conditions":[2.979E3,2.2116136E5,2.856934E7,6E0,8.09E2,1.149068E3,1.7027656E3,3.78E2,1E0,4E2,1E0,8E0,1.5846036E7,-4.747277E-2,-1.9848734E-2,-2.7179467E-2,1.9118236E0,4.704E3,8.929904E4,6.2233735E-6,3.2995722E6,4.3689142E2,2.617284E0,3.305093E7,2.86204E5,1E0,4.533276E0,1.3528141E-2,3.9124005E-2,9.082861E7,-1.117194E-2,1.8150534E2,4.01504E-3,1E0,-3.545599E-2,4.8E1,7.77E2,5.4214475E6,1.6E1,3.7827366E8,-2.5547275E-2,1.9807888E-3,1.1527568E0,7.449268E2,4.454E3,1.8287263E3,1.5723472E-2,1.9015984E6,6.163462E6,3.85E2,3.6301653E0,-3.0350693E-2,7.90913E5,-6.7960434E-3,-2.3241209E-2,1.3351785E2,-3.9150193E-2,2.0822E4,-1.9809619E-2,3.851705E6,2.474E3,5.619E4,2.6E0,1.259E3,1.1784397E-2,4.3229546E-2,1.993755E-2,4.7112436E2,1.4872598E8,1.4467005E0,7.7E1,6.1926566E-2,8.834812E-2,2.2042576E-2,4.6724483E-2,2.9326314E-2,7.880433E-3,-5.148674E-2,1E0,-4.800139E-2,-8.600156E-2,-1.9419955E-2,-6.54883E-3,-3.223094E-2,5.47E2,3.3820656E7,1.5713683E3,2.9261702E6,1.063E3,2.7149804E-2,5.0458456E-3,5.525965E2,3.3676308E-2,-4.3962044E-3,8.383775E8,4.577744E-3,1.16208E5,1.6054664E-2,2.7659276E-4,3.709171E-2,1.4770343E-2,-1.9512247E-2,7.6981635E2,-3.344575E-4,3.09626E5,-1.3615662E-2,-3.8479965E-2,-1.4758109E-2,-5.210229E-3,8.349036E-3,2.0308219E-2,-2.350138E-3,3.2717814E-3,5.025244E-4,-1.7343385E-2,5.21226E-3,1.3881515E-2,1.30619705E-2,2.331783E-2,7.480599E-3,2.0660836E-2,-3.543782E-3,-1.0893526E-2,-9.141663E-3,3.5810042E-3,2.9111683E-2,6.939328E-3],"split_indices":[2,43,60,3,2,4,4,2,29,2,6,3,62,0,0,0,69,44,48,52,43,67,68,5,9,6,57,0,0,46,0,70,0,13,0,3,2,43,3,7,0,0,53,4,2,4,0,43,60,1,68,0,9,0,0,70,0,9,0,9,10,1,69,44,0,0,0,4,12,69,0,0,0,0,0,0,0,0,18,0,0,0,0,0,2,7,48,66,2,0,0,4,0,0,46,0,9,0,0,0,0,0,4,0,1,0,0,0,0,0,0,0,0,0,0,0,0,0,0,0,0,0,0,0,0,0,0],"split_type":[0,0,0,0,0,0,0,0,0,0,0,0,0,0,0,0,0,0,0,0,0,0,0,0,0,0,0,0,0,0,0,0,0,0,0,0,0,0,0,0,0,0,0,0,0,0,0,0,0,0,0,0,0,0,0,0,0,0,0,0,0,0,0,0,0,0,0,0,0,0,0,0,0,0,0,0,0,0,0,0,0,0,0,0,0,0,0,0,0,0,0,0,0,0,0,0,0,0,0,0,0,0,0,0,0,0,0,0,0,0,0,0,0,0,0,0,0,0,0,0,0,0,0,0,0,0,0],"sum_hessian":[7E2,5.33E2,1.67E2,1.58E2,3.75E2,1.54E2,1.3E1,1E1,1.48E2,1.79E2,1.96E2,6.9E1,8.5E1,9E0,4E0,4E0,6E0,1.24E2,2.4E1,3.6E1,1.43E2,1.67E2,2.9E1,2.8E1,4.1E1,4.9E1,3.6E1,3E0,3E0,1.19E2,5E0,2E1,4E0,2.3E1,1.3E1,1.09E2,3.4E1,1.14E2,5.3E1,2.4E1,5E0,3E0,2.5E1,1.7E1,2.4E1,4.6E1,3E0,2.9E1,7E0,9.2E1,2.7E1,1.2E1,8E0,3E0,2E1,1.06E2,3E0,3.1E1,3E0,1.03E2,1.1E1,4E1,1.3E1,1.9E1,5E0,2.2E1,3E0,7E0,1E1,1.3E1,1.1E1,2.8E1,1.8E1,3E0,2.6E1,4E0,3E0,4.5E1,4.7E1,2E1,7E0,4E0,4E0,3E0,1.03E2,1.2E1,1.9E1,6.1E1,4.2E1,8E0,3E0,2E1,2E1,3E0,1E1,4E0,1.5E1,4E0,3E0,7E0,3E0,4E0,9E0,3E0,8E0,1.5E1,3.2E1,2.7E1,7.6E1,7E0,5E0,1E1,9E0,5.6E1,5E0,1.5E1,2.7E1,1.1E1,9E0,3E0,7E0,9E0,6E0,6E0,3E0,5E0,3E0],"tree_param":{"num_deleted":"0","num_feature":"108","num_nodes":"127","size_leaf_vector":"1"}},{"base_weights":[2.4741901E-2,-2.3536263E-1,7.7975106E-1,-8.3571154E-1,-4.103154E-2,-4.0059946E-2,8.7626886E-1,-2.4614856E-3,-8.8235384E-1,-2.536085E-1,1.935586E-1,4.9129465E-1,1.1027871E0,-3.0362418E-2,3.7716955E-2,-9.1159505E-1,8.414689E-5,-5.998313E-1,-1.7588931E-1,2.1732149E-1,-2.8348774E-2,3.1347466E-1,7.7749324E-1,7.826539E-2,9.884687E-1,-9.402768E-1,-9.8372735E-3,-1.2554497E-2,-2.9764995E-2,-1.4810017E-1,-8.296115E-1,1.7597875E-1,5.599358E-1,1.2272989E-1,5.47956E-1,8.1753397E-1,1.7401535E-2,5.7665646E-1,1.0864116E0,-9.0795124E-1,-7.079202E-2,-2.0925564E-1,5.741542E-2,-6.898351E-2,-6.3394976E-4,2.0571766E-2,2.5147632E-1,2.89088E-1,3.43532E-2,2.3593605E-4,2.4483645E-2,3.4285553E-2,1.3565942E-2,2.4313401E-2,4.3266002E-2,8.668423E-3,6.6432893E-1,1.1495059E0,4.2219642E-1,-9.6860325E-1,-5.8052164E-1,-3.2151705E-1,-7.3319964E-2,1.0825494E-1,-1.5349974E-2,-9.750883E-2,1.0940338E-1,2.8767586E-1,-8.320941E-2,1.8775119E-2,3.0275087E-3,-6.590323E-2,1.0157837E-2,3.818855E-2,1.028604E-2,1.198455E0,3.0626787E-2,2.631454E-2,7.597022E-3,-4.8913155E-2,-3.2540854E-2,-3.474098E-2,8.463725E-3,-3.132108E-2,-1.2939977E-2,1.0951498E-2,-5.003116E-3,3.581263E-4,1.0571433E-2,3.583662E-3,-8.773305E-3,6.7839585E-3,-4.722733E-3,7.7822977E-3,2.1504432E-2,1.5861092E-3,-1.2113883E-2,-9.81741E-3,-1.2298823E-4,3.2533303E-2,5.9636205E-2],"categories":[],"categories_nodes":[],"categories_segments":[],"categories_sizes":[],"default_left":[0,0,0,0,0,0,0,0,0,0,0,0,0,0,0,0,0,0,0,0,0,0,0,0,0,0,0,0,0,0,0,0,0,0,0,0,0,0,0,0,0,0,0,0,0,0,0,0,0,0,0,0,0,0,0,0,0,0,0,0,0,0,0,0,0,0,0,0,0,0,0,0,0,0,0,0,0,0,0,0,0,0,0,0,0,0,0,0,0,0,0,0,0,0,0,0,0,0,0,0,0],"id":1,"left_children":[1,3,5,7,9,-1,11,13,15,17,19,21,23,-1,-1,25,-1,27,29,31,-1,33,35,-1,37,39,-1,-1,-1,41,43,45,47,49,51,53,-1,55,57,59,-1,61,63,-1,-1,65,67,69,-1,71,-1,-1,-1,-1,-1,-1,73,75,77,79,81,83,85,87,-1,89,91,93,95,-1,-1,97,-1,-1,-1,99,-1,-1,-1,-1,-1,-1,-1,-1,-1,-1,-1,-1,-1,-1,-1,-1,-1,-1,-1,-1,-1,-1,-1,-1,-1],"loss_changes":[1.4255997E2,6.296559E1,2.9728119E1,5.127968E0,2.044529E1,0E0,1.4806046E1,4.47927E0,3.2331467E0,5.6797495E0,3.7648277E0,3.166029E0,5.0436096E0,0E0,0E0,2.2588196E0,0E0,1.12942696E-1,3.0925841E0,2.59274E0,0E0,1.8559709E0,1.1834049E-1,0E0,3.1245804E0,6.695938E-1,0E0,0E0,0E0,2.1612115E0,3.461187E0,2.001144E0,6.4051056E-1,1.1876366E0,6.389394E-1,1.21403694E-1,0E0,5.7406807E-1,2.6158752E0,1.6619415E0,0E0,1.9907899E0,8.0238676E-1,0E0,0E0,6.0855734E-1,1.4172168E0,1.8362439E-1,0E0,2.938591E-1,0E0,0E0,0E0,0E0,0E0,0E0,7.7965593E-1,9.0979004E-1,1.8014514E-1,6.951752E-1,2.3077426E0,1.0574389E0,5.946531E-1,4.0546623E-1,0E0,3.8163656E-1,2.3395517E-1,2.0237818E0,2.4476652E-1,0E0,0E0,1.4016876E-1,0E0,0E0,0E0,5.668869E-1,0E0,0E0,0E0,0E0,0E0,0E0,0E0,0E0,0E0,0E0,0E0,0E0,0E0,0E0,0E0,0E0,0E0,0E0,0E0,0E0,0E0,0E0,0E0,0E0,0E0],"parents":[2147483647,0,0,1,1,2,2,3,3,4,4,6,6,7,7,8,8,9,9,10,10,11,11,12,12,15,15,17,17,18,18,19,19,21,21,22,22,24,24,25,25,29,29,30,30,31,31,32,32,33,33,34,34,35,35,37,37,38,38,39,39,41,41,42,42,45,45,46,46,47,47,49,49,56,56,57,57,58,58,59,59,60,60,61,61,62,62,63,63,65,65,66,66,67,67,68,68,71,71,75,75],"right_children":[2,4,6,8,10,-1,12,14,16,18,20,22,24,-1,-1,26,-1,28,30,32,-1,34,36,-1,38,40,-1,-1,-1,42,44,46,48,50,52,54,-1,56,58,60,-1,62,64,-1,-1,66,68,70,-1,72,-1,-1,-1,-1,-1,-1,74,76,78,80,82,84,86,88,-1,90,92,94,96,-1,-1,98,-1,-1,-1,100,-1,-1,-1,-1,-1,-1,-1,-1,-1,-1,-1,-1,-1,-1,-1,-1,-1,-1,-1,-1,-1,-1,-1,-1,-1],"split_conditions":[2.979E3,6.928912E4,1E0,6E0,8.09E2,-4.0059946E-2,1.0011135E3,4.02E2,1.3753864E0,3.59E2,2.673585E1,3.1805422E6,9.91575E6,-3.0362418E-2,3.7716955E-2,1E0,8.414689E-5,1.7692308E1,3.4444444E0,4.82425E6,-2.8348774E-2,7.069392E2,7.5852E4,7.826539E-2,1.7831801E6,4.73E2,-9.8372735E-3,-1.2554497E-2,-2.9764995E-2,3.2995722E6,3.9595376E7,1.158E3,3.574764E7,5.174E3,1.1171429E1,9.046549E4,1.7401535E-2,9.330254E-1,4.533276E0,9.7E1,-7.079202E-2,2.677143E2,7.7E2,-6.898351E-2,-6.3394976E-4,1.217785E6,2E0,2.9034E5,3.43532E-2,1.0092E4,2.4483645E-2,3.4285553E-2,1.3565942E-2,2.4313401E-2,4.3266002E-2,8.668423E-3,9.557399E6,1E0,6.163462E6,2.7530863E0,1.425E3,1.553693E2,2.702805E2,4.8443035E6,-1.5349974E-2,7.9166665E0,3.716814E0,4.7451898E2,1.1E1,1.8775119E-2,3.0275087E-3,1.6824562E1,1.0157837E-2,3.818855E-2,1.028604E-2,8.2631064E7,3.0626787E-2,2.631454E-2,7.597022E-3,-4.8913155E-2,-3.2540854E-2,-3.474098E-2,8.463725E-3,-3.132108E-2,-1.2939977E-2,1.0951498E-2,-5.003116E-3,3.581263E-4,1.0571433E-2,3.583662E-3,-8.773305E-3,6.7839585E-3,-4.722733E-3,7.7822977E-3,2.1504432E-2,1.5861092E-3,-1.2113883E-2,-9.81741E-3,-1.2298823E-4,3.2533303E-2,5.9636205E-2],"split_indices":[2,43,17,3,2,0,4,1,53,2,68,43,12,0,0,29,0,67,68,43,0,67,10,0,43,44,0,0,0,43,7,2,7,2,71,48,0,68,57,44,0,70,2,0,0,9,6,12,0,44,0,0,0,0,0,0,60,6,60,68,1,4,70,43,0,73,69,70,8,0,0,73,0,0,0,5,0,0,0,0,0,0,0,0,0,0,0,0,0,0,0,0,0,0,0,0,0,0,0,0,0],"split_type":[0,0,0,0,0,0,0,0,0,0,0,0,0,0,0,0,0,0,0,0,0,0,0,0,0,0,0,0,0,0,0,0,0,0,0,0,0,0,0,0,0,0,0,0,0,0,0,0,0,0,0,0,0,0,0,0,0,0,0,0,0,0,0,0,0,0,0,0,0,0,0,0,0,0,0,0,0,0,0,0,0,0,0,0,0,0,0,0,0,0,0,0,0,0,0,0,0,0,0,0,0],"sum_hessian":[7.24E2,5.39E2,1.85E2,1.31E2,4.08E2,1E1,1.75E2,7E0,1.24E2,2.14E2,1.94E2,6.6E1,1.09E2,4E0,3E0,1.2E2,4E0,3.8E1,1.76E2,1.89E2,5E0,4.2E1,2.4E1,1.7E1,9.2E1,1.15E2,5E0,3E0,3.5E1,1.7E2,6E0,1.7E2,1.9E1,2.4E1,1.8E1,2.1E1,3E0,1.9E1,7.3E1,1.11E2,4E0,1.31E2,3.9E1,3E0,3E0,5.6E1,1.14E2,8E0,1.1E1,1.9E1,5E0,1E1,8E0,6E0,1.5E1,4E0,1.5E1,6.6E1,7E0,9.2E1,1.9E1,7.1E1,6E1,3.5E1,4E0,2.4E1,3.2E1,1.03E2,1.1E1,5E0,3E0,1.5E1,4E0,1.1E1,4E0,5.9E1,7E0,4E0,3E0,7.6E1,1.6E1,1.6E1,3E0,8E0,6.3E1,5E0,5.5E1,1.9E1,1.6E1,8E0,1.6E1,2.8E1,4E0,5.9E1,4.4E1,7E0,4E0,4E0,1.1E1,6E0,5.3E1],"tree_param":{"num_deleted":"0","num_feature":"108","num_nodes":"101","size_leaf_vector":"1"}},{"base_weights":[1.2360904E-2,-2.2377932E-1,6.857324E-1,-7.552601E-1,-1.6896604E-2,-8.907837E-1,8.169439E-1,-9.5009464E-1,-4.7556162E-1,-2.2484069E-1,1.8483147E-1,-5.0135836E-2,-2.32271E-2,6.205975E-1,1.3091695E0,-4.8022933E-2,-6.765645E-1,-6.606825E-1,1.21093646E-1,-1.5306048E-1,-6.3980114E-1,2.0833302E-1,-2.8864127E-2,4.5320368E-1,8.384964E-1,7.624258E-2,4.4240355E-2,-3.7318822E-2,-1.7282829E-2,-5.3455836E-1,-1.2402487E0,3.3280294E-2,-2.0242867E-1,-2.249303E-1,9.305526E-2,-3.330922E-2,-6.5749083E-3,1.7302658E-2,2.7321625E-1,1.3610643E-1,6.324701E-1,5.30356E-2,7.3572797E-1,-6.629451E-1,-1.1247356E-1,-2.9257093E-2,-7.174988E-2,-2.7276555E-2,6.076649E-3,-5.0034314E-1,-1.6620122E-1,2.0392832E-1,2.7244141E-2,-9.503527E-2,6.816278E-2,1.8553871E-1,4.2946076E-1,-8.417665E-2,3.0657977E-1,7.1581626E-1,5.3946596E-2,7.68485E-1,1.6285824E-2,-3.3027682E-2,-1.48648685E-2,7.943654E-3,-2.3748063E-1,4.803759E-3,-5.421926E-3,-2.3169595E-1,-6.1026543E-1,-1.4769027E-1,-2.4660988E-2,7.528499E-2,1.5431704E-2,-4.3746483E-2,7.7487655E-2,5.183032E-4,-9.6973255E-3,1.6759565E-2,1.6528897E-1,-7.634273E-2,2.1762392E-1,1.6333126E-1,5.3581107E-1,-1.2062427E-2,-4.2238383E-4,4.3946254E-1,-3.5318837E-3,4.481898E-2,2.78517E-2,-4.812058E-3,9.339026E-3,2.2191914E-2,3.8905226E-2,-1.6245605E-2,-5.223732E-3,-2.9690252E-3,-1.5401181E-2,-1.1724915E-2,-3.457507E-2,-8.234415E-3,2.343166E-3,7.162273E-3,-1.7327317E-3,-7.823336E-3,3.977507E-3,5.874405E-3,-1.7766617E-3,5.1209615E-3,-3.940404E-3,1.1111691E-2,2.8881857E-3,-1.701229E-2,3.4725787E-3,7.1113333E-3,1.6829766E-2,3.5354074E-3,1.440385E-2,2.9544748E-2,1.2724462E-2,1.14708E-2,2.6293099E-2],"categories":[],"categories_nodes":[],"categories_segments":[],"categories_sizes":[],"default_left":[0,0,0,0,0,0,0,0,0,0,0,0,0,0,0,0,0,0,0,0,0,0,0,0,0,0,0,0,0,0,0,0,0,0,0,0,0,0,0,0,0,0,0,0,0,0,0,0,0,0,0,0,0,0,0,0,0,0,0,0,0,0,0,0,0,0,0,0,0,0,0,0,0,0,0,0,0,0,0,0,0,0,0,0,0,0,0,0,0,0,0,0,0,0,0,0,0,0,0,0,0,0,0,0,0,0,0,0,0,0,0,0,0,0,0,0,0,0,0,0,0,0,0],"id":2,"left_children":[1,3,5,7,9,11,13,15,17,19,21,-1,-1,23,25,-1,27,29,31,33,35,37,-1,39,41,-1,-1,-1,-1,43,45,-1,47,49,51,-1,-1,53,55,57,59,-1,61,63,65,-1,-1,-1,67,69,71,73,75,77,79,81,83,85,87,89,91,93,-1,-1,-1,-1,95,-1,-1,97,99,101,-1,103,-1,105,107,-1,-1,109,111,113,115,117,119,-1,-1,121,-1,-1,-1,-1,-1,-1,-1,-1,-1,-1,-1,-1,-1,-1,-1,-1,-1,-1,-1,-1,-1,-1,-1,-1,-1,-1,-1,-1,-1,-1,-1,-1,-1,-1,-1],"loss_changes":[1.157538E2,5.925255E1,3.9823685E1,7.7769012E0,1.6359392E1,4.3698215E-1,1.610073E1,5.5937195E-1,7.1490183E0,5.6209717E0,3.78649E0,0E0,0E0,4.252304E0,3.852211E0,0E0,2.66037E-1,2.9187813E0,3.106245E0,2.9395003E0,6.7660904E-1,2.3874435E0,0E0,4.1204386E0,6.7087936E-1,0E0,0E0,0E0,0E0,2.2014198E0,3.7774277E-1,0E0,8.438244E-1,1.9872103E0,2.71718E-1,0E0,0E0,2.921539E-1,1.892993E0,1.0772738E0,2.2276173E0,0E0,2.8395462E-1,7.813358E-2,4.2179465E-1,0E0,0E0,0E0,1.0102304E-1,5.0827074E-1,6.13487E-1,1.8808973E-1,9.256027E-2,1.8372153E-1,1.7197078E-1,8.064511E-1,1.355936E0,1.6177708E-1,8.407943E-1,6.683674E-1,1.716337E-1,1.22320175E-1,0E0,0E0,0E0,0E0,6.727457E-2,0E0,0E0,1.016539E-1,4.3141985E-1,4.9493003E-1,0E0,7.1428046E-2,0E0,1.7993803E-1,8.188462E-2,0E0,0E0,2.2255391E-1,6.979984E-2,4.8131597E-1,7.244475E-1,1.7433515E-1,6.185446E-1,0E0,0E0,1.3042116E-1,0E0,0E0,0E0,0E0,0E0,0E0,0E0,0E0,0E0,0E0,0E0,0E0,0E0,0E0,0E0,0E0,0E0,0E0,0E0,0E0,0E0,0E0,0E0,0E0,0E0,0E0,0E0,0E0,0E0,0E0,0E0,0E0,0E0,0E0,0E0],"parents":[2147483647,0,0,1,1,2,2,3,3,4,4,5,5,6,6,7,7,8,8,9,9,10,10,13,13,14,14,16,16,17,17,18,18,19,19,20,20,21,21,23,23,24,24,29,29,30,30,32,32,33,33,34,34,37,37,38,38,39,39,40,40,42,42,43,43,44,44,48,48,49,49,50,50,51,51,52,52,53,53,54,54,55,55,56,56,57,57,58,58,59,59,60,60,61,61,66,66,69,69,70,70,71,71,73,73,75,75,76,76,79,79,80,80,81,81,82,82,83,83,84,84,87,87],"right_children":[2,4,6,8,10,12,14,16,18,20,22,-1,-1,24,26,-1,28,30,32,34,36,38,-1,40,42,-1,-1,-1,-1,44,46,-1,48,50,52,-1,-1,54,56,58,60,-1,62,64,66,-1,-1,-1,68,70,72,74,76,78,80,82,84,86,88,90,92,94,-1,-1,-1,-1,96,-1,-1,98,100,102,-1,104,-1,106,108,-1,-1,110,112,114,116,118,120,-1,-1,122,-1,-1,-1,-1,-1,-1,-1,-1,-1,-1,-1,-1,-1,-1,-1,-1,-1,-1,-1,-1,-1,-1,-1,-1,-1,-1,-1,-1,-1,-1,-1,-1,-1,-1,-1],"split_conditions":[2.871E3,1.8988005E5,1E0,7.9E1,8.09E2,1.6778718E3,1.562752E3,7.568006E-2,6.86E2,6.2233735E-6,2.673585E1,-5.0135836E-2,-2.32271E-2,3.1805422E6,1.4543829E7,-4.8022933E-2,5.9395876E-7,2.877193E0,2.001E5,3.2995722E6,2.3238889E2,1.037E3,-2.8864127E-2,7.219707E2,1.3060344E0,7.624258E-2,4.4240355E-2,-3.7318822E-2,-1.7282829E-2,3.59E2,1.2E1,3.3280294E-2,3.741267E7,1.553693E2,2.0822E4,-3.330922E-2,-6.5749083E-3,1.8497854E0,2.2494565E6,1.4685535E9,7.200205E8,5.30356E-2,2E0,2.655029E6,1.4E1,-2.9257093E-2,-7.174988E-2,-2.7276555E-2,1E0,1.012987E0,5.2083335E0,3.3820656E7,1.5713683E3,2.9936027E-2,3.0044E4,3.8826772E5,5.1645E4,8.250193E7,1E0,1.8383686E5,5.63E2,1.1411216E6,1.6285824E-2,-3.3027682E-2,-1.48648685E-2,7.943654E-3,7.35058E5,4.803759E-3,-5.421926E-3,1.0871331E4,1.76E2,9.544904E6,-2.4660988E-2,2.0689656E-1,1.5431704E-2,4.5021565E6,7E2,5.183032E-4,-9.6973255E-3,4.2E1,2.288E3,5E1,6.933837E-1,8.433083E6,1E1,-1.2062427E-2,-4.2238383E-4,3.0521972E5,-3.5318837E-3,4.481898E-2,2.78517E-2,-4.812058E-3,9.339026E-3,2.2191914E-2,3.8905226E-2,-1.6245605E-2,-5.223732E-3,-2.9690252E-3,-1.5401181E-2,-1.1724915E-2,-3.457507E-2,-8.234415E-3,2.343166E-3,7.162273E-3,-1.7327317E-3,-7.823336E-3,3.977507E-3,5.874405E-3,-1.7766617E-3,5.1209615E-3,-3.940404E-3,1.1111691E-2,2.8881857E-3,-1.701229E-2,3.4725787E-3,7.1113333E-3,1.6829766E-2,3.5354074E-3,1.440385E-2,2.9544748E-2,1.2724462E-2,1.14708E-2,2.6293099E-2],"split_indices":[2,43,17,44,2,4,67,57,2,52,68,0,0,43,62,0,52,68,5,43,67,2,0,67,69,0,0,0,0,2,0,0,7,4,9,0,0,69,43,46,5,0,6,5,0,0,0,0,26,68,69,7,48,57,1,43,1,7,6,48,0,62,0,0,0,0,9,0,0,48,2,9,0,68,0,43,2,0,0,0,44,0,57,60,8,0,0,43,0,0,0,0,0,0,0,0,0,0,0,0,0,0,0,0,0,0,0,0,0,0,0,0,0,0,0,0,0,0,0,0,0,0,0],"split_type":[0,0,0,0,0,0,0,0,0,0,0,0,0,0,0,0,0,0,0,0,0,0,0,0,0,0,0,0,0,0,0,0,0,0,0,0,0,0,0,0,0,0,0,0,0,0,0,0,0,0,0,0,0,0,0,0,0,0,0,0,0,0,0,0,0,0,0,0,0,0,0,0,0,0,0,0,0,0,0,0,0,0,0,0,0,0,0,0,0,0,0,0,0,0,0,0,0,0,0,0,0,0,0,0,0,0,0,0,0,0,0,0,0,0,0,0,0,0,0,0,0,0,0],"sum_hessian":[7.26E2,5.38E2,1.88E2,1.5E2,3.88E2,1.4E1,1.74E2,8.7E1,6.3E1,1.91E2,1.97E2,9E0,5E0,1.26E2,4.8E1,7.1E1,1.6E1,4.8E1,1.5E1,1.64E2,2.7E1,1.92E2,5E0,7.3E1,5.3E1,2.6E1,2.2E1,1.1E1,5E0,4.1E1,7E0,5E0,1E1,1.27E2,3.7E1,2.4E1,3E0,4.9E1,1.43E2,2.7E1,4.6E1,1.2E1,4.1E1,3.1E1,1E1,3E0,4E0,3E0,7E0,2.1E1,1.06E2,1.3E1,2.4E1,1.5E1,3.4E1,9.3E1,5E1,1.2E1,1.5E1,4E1,6E0,3.7E1,4E0,2.8E1,3E0,3E0,7E0,4E0,3E0,7E0,1.4E1,1.02E2,4E0,7E0,6E0,1E1,1.4E1,8E0,7E0,2.3E1,1.1E1,1E1,8.3E1,1.5E1,3.5E1,3E0,9E0,1.1E1,4E0,1.3E1,2.7E1,3E0,3E0,6E0,3.1E1,3E0,4E0,3E0,4E0,4E0,1E1,9.1E1,1.1E1,4E0,3E0,5E0,5E0,1E1,4E0,1.2E1,1.1E1,6E0,5E0,3E0,7E0,5.6E1,2.7E1,1E1,5E0,2.6E1,9E0,5E0,6E0],"tree_param":{"num_deleted":"0","num_feature":"108","num_nodes":"123","size_leaf_vector":"1"}},{"base_weights":[-1.2688319E-2,-4.609714E-1,2.9363334E-1,-8.578733E-1,-2.4194345E-1,4.1747667E-2,8.0927676E-1,-8.841771E-1,1.9417785E-3,-4.863082E-1,1.7645615E-1,-1.3997051E-1,2.4236742E-1,8.962901E-1,1.8506782E-1,-9.098591E-1,-9.288363E-3,-4.1526133E-1,-1.178402E0,1.0271612E0,-7.734372E-3,-7.27119E-2,-4.611152E-1,1.8989995E-1,5.9326005E-1,7.095863E-1,1.0866649E0,-1.2879717E-1,3.7888882E-1,-9.359676E-1,-2.3621812E-2,-6.504976E-1,-2.3432437E-1,-2.770685E-2,-7.58885E-2,2.2456255E-2,5.8669377E-2,5.567701E-2,-3.4960605E-2,-1.3588144E-1,6.926711E-2,-5.84828E-1,-1.9232069E-1,2.1081835E-1,-1.6989594E-2,1.1806191E-2,3.23594E-2,3.779608E-2,5.2490777E-1,1.1716045E0,2.6404485E-1,1.5274747E-3,-1.4261469E-2,6.724458E-3,2.3049844E-2,-8.4032303E-1,-1.1279882E0,-4.2552594E-2,-2.7572745E-2,1.0685089E-1,-2.9715657E-1,-9.408037E-3,1.0699095E-1,-4.1347113E-1,-6.652338E-2,1.6577205E-1,-7.6726444E-2,-3.652064E-1,-3.315327E-2,-1.5524408E-3,-1.2287365E-2,1.1907748E-1,3.1874233E-1,9.090872E-3,5.6572723E-1,7.450797E-2,1.0734888E0,2.3411795E-2,-1.2542747E-3,-8.673158E-1,-2.5712287E-2,-6.418645E-2,-4.2504475E-2,1.652907E-2,-1.2194506E-3,-3.9633983E-1,-1.483981E-1,1.7919442E-1,-8.115993E-2,-2.2704415E-1,-4.089202E-2,4.060502E-2,-1.126278E-1,-1.4788928E-3,9.301932E-3,-1.5852614E-1,3.010266E-3,-2.1700352E-2,-7.899204E-3,1.4817387E-1,-1.8041125E-2,4.0939727E-1,-2.702076E-4,1.2007202E-2,2.9089682E-2,1.7082494E-2,5.4277882E-2,-4.2797506E-2,-2.3784894E-2,-1.3429542E-2,-2.155183E-2,-8.779013E-3,3.3940389E-3,5.902855E-3,2.060983E-2,-1.3639384E-2,1.3712152E-3,-1.4451333E-2,1.636009E-3,-1.1798602E-2,4.598869E-3,-7.2938707E-3,4.454812E-3,-1.2936535E-2,-9.997705E-4,8.677193E-3,-6.9348062E-3,3.9717844E-3,2.1587307E-2],"categories":[],"categories_nodes":[],"categories_segments":[],"categories_sizes":[],"default_left":[0,0,0,0,0,0,0,0,0,0,0,0,0,0,0,0,0,0,0,0,0,0,0,0,0,0,0,0,0,0,0,0,0,0,0,0,0,0,0,0,0,0,0,0,0,0,0,0,0,0,0,0,0,0,0,0,0,0,0,0,0,0,0,0,0,0,0,0,0,0,0,0,0,0,0,0,0,0,0,0,0,0,0,0,0,0,0,0,0,0,0,0,0,0,0,0,0,0,0,0,0,0,0,0,0,0,0,0,0,0,0,0,0,0,0,0,0,0,0,0,0,0,0,0,0,0,0,0,0],"id":3,"left_children":[1,3,5,7,9,11,13,15,-1,17,19,21,23,25,27,29,-1,31,33,35,37,39,41,43,45,47,49,51,53,55,-1,57,59,-1,-1,-1,-1,61,-1,63,65,67,69,71,-1,-1,-1,-1,73,75,77,-1,-1,-1,-1,79,81,-1,-1,83,85,-1,87,89,91,93,95,97,-1,-1,-1,99,101,-1,103,-1,105,-1,-1,107,-1,-1,-1,-1,-1,109,111,113,115,117,-1,119,121,-1,-1,123,-1,-1,-1,125,-1,127,-1,-1,-1,-1,-1,-1,-1,-1,-1,-1,-1,-1,-1,-1,-1,-1,-1,-1,-1,-1,-1,-1,-1,-1,-1,-1,-1],"loss_changes":[1.0216323E2,2.604609E1,5.7374584E1,2.56427E0,2.0125263E1,1.0897888E1,7.7097244E0,1.6679611E0,0E0,5.607868E0,1.1446445E1,3.357632E0,2.501624E0,3.7429657E0,1.2046388E0,6.282959E-1,0E0,4.699749E0,1.7559109E0,8.5348415E-1,2.8308153E0,1.1843181E0,7.853651E-1,1.4976821E0,3.4341717E-1,5.590973E-1,3.952896E0,2.2618006E-1,2.2412837E-1,7.6013947E-1,0E0,3.6603355E-1,1.4465797E0,0E0,0E0,0E0,0E0,7.57698E-1,0E0,1.7245249E0,5.9037215E-1,1.687479E-1,9.394646E-2,1.1600704E0,0E0,0E0,0E0,0E0,2.0756626E-1,3.94516E-1,4.6819443E-1,0E0,0E0,0E0,0E0,7.6725006E-2,2.3791885E-1,0E0,0E0,3.5486177E-1,7.674279E-1,0E0,6.6663045E-1,1.2805405E0,3.7006617E-1,1.4465785E-1,2.039443E-1,6.55241E-2,0E0,0E0,0E0,1.0213375E0,1.6196599E0,0E0,1.0613489E-1,0E0,1.5666656E0,0E0,0E0,1.0921478E-1,0E0,0E0,0E0,0E0,0E0,7.790661E-2,1.953935E-1,4.391147E-1,3.2048815E-1,2.8204358E-1,0E0,3.8820186E-1,4.360795E-1,0E0,0E0,1.6286555E-1,0E0,0E0,0E0,6.404753E-1,0E0,5.355015E-1,0E0,0E0,0E0,0E0,0E0,0E0,0E0,0E0,0E0,0E0,0E0,0E0,0E0,0E0,0E0,0E0,0E0,0E0,0E0,0E0,0E0,0E0,0E0,0E0,0E0,0E0,0E0],"parents":[2147483647,0,0,1,1,2,2,3,3,4,4,5,5,6,6,7,7,9,9,10,10,11,11,12,12,13,13,14,14,15,15,17,17,18,18,19,19,20,20,21,21,22,22,23,23,24,24,25,25,26,26,27,27,28,28,29,29,31,31,32,32,37,37,39,39,40,40,41,41,42,42,43,43,48,48,49,49,50,50,55,55,56,56,59,59,60,60,62,62,63,63,64,64,65,65,66,66,67,67,71,71,72,72,74,74,76,76,79,79,85,85,86,86,87,87,88,88,89,89,91,91,92,92,95,95,99,99,101,101],"right_children":[2,4,6,8,10,12,14,16,-1,18,20,22,24,26,28,30,-1,32,34,36,38,40,42,44,46,48,50,52,54,56,-1,58,60,-1,-1,-1,-1,62,-1,64,66,68,70,72,-1,-1,-1,-1,74,76,78,-1,-1,-1,-1,80,82,-1,-1,84,86,-1,88,90,92,94,96,98,-1,-1,-1,100,102,-1,104,-1,106,-1,-1,108,-1,-1,-1,-1,-1,110,112,114,116,118,-1,120,122,-1,-1,124,-1,-1,-1,126,-1,128,-1,-1,-1,-1,-1,-1,-1,-1,-1,-1,-1,-1,-1,-1,-1,-1,-1,-1,-1,-1,-1,-1,-1,-1,-1,-1,-1],"split_conditions":[6.019054E5,7.9E1,3.103E3,1.629291E3,7.93E2,1.028E3,2E0,1.1408248E0,1.9417785E-3,9.75E0,1.2E1,1.2425086E-7,5.4214475E6,7.21E3,4.176E3,1.75E2,-9.288363E-3,3.5E2,1.905E3,7.396E3,4E1,3.2995722E6,2.3420253E2,2.808E3,3.77714E7,5.1132787E8,7.1577354E1,1.6E1,4.718591E8,4.8842516E7,-2.3621812E-2,5.2E1,1.3E1,-2.770685E-2,-7.58885E-2,2.2456255E-2,5.8669377E-2,2.753585E2,-3.4960605E-2,1.8343333E2,3.8575E4,1.4237288E0,3.3333333E0,4.3689142E2,-1.6989594E-2,1.1806191E-2,3.23594E-2,3.779608E-2,5.53648E8,7.9E1,3.7476598E6,1.5274747E-3,-1.4261469E-2,6.724458E-3,2.3049844E-2,3.175926E0,8.398714E5,-4.2552594E-2,-2.7572745E-2,3.698E3,1.700769E6,-9.408037E-3,1.3753864E0,1.6E1,3.435414E-3,8.8E2,2.2907576E2,7.66124E6,-3.315327E-2,-1.5524408E-3,-1.2287365E-2,2.457E3,5.2409735E-7,9.090872E-3,3.529689E-1,7.450797E-2,1.7831801E6,2.3411795E-2,-1.2542747E-3,1.8388145E-7,-2.5712287E-2,-6.418645E-2,-4.2504475E-2,1.652907E-2,-1.2194506E-3,1.2581168E0,6.586741E8,1.877319E5,1.048796E6,1.925508E6,-4.089202E-2,3.1491095E-6,4.069565E2,-1.4788928E-3,9.301932E-3,4.5549E4,3.010266E-3,-2.1700352E-2,-7.899204E-3,1E0,-1.8041125E-2,4.699129E7,-2.702076E-4,1.2007202E-2,2.9089682E-2,1.7082494E-2,5.4277882E-2,-4.2797506E-2,-2.3784894E-2,-1.3429542E-2,-2.155183E-2,-8.779013E-3,3.3940389E-3,5.902855E-3,2.060983E-2,-1.3639384E-2,1.3712152E-3,-1.4451333E-2,1.636009E-3,-1.1798602E-2,4.598869E-3,-7.2938707E-3,4.454812E-3,-1.2936535E-2,-9.997705E-4,8.677193E-3,-6.9348062E-3,3.9717844E-3,2.1587307E-2],"split_indices":[43,44,2,67,2,2,6,53,0,69,33,52,43,2,2,6,0,2,1,1,3,43,67,2,7,7,71,3,7,46,0,2,10,0,0,0,0,70,0,4,9,71,69,67,0,0,0,0,7,0,43,0,0,0,0,68,66,0,0,1,9,0,53,3,53,12,4,5,0,0,0,2,52,0,57,0,43,0,0,52,0,0,0,0,0,68,46,48,9,43,0,53,4,0,0,1,0,0,0,79,0,7,0,0,0,0,0,0,0,0,0,0,0,0,0,0,0,0,0,0,0,0,0,0,0,0,0,0,0],"split_type":[0,0,0,0,0,0,0,0,0,0,0,0,0,0,0,0,0,0,0,0,0,0,0,0,0,0,0,0,0,0,0,0,0,0,0,0,0,0,0,0,0,0,0,0,0,0,0,0,0,0,0,0,0,0,0,0,0,0,0,0,0,0,0,0,0,0,0,0,0,0,0,0,0,0,0,0,0,0,0,0,0,0,0,0,0,0,0,0,0,0,0,0,0,0,0,0,0,0,0,0,0,0,0,0,0,0,0,0,0,0,0,0,0,0,0,0,0,0,0,0,0,0,0,0,0,0,0,0,0],"sum_hessian":[7.42E2,3.01E2,4.41E2,1.06E2,1.95E2,2.97E2,1.44E2,1.03E2,3E0,1.23E2,7.2E1,1.56E2,1.41E2,1.26E2,1.8E1,9.9E1,4E0,1.13E2,1E1,1.2E1,6E1,1.3E2,2.6E1,1.24E2,1.7E1,6.6E1,6E1,7E0,1.1E1,9.2E1,7E0,4.8E1,6.5E1,5E0,5E0,4E0,8E0,5.6E1,4E0,9E1,4E1,1.7E1,9E0,1.2E2,4E0,4E0,1.3E1,4.4E1,2.2E1,5.4E1,6E0,4E0,3E0,4E0,7E0,6.5E1,2.7E1,9E0,3.9E1,1E1,5.5E1,9E0,4.7E1,1.7E1,7.3E1,2.4E1,1.6E1,7E0,1E1,3E0,6E0,6.6E1,5.4E1,3E0,1.9E1,8E0,4.6E1,3E0,3E0,5.8E1,7E0,1.2E1,1.5E1,3E0,7E0,3.2E1,2.3E1,3.4E1,1.3E1,1.3E1,4E0,2.2E1,5.1E1,3E0,2.1E1,1E1,6E0,4E0,3E0,6.3E1,3E0,4.2E1,1.2E1,3E0,1.6E1,4E0,4.2E1,5.3E1,5E0,1.2E1,2E1,2E1,3E0,2.9E1,5E0,4E0,9E0,1E1,3E0,3E0,1.9E1,4.3E1,8E0,5E0,5E0,5.7E1,6E0,5E0,3.7E1],"tree_param":{"num_deleted":"0","num_feature":"108","num_nodes":"129","size_leaf_vector":"1"}},{"base_weights":[-1.213475E-2,-2.1464728E-1,6.011274E-1,-7.372657E-1,-3.9485715E-2,-7.8155494E-1,7.2318256E-1,-6.7327595E-1,-1.290917E0,-2.4536404E-1,1.6658618E-1,-4.725918E-2,-1.9546067E-2,4.4783613E-1,9.4216937E-1,-8.128508E-1,-3.9145234E-1,-2.7830364E-2,-7.395249E-2,-1.8517357E-1,-6.021971E-1,1.9584747E-1,-5.7479644E-1,-4.5778662E-2,5.333915E-1,1.1234717E0,7.31872E-1,-8.312828E-1,-1.739412E-2,-2.8832423E-2,-6.662262E-2,-4.3152097E-1,-1.2743303E-1,-4.3719213E-2,-4.622665E-1,1.5215027E-1,5.548263E-1,-1.0721681E-2,-3.552274E-2,1.0281061E-2,-1.5632881E-1,6.5698665E-1,4.5052566E-2,9.6759737E-1,6.985207E-2,8.025563E-1,3.5996202E-1,-4.186193E-2,-5.782219E-1,1.64218E-2,-2.0796636E-1,-1.17934765E-2,-4.720246E-1,-1.0436939E-1,-4.3567535E-2,-2.4630222E-2,-8.863954E-3,7.647191E-2,2.8457502E-1,2.2742483E-1,3.215772E-2,-2.410168E-3,-1.3251323E-2,4.2935154E-1,7.235631E-1,-1.0146179E-1,1.2338746E-2,2.3599515E-2,1.0130696E0,8.580018E-1,1.3239734E-2,2.3179648E-2,4.0674303E-3,-1.3727072E-2,-3.1953998E-2,-5.944432E-3,-1.6033776E-2,-2.3905063E-2,-9.669826E-3,-1.6235471E-1,3.1558912E-2,9.2765115E-2,-1.8930549E-2,3.953608E-1,-4.497161E-2,3.633144E-3,1.5451378E-2,9.060826E-3,2.2908319E-2,3.5989035E-2,1.4709744E-2,-9.317577E-3,5.6007167E-4,2.8190682E-2,5.1415052E-2,2.1063011E-2,4.3186087E-2,-1.1096363E-2,-2.177927E-3,6.5752817E-3,-3.6174518E-3,5.843559E-3,-5.636573E-3,1.4980819E-2,2.9642265E-2,-6.5310653E-3,6.952127E-3],"categories":[],"categories_nodes":[],"categories_segments":[],"categories_sizes":[],"default_left":[0,0,0,0,0,0,0,0,0,0,0,0,0,0,0,0,0,0,0,0,0,0,0,0,0,0,0,0,0,0,0,0,0,0,0,0,0,0,0,0,0,0,0,0,0,0,0,0,0,0,0,0,0,0,0,0,0,0,0,0,0,0,0,0,0,0,0,0,0,0,0,0,0,0,0,0,0,0,0,0,0,0,0,0,0,0,0,0,0,0,0,0,0,0,0,0,0,0,0,0,0,0,0,0,0,0,0],"id":4,"left_children":[1,3,5,7,9,11,13,15,17,19,21,-1,-1,23,25,27,29,-1,-1,31,33,35,37,39,41,43,45,47,-1,-1,49,51,53,-1,55,57,59,-1,-1,-1,61,63,65,67,-1,69,71,-1,73,-1,75,-1,77,79,-1,-1,-1,81,83,85,-1,-1,-1,87,89,91,-1,-1,93,95,-1,-1,-1,-1,-1,-1,-1,-1,-1,97,99,101,-1,103,105,-1,-1,-1,-1,-1,-1,-1,-1,-1,-1,-1,-1,-1,-1,-1,-1,-1,-1,-1,-1,-1,-1],"loss_changes":[8.954818E1,4.9587006E1,3.0773888E1,3.9490662E0,1.7308147E1,7.4251556E-1,9.5271E0,4.55941E0,1.4262333E0,4.269991E0,4.5381103E0,0E0,0E0,3.1917725E0,2.6473541E0,3.787651E-1,2.8907266E0,0E0,0E0,2.4484744E0,8.346243E-1,3.0057974E0,3.0077195E-1,3.7867606E-1,3.8332043E0,1.0318489E0,8.940754E-1,3.1864166E-1,0E0,0E0,1.112015E0,1.3195372E-1,2.4994528E0,0E0,2.1862125E-1,1.7520761E0,6.4365053E-1,0E0,0E0,0E0,1.00678906E-1,4.6224976E-1,4.6150127E-1,2.5810242E-1,0E0,8.4310913E-1,2.646458E-1,0E0,1.6955757E-1,0E0,1.07201874E-1,0E0,8.57358E-2,1.1164643E0,0E0,0E0,0E0,9.119416E-1,2.354361E0,7.622871E-2,0E0,0E0,0E0,7.2567225E-2,1.9679451E-1,9.681567E-2,0E0,0E0,1.4930153E-1,1.9324112E-1,0E0,0E0,0E0,0E0,0E0,0E0,0E0,0E0,0E0,7.8887486E-1,4.9603453E-1,6.936039E-1,0E0,6.939702E-1,3.1434298E-1,0E0,0E0,0E0,0E0,0E0,0E0,0E0,0E0,0E0,0E0,0E0,0E0,0E0,0E0,0E0,0E0,0E0,0E0,0E0,0E0,0E0,0E0],"parents":[2147483647,0,0,1,1,2,2,3,3,4,4,5,5,6,6,7,7,8,8,9,9,10,10,13,13,14,14,15,15,16,16,19,19,20,20,21,21,22,22,23,23,24,24,25,25,26,26,27,27,30,30,31,31,32,32,34,34,35,35,36,36,40,40,41,41,42,42,43,43,45,45,46,46,48,48,50,50,52,52,53,53,57,57,58,58,59,59,63,63,64,64,65,65,68,68,69,69,79,79,80,80,81,81,83,83,84,84],"right_children":[2,4,6,8,10,12,14,16,18,20,22,-1,-1,24,26,28,30,-1,-1,32,34,36,38,40,42,44,46,48,-1,-1,50,52,54,-1,56,58,60,-1,-1,-1,62,64,66,68,-1,70,72,-1,74,-1,76,-1,78,80,-1,-1,-1,82,84,86,-1,-1,-1,88,90,92,-1,-1,94,96,-1,-1,-1,-1,-1,-1,-1,-1,-1,98,100,102,-1,104,106,-1,-1,-1,-1,-1,-1,-1,-1,-1,-1,-1,-1,-1,-1,-1,-1,-1,-1,-1,-1,-1,-1],"split_conditions":[2.871E3,1.6595395E5,1E0,4.671642E0,8.09E2,1.5932833E3,1.0981279E3,9.7E1,9E0,2E0,1.1727273E1,-4.725918E-2,-1.9546067E-2,2.8199876E7,1.4127854E7,5.6571426E0,3.37E2,-2.7830364E-2,-7.395249E-2,3.91E2,3.9595376E7,5.4214475E6,3.7029E4,2.4013947E5,2E0,1.9188607E3,4.533276E0,4.1741933E-7,-1.739412E-2,-2.8832423E-2,3.76768E5,1.9E1,4.4E1,-4.3719213E-2,1E1,4.3689142E2,1E0,-1.0721681E-2,-3.552274E-2,1.0281061E-2,1E1,4.7112436E2,1.7687258E7,1.9763E4,6.985207E-2,2.1E1,6.163462E6,-4.186193E-2,1.8020409E1,1.64218E-2,1E0,-1.17934765E-2,2.0279662E2,2.6746968E6,-4.3567535E-2,-2.4630222E-2,-8.863954E-3,2.511E3,1E0,1.574E3,3.215772E-2,-2.410168E-3,-1.3251323E-2,6.1986052E7,2.0466347E1,7.6981635E2,1.2338746E-2,2.3599515E-2,1.2014435E3,8.484036E5,1.3239734E-2,2.3179648E-2,4.0674303E-3,-1.3727072E-2,-3.1953998E-2,-5.944432E-3,-1.6033776E-2,-2.3905063E-2,-9.669826E-3,1.90603E5,3.8575E4,1E0,-1.8930549E-2,1.12618824E8,2.640793E5,3.633144E-3,1.5451378E-2,9.060826E-3,2.2908319E-2,3.5989035E-2,1.4709744E-2,-9.317577E-3,5.6007167E-4,2.8190682E-2,5.1415052E-2,2.1063011E-2,4.3186087E-2,-1.1096363E-2,-2.177927E-3,6.5752817E-3,-3.6174518E-3,5.843559E-3,-5.636573E-3,1.4980819E-2,2.9642265E-2,-6.5310653E-3,6.952127E-3],"split_indices":[2,43,17,68,2,70,67,44,0,6,68,0,0,5,66,69,2,0,0,2,7,43,1,43,6,4,57,52,0,0,5,67,3,0,8,67,29,0,0,0,3,4,60,9,0,3,60,0,61,0,26,0,4,43,0,0,0,2,6,2,0,0,0,5,71,4,0,0,4,43,0,0,0,0,0,0,0,0,0,12,9,19,0,5,48,0,0,0,0,0,0,0,0,0,0,0,0,0,0,0,0,0,0,0,0,0,0],"split_type":[0,0,0,0,0,0,0,0,0,0,0,0,0,0,0,0,0,0,0,0,0,0,0,0,0,0,0,0,0,0,0,0,0,0,0,0,0,0,0,0,0,0,0,0,0,0,0,0,0,0,0,0,0,0,0,0,0,0,0,0,0,0,0,0,0,0,0,0,0,0,0,0,0,0,0,0,0,0,0,0,0,0,0,0,0,0,0,0,0,0,0,0,0,0,0,0,0,0,0,0,0,0,0,0,0,0,0],"sum_hessian":[7.19E2,5.41E2,1.78E2,1.35E2,4.06E2,1.4E1,1.64E2,1.23E2,1.2E1,2.03E2,2.03E2,8E0,6E0,7.4E1,9E1,8.1E1,4.2E1,4E0,8E0,1.75E2,2.8E1,1.96E2,7E0,1.1E1,6.3E1,4.6E1,4.4E1,7.7E1,4E0,2.5E1,1.7E1,3.2E1,1.43E2,7E0,2.1E1,1.76E2,2E1,3E0,4E0,3E0,8E0,5E1,1.3E1,3.4E1,1.2E1,3.6E1,8E0,6.4E1,1.3E1,4E0,1.3E1,7E0,2.5E1,1.4E2,3E0,1.7E1,4E0,1.13E2,6.3E1,6E0,1.4E1,5E0,3E0,1.3E1,3.7E1,8E0,5E0,4E0,3E1,3.2E1,4E0,5E0,3E0,4E0,9E0,9E0,4E0,2.2E1,3E0,9.8E1,4.2E1,1.1E2,3E0,4.7E1,1.6E1,3E0,3E0,3E0,1E1,3.4E1,3E0,4E0,4E0,5E0,2.5E1,4E0,2.8E1,6.1E1,3.7E1,2.1E1,2.1E1,9.7E1,1.3E1,3.6E1,1.1E1,1.1E1,5E0],"tree_param":{"num_deleted":"0","num_feature":"108","num_nodes":"107","size_leaf_vector":"1"}},{"base_weights":[4.803093E-3,-2.0766404E-1,6.3873315E-1,-6.650092E-1,-1.4316301E-2,-7.415304E-1,7.3025286E-1,-8.4444946E-1,-4.4612512E-1,-3.6676642E-1,6.689245E-2,-4.0810697E-2,-2.00415E-2,4.0818527E-1,9.431042E-1,-8.641224E-1,-1.0087587E-2,-5.854735E-1,7.193528E-2,-4.609896E-1,-1.5518616E-1,8.488483E-2,-7.420393E-1,6.0271174E-1,1.6592108E-1,1.1878376E0,6.85194E-1,-3.565731E-2,-9.7825915E-1,-5.103646E-1,-5.6410212E-2,2.6672699E-2,-1.7621127E-1,-3.8725877E-1,-3.175367E-2,-7.663864E-2,-1.3310633E-2,-6.2079667E-3,2.1868145E-1,-1.666243E-2,-4.560635E-2,6.6492635E-1,7.178894E-3,5.2081394E-1,-3.519869E-2,9.595939E-1,7.216983E-2,7.2904944E-1,-1.6446313E-3,-1.0316871E0,-2.3719288E-2,-6.482412E-1,-1.337752E-1,-1.7236356E-2,2.8889353E-4,-4.1263503E-1,-8.579389E-3,-8.341074E-3,-4.1191415E-5,-2.6938021E-2,3.613348E-1,2.4633574E-1,-1.8004013E-2,1.1513265E-2,3.4216832E-2,2.8358852E-2,1.11145545E-2,-1.9734204E-1,1.7910752E-1,1.0172335E0,1.37812765E-2,7.654983E-1,1.6024305E-2,-5.3095613E-2,-3.269889E-2,-4.0432777E-2,-2.7066031E-2,6.75207E-3,-1.1366387E-2,-2.0825274E-2,-9.597336E-3,-1.5534057E-1,1.6708989E-2,2.314479E-2,2.813297E-3,1.3402759E-1,3.6208284E-1,1.762623E-3,-3.4824944E-1,3.8946109E-4,1.3989678E-2,5.0860792E-2,2.2526365E-2,3.9224416E-2,2.3973871E-2,-5.1262267E-3,-2.9974382E-2,-2.3966064E-3,4.852689E-3,8.665463E-3,-1.2719786E-2,2.0442137E-2,2.0659328E-3,-7.3811975E-3,-2.081377E-2],"categories":[],"categories_nodes":[],"categories_segments":[],"categories_sizes":[],"default_left":[0,0,0,0,0,0,0,0,0,0,0,0,0,0,0,0,0,0,0,0,0,0,0,0,0,0,0,0,0,0,0,0,0,0,0,0,0,0,0,0,0,0,0,0,0,0,0,0,0,0,0,0,0,0,0,0,0,0,0,0,0,0,0,0,0,0,0,0,0,0,0,0,0,0,0,0,0,0,0,0,0,0,0,0,0,0,0,0,0,0,0,0,0,0,0,0,0,0,0,0,0,0,0,0,0],"id":5,"left_children":[1,3,5,7,9,11,13,15,17,19,21,-1,-1,23,25,27,-1,29,31,33,35,37,39,41,43,45,47,-1,49,51,-1,-1,53,55,-1,57,-1,59,61,-1,-1,63,-1,65,67,69,-1,71,-1,73,-1,75,77,-1,-1,79,-1,-1,-1,81,83,85,-1,-1,-1,-1,-1,87,89,91,-1,93,-1,-1,-1,-1,-1,-1,-1,-1,-1,95,97,-1,-1,99,101,-1,103,-1,-1,-1,-1,-1,-1,-1,-1,-1,-1,-1,-1,-1,-1,-1,-1],"loss_changes":[9.926396E1,4.8801994E1,2.391095E1,6.064636E0,1.1158505E1,6.965542E-2,1.1543175E1,9.284134E-1,5.52862E0,1.3837719E0,4.676798E0,0E0,0E0,3.2460003E0,5.7505035E0,4.5552063E-1,0E0,2.0626087E0,2.1410475E0,4.853239E-1,2.0946217E-1,3.7917976E0,2.468803E-1,9.996023E-1,2.3737388E0,2.320633E0,1.6973476E0,0E0,5.490494E-1,2.76904E0,0E0,0E0,4.0288058E-1,1.3236332E-1,0E0,1.1783426E-1,0E0,1.4269016E0,2.1627398E0,0E0,0E0,5.312338E-1,0E0,1.0774732E-1,7.998086E-1,9.862385E-1,0E0,4.6382332E-1,0E0,1.9666672E-1,0E0,1.7754745E-1,4.8704484E-1,0E0,0E0,6.95672E-2,0E0,0E0,0E0,9.94572E-1,3.3891404E-1,1.5243917E0,0E0,0E0,0E0,0E0,0E0,4.72058E-1,1.902231E-1,2.1502686E-1,0E0,2.1834755E-1,0E0,0E0,0E0,0E0,0E0,0E0,0E0,0E0,0E0,9.5707774E-1,7.5444883E-1,0E0,0E0,1.2222862E0,1.1903663E0,0E0,6.657696E-2,0E0,0E0,0E0,0E0,0E0,0E0,0E0,0E0,0E0,0E0,0E0,0E0,0E0,0E0,0E0,0E0],"parents":[2147483647,0,0,1,1,2,2,3,3,4,4,5,5,6,6,7,7,8,8,9,9,10,10,13,13,14,14,15,15,17,17,18,18,19,19,20,20,21,21,22,22,23,23,24,24,25,25,26,26,28,28,29,29,32,32,33,33,35,35,37,37,38,38,41,41,43,43,44,44,45,45,47,47,49,49,51,51,52,52,55,55,59,59,60,60,61,61,67,67,68,68,69,69,71,71,81,81,82,82,85,85,86,86,88,88],"right_children":[2,4,6,8,10,12,14,16,18,20,22,-1,-1,24,26,28,-1,30,32,34,36,38,40,42,44,46,48,-1,50,52,-1,-1,54,56,-1,58,-1,60,62,-1,-1,64,-1,66,68,70,-1,72,-1,74,-1,76,78,-1,-1,80,-1,-1,-1,82,84,86,-1,-1,-1,-1,-1,88,90,92,-1,94,-1,-1,-1,-1,-1,-1,-1,-1,-1,96,98,-1,-1,100,102,-1,104,-1,-1,-1,-1,-1,-1,-1,-1,-1,-1,-1,-1,-1,-1,-1,-1],"split_conditions":[2.979E3,2.0162934E5,1E0,7.9E1,5E2,1.6778718E3,1.1860903E3,1.1408248E0,6.86E2,9.9806844E5,4.3E1,-4.0810697E-2,-2.00415E-2,1.1527568E0,1.5846036E7,9.55188E5,-1.0087587E-2,3.1129327E0,7.396E3,2.9175799E4,1.3125E0,1.158E3,8E0,2E0,2.43942E5,1.9188607E3,9.17064E3,-3.565731E-2,1.75E2,2.33E2,-5.6410212E-2,2.6672699E-2,6.263946E6,8.96452E5,-3.175367E-2,8.49E3,-1.3310633E-2,7.6294225E6,9.195571E2,-1.666243E-2,-4.560635E-2,6.9109825E5,7.178894E-3,1.4872598E8,4.454E3,3.1979475E5,7.216983E-2,2.1E1,-1.6446313E-3,7.946825E4,-2.3719288E-2,3.9E1,1.9E1,-1.7236356E-2,2.8889353E-4,4E0,-8.579389E-3,-8.341074E-3,-4.1191415E-5,1E0,9.8933E4,4.2072223E2,-1.8004013E-2,1.1513265E-2,3.4216832E-2,2.8358852E-2,1.11145545E-2,1.3E1,1.21E2,1E0,1.37812765E-2,4.533276E0,1.6024305E-2,-5.3095613E-2,-3.269889E-2,-4.0432777E-2,-2.7066031E-2,6.75207E-3,-1.1366387E-2,-2.0825274E-2,-9.597336E-3,5.117647E0,1.7733E4,2.314479E-2,2.813297E-3,4.5076345E6,2E0,1.762623E-3,1.9347133E5,3.8946109E-4,1.3989678E-2,5.0860792E-2,2.2526365E-2,3.9224416E-2,2.3973871E-2,-5.1262267E-3,-2.9974382E-2,-2.3966064E-3,4.852689E-3,8.665463E-3,-1.2719786E-2,2.0442137E-2,2.0659328E-3,-7.3811975E-3,-2.081377E-2],"split_indices":[2,43,17,44,2,4,4,53,2,43,3,0,0,53,62,46,0,71,1,48,68,2,8,6,9,4,4,0,6,2,0,0,5,9,0,1,0,43,4,0,0,43,0,12,2,48,0,3,0,48,0,2,0,0,0,8,0,0,0,29,1,67,0,0,0,0,0,3,0,6,0,53,0,0,0,0,0,0,0,0,0,69,1,0,0,62,6,0,48,0,0,0,0,0,0,0,0,0,0,0,0,0,0,0,0],"split_type":[0,0,0,0,0,0,0,0,0,0,0,0,0,0,0,0,0,0,0,0,0,0,0,0,0,0,0,0,0,0,0,0,0,0,0,0,0,0,0,0,0,0,0,0,0,0,0,0,0,0,0,0,0,0,0,0,0,0,0,0,0,0,0,0,0,0,0,0,0,0,0,0,0,0,0,0,0,0,0,0,0,0,0,0,0,0,0,0,0,0,0,0,0,0,0,0,0,0,0,0,0,0,0,0,0],"sum_hessian":[7.35E2,5.51E2,1.84E2,1.63E2,3.88E2,1.1E1,1.73E2,8.8E1,7.5E1,7.2E1,3.16E2,7E0,4E0,7E1,1.03E2,8.5E1,3E0,5.9E1,1.6E1,4.9E1,2.3E1,3.1E2,6E0,3.8E1,3.2E1,5.1E1,5.2E1,4.5E1,4E1,5.4E1,5E0,5E0,1.1E1,3.8E1,1.1E1,1.5E1,8E0,1.85E2,1.25E2,3E0,3E0,3.3E1,5E0,1.1E1,2.1E1,3.2E1,1.9E1,4.9E1,3E0,3.5E1,5E0,3.9E1,1.5E1,5E0,6E0,3.3E1,5E0,6E0,9E0,1.76E2,9E0,1.2E2,5E0,4E0,2.9E1,8E0,3E0,1.2E1,9E0,2.9E1,3E0,4.4E1,5E0,2.7E1,8E0,9E0,3E1,4E0,1.1E1,2.9E1,4E0,4.4E1,1.32E2,6E0,3E0,6.2E1,5.8E1,5E0,7E0,4E0,5E0,2.6E1,3E0,3.5E1,9E0,4.1E1,3E0,7.4E1,5.8E1,5.6E1,6E0,4.8E1,1E1,3E0,4E0],"tree_param":{"num_deleted":"0","num_feature":"108","num_nodes":"105","size_leaf_vector":"1"}},{"base_weights":[1.3943624E-2,-1.9556154E-1,5.664005E-1,-6.226433E-1,-3.1837717E-2,7.209024E-1,-8.277546E-2,2.6043764E-1,-6.638205E-1,-2.2632897E-1,1.5458956E-1,4.2736372E-1,8.7651885E-1,-6.1092114E-1,1.8448107E-1,2.8794771E-2,-6.939955E-3,-8.504327E-1,-5.2489424E-1,-1.6724014E-1,-5.432344E-1,7.381545E-2,2.8482226E-1,8.4764734E-2,6.01002E-1,5.9320092E-2,7.8342116E-1,-3.4246396E-2,-9.592111E-3,-5.1336873E-2,3.3507583E-1,-7.007442E-1,-5.9913203E-2,-6.438031E-1,-2.810705E-1,-2.2365874E-1,7.341202E-2,-7.7358246E-1,-3.934073E-1,1.0302104E-1,-2.9098868E-2,3.6417753E-1,2.6524432E-2,-6.275665E-2,1.7631812E-2,1.603239E-2,6.4182806E-1,8.1471026E-1,-1.8325291E-3,-1.4443399E-1,7.0820847E-3,4.184349E-1,3.2606747E-3,-3.7894525E-2,-4.3337527E-1,-7.5181824E-1,-5.1194346E-1,-2.4447829E-2,-7.762738E-2,-3.3777717E-1,-8.6008504E-2,1.4414439E-1,-1.4820895E-2,-2.1767756E-2,-4.8068114E-2,-2.0817911E-2,-6.335239E-3,1.9611374E-1,1.5969051E-2,4.1167113E-1,1.6156685E-3,-2.949214E-3,1.0309727E-1,-1.270103E-1,2.1138743E-3,3.2208238E-2,1.306286E-2,6.419052E-1,9.165406E-1,-1.1354041E-2,3.407976E-4,9.592632E-3,2.4101695E-2,-2.4759723E-2,-1.2012856E-2,-2.903233E-2,-4.362086E-2,-3.6392564E-1,-3.3286158E-2,8.910912E-3,-1.809325E-1,-2.9367968E-1,-4.6509318E-2,-1.4989242E-1,1.0739215E-2,-3.6182504E-5,2.2089998E-1,6.630669E-2,2.3471338E-1,4.757721E-2,-1.9543114E-1,3.3443666E-1,2.9514598E-2,4.0935847E-4,9.39618E-3,-1.8195597E-3,-1.0974013E-2,7.4273744E-3,3.286828E-2,7.310759E-1,5.072947E-2,-2.4221916E-2,-6.8057845E-3,-1.159909E-2,-2.263972E-3,-1.2484507E-2,-3.5330515E-2,1.0298237E-3,-1.00717265E-2,6.404017E-3,-1.8038307E-3,1.3832599E-2,6.175576E-3,-1.559322E-3,5.9854807E-3,1.3069023E-2,4.9544345E-3,-3.7009008E-3,4.968387E-3,1.0789513E-3,-1.5857218E-2,2.1730334E-2,1.0664194E-2,3.9713252E-2,2.2882503E-2],"categories":[],"categories_nodes":[],"categories_segments":[],"categories_sizes":[],"default_left":[0,0,0,0,0,0,0,0,0,0,0,0,0,0,0,0,0,0,0,0,0,0,0,0,0,0,0,0,0,0,0,0,0,0,0,0,0,0,0,0,0,0,0,0,0,0,0,0,0,0,0,0,0,0,0,0,0,0,0,0,0,0,0,0,0,0,0,0,0,0,0,0,0,0,0,0,0,0,0,0,0,0,0,0,0,0,0,0,0,0,0,0,0,0,0,0,0,0,0,0,0,0,0,0,0,0,0,0,0,0,0,0,0,0,0,0,0,0,0,0,0,0,0,0,0,0,0,0,0,0,0,0,0,0,0],"id":6,"left_children":[1,3,5,7,9,11,13,15,17,19,21,23,25,27,29,-1,-1,31,33,35,37,39,41,43,45,-1,47,-1,-1,49,51,53,-1,55,57,59,61,63,65,67,-1,69,71,73,-1,-1,75,77,-1,79,-1,81,-1,-1,83,85,87,-1,89,91,93,95,-1,-1,-1,-1,-1,97,99,101,-1,-1,103,105,-1,-1,-1,107,109,-1,-1,-1,-1,-1,-1,-1,-1,111,-1,-1,113,115,-1,117,119,-1,121,123,125,127,129,131,-1,-1,-1,-1,-1,-1,-1,133,-1,-1,-1,-1,-1,-1,-1,-1,-1,-1,-1,-1,-1,-1,-1,-1,-1,-1,-1,-1,-1,-1,-1,-1,-1],"loss_changes":[8.1246315E1,3.557122E1,1.9417362E1,5.300041E0,1.3414366E1,6.751404E0,5.476418E0,1.0513594E0,3.0535316E0,3.2984772E0,1.9671478E0,3.2804003E0,2.4211197E0,4.0871096E-1,9.4053847E-1,0E0,0E0,2.469204E0,2.1384697E0,2.1073174E0,6.62014E-1,2.4082155E0,1.4661455E0,8.5785043E-1,1.882143E-1,0E0,2.1649246E0,0E0,0E0,2.2515039E-1,3.2775915E-1,6.866932E-1,0E0,3.6998177E-1,1.2635937E0,1.9345016E0,8.5618615E-1,2.7640247E-1,1.44871E-1,9.207134E-1,0E0,8.494024E-1,1.2767094E-1,1.01707E-1,0E0,0E0,1.5886784E-1,8.194046E-1,0E0,1.1363657E-1,0E0,1.2007928E-1,0E0,0E0,6.787634E-2,7.310867E-2,4.75595E-1,0E0,4.6908736E-1,1.6107078E0,3.6008584E-1,2.8933358E-1,0E0,0E0,0E0,0E0,0E0,2.6001477E-1,4.1021633E-1,5.4981613E-1,0E0,0E0,8.612941E-2,7.295278E-2,0E0,0E0,0E0,5.935507E-1,4.8522568E-1,0E0,0E0,0E0,0E0,0E0,0E0,0E0,0E0,4.6120262E-1,0E0,0E0,8.639425E-2,7.6799726E-1,0E0,3.6526006E-1,1.4755455E-1,0E0,6.865597E-2,8.5019074E-2,1.8061185E-1,3.7850472E-1,2.4325919E-1,3.9143658E-1,0E0,0E0,0E0,0E0,0E0,0E0,0E0,1.9651508E-1,0E0,0E0,0E0,0E0,0E0,0E0,0E0,0E0,0E0,0E0,0E0,0E0,0E0,0E0,0E0,0E0,0E0,0E0,0E0,0E0,0E0,0E0,0E0,0E0,0E0],"parents":[2147483647,0,0,1,1,2,2,3,3,4,4,5,5,6,6,7,7,8,8,9,9,10,10,11,11,12,12,13,13,14,14,17,17,18,18,19,19,20,20,21,21,22,22,23,23,24,24,26,26,29,29,30,30,31,31,33,33,34,34,35,35,36,36,37,37,38,38,39,39,41,41,42,42,43,43,46,46,47,47,49,49,51,51,54,54,55,55,56,56,58,58,59,59,60,60,61,61,67,67,68,68,69,69,72,72,73,73,77,77,78,78,87,87,90,90,91,91,93,93,94,94,96,96,97,97,98,98,99,99,100,100,101,101,109,109],"right_children":[2,4,6,8,10,12,14,16,18,20,22,24,26,28,30,-1,-1,32,34,36,38,40,42,44,46,-1,48,-1,-1,50,52,54,-1,56,58,60,62,64,66,68,-1,70,72,74,-1,-1,76,78,-1,80,-1,82,-1,-1,84,86,88,-1,90,92,94,96,-1,-1,-1,-1,-1,98,100,102,-1,-1,104,106,-1,-1,-1,108,110,-1,-1,-1,-1,-1,-1,-1,-1,112,-1,-1,114,116,-1,118,120,-1,122,124,126,128,130,132,-1,-1,-1,-1,-1,-1,-1,134,-1,-1,-1,-1,-1,-1,-1,-1,-1,-1,-1,-1,-1,-1,-1,-1,-1,-1,-1,-1,-1,-1,-1,-1,-1],"split_conditions":[2.871E3,2.0162934E5,1E0,6E0,8.09E2,8.613497E2,1E0,1.89991E5,3.3820656E7,6.4153387E-6,5.619E4,5.486433E5,6.7116374E-1,2.3342214E5,1.01338196E3,2.8794771E-2,-6.939955E-3,1.3308333E2,1.5107472E-1,4.17602E6,3.9595376E7,2.389E3,1.2604E4,2.6886544E7,1.1411216E6,5.9320092E-2,6.5324155E3,-3.4246396E-2,-9.592111E-3,1.038946E6,2.64E0,4.2933334E1,-5.9913203E-2,1.688129E6,1.9026866E2,2.6676828E2,7.88E2,5.5E1,1E1,1.5179856E0,-2.9098868E-2,1E0,1.627E3,4.883E3,1.7631812E-2,1.603239E-2,2.0466347E1,2.993736E6,-1.8325291E-3,4.51E2,7.0820847E-3,3.714144E8,3.2606747E-3,-3.7894525E-2,9.974369E3,9.46804E5,1.3439851E7,-2.4447829E-2,9.384615E0,3.7E1,9.476191E0,4.8443035E6,-1.4820895E-2,-2.1767756E-2,-4.8068114E-2,-2.0817911E-2,-6.335239E-3,1.028E3,5.3950816E-1,1.40976E5,1.6156685E-3,-2.949214E-3,4.06E2,1.7500778E6,2.1138743E-3,3.2208238E-2,1.306286E-2,6.7526884E0,7.21E3,-1.1354041E-2,3.407976E-4,9.592632E-3,2.4101695E-2,-2.4759723E-2,-1.2012856E-2,-2.903233E-2,-4.362086E-2,9.853159E1,-3.3286158E-2,8.910912E-3,1.63E2,1.2471935E7,-4.6509318E-2,3E2,2.4093876E-3,-3.6182504E-5,5.902087E6,1.8497854E0,3.962617E0,1.8578552E7,7E1,1.162E3,2.9514598E-2,4.0935847E-4,9.39618E-3,-1.8195597E-3,-1.0974013E-2,7.4273744E-3,3.286828E-2,1.693989E0,5.072947E-2,-2.4221916E-2,-6.8057845E-3,-1.159909E-2,-2.263972E-3,-1.2484507E-2,-3.5330515E-2,1.0298237E-3,-1.00717265E-2,6.404017E-3,-1.8038307E-3,1.3832599E-2,6.175576E-3,-1.559322E-3,5.9854807E-3,1.3069023E-2,4.9544345E-3,-3.7009008E-3,4.968387E-3,1.0789513E-3,-1.5857218E-2,2.1730334E-2,1.0664194E-2,3.9713252E-2,2.2882503E-2],"split_indices":[2,43,6,3,2,67,17,9,7,52,1,43,57,48,4,0,0,67,53,43,7,2,44,12,62,0,4,0,0,9,69,4,0,46,4,4,2,0,8,68,0,6,2,2,0,0,71,43,0,0,0,7,0,0,43,46,60,0,73,3,73,43,0,0,0,0,0,2,53,1,0,0,0,60,0,0,0,71,2,0,0,0,0,0,0,0,0,4,0,0,0,60,0,44,53,0,60,69,71,5,0,10,0,0,0,0,0,0,0,69,0,0,0,0,0,0,0,0,0,0,0,0,0,0,0,0,0,0,0,0,0,0,0,0,0],"split_type":[0,0,0,0,0,0,0,0,0,0,0,0,0,0,0,0,0,0,0,0,0,0,0,0,0,0,0,0,0,0,0,0,0,0,0,0,0,0,0,0,0,0,0,0,0,0,0,0,0,0,0,0,0,0,0,0,0,0,0,0,0,0,0,0,0,0,0,0,0,0,0,0,0,0,0,0,0,0,0,0,0,0,0,0,0,0,0,0,0,0,0,0,0,0,0,0,0,0,0,0,0,0,0,0,0,0,0,0,0,0,0,0,0,0,0,0,0,0,0,0,0,0,0,0,0,0,0,0,0,0,0,0,0,0,0],"sum_hessian":[7E2,5.08E2,1.92E2,1.4E2,3.68E2,1.55E2,3.7E1,6E0,1.34E2,1.8E2,1.88E2,5.5E1,1E2,1.2E1,2.5E1,3E0,3E0,5.5E1,7.9E1,1.53E2,2.7E1,1.17E2,7.1E1,1.9E1,3.6E1,1.8E1,8.2E1,9E0,3E0,1E1,1.5E1,4.2E1,1.3E1,5.2E1,2.7E1,1.24E2,2.9E1,9E0,1.8E1,1.13E2,4E0,5.4E1,1.7E1,1.3E1,6E0,6E0,3E1,7.9E1,3E0,7E0,3E0,1.1E1,4E0,3E1,1.2E1,2.6E1,2.6E1,1.2E1,1.5E1,6.7E1,5.7E1,2.5E1,4E0,5E0,4E0,1.5E1,3E0,5.4E1,5.9E1,4.7E1,7E0,8E0,9E0,8E0,5E0,2.7E1,3E0,3.2E1,4.7E1,4E0,3E0,4E0,7E0,7E0,5E0,1.6E1,1E1,1.6E1,1E1,4E0,1.1E1,6.4E1,3E0,3.4E1,2.3E1,9E0,1.6E1,1.3E1,4.1E1,5.2E1,7E0,3.6E1,1.1E1,5E0,4E0,5E0,3E0,3E0,2.9E1,2.3E1,2.4E1,9E0,7E0,7E0,4E0,6.1E1,3E0,9E0,2.5E1,6E0,1.7E1,8E0,8E0,5E0,8E0,3.1E1,1E1,1.6E1,3.6E1,3E0,4E0,1.6E1,2E1,1.5E1,8E0],"tree_param":{"num_deleted":"0","num_feature":"108","num_nodes":"135","size_leaf_vector":"1"}},{"base_weights":[4.0046885E-3,-1.7629567E-1,5.380248E-1,-6.5277654E-1,-4.022395E-2,6.3764894E-1,-7.1724385E-1,9.2139E-2,-6.924429E-1,-1.9180961E-1,1.3453238E-1,4.5880473E-1,9.4466853E-1,-3.791726E-2,-1.6103629E-2,-2.4675444E-2,3.240736E-2,-7.1904993E-1,1.082104E-2,-2.9187065E-1,-2.0037832E-2,1.5718684E-1,-2.6488322E-1,3.0553603E-1,6.2388253E-1,7.000017E-2,7.918406E-1,-6.8792003E-1,-6.653689E-2,-4.28858E-1,-1.7692004E-1,-4.0774994E-2,1.0398762E-2,1.0182305E-1,3.594873E-1,-2.5596041E-2,7.890848E-3,4.0221114E-2,4.1196778E-1,6.815883E-1,7.458777E-3,8.455191E-1,-1.7666244E-3,-7.783754E-1,-4.828752E-1,-4.6448413E-1,-1.1696142E-1,-2.693225E-1,-3.715521E-2,-2.953793E-1,-1.580232E-2,7.0031874E-2,3.617102E-1,4.2071784E-1,5.1436137E-4,1.46015175E-2,-8.484941E-2,2.5899239E-2,-5.2096E-2,7.9182625E-1,2.317318E-2,2.553786E-2,4.342629E-2,-2.2572227E-2,-3.9019905E-2,-5.951724E-1,6.738073E-2,-3.4642053E-1,-5.376343E-1,1.3551783E-3,-1.0057769E-2,3.2116426E-3,-3.0141735E-1,-6.787334E-2,5.389241E-3,3.3521054E-3,-2.8139079E-2,7.3831263E-3,-1.3231689E-2,-2.5129622E-2,1.2343747E-1,2.2212313E-2,7.913089E-3,1.6285205E-2,2.520371E-2,-1.0364942E-2,-1.1433156E-3,-7.728959E-3,4.2785513E-3,2.8528938E-2,4.3266922E-2,-2.9846163E-2,-1.2585536E-2,1.2075501E-2,-6.421197E-3,-1.9344127E-2,-8.386666E-3,-1.9878218E-2,-3.1178309E-2,-1.2545867E-2,-2.4444345E-2,-6.1800415E-3,1.1216842E-4,-5.2927556E-3,2.6516216E-3,2.8136645E-3,-1.53435E-2,6.7290626E-3,-8.548876E-3],"categories":[],"categories_nodes":[],"categories_segments":[],"categories_sizes":[],"default_left":[0,0,0,0,0,0,0,0,0,0,0,0,0,0,0,0,0,0,0,0,0,0,0,0,0,0,0,0,0,0,0,0,0,0,0,0,0,0,0,0,0,0,0,0,0,0,0,0,0,0,0,0,0,0,0,0,0,0,0,0,0,0,0,0,0,0,0,0,0,0,0,0,0,0,0,0,0,0,0,0,0,0,0,0,0,0,0,0,0,0,0,0,0,0,0,0,0,0,0,0,0,0,0,0,0,0,0,0,0],"id":7,"left_children":[1,3,5,7,9,11,13,15,17,19,21,23,25,-1,-1,-1,-1,27,-1,29,31,33,35,37,39,-1,41,43,-1,45,47,49,-1,51,53,-1,-1,55,57,59,-1,61,-1,63,65,67,69,71,73,75,77,79,81,83,-1,-1,85,-1,87,89,-1,-1,-1,-1,-1,91,93,95,97,-1,-1,-1,99,101,-1,-1,-1,103,-1,105,107,-1,-1,-1,-1,-1,-1,-1,-1,-1,-1,-1,-1,-1,-1,-1,-1,-1,-1,-1,-1,-1,-1,-1,-1,-1,-1,-1,-1],"loss_changes":[7.018961E1,3.530913E1,2.3467491E1,3.6391182E0,1.1284289E1,8.955963E0,1.2688208E-1,2.826767E0,2.9714966E0,3.912939E0,1.8332481E0,2.5925198E0,3.7251205E0,0E0,0E0,0E0,0E0,1.3763084E0,0E0,2.1916628E0,4.264097E-1,2.0690193E0,1.3580966E0,1.649468E0,1.2993145E0,0E0,2.255268E0,1.645813E0,0E0,6.6793156E-1,1.0231626E0,4.9762622E-1,0E0,1.205724E0,8.496785E-1,0E0,0E0,6.208083E-1,2.525702E0,6.230583E-1,0E0,4.0172577E-1,0E0,4.2185974E-1,2.2646227E0,3.1466198E-1,1.1372455E-1,5.3827333E-1,1.5922049E-1,7.8623295E-1,4.4232506E-1,6.84111E-1,2.4301553E-1,1.1071873E-1,0E0,0E0,9.898107E-2,0E0,1.685436E-1,7.216644E-2,0E0,0E0,0E0,0E0,0E0,1.0859966E-1,2.9361004E-1,1.7380834E-1,2.015543E-1,0E0,0E0,0E0,2.3133326E-1,1.2023786E-1,0E0,0E0,0E0,3.8978592E-1,0E0,1.2295723E0,4.633298E-1,0E0,0E0,0E0,0E0,0E0,0E0,0E0,0E0,0E0,0E0,0E0,0E0,0E0,0E0,0E0,0E0,0E0,0E0,0E0,0E0,0E0,0E0,0E0,0E0,0E0,0E0,0E0,0E0],"parents":[2147483647,0,0,1,1,2,2,3,3,4,4,5,5,6,6,7,7,8,8,9,9,10,10,11,11,12,12,17,17,19,19,20,20,21,21,22,22,23,23,24,24,26,26,27,27,29,29,30,30,31,31,33,33,34,34,37,37,38,38,39,39,41,41,43,43,44,44,45,45,46,46,47,47,48,48,49,49,50,50,51,51,52,52,53,53,56,56,58,58,59,59,65,65,66,66,67,67,68,68,72,72,73,73,77,77,79,79,80,80],"right_children":[2,4,6,8,10,12,14,16,18,20,22,24,26,-1,-1,-1,-1,28,-1,30,32,34,36,38,40,-1,42,44,-1,46,48,50,-1,52,54,-1,-1,56,58,60,-1,62,-1,64,66,68,70,72,74,76,78,80,82,84,-1,-1,86,-1,88,90,-1,-1,-1,-1,-1,92,94,96,98,-1,-1,-1,100,102,-1,-1,-1,104,-1,106,108,-1,-1,-1,-1,-1,-1,-1,-1,-1,-1,-1,-1,-1,-1,-1,-1,-1,-1,-1,-1,-1,-1,-1,-1,-1,-1,-1,-1],"split_conditions":[2.979E3,6.928912E4,9.00166E7,6E0,8.29E2,7.527E3,1.6778718E3,4.02E2,1.5045853E0,1.5748941E6,8.666418E2,1.01338196E3,1.7642286E8,-3.791726E-2,-1.6103629E-2,-2.4675444E-2,3.240736E-2,6.9934395E-5,1.082104E-2,4.68E2,6.873394E6,5.3483264E2,5E0,6.7148806E5,1.0630983E7,7.000017E-2,5.3310938E3,7.9E1,-6.653689E-2,2.2552174E2,1.55969E6,1E1,1.0398762E-2,5.4214475E6,2E0,-2.5596041E-2,7.890848E-3,2.86204E5,1E0,2.459733E0,7.458777E-3,1.7250038E8,-1.7666244E-3,1.7792E4,3.66025E5,4.201202E-2,4.3675E6,6.096E3,2.012328E6,4E0,7.89E2,1.057424E6,1.00737E5,7.498605E7,5.1436137E-4,1.46015175E-2,1E0,2.5899239E-2,8.931033E2,1.2577319E3,2.317318E-2,2.553786E-2,4.342629E-2,-2.2572227E-2,-3.9019905E-2,1.0648352E1,1.9E1,2E0,3.8297257E0,1.3551783E-3,-1.0057769E-2,3.2116426E-3,5.5454545E0,6.51E2,5.389241E-3,3.3521054E-3,-2.8139079E-2,5.05E2,-1.3231689E-2,7.70947E5,1E0,2.2212313E-2,7.913089E-3,1.6285205E-2,2.520371E-2,-1.0364942E-2,-1.1433156E-3,-7.728959E-3,4.2785513E-3,2.8528938E-2,4.3266922E-2,-2.9846163E-2,-1.2585536E-2,1.2075501E-2,-6.421197E-3,-1.9344127E-2,-8.386666E-3,-1.9878218E-2,-3.1178309E-2,-1.2545867E-2,-2.4444345E-2,-6.1800415E-3,1.1216842E-4,-5.2927556E-3,2.6516216E-3,2.8136645E-3,-1.53435E-2,6.7290626E-3,-8.548876E-3],"split_indices":[2,43,60,3,2,2,4,1,53,43,4,4,7,0,0,0,0,52,0,2,43,4,6,43,60,0,4,44,0,67,9,3,0,43,6,0,0,9,6,53,0,12,0,46,9,57,5,1,12,3,2,9,12,5,0,0,26,0,4,4,0,0,0,0,0,73,0,8,69,0,0,0,69,2,0,0,0,2,0,9,79,0,0,0,0,0,0,0,0,0,0,0,0,0,0,0,0,0,0,0,0,0,0,0,0,0,0,0,0],"split_type":[0,0,0,0,0,0,0,0,0,0,0,0,0,0,0,0,0,0,0,0,0,0,0,0,0,0,0,0,0,0,0,0,0,0,0,0,0,0,0,0,0,0,0,0,0,0,0,0,0,0,0,0,0,0,0,0,0,0,0,0,0,0,0,0,0,0,0,0,0,0,0,0,0,0,0,0,0,0,0,0,0,0,0,0,0,0,0,0,0,0,0,0,0,0,0,0,0,0,0,0,0,0,0,0,0,0,0,0,0],"sum_hessian":[7.27E2,5.44E2,1.83E2,1.2E2,4.24E2,1.7E2,1.3E1,6E0,1.14E2,2.27E2,1.97E2,1.09E2,6.1E1,1E1,3E0,3E0,3E0,1.11E2,3E0,1.43E2,8.4E1,1.87E2,1E1,5.8E1,5.1E1,1.2E1,4.9E1,1.08E2,3E0,6.4E1,7.9E1,7.8E1,6E0,1.48E2,3.9E1,6E0,4E0,1.7E1,4.1E1,4.5E1,6E0,4.6E1,3E0,7.3E1,3.5E1,5.7E1,7E0,4.7E1,3.2E1,6E0,7.2E1,1.33E2,1.5E1,3.3E1,6E0,5E0,1.2E1,3.2E1,9E0,2.7E1,1.8E1,9E0,3.7E1,9E0,6.4E1,2.9E1,6E0,2.4E1,3.3E1,3E0,4E0,4E0,4.3E1,2.7E1,5E0,3E0,3E0,6.7E1,5E0,4.8E1,8.5E1,9E0,6E0,2.1E1,1.2E1,3E0,9E0,5E0,4E0,1.2E1,1.5E1,2.6E1,3E0,3E0,3E0,1.7E1,7E0,1.8E1,1.5E1,3.8E1,5E0,1.4E1,1.3E1,1.9E1,4.8E1,3.8E1,1E1,8.1E1,4E0],"tree_param":{"num_deleted":"0","num_feature":"108","num_nodes":"109","size_leaf_vector":"1"}},{"base_weights":[2.288116E-2,-2.7951E-1,3.1529534E-1,-5.764021E-1,-1.2862153E-1,3.9883736E-1,-7.925172E-1,-5.1727366E-1,-1.169175E0,-7.56549E-2,-4.5215398E-1,2.3824976E-1,8.0618846E-1,-8.783099E-1,-1.2300881E-2,-6.632533E-1,-2.3450942E-1,-2.6062723E-2,-7.172124E-2,-1.2556452E-1,7.653597E-2,-3.6829805E-1,-4.641906E-2,1.6303776E-1,4.7387022E-1,1.0061948E0,6.0205877E-1,-4.4456635E-2,-2.0472214E-2,-3.5404835E-2,-2.5244528E-2,4.1624698E-1,-3.898701E-1,-3.582941E-1,-6.8704896E-2,2.8982734E-2,2.9523078E-1,-2.3794558E-2,-1.0806179E-2,1.7857063E-1,-1.6202334E-2,1.4902517E-1,5.5363864E-1,7.8393024E-1,6.4845905E-2,6.430723E-1,-1.4560446E-3,8.643585E-3,2.5020832E-2,-2.7926117E-1,-3.0761516E-2,-3.9070615E-1,-5.6627635E-3,-1.8216787E-2,-5.5277888E-2,-1.2878716E-3,1.5557648E-2,4.8161317E-3,1.802454E-2,9.924553E-2,3.0819115E-1,1.12067464E-4,9.245016E-3,7.463569E-3,5.7723695E-1,8.393222E-1,9.600154E-3,6.7352796E-1,7.062924E-3,-3.1639388E-1,-3.5905398E-3,-1.2210563E-2,-5.0718224E-1,-9.257528E-3,-2.9325305E-2,1.1224815E-1,-4.8223887E-2,3.4649763E-1,5.281917E-2,3.9012322E-1,3.4627035E-2,4.53609E-1,3.1713434E-2,1.5405425E-2,8.886379E-1,2.2808244E-2,3.5142403E-2,-2.0581955E-2,-1.0675216E-2,-2.7350644E-2,-1.066446E-2,-4.0342845E-4,-8.976954E-3,-1.0802175E-3,7.656772E-3,-1.3630196E-2,-4.8228956E-4,1.8630492E-2,4.90407E-3,-2.194864E-3,7.503129E-3,1.0825735E-2,2.2128185E-2,-4.5266915E-3,9.186778E-3,2.6012862E-2,1.1574891E-2,2.004586E-2,4.4777837E-2],"categories":[],"categories_nodes":[],"categories_segments":[],"categories_sizes":[],"default_left":[0,0,0,0,0,0,0,0,0,0,0,0,0,0,0,0,0,0,0,0,0,0,0,0,0,0,0,0,0,0,0,0,0,0,0,0,0,0,0,0,0,0,0,0,0,0,0,0,0,0,0,0,0,0,0,0,0,0,0,0,0,0,0,0,0,0,0,0,0,0,0,0,0,0,0,0,0,0,0,0,0,0,0,0,0,0,0,0,0,0,0,0,0,0,0,0,0,0,0,0,0,0,0,0,0,0,0,0,0],"id":8,"left_children":[1,3,5,7,9,11,13,15,17,19,21,23,25,27,-1,29,31,-1,-1,33,35,37,-1,39,41,43,45,-1,-1,-1,-1,47,49,51,53,55,57,-1,-1,59,-1,61,63,65,-1,67,-1,-1,-1,69,-1,71,-1,-1,73,75,-1,-1,-1,77,79,-1,-1,-1,81,83,-1,85,-1,87,-1,-1,89,-1,91,93,95,97,99,101,103,105,-1,-1,107,-1,-1,-1,-1,-1,-1,-1,-1,-1,-1,-1,-1,-1,-1,-1,-1,-1,-1,-1,-1,-1,-1,-1,-1],"loss_changes":[6.3664593E1,1.5784216E1,3.4188984E1,3.5661354E0,4.009989E0,2.2114616E1,9.702778E-1,4.3850193E0,1.2299414E0,1.5591509E0,1.0710435E0,4.2822256E0,3.3136292E0,8.878517E-2,0E0,3.5086823E-1,4.105258E0,0E0,0E0,2.0132523E0,5.218254E-1,4.3673277E-1,0E0,1.523128E0,1.4463243E0,2.5555801E0,1.3164215E0,0E0,0E0,0E0,0E0,1.0520375E-1,7.115216E-1,1.8742299E-1,5.012981E-1,3.8499972E-1,1.03651345E-1,0E0,0E0,1.851049E0,0E0,8.302158E-2,3.515749E-1,8.343086E-1,0E0,6.104641E-1,0E0,0E0,0E0,1.5845227E-1,0E0,2.8290343E-1,0E0,0E0,4.2700687E-1,2.185702E-1,0E0,0E0,0E0,1.3017851E0,1.5330343E0,0E0,0E0,0E0,1.5759945E-1,4.2985535E-1,0E0,1.6807365E-1,0E0,1.16042376E-1,0E0,0E0,1.0710764E-1,0E0,3.3849522E-1,8.0302685E-2,2.5837606E-1,1.4502096E-1,1.0086529E0,5.173006E-1,3.6236513E-1,2.6511908E-1,0E0,0E0,1.4105415E-1,0E0,0E0,0E0,0E0,0E0,0E0,0E0,0E0,0E0,0E0,0E0,0E0,0E0,0E0,0E0,0E0,0E0,0E0,0E0,0E0,0E0,0E0,0E0,0E0],"parents":[2147483647,0,0,1,1,2,2,3,3,4,4,5,5,6,6,7,7,8,8,9,9,10,10,11,11,12,12,13,13,15,15,16,16,19,19,20,20,21,21,23,23,24,24,25,25,26,26,31,31,32,32,33,33,34,34,35,35,36,36,39,39,41,41,42,42,43,43,45,45,49,49,51,51,54,54,55,55,59,59,60,60,64,64,65,65,67,67,69,69,72,72,74,74,75,75,76,76,77,77,78,78,79,79,80,80,81,81,84,84],"right_children":[2,4,6,8,10,12,14,16,18,20,22,24,26,28,-1,30,32,-1,-1,34,36,38,-1,40,42,44,46,-1,-1,-1,-1,48,50,52,54,56,58,-1,-1,60,-1,62,64,66,-1,68,-1,-1,-1,70,-1,72,-1,-1,74,76,-1,-1,-1,78,80,-1,-1,-1,82,84,-1,86,-1,88,-1,-1,90,-1,92,94,96,98,100,102,104,106,-1,-1,108,-1,-1,-1,-1,-1,-1,-1,-1,-1,-1,-1,-1,-1,-1,-1,-1,-1,-1,-1,-1,-1,-1,-1,-1],"split_conditions":[1.037E3,2.0162934E5,3.9917024E7,4.671642E0,6.346204E-7,1.1369624E3,1.5932833E3,2.88E2,9E0,3.2995722E6,1.789992E1,3.1805422E6,1.441781E7,7.295292E-2,-1.2300881E-2,4.02E2,2.001E5,-2.6062723E-2,-7.172124E-2,1.5878947E2,2.99E2,1.9598837E2,-4.641906E-2,1.6063418E7,5.2618624E7,1.9188607E3,9.17064E3,-4.4456635E-2,-2.0472214E-2,-3.5404835E-2,-2.5244528E-2,2.33E3,9.041667E0,1.3262E4,2.83408E5,6.7723384E7,3.6E1,-2.3794558E-2,-1.0806179E-2,2.77915E7,-1.6202334E-2,2.6978E4,5.619E4,1E0,6.4845905E-2,2.1E1,-1.4560446E-3,8.643585E-3,2.5020832E-2,7.997723E6,-3.0761516E-2,3E1,-5.6627635E-3,-1.8216787E-2,5.02E2,3.5964912E-1,1.5557648E-2,4.8161317E-3,1.802454E-2,1.4814814E0,2.0319266E-7,1.12067464E-4,9.245016E-3,7.463569E-3,5.945366E6,5.888563E0,9.600154E-3,6.163462E6,7.062924E-3,1.8150534E2,-3.5905398E-3,-1.2210563E-2,1.3351785E2,-9.257528E-3,1E0,8.33E2,2.62144E5,2.3488094E8,2.026496E6,4.7658905E2,7.069392E2,8.581E3,3.1713434E-2,1.5405425E-2,1.2014435E3,2.2808244E-2,3.5142403E-2,-2.0581955E-2,-1.0675216E-2,-2.7350644E-2,-1.066446E-2,-4.0342845E-4,-8.976954E-3,-1.0802175E-3,7.656772E-3,-1.3630196E-2,-4.8228956E-4,1.8630492E-2,4.90407E-3,-2.194864E-3,7.503129E-3,1.0825735E-2,2.2128185E-2,-4.5266915E-3,9.186778E-3,2.6012862E-2,1.1574891E-2,2.004586E-2,4.4777837E-2],"split_indices":[2,43,60,68,52,67,70,2,0,43,73,43,62,53,0,1,5,0,0,70,67,67,0,66,7,4,4,0,0,0,0,1,71,44,7,7,0,0,0,12,0,9,1,6,0,3,0,0,0,9,0,10,0,0,2,68,0,0,0,71,52,0,0,0,60,71,0,60,0,70,0,0,70,0,19,0,7,7,9,4,67,44,0,0,4,0,0,0,0,0,0,0,0,0,0,0,0,0,0,0,0,0,0,0,0,0,0,0,0],"split_type":[0,0,0,0,0,0,0,0,0,0,0,0,0,0,0,0,0,0,0,0,0,0,0,0,0,0,0,0,0,0,0,0,0,0,0,0,0,0,0,0,0,0,0,0,0,0,0,0,0,0,0,0,0,0,0,0,0,0,0,0,0,0,0,0,0,0,0,0,0,0,0,0,0,0,0,0,0,0,0,0,0,0,0,0,0,0,0,0,0,0,0,0,0,0,0,0,0,0,0,0,0,0,0,0,0,0,0,0,0],"sum_hessian":[7.18E2,3.53E2,3.65E2,1.18E2,2.35E2,3.4E2,2.5E1,1.09E2,9E0,2.03E2,3.2E1,2.45E2,9.5E1,2.1E1,4E0,7.1E1,3.8E1,4E0,5E0,1.53E2,5E1,2.9E1,3E0,1.87E2,5.8E1,4.6E1,4.9E1,1.8E1,3E0,4.3E1,2.8E1,7E0,3.1E1,2.9E1,1.24E2,4.2E1,8E0,1.4E1,1.5E1,1.82E2,5E0,1.2E1,4.6E1,3E1,1.6E1,4.6E1,3E0,3E0,4E0,2.3E1,8E0,2.5E1,4E0,4E0,1.2E2,3.9E1,3E0,3E0,5E0,1.14E2,6.8E1,3E0,9E0,3E0,4.3E1,2.7E1,3E0,4.3E1,3E0,1.9E1,4E0,1.3E1,1.2E1,1.8E1,1.02E2,1.1E1,2.8E1,1.7E1,9.7E1,5.2E1,1.6E1,2E1,2.3E1,3E0,2.4E1,1.2E1,3.1E1,7E0,1.2E1,9E0,3E0,9.1E1,1.1E1,3E0,8E0,3E0,2.5E1,1.4E1,3E0,5E1,4.7E1,1.7E1,3.5E1,9E0,7E0,1.3E1,7E0,3E0,2.1E1],"tree_param":{"num_deleted":"0","num_feature":"108","num_nodes":"109","size_leaf_vector":"1"}},{"base_weights":[7.866046E-3,-1.5913738E-1,5.6585395E-1,-6.6910195E-1,-4.2413622E-2,6.3636494E-1,-3.8031557E-1,-5.930914E-1,-9.0439504E-1,-3.418023E-1,4.709202E-2,5.1726586E-1,1.0090685E0,5.8961E-3,-2.6936268E-2,-3.306513E-2,-4.3481767E-1,-9.575221E-1,-1.9787852E-2,-4.0704983E-1,-1.1006877E-1,7.5347506E-2,-7.4327654E-1,3.146662E-1,6.469492E-1,1.114113E0,1.9886838E-2,-5.2044296E-1,-4.2431895E-2,-2.1521406E-2,-4.8953738E-2,-3.316115E-1,-2.4188995E-2,-8.572281E-3,2.382094E-3,-3.1643275E-2,1.648763E-1,-4.727332E-2,-2.0579705E-2,3.9526898E-1,3.9918803E-2,7.399139E-1,4.340636E-1,3.514802E-2,6.0804263E-2,-5.529163E-1,-9.374214E-3,-1.0085771E-2,6.525067E-3,-3.7948865E-1,-5.357639E-3,1.6744917E-2,-4.6869174E-2,3.6649272E-1,1.07327126E-1,1.3923973E-3,4.3878078E-1,7.912851E-3,-5.403299E-3,7.765231E-1,1.29359495E-2,-4.400334E-4,4.9782062E-1,-2.8342718E-2,-1.3893259E-2,-4.1185978E-1,-8.27981E-3,-1.1463795E-1,5.4435667E-2,2.8930405E-1,2.8781656E-2,1.2871747E-1,-3.2664484E-1,4.8065245E-1,1.0290122E-2,3.0768543E-2,4.5697205E-2,9.883459E-3,2.5653664E-2,-2.3578383E-2,-1.4758762E-2,2.4648712E-5,-8.597464E-3,3.6322756E-3,-1.2605561E-2,8.190014E-3,1.9767E-2,3.6330065E-3,1.6382711E-2,-7.5245165E-4,-2.665819E-2,1.6050892E-2,2.6855627E-2],"categories":[],"categories_nodes":[],"categories_segments":[],"categories_sizes":[],"default_left":[0,0,0,0,0,0,0,0,0,0,0,0,0,0,0,0,0,0,0,0,0,0,0,0,0,0,0,0,0,0,0,0,0,0,0,0,0,0,0,0,0,0,0,0,0,0,0,0,0,0,0,0,0,0,0,0,0,0,0,0,0,0,0,0,0,0,0,0,0,0,0,0,0,0,0,0,0,0,0,0,0,0,0,0,0,0,0,0,0,0,0,0,0],"id":9,"left_children":[1,3,5,7,9,11,13,15,17,19,21,23,25,-1,-1,-1,27,29,-1,31,33,35,37,39,41,43,-1,45,47,-1,-1,49,-1,-1,-1,51,53,-1,-1,55,57,59,61,-1,-1,63,-1,-1,-1,65,-1,-1,67,69,71,-1,73,-1,-1,75,-1,-1,77,-1,-1,79,-1,81,83,85,-1,87,89,91,-1,-1,-1,-1,-1,-1,-1,-1,-1,-1,-1,-1,-1,-1,-1,-1,-1,-1,-1],"loss_changes":[6.634522E1,3.2591312E1,1.1183342E1,1.2878532E0,1.1994345E1,6.2695045E0,1.1647197E0,9.2150307E-1,2.0573044E-1,1.5125599E0,7.760628E0,2.8967323E0,1.7855186E0,0E0,0E0,0E0,1.0866561E0,1.8656349E-1,0E0,4.204979E-1,2.7226815E-1,3.2045217E0,4.912119E-1,1.0472007E0,1.0839806E0,8.303833E-1,0E0,1.7681885E-1,2.3841968E-1,0E0,0E0,4.6291113E-1,0E0,0E0,0E0,9.035713E-1,2.0723858E0,0E0,0E0,5.7686806E-1,2.4767426E-1,6.1667824E-1,6.827998E-1,0E0,0E0,6.971836E-2,0E0,0E0,0E0,1.8998861E-1,0E0,0E0,1.0223055E0,5.4799795E-1,1.3694865E0,0E0,2.066307E-1,0E0,0E0,4.3564796E-1,0E0,0E0,1.17415905E-1,0E0,0E0,1.2290716E-1,0E0,6.627183E-1,4.256838E-1,3.9574242E-1,0E0,1.5188658E0,4.9036914E-1,1.2536955E-1,0E0,0E0,0E0,0E0,0E0,0E0,0E0,0E0,0E0,0E0,0E0,0E0,0E0,0E0,0E0,0E0,0E0,0E0,0E0],"parents":[2147483647,0,0,1,1,2,2,3,3,4,4,5,5,6,6,7,7,8,8,9,9,10,10,11,11,12,12,16,16,17,17,19,19,20,20,21,21,22,22,23,23,24,24,25,25,27,27,28,28,31,31,35,35,36,36,39,39,40,40,41,41,42,42,45,45,49,49,52,52,53,53,54,54,56,56,59,59,62,62,65,65,67,67,68,68,69,69,71,71,72,72,73,73],"right_children":[2,4,6,8,10,12,14,16,18,20,22,24,26,-1,-1,-1,28,30,-1,32,34,36,38,40,42,44,-1,46,48,-1,-1,50,-1,-1,-1,52,54,-1,-1,56,58,60,62,-1,-1,64,-1,-1,-1,66,-1,-1,68,70,72,-1,74,-1,-1,76,-1,-1,78,-1,-1,80,-1,82,84,86,-1,88,90,92,-1,-1,-1,-1,-1,-1,-1,-1,-1,-1,-1,-1,-1,-1,-1,-1,-1,-1,-1],"split_conditions":[3.54E3,9.7E1,2.856934E7,1.2578429E8,5E2,1.3382E4,3.53562E5,4.02E2,1.3784997E5,1.1376781E6,4.4E1,1.0011135E3,2.3620248E7,5.8961E-3,-2.6936268E-2,-3.306513E-2,9.974369E3,1.2E1,-1.9787852E-2,3.8297257E0,4.5021565E6,9.52E2,1E0,1.4E1,2.344845E0,1.4724688E3,1.9886838E-2,1.1408248E0,1.53E2,-2.1521406E-2,-4.8953738E-2,1.9247975E2,-2.4188995E-2,-8.572281E-3,2.382094E-3,1.2E1,2.780993E3,-4.727332E-2,-2.0579705E-2,1.1638447E9,7.616526E-1,1.4274633E7,1E0,3.514802E-2,6.0804263E-2,3.7878788E0,-9.374214E-3,-1.0085771E-2,6.525067E-3,1.4814814E0,-5.357639E-3,1.6744917E-2,2.0834179E6,5.130175E2,3.3042906E5,1.3923973E-3,2.4684E4,7.912851E-3,-5.403299E-3,1.6E1,1.29359495E-2,-4.400334E-4,1.441781E7,-2.8342718E-2,-1.3893259E-2,4.1488304E7,-8.27981E-3,1.2904564E0,1.6805932E7,4.1925E4,2.8781656E-2,5.674375E2,2.628E3,9.335507E7,1.0290122E-2,3.0768543E-2,4.5697205E-2,9.883459E-3,2.5653664E-2,-2.3578383E-2,-1.4758762E-2,2.4648712E-5,-8.597464E-3,3.6322756E-3,-1.2605561E-2,8.190014E-3,1.9767E-2,3.6330065E-3,1.6382711E-2,-7.5245165E-4,-2.665819E-2,1.6050892E-2,2.6855627E-2],"split_indices":[2,44,60,46,2,2,1,1,48,43,3,4,62,0,0,0,43,3,0,69,43,2,6,3,57,4,0,53,2,0,0,4,0,0,0,10,48,0,0,46,53,60,26,0,0,68,0,0,0,71,0,0,43,67,48,0,44,0,0,3,0,0,62,0,0,46,0,68,60,1,0,67,2,5,0,0,0,0,0,0,0,0,0,0,0,0,0,0,0,0,0,0,0],"split_type":[0,0,0,0,0,0,0,0,0,0,0,0,0,0,0,0,0,0,0,0,0,0,0,0,0,0,0,0,0,0,0,0,0,0,0,0,0,0,0,0,0,0,0,0,0,0,0,0,0,0,0,0,0,0,0,0,0,0,0,0,0,0,0,0,0,0,0,0,0,0,0,0,0,0,0,0,0,0,0,0,0,0,0,0,0,0,0,0,0,0,0,0,0],"sum_hessian":[7.1E2,5.47E2,1.63E2,1.01E2,4.46E2,1.52E2,1.1E1,7.9E1,2.2E1,1.02E2,3.44E2,1.17E2,3.5E1,3E0,8E0,4.7E1,3.2E1,1.9E1,3E0,7.9E1,2.3E1,3.33E2,1.1E1,4.7E1,7E1,2.9E1,6E0,2.6E1,6E0,3E0,1.6E1,4.7E1,3.2E1,1.6E1,7E0,1.52E2,1.81E2,5E0,6E0,3.6E1,1.1E1,4.7E1,2.3E1,1E1,1.9E1,2.3E1,3E0,3E0,3E0,3.8E1,9E0,5E0,1.47E2,3.9E1,1.42E2,4E0,3.2E1,6E0,5E0,4.3E1,4E0,3E0,2E1,1.9E1,4E0,3.2E1,6E0,8.8E1,5.9E1,3.1E1,8E0,1.36E2,6E0,2.6E1,6E0,2.7E1,1.6E1,3E0,1.7E1,1.6E1,1.6E1,3.2E1,5.6E1,5.6E1,3E0,1.7E1,1.4E1,1.1E2,2.6E1,3E0,3E0,1.1E1,1.5E1],"tree_param":{"num_deleted":"0","num_feature":"108","num_nodes":"93","size_leaf_vector":"1"}},{"base_weights":[4.848969E-3,-1.7633985E-1,4.810143E-1,-5.0586796E-1,-2.9699722E-2,-6.2396103E-1,5.615984E-1,-5.565915E-1,-1.773269E-1,-1.6646759E-1,1.1496294E-1,-3.6987517E-2,-1.756873E-2,3.4109506E-1,7.0424265E-1,-5.093249E-1,-8.881211E-1,-2.3210092E-1,6.755213E-3,-2.4011874E-1,1.4660945E-2,7.3585704E-2,4.1883266E-1,5.371853E-1,2.196029E-1,7.6759946E-1,3.537275E-1,-3.0945309E-2,-4.0545943E-1,-1.9773204E-2,-5.8134135E-2,-6.486601E-3,-1.8825851E-2,-3.1715804E-1,-1.0157873E-1,9.278184E-2,-8.279541E-2,9.524834E-2,-3.4178698E-1,7.3179984E-3,2.4702257E-2,1.8387033E-2,3.0922292E-2,4.472708E-1,1.0256383E-1,8.1835073E-1,2.594542E-1,4.3390286E-1,-2.6568118E-3,-2.832391E-1,-6.287929E-1,-2.3521298E-1,-5.0441766E-1,1.597132E-3,-1.4622565E-1,-7.696552E-3,1.362506E-1,-1.4547903E-2,-2.562107E-1,4.513036E-2,2.2738808E-1,-2.6605878E-2,-4.9382052E-3,1.05868755E-2,2.8718267E-2,-2.0119497E-1,2.0781444E-1,6.794286E-1,4.782711E-2,-1.3683408E-3,1.8555209E-2,1.1637455E-2,2.5144096E-2,-2.0790173E-2,2.5228227E-2,-3.1845286E-2,-1.3299578E-2,-1.9182926E-1,-2.6013076E-2,-5.6091934E-1,-3.239342E-3,-2.2239469E-1,-3.2354098E-2,6.533773E-2,1.1194686E-2,-5.8245663E-2,7.858355E-3,-1.8671153E-2,-2.8289584E-3,6.431946E-2,-2.299103E-2,2.8976148E-1,2.4236852E-4,6.4846734E-3,-1.8794622E-2,-6.1646193E-2,3.160295E-1,8.195139E-3,7.0765096E-1,1.8999843E-2,-7.7861226E-3,-1.2610259E-2,-4.600129E-3,-2.1847125E-2,-4.416032E-2,-1.453116E-2,-4.5708125E-3,1.9716169E-3,-7.751801E-3,8.590949E-3,1.4303483E-4,-7.981206E-3,2.9085812E-4,-1.984761E-4,7.123374E-3,1.0078628E-2,2.1281876E-2,2.7017314E-3,-6.8910634E-3,1.9168423E-3,2.161314E-2,3.8988173E-2,2.815632E-2],"categories":[],"categories_nodes":[],"categories_segments":[],"categories_sizes":[],"default_left":[0,0,0,0,0,0,0,0,0,0,0,0,0,0,0,0,0,0,0,0,0,0,0,0,0,0,0,0,0,0,0,0,0,0,0,0,0,0,0,0,0,0,0,0,0,0,0,0,0,0,0,0,0,0,0,0,0,0,0,0,0,0,0,0,0,0,0,0,0,0,0,0,0,0,0,0,0,0,0,0,0,0,0,0,0,0,0,0,0,0,0,0,0,0,0,0,0,0,0,0,0,0,0,0,0,0,0,0,0,0,0,0,0,0,0,0,0,0,0,0,0,0,0],"id":10,"left_children":[1,3,5,7,9,11,13,15,17,19,21,-1,-1,23,25,27,29,31,-1,33,35,37,39,41,43,45,47,-1,49,-1,-1,-1,-1,51,53,55,57,59,61,-1,-1,-1,-1,63,65,67,69,71,-1,73,75,77,79,-1,81,-1,83,85,87,89,91,-1,-1,-1,-1,93,95,97,-1,-1,-1,-1,-1,-1,99,-1,-1,101,-1,103,-1,105,107,109,-1,111,-1,-1,-1,113,-1,115,-1,-1,-1,117,119,-1,121,-1,-1,-1,-1,-1,-1,-1,-1,-1,-1,-1,-1,-1,-1,-1,-1,-1,-1,-1,-1,-1,-1,-1,-1],"loss_changes":[6.2289703E1,2.5257406E1,1.807006E1,2.5843315E0,7.2011666E0,2.4887943E-1,5.6101456E0,1.7258301E0,4.3356842E-1,2.4981608E0,2.1946523E0,0E0,0E0,1.668788E0,2.2157211E0,1.490139E0,1.9681492E0,2.577052E-1,0E0,1.3872962E0,4.264177E-1,1.4452513E0,4.5984244E-1,2.1623707E-1,1.2331362E0,2.2118454E0,6.4728665E-1,0E0,1.8145008E0,0E0,0E0,0E0,0E0,1.1856785E0,2.9995972E-1,3.6318222E-1,2.9215175E-1,9.831245E-1,3.4989542E-1,0E0,0E0,0E0,0E0,4.1724563E-1,1.0968477E0,1.4365997E0,3.7823153E-1,1.4949083E-1,0E0,2.2830765E0,1.2610054E-1,7.0909834E-1,5.79196E-1,0E0,3.1372344E-1,0E0,1.7086202E-1,1.5768649E-1,1.6085964E-1,1.1381463E0,5.6711125E-1,0E0,0E0,0E0,0E0,6.3057554E-1,7.4847424E-1,6.1100006E-1,0E0,0E0,0E0,0E0,0E0,0E0,1.2475405E0,0E0,0E0,3.5003185E-1,0E0,4.1453123E-1,0E0,1.965586E-1,1.5864761E-1,1.2011855E-1,0E0,1.12341605E-1,0E0,0E0,0E0,6.176282E-1,0E0,2.9902697E-1,0E0,0E0,0E0,8.5555844E-2,6.5128803E-1,0E0,1.3218117E-1,0E0,0E0,0E0,0E0,0E0,0E0,0E0,0E0,0E0,0E0,0E0,0E0,0E0,0E0,0E0,0E0,0E0,0E0,0E0,0E0,0E0,0E0,0E0,0E0],"parents":[2147483647,0,0,1,1,2,2,3,3,4,4,5,5,6,6,7,7,8,8,9,9,10,10,13,13,14,14,15,15,16,16,17,17,19,19,20,20,21,21,22,22,23,23,24,24,25,25,26,26,28,28,33,33,34,34,35,35,36,36,37,37,38,38,43,43,44,44,45,45,46,46,47,47,49,49,50,50,51,51,52,52,54,54,56,56,57,57,58,58,59,59,60,60,65,65,66,66,67,67,74,74,77,77,79,79,81,81,82,82,83,83,85,85,89,89,91,91,95,95,96,96,98,98],"right_children":[2,4,6,8,10,12,14,16,18,20,22,-1,-1,24,26,28,30,32,-1,34,36,38,40,42,44,46,48,-1,50,-1,-1,-1,-1,52,54,56,58,60,62,-1,-1,-1,-1,64,66,68,70,72,-1,74,76,78,80,-1,82,-1,84,86,88,90,92,-1,-1,-1,-1,94,96,98,-1,-1,-1,-1,-1,-1,100,-1,-1,102,-1,104,-1,106,108,110,-1,112,-1,-1,-1,114,-1,116,-1,-1,-1,118,120,-1,122,-1,-1,-1,-1,-1,-1,-1,-1,-1,-1,-1,-1,-1,-1,-1,-1,-1,-1,-1,-1,-1,-1,-1,-1],"split_conditions":[2.979E3,2.132957E5,1E0,1.55969E6,7.93E2,5.97E3,1.1338507E3,4.671642E0,9.7769586E4,2.3337412E6,5.1167645E6,-3.6987517E-2,-1.756873E-2,8E0,2.395631E7,3.85E2,1.2E1,3.373828E-1,6.755213E-3,2.637005E2,3.8575E4,8.582717E2,3.77714E7,4.22E2,1.6331231E5,1E0,6.5324155E3,-3.0945309E-2,1.3439851E7,-1.9773204E-2,-5.8134135E-2,-6.486601E-3,-1.8825851E-2,3.8297257E0,3.02E2,1.62848E5,1.6E0,1.9539816E7,3.1052877E8,7.3179984E-3,2.4702257E-2,1.8387033E-2,3.0922292E-2,7.616526E-1,3.812E3,1.6809296E3,1.7500046E8,7.21E3,-2.6568118E-3,3.91E2,1.75E2,4.969563E6,1E0,1.597132E-3,4E0,-7.696552E-3,5.494656E6,8.036951E0,2.8266037E2,1.915148E7,1E0,-2.6605878E-2,-4.9382052E-3,1.05868755E-2,2.8718267E-2,2.5311186E5,3.9301375E6,3.8003314E0,4.782711E-2,-1.3683408E-3,1.8555209E-2,1.1637455E-2,2.5144096E-2,-2.0790173E-2,2.001E5,-3.1845286E-2,-1.3299578E-2,4.62E2,-2.6013076E-2,5.5E1,-3.239342E-3,2.5086E4,6.346204E-7,1.8544E4,1.1194686E-2,1.0079E5,7.858355E-3,-1.8671153E-2,-2.8289584E-3,3.011152E6,-2.299103E-2,6.127544E2,2.4236852E-4,6.4846734E-3,-1.8794622E-2,1E0,1.342376E0,8.195139E-3,4.908E3,1.8999843E-2,-7.7861226E-3,-1.2610259E-2,-4.600129E-3,-2.1847125E-2,-4.416032E-2,-1.453116E-2,-4.5708125E-3,1.9716169E-3,-7.751801E-3,8.590949E-3,1.4303483E-4,-7.981206E-3,2.9085812E-4,-1.984761E-4,7.123374E-3,1.0078628E-2,2.1281876E-2,2.7017314E-3,-6.8910634E-3,1.9168423E-3,2.161314E-2,3.8988173E-2,2.815632E-2],"split_indices":[2,43,17,9,2,2,4,68,48,43,43,0,0,3,62,1,0,53,0,70,9,4,7,0,48,6,4,0,60,0,0,0,0,69,44,7,68,12,7,0,0,0,0,53,2,67,12,2,0,2,6,60,27,0,8,0,43,71,4,12,6,0,0,0,0,48,60,71,0,0,0,0,0,0,5,0,0,2,0,0,0,12,52,9,0,9,0,0,0,9,0,4,0,0,0,8,69,0,44,0,0,0,0,0,0,0,0,0,0,0,0,0,0,0,0,0,0,0,0,0,0,0,0],"split_type":[0,0,0,0,0,0,0,0,0,0,0,0,0,0,0,0,0,0,0,0,0,0,0,0,0,0,0,0,0,0,0,0,0,0,0,0,0,0,0,0,0,0,0,0,0,0,0,0,0,0,0,0,0,0,0,0,0,0,0,0,0,0,0,0,0,0,0,0,0,0,0,0,0,0,0,0,0,0,0,0,0,0,0,0,0,0,0,0,0,0,0,0,0,0,0,0,0,0,0,0,0,0,0,0,0,0,0,0,0,0,0,0,0,0,0,0,0,0,0,0,0,0,0],"sum_hessian":[7.2E2,5.22E2,1.98E2,1.6E2,3.62E2,1.3E1,1.85E2,1.38E2,2.2E1,1.86E2,1.76E2,7E0,6E0,7.4E1,1.11E2,1.23E2,1.5E1,1.9E1,3E0,1.32E2,5.4E1,1.56E2,2E1,2.7E1,4.7E1,9.3E1,1.8E1,5.1E1,7.2E1,7E0,8E0,1.3E1,6E0,8.4E1,4.8E1,3E1,2.4E1,1.49E2,7E0,6E0,1.4E1,1.3E1,1.4E1,1.5E1,3.2E1,8.4E1,9E0,1.5E1,3E0,4.8E1,2.4E1,6E1,2.4E1,1.2E1,3.6E1,4E0,2.6E1,1.8E1,6E0,1.09E2,4E1,3E0,4E0,7E0,8E0,8E0,2.4E1,5E1,3.4E1,3E0,6E0,6E0,9E0,3.2E1,1.6E1,2.1E1,3E0,5.4E1,6E0,2.1E1,3E0,2.1E1,1.5E1,1.6E1,1E1,1.5E1,3E0,3E0,3E0,1.06E2,3E0,3.1E1,9E0,3E0,5E0,7E0,1.7E1,3E0,4.7E1,5E0,1.1E1,3E1,2.4E1,1.8E1,3E0,1.2E1,9E0,1E1,5E0,5E0,1.1E1,5E0,1E1,5.9E1,4.7E1,2.2E1,9E0,3E0,4E0,6E0,1.1E1,2.2E1,2.5E1],"tree_param":{"num_deleted":"0","num_feature":"108","num_nodes":"123","size_leaf_vector":"1"}},{"base_weights":[2.2351036E-3,-1.4873156E-1,4.9049166E-1,-4.692504E-1,-2.2363627E-2,5.672437E-1,-3.3824246E-2,-6.6127646E-1,-3.5656342E-1,-1.6002634E-1,1.2232918E-1,3.006638E-1,7.127867E-1,-5.556738E-1,-5.0923537E-2,-4.8134527E-1,-1.8503694E-1,-1.14038445E-1,-4.7932425E-1,9.3041986E-2,3.6614245E-1,1.308546E-1,4.900581E-1,5.5147428E-2,6.2227106E-1,-2.8950829E-2,-3.126173E-1,-5.204788E-1,2.1766522E-3,-3.5244605E-1,6.259898E-2,-3.0466688E-1,-7.787009E-2,-3.646666E-1,-7.384426E-1,1.0971752E-1,-2.7711222E-1,3.1527525E-3,4.559064E-1,3.1457126E-2,1.7086351E-2,5.289578E-1,5.966192E-3,6.8415576E-1,2.3745729E-1,-2.1704884E-2,5.071017E-4,-5.391507E-1,-7.078832E-3,-4.194498E-1,-2.3028692E-3,2.5786966E-2,-6.010569E-2,-1.6505558E-2,-7.5685736E-3,-6.5148026E-2,-2.6134806E-2,-2.2622585E-2,-1.1227538E-2,-1.7909756E-2,-4.40572E-2,6.4413674E-2,2.5760987E-1,-5.665794E-3,-1.9493844E-2,1.4760521E-2,2.7117522E-2,9.748017E-2,-1.1456966E-2,3.2016608E-1,2.917292E-2,6.159692E-1,4.2609084E-2,1.5536308E-2,8.096307E-4,-5.6701267E-1,-1.510643E-2,-3.4078988E-1,-3.300152E-2,2.3747953E-5,-1.1605897E-2,-7.7559605E-2,8.128169E-3,1.8870853E-1,1.6338171E-2,3.8109615E-1,1.4976801E-1,-8.85663E-2,2.2889167E-1,1.9190807E-2,5.7570403E-3,1.2973164E-2,6.3546306E-1,-2.9668635E-2,-1.880415E-2,-1.7947122E-2,-5.8336556E-3,-9.288175E-3,-2.4350982E-3,1.2812078E-3,1.5587421E-2,-1.3255143E-4,1.2579486E-2,2.0713953E-2,4.556877E-3,-7.3843547E-3,9.735772E-3,-9.334083E-3,-1.4765552E-4,4.3636123E-3,1.5075383E-2,3.3527832E-2,2.4085492E-2],"categories":[],"categories_nodes":[],"categories_segments":[],"categories_sizes":[],"default_left":[0,0,0,0,0,0,0,0,0,0,0,0,0,0,0,0,0,0,0,0,0,0,0,0,0,0,0,0,0,0,0,0,0,0,0,0,0,0,0,0,0,0,0,0,0,0,0,0,0,0,0,0,0,0,0,0,0,0,0,0,0,0,0,0,0,0,0,0,0,0,0,0,0,0,0,0,0,0,0,0,0,0,0,0,0,0,0,0,0,0,0,0,0,0,0,0,0,0,0,0,0,0,0,0,0,0,0,0,0,0,0,0,0],"id":11,"left_children":[1,3,5,7,9,11,-1,13,15,17,19,21,23,25,-1,27,29,31,33,35,37,39,41,-1,43,-1,45,47,-1,49,51,53,55,57,59,61,63,-1,65,67,-1,69,-1,71,73,-1,-1,75,-1,77,-1,-1,79,-1,-1,81,-1,-1,-1,-1,-1,83,85,-1,-1,-1,-1,87,-1,89,-1,91,-1,-1,-1,93,-1,95,-1,-1,-1,97,-1,99,101,103,105,107,109,-1,-1,-1,111,-1,-1,-1,-1,-1,-1,-1,-1,-1,-1,-1,-1,-1,-1,-1,-1,-1,-1,-1,-1],"loss_changes":[5.46187E1,2.2914375E1,1.6462597E1,3.226429E0,8.12653E0,6.1874924E0,0E0,1.8641357E0,2.1154814E0,3.0142598E0,1.3869143E0,1.8655272E0,3.479824E0,3.7212467E-1,0E0,1.2397995E0,1.8876055E0,1.2449036E0,5.031724E-1,1.1352848E0,5.3628063E-1,7.2835404E-1,3.324356E-1,0E0,1.9808083E0,0E0,4.57327E-1,3.033142E-1,0E0,5.305855E-1,1.1401265E0,1.1405277E-1,8.916223E-1,1.691482E-1,1.1753702E-1,1.1358225E0,1.1653978E-1,0E0,8.563018E-2,4.5172775E-1,0E0,2.1978188E-1,0E0,5.259628E-1,2.6176947E-1,0E0,0E0,1.4607906E-1,0E0,2.3057652E-1,0E0,0E0,1.7651862E-1,0E0,0E0,4.5875007E-1,0E0,0E0,0E0,0E0,0E0,7.9166335E-1,4.7560358E-1,0E0,0E0,0E0,0E0,5.0924504E-1,0E0,9.61076E-2,0E0,2.3883057E-1,0E0,0E0,0E0,1.6423416E-1,0E0,9.3878746E-2,0E0,0E0,0E0,4.4420743E-1,0E0,8.085786E-1,4.5654297E-1,2.209289E-1,4.0339947E-1,8.1023745E-2,1.12858236E-1,0E0,0E0,0E0,1.3262558E-1,0E0,0E0,0E0,0E0,0E0,0E0,0E0,0E0,0E0,0E0,0E0,0E0,0E0,0E0,0E0,0E0,0E0,0E0,0E0,0E0],"parents":[2147483647,0,0,1,1,2,2,3,3,4,4,5,5,7,7,8,8,9,9,10,10,11,11,12,12,13,13,15,15,16,16,17,17,18,18,19,19,20,20,21,21,22,22,24,24,26,26,27,27,29,29,30,30,31,31,32,32,33,33,34,34,35,35,36,36,38,38,39,39,41,41,43,43,44,44,47,47,49,49,52,52,55,55,61,61,62,62,67,67,69,69,71,71,75,75,77,77,81,81,83,83,84,84,85,85,86,86,87,87,88,88,92,92],"right_children":[2,4,6,8,10,12,-1,14,16,18,20,22,24,26,-1,28,30,32,34,36,38,40,42,-1,44,-1,46,48,-1,50,52,54,56,58,60,62,64,-1,66,68,-1,70,-1,72,74,-1,-1,76,-1,78,-1,-1,80,-1,-1,82,-1,-1,-1,-1,-1,84,86,-1,-1,-1,-1,88,-1,90,-1,92,-1,-1,-1,94,-1,96,-1,-1,-1,98,-1,100,102,104,106,108,110,-1,-1,-1,112,-1,-1,-1,-1,-1,-1,-1,-1,-1,-1,-1,-1,-1,-1,-1,-1,-1,-1,-1,-1],"split_conditions":[2.979E3,2.2116136E5,9.00166E7,3.3820656E7,8.62E2,1.0011135E3,-3.3824246E-2,4.8842516E7,1.32E2,6.2233735E-6,5.4214475E6,2.9339488E6,9.91575E6,6.29E2,-5.0923537E-2,2.1229396E4,1.5314285E2,4.1E2,6.18826E5,2.5506506E0,1E0,5.368708E8,1.8442104E1,5.5147428E-2,1E0,-2.8950829E-2,1E0,1.3753864E0,2.1766522E-3,1.0538184E8,4.886E3,7.865293E5,4.4E1,2.0533803E2,5.4E1,6.591425E-1,1E1,3.1527525E-3,2.5E2,1.5783253E8,1.7086351E-2,1.2010375E6,5.966192E-3,6.873394E6,1.2E1,-2.1704884E-2,5.071017E-4,5.7E1,-7.078832E-3,2E1,-2.3028692E-3,2.5786966E-2,2.0162934E5,-1.6505558E-2,-7.5685736E-3,7.6294225E6,-2.6134806E-2,-2.2622585E-2,-1.1227538E-2,-1.7909756E-2,-4.40572E-2,1.0611513E-2,1.1623708E0,-5.665794E-3,-1.9493844E-2,1.4760521E-2,2.7117522E-2,2.8199876E7,-1.1456966E-2,5.368E3,2.917292E-2,8.484036E5,4.2609084E-2,1.5536308E-2,8.096307E-4,9.7E1,-1.510643E-2,3.730007E6,-3.300152E-2,2.3747953E-5,-1.1605897E-2,1.5314285E2,8.128169E-3,4.7759496E7,3.4E1,1.1E1,1.1942981E0,2.19864E5,3.228395E1,1.9190807E-2,5.7570403E-3,1.2973164E-2,2.6591675E0,-2.9668635E-2,-1.880415E-2,-1.7947122E-2,-5.8336556E-3,-9.288175E-3,-2.4350982E-3,1.2812078E-3,1.5587421E-2,-1.3255143E-4,1.2579486E-2,2.0713953E-2,4.556877E-3,-7.3843547E-3,9.735772E-3,-9.334083E-3,-1.4765552E-4,4.3636123E-3,1.5075383E-2,3.3527832E-2,2.4085492E-2],"split_indices":[2,43,60,7,2,4,0,46,44,52,43,43,12,1,0,43,67,2,9,53,29,7,71,0,6,0,17,53,0,7,1,43,3,4,0,57,3,0,0,5,0,62,0,43,8,0,0,6,0,3,0,0,43,0,0,43,0,0,0,0,0,53,53,0,0,0,0,5,0,2,0,43,0,0,0,44,0,9,0,0,0,67,0,7,8,8,57,48,73,0,0,0,53,0,0,0,0,0,0,0,0,0,0,0,0,0,0,0,0,0,0,0,0],"split_type":[0,0,0,0,0,0,0,0,0,0,0,0,0,0,0,0,0,0,0,0,0,0,0,0,0,0,0,0,0,0,0,0,0,0,0,0,0,0,0,0,0,0,0,0,0,0,0,0,0,0,0,0,0,0,0,0,0,0,0,0,0,0,0,0,0,0,0,0,0,0,0,0,0,0,0,0,0,0,0,0,0,0,0,0,0,0,0,0,0,0,0,0,0,0,0,0,0,0,0,0,0,0,0,0,0,0,0,0,0,0,0,0,0],"sum_hessian":[7.39E2,5.65E2,1.74E2,1.59E2,4.06E2,1.64E2,1E1,5.7E1,1.02E2,2.08E2,1.98E2,5.9E1,1.05E2,4.7E1,1E1,5.8E1,4.4E1,1.83E2,2.5E1,1.78E2,2E1,3.2E1,2.7E1,1.6E1,8.9E1,3.8E1,9E0,5.4E1,4E0,2.6E1,1.8E1,2.8E1,1.55E2,1.9E1,6E0,1.71E2,7E0,5E0,1.5E1,2.3E1,9E0,2.4E1,3E0,7.6E1,1.3E1,6E0,3E0,5.1E1,3E0,2.1E1,5E0,3E0,1.5E1,2.1E1,7E0,1.52E2,3E0,9E0,1E1,3E0,3E0,1.32E2,3.9E1,4E0,3E0,8E0,7E0,1.9E1,4E0,8E0,1.6E1,6E1,1.6E1,9E0,4E0,4.4E1,7E0,1.8E1,3E0,1.2E1,3E0,1.45E2,7E0,3.6E1,9.6E1,1.7E1,2.2E1,8E0,1.1E1,5E0,3E0,4E0,5.6E1,3.2E1,1.2E1,1.5E1,3E0,2.6E1,1.19E2,1.7E1,1.9E1,9E1,6E0,1.4E1,3E0,3E0,1.9E1,3E0,5E0,5E0,6E0,3.5E1,2.1E1],"tree_param":{"num_deleted":"0","num_feature":"108","num_nodes":"113","size_leaf_vector":"1"}},{"base_weights":[3.5602597E-3,-1.4242783E-1,4.3459058E-1,-3.6283025E-1,5.05317E-2,-5.731146E-1,4.9971837E-1,-5.563182E-1,-2.3399012E-1,-4.2916E-2,1.8722521E-1,-3.1082306E-2,-1.2510531E-2,3.0480194E-1,6.650648E-1,-5.953248E-1,-3.045741E-1,-1.6255762E-1,-8.6225826E-1,-8.7972224E-2,6.881694E-2,2.1908943E-1,-9.679712E-2,4.6368477E-1,1.5679939E-1,5.0501637E-2,5.801906E-1,-6.254284E-1,-3.500413E-1,-1.7207202E-2,-2.496163E-3,-3.2594305E-1,5.3547993E-3,-1.6646376E-2,-1.0648404E0,-3.5242867E-1,-3.2775838E-2,1.8419078E-1,2.3192938E-3,1.3161032E-1,3.2143214E-1,-2.189292E-1,1.1159946E-2,3.2385278E-1,2.816328E-2,2.220937E-1,-2.293831E-1,1.452239E-1,6.394081E-1,-2.221428E-2,-3.246563E-2,5.781079E-3,-5.2030396E-1,-3.9800322E-1,-2.1547434E-1,2.6191557E-2,-6.1293807E-2,-6.0125135E-2,-2.0167675E-2,-1.9666098E-1,-3.524616E-2,-7.7602235E-5,-1.842162E-1,5.976529E-3,1.5633112E-2,-1.4293873E-1,3.855097E-2,1.6902089E-1,-1.1483991E-2,2.550093E-1,2.2029953E-2,-1.6566778E-2,-3.6911203E-3,1.7875616E-2,6.6843824E-3,5.7442006E-2,1.8815732E-2,-1.7600872E-2,-1.6479789E-3,-1.31642055E-2,1.6204007E-2,7.066508E-1,2.4991056E-1,-3.0050704E-2,-1.1060408E-2,-9.822267E-3,-2.004529E-2,-5.3256415E-3,-1.3214257E-2,-1.0878176E-1,6.874596E-2,-1.5546299E-2,-6.0642435E-4,-6.1448123E-2,7.663749E-2,1.6851064E-3,-2.4505441E-1,-1.23627195E-2,3.6791005E-4,5.100239E-3,5.8280807E-3,-1.1506698E-2,1.9669856E-1,1.3163387E-2,5.3581735E-3,-8.1005566E-2,1.2037803E-2,-6.927965E-3,5.823281E-3,1.419327E-2,7.467985E-1,1.7389018E-2,9.383888E-4,-9.974169E-3,-1.1462981E-3,7.1747587E-3,-8.221939E-3,2.0516086E-3,-5.822129E-3,-1.3329252E-3,8.26928E-3,-8.095915E-3,-1.7441424E-2,2.5862472E-3,-3.1650364E-3,7.7133453E-3,1.8135663E-2,2.4243083E-3,-6.0194004E-3,2.5803395E-2,3.835396E-2],"categories":[],"categories_nodes":[],"categories_segments":[],"categories_sizes":[],"default_left":[0,0,0,0,0,0,0,0,0,0,0,0,0,0,0,0,0,0,0,0,0,0,0,0,0,0,0,0,0,0,0,0,0,0,0,0,0,0,0,0,0,0,0,0,0,0,0,0,0,0,0,0,0,0,0,0,0,0,0,0,0,0,0,0,0,0,0,0,0,0,0,0,0,0,0,0,0,0,0,0,0,0,0,0,0,0,0,0,0,0,0,0,0,0,0,0,0,0,0,0,0,0,0,0,0,0,0,0,0,0,0,0,0,0,0,0,0,0,0,0,0,0,0,0,0,0,0,0,0,0,0],"id":12,"left_children":[1,3,5,7,9,11,13,15,17,19,21,-1,-1,23,25,27,29,31,33,35,37,39,41,43,45,-1,47,49,51,-1,-1,53,55,-1,57,59,61,63,65,67,69,71,-1,73,-1,75,77,79,81,-1,-1,-1,83,85,87,-1,89,-1,-1,91,-1,93,95,-1,-1,97,99,101,-1,103,-1,-1,-1,-1,-1,105,-1,-1,-1,107,-1,109,111,-1,-1,-1,-1,-1,-1,113,115,-1,-1,117,119,-1,121,-1,-1,123,-1,-1,125,-1,-1,127,-1,-1,-1,-1,129,-1,-1,-1,-1,-1,-1,-1,-1,-1,-1,-1,-1,-1,-1,-1,-1,-1,-1,-1,-1],"loss_changes":[4.725587E1,2.387696E1,1.275602E1,6.40123E0,3.840143E0,1.1219478E-1,5.566231E0,8.3992386E-1,6.995557E0,9.071873E-1,1.1253257E0,0E0,0E0,1.9025593E0,2.551239E0,4.3824196E-1,2.0058382E-1,3.952305E0,1.2999792E0,1.85687E0,3.9852142E-1,9.425092E-1,5.741514E-1,5.013437E-1,1.185643E0,0E0,1.9935131E0,3.3926392E-1,1.0242381E0,0E0,0E0,4.9534988E-1,2.6288583E0,0E0,8.12232E-1,1.1665883E0,5.2983177E-1,1.1984843E-1,1.8445045E-1,8.873465E-1,3.4111595E-1,1.5306032E-1,0E0,1.3756728E-1,0E0,1.0709912E0,1.7531997E-1,3.4018126E-1,1.682951E0,0E0,0E0,0E0,1.3276768E-1,8.071518E-2,1.6392136E-1,0E0,4.0887433E-1,0E0,0E0,3.948934E-1,0E0,4.2372525E-1,2.62173E-1,0E0,0E0,1.23089954E-1,7.710958E-2,6.8110573E-1,0E0,6.991744E-2,0E0,0E0,0E0,0E0,0E0,5.8320045E-1,0E0,0E0,0E0,1.4127281E-1,0E0,7.6818085E-1,3.044843E-1,0E0,0E0,0E0,0E0,0E0,0E0,3.992659E-1,3.7535232E-1,0E0,0E0,3.177268E-1,4.0503806E-1,0E0,7.426983E-2,0E0,0E0,7.6478794E-2,0E0,0E0,2.8396392E-1,0E0,0E0,8.24974E-2,0E0,0E0,0E0,0E0,1.6736412E-1,0E0,0E0,0E0,0E0,0E0,0E0,0E0,0E0,0E0,0E0,0E0,0E0,0E0,0E0,0E0,0E0,0E0,0E0,0E0,0E0],"parents":[2147483647,0,0,1,1,2,2,3,3,4,4,5,5,6,6,7,7,8,8,9,9,10,10,13,13,14,14,15,15,16,16,17,17,18,18,19,19,20,20,21,21,22,22,23,23,24,24,26,26,27,27,28,28,31,31,32,32,34,34,35,35,36,36,37,37,38,38,39,39,40,40,41,41,43,43,45,45,46,46,47,47,48,48,52,52,53,53,54,54,56,56,59,59,61,61,62,62,65,65,66,66,67,67,69,69,75,75,79,79,81,81,82,82,89,89,90,90,93,93,94,94,96,96,99,99,102,102,105,105,110,110],"right_children":[2,4,6,8,10,12,14,16,18,20,22,-1,-1,24,26,28,30,32,34,36,38,40,42,44,46,-1,48,50,52,-1,-1,54,56,-1,58,60,62,64,66,68,70,72,-1,74,-1,76,78,80,82,-1,-1,-1,84,86,88,-1,90,-1,-1,92,-1,94,96,-1,-1,98,100,102,-1,104,-1,-1,-1,-1,-1,106,-1,-1,-1,108,-1,110,112,-1,-1,-1,-1,-1,-1,114,116,-1,-1,118,120,-1,122,-1,-1,124,-1,-1,126,-1,-1,128,-1,-1,-1,-1,130,-1,-1,-1,-1,-1,-1,-1,-1,-1,-1,-1,-1,-1,-1,-1,-1,-1,-1,-1,-1],"split_conditions":[2.871E3,7.0472194E5,1E0,9.7E1,1.158E3,1.6778718E3,1.2014435E3,7.568006E-2,4.5454545E0,3.2995722E6,4.675E0,-3.1082306E-2,-1.2510531E-2,8E0,9.783297E6,2.4848027E4,4.5231525E1,5.51E2,4.23E2,1.9603093E2,2.1389E4,2.315878E6,1.6195122E1,1.6305691E8,1.219286E7,5.0501637E-2,1E0,1E0,3.6819E4,-1.7207202E-2,-2.496163E-3,1.5895744E2,3.76768E5,-1.6646376E-2,1.5107329E1,6.4E2,6.346204E-7,2.1108E4,9.151E2,1.5E1,8.2465213E9,4.04E2,1.1159946E-2,2.5369E4,2.816328E-2,7.069392E2,4.51E2,1.6E1,1E0,-2.221428E-2,-3.246563E-2,5.781079E-3,2.17E2,1.13E2,1.4375E0,2.6191557E-2,3.6698947E2,-6.0125135E-2,-2.0167675E-2,5.59E2,-3.524616E-2,1.7319E4,1.2E1,5.976529E-3,1.5633112E-2,4.5549E4,2.9411227E2,4E0,-1.1483991E-2,2.7064876E7,2.2029953E-2,-1.6566778E-2,-3.6911203E-3,1.7875616E-2,6.6843824E-3,2.94E2,1.8815732E-2,-1.7600872E-2,-1.6479789E-3,2.4444444E0,1.6204007E-2,8.484036E5,2.64E0,-3.0050704E-2,-1.1060408E-2,-9.822267E-3,-2.004529E-2,-5.3256415E-3,-1.3214257E-2,1.345672E6,1.363E3,-1.5546299E-2,-6.0642435E-4,1.4354838E0,1.221875E1,1.6851064E-3,8.4E1,-1.23627195E-2,3.6791005E-4,2.2894305E-3,5.8280807E-3,-1.1506698E-2,2.628E3,1.3163387E-2,5.3581735E-3,2.2352262E5,1.2037803E-2,-6.927965E-3,5.823281E-3,1.419327E-2,5.526E3,1.7389018E-2,9.383888E-4,-9.974169E-3,-1.1462981E-3,7.1747587E-3,-8.221939E-3,2.0516086E-3,-5.822129E-3,-1.3329252E-3,8.26928E-3,-8.095915E-3,-1.7441424E-2,2.5862472E-3,-3.1650364E-3,7.7133453E-3,1.8135663E-2,2.4243083E-3,-6.0194004E-3,2.5803395E-2,3.835396E-2],"split_indices":[2,43,17,44,2,4,4,57,68,43,69,0,0,3,12,43,73,2,44,70,9,9,73,12,62,0,27,20,60,0,0,4,5,0,71,2,52,12,48,8,46,10,0,44,0,67,0,3,6,0,0,0,1,44,68,0,67,0,0,44,0,1,3,0,0,1,4,3,0,9,0,0,0,0,0,0,0,0,0,69,0,43,69,0,0,0,0,0,0,9,2,0,0,68,73,0,0,0,0,53,0,0,2,0,0,43,0,0,0,0,2,0,0,0,0,0,0,0,0,0,0,0,0,0,0,0,0,0,0,0,0],"split_type":[0,0,0,0,0,0,0,0,0,0,0,0,0,0,0,0,0,0,0,0,0,0,0,0,0,0,0,0,0,0,0,0,0,0,0,0,0,0,0,0,0,0,0,0,0,0,0,0,0,0,0,0,0,0,0,0,0,0,0,0,0,0,0,0,0,0,0,0,0,0,0,0,0,0,0,0,0,0,0,0,0,0,0,0,0,0,0,0,0,0,0,0,0,0,0,0,0,0,0,0,0,0,0,0,0,0,0,0,0,0,0,0,0,0,0,0,0,0,0,0,0,0,0,0,0,0,0,0,0,0,0],"sum_hessian":[7.49E2,5.6E2,1.89E2,2.61E2,2.99E2,1.1E1,1.78E2,1.03E2,1.58E2,1.78E2,1.21E2,8E0,3E0,8.3E1,9.5E1,8.8E1,1.5E1,1.43E2,1.5E1,1.27E2,5.1E1,1.09E2,1.2E1,3.9E1,4.4E1,1.5E1,8E1,7.7E1,1.1E1,1.2E1,3E0,7.2E1,7.1E1,5E0,1E1,2.1E1,1.06E2,1.8E1,3.3E1,6E1,4.9E1,9E0,3E0,2E1,1.9E1,3.8E1,6E0,1E1,7E1,2.1E1,5.6E1,3E0,8E0,4.2E1,3E1,7E0,6.4E1,7E0,3E0,1.6E1,5E0,8.8E1,1.8E1,1.4E1,4E0,6E0,2.7E1,5.5E1,5E0,3.5E1,1.4E1,4E0,5E0,1.5E1,5E0,2E1,1.8E1,3E0,3E0,6E0,4E0,5.9E1,1.1E1,5E0,3E0,5E0,3.7E1,1.2E1,1.8E1,4.7E1,1.7E1,9E0,7E0,4.9E1,3.9E1,4E0,1.4E1,3E0,3E0,2E1,7E0,3E0,5.2E1,3E1,5E0,1.2E1,8E0,3E0,3E0,6E0,5.3E1,7E0,4E0,2.1E1,2.6E1,1.3E1,4E0,1.8E1,3.1E1,1.9E1,2E1,1E1,4E0,1.2E1,8E0,4.5E1,7E0,3E0,9E0,1.3E1,4E1],"tree_param":{"num_deleted":"0","num_feature":"108","num_nodes":"131","size_leaf_vector":"1"}},{"base_weights":[1.0505121E-2,-1.4243114E-1,4.304311E-1,-3.4863114E-1,1.6817648E-2,-2.2410458E-2,4.7688442E-1,-5.250378E-1,-2.2594377E-1,-9.385715E-2,1.4742035E-1,3.082152E-1,6.1858815E-1,-6.976836E-1,-4.6894866E-1,-1.7814116E-1,-7.61652E-1,-4.447629E-2,-3.3035496E-1,1.11988574E-1,4.1058835E-1,2.0049752E-1,4.7514066E-1,6.895276E-1,2.8360495E-1,-1.9524598E-2,-3.658825E-2,-5.005311E-1,-3.1135565E-1,-3.1763148E-1,-1.9723417E-2,-1.0165344E-2,-9.412762E-1,-1.0753304E-1,3.0296344E-2,-4.764003E-1,-6.133945E-2,1.2989816E-1,-2.0335558E-1,4.652178E-3,2.4312887E-2,3.6391848E-1,1.0138563E-1,3.2031715E-1,2.6294783E-2,6.1874473E-1,5.419573E-2,3.7008184E-1,-6.387372E-3,-2.460622E-2,-9.38227E-3,-1.8802527E-1,-2.4954688E-2,-3.5355014E-1,-4.7648153E-3,2.1027625E-2,-6.846823E-2,-5.411285E-2,-2.2630805E-2,8.524431E-2,-1.7567874E-1,-2.35966E-2,1.6633962E-1,-1.6587071E-2,-4.0597722E-2,5.5158483E-3,-8.561998E-3,1.4653215E-1,-1.5242644E-1,-1.7070178E-2,5.444067E-6,1.5564525E-1,4.8979688E-1,2.067099E-1,-1.472046E-1,1.763327E-2,5.836173E-3,8.275504E-3,6.3564205E-1,7.899218E-3,2.0370139E-2,-1.3524566E-2,-9.011573E-4,-1.799292E-2,-6.8091988E-3,-1.0619462E-1,9.552109E-2,1.7981355E-6,6.2875436E-3,-2.4638189E-2,-1.3908385E-1,3.6603726E-2,-1.5045086E-1,9.707386E-3,-5.093779E-4,1.0196497E-1,2.4878292E-1,-1.1565206E-2,-1.2257718E-3,1.4895087E-2,1.2651582E-3,2.9718952E-2,1.2301221E-2,-2.6594853E-2,1.6284736E-2,6.2088165E-2,-1.9697351E-2,4.0430803E-2,2.696744E-2,2.2388536E-3,-5.8437334E-3,7.582198E-3,-2.5682591E-3,4.8276437E-3,-9.247908E-3,3.2137302E-3,-3.912865E-3,-1.1386657E-2,-2.1403371E-3,5.969768E-3,-1.6859753E-2,1.5312975E-2,3.7707656E-3,-5.747813E-3,4.346831E-3,-1.9326366E-3,7.142811E-3],"categories":[],"categories_nodes":[],"categories_segments":[],"categories_sizes":[],"default_left":[0,0,0,0,0,0,0,0,0,0,0,0,0,0,0,0,0,0,0,0,0,0,0,0,0,0,0,0,0,0,0,0,0,0,0,0,0,0,0,0,0,0,0,0,0,0,0,0,0,0,0,0,0,0,0,0,0,0,0,0,0,0,0,0,0,0,0,0,0,0,0,0,0,0,0,0,0,0,0,0,0,0,0,0,0,0,0,0,0,0,0,0,0,0,0,0,0,0,0,0,0,0,0,0,0,0,0,0,0,0,0,0,0,0,0,0,0,0,0,0,0,0,0,0,0,0,0],"id":13,"left_children":[1,3,5,7,9,-1,11,13,15,17,19,21,23,25,27,29,31,33,35,37,39,41,43,45,47,-1,-1,49,51,53,55,-1,57,59,61,63,65,67,69,-1,-1,71,73,75,-1,77,-1,79,-1,-1,-1,81,-1,83,-1,-1,85,-1,-1,87,89,91,93,-1,-1,-1,-1,95,97,-1,-1,99,101,103,105,-1,-1,-1,107,-1,-1,-1,-1,-1,-1,109,111,-1,-1,-1,113,115,117,-1,-1,119,121,-1,-1,-1,-1,-1,-1,123,-1,125,-1,-1,-1,-1,-1,-1,-1,-1,-1,-1,-1,-1,-1,-1,-1,-1,-1,-1,-1,-1,-1],"loss_changes":[4.6429523E1,1.7409527E1,8.271954E0,4.8808765E0,4.350165E0,0E0,4.2071342E0,5.830803E-1,3.3982577E0,1.8888966E0,1.2408011E0,1.451086E0,2.1570358E0,8.792591E-2,2.124672E-1,2.822246E0,8.8651514E-1,6.444869E-1,1.0708547E0,7.210803E-1,4.346552E-1,8.377397E-1,1.9843149E-1,1.8273087E0,7.341386E-1,0E0,0E0,1.303215E-1,2.8889334E-1,4.9797392E-1,1.3925669E0,0E0,1.7030478E-1,9.8710984E-1,4.6582672E-1,5.767503E-1,2.479413E-1,5.717895E-1,2.1742916E-1,0E0,0E0,4.4810748E-1,9.4681907E-1,7.765627E-2,0E0,4.3310928E-1,0E0,1.09815836E-1,0E0,0E0,0E0,1.6972202E-1,0E0,2.1271276E-1,0E0,0E0,3.566005E-1,0E0,0E0,7.8176945E-2,6.091026E-1,3.5679376E-1,1.1714268E-1,0E0,0E0,0E0,0E0,4.804628E-1,7.265538E-2,0E0,0E0,1.7210151E-1,2.0481682E-1,7.841641E-1,6.3229793E-1,0E0,0E0,0E0,5.74728E-1,0E0,0E0,0E0,0E0,0E0,0E0,1.1590642E-1,1.1112541E-1,0E0,0E0,0E0,6.769585E-1,1.20518595E-1,1.2750533E-1,0E0,0E0,8.5105693E-1,3.7105775E-1,0E0,0E0,0E0,0E0,0E0,0E0,1.2022179E-1,0E0,6.826688E-2,0E0,0E0,0E0,0E0,0E0,0E0,0E0,0E0,0E0,0E0,0E0,0E0,0E0,0E0,0E0,0E0,0E0,0E0,0E0,0E0,0E0],"parents":[2147483647,0,0,1,1,2,2,3,3,4,4,6,6,7,7,8,8,9,9,10,10,11,11,12,12,13,13,14,14,15,15,16,16,17,17,18,18,19,19,20,20,21,21,22,22,23,23,24,24,27,27,28,28,29,29,30,30,32,32,33,33,34,34,35,35,36,36,37,37,38,38,41,41,42,42,43,43,45,45,47,47,51,51,53,53,56,56,59,59,60,60,61,61,62,62,67,67,68,68,71,71,72,72,73,73,74,74,78,78,85,85,86,86,90,90,91,91,92,92,95,95,96,96,103,103,105,105],"right_children":[2,4,6,8,10,-1,12,14,16,18,20,22,24,26,28,30,32,34,36,38,40,42,44,46,48,-1,-1,50,52,54,56,-1,58,60,62,64,66,68,70,-1,-1,72,74,76,-1,78,-1,80,-1,-1,-1,82,-1,84,-1,-1,86,-1,-1,88,90,92,94,-1,-1,-1,-1,96,98,-1,-1,100,102,104,106,-1,-1,-1,108,-1,-1,-1,-1,-1,-1,110,112,-1,-1,-1,114,116,118,-1,-1,120,122,-1,-1,-1,-1,-1,-1,124,-1,126,-1,-1,-1,-1,-1,-1,-1,-1,-1,-1,-1,-1,-1,-1,-1,-1,-1,-1,-1,-1,-1],"split_conditions":[2.871E3,4.9348775E5,1E0,9.7E1,9.31E2,-2.2410458E-2,1.1369624E3,1.0978261E0,4.671642E0,4.06619E0,5.4214475E6,1E0,2.395631E7,9.46804E5,2.0376764E-7,5.51E2,2.52E2,2.732381E2,2.637005E2,2.856934E7,3.3852024E7,1.6331231E5,5.945366E6,2.0718E4,2.0277777E0,-1.9524598E-2,-3.658825E-2,1.0375E1,1.07215E5,3.730007E6,2.001E5,-1.0165344E-2,9.99E2,4.6231157E-1,2.7063E4,5.3E1,3.4015972E5,1E0,1.1E1,4.652178E-3,2.4312887E-2,6.7148806E5,1.5783253E8,1.3333334E0,2.6294783E-2,3.9157894E0,5.419573E-2,1.4916515E3,-6.387372E-3,-2.460622E-2,-9.38227E-3,6.5E1,-2.4954688E-2,4.4628972E5,-4.7648153E-3,2.1027625E-2,4.2492856E2,-5.411285E-2,-2.2630805E-2,7.96E2,5.8897305E1,1.59375E0,1.3680659E7,-1.6587071E-2,-4.0597722E-2,5.5158483E-3,-8.561998E-3,6.591425E-1,1.1E1,-1.7070178E-2,5.444067E-6,2.43942E5,1.2E1,6.329365E2,8.913044E-1,1.763327E-2,5.836173E-3,8.275504E-3,9.25E0,7.899218E-3,2.0370139E-2,-1.3524566E-2,-9.011573E-4,-1.799292E-2,-6.8091988E-3,1.5052E4,1.363E3,1.7981355E-6,6.2875436E-3,-2.4638189E-2,7.722121E2,3.373913E0,3.509885E2,9.707386E-3,-5.093779E-4,2.457E3,7.45657E0,-1.1565206E-2,-1.2257718E-3,1.4895087E-2,1.2651582E-3,2.9718952E-2,1.2301221E-2,1.8276068E7,1.6284736E-2,4.51E2,-1.9697351E-2,4.0430803E-2,2.696744E-2,2.2388536E-3,-5.8437334E-3,7.582198E-3,-2.5682591E-3,4.8276437E-3,-9.247908E-3,3.2137302E-3,-3.912865E-3,-1.1386657E-2,-2.1403371E-3,5.969768E-3,-1.6859753E-2,1.5312975E-2,3.7707656E-3,-5.747813E-3,4.346831E-3,-1.9326366E-3,7.142811E-3],"split_indices":[2,43,17,44,2,0,67,68,68,69,43,28,62,46,52,2,44,4,70,60,7,48,60,2,68,0,0,68,1,9,5,0,2,68,1,0,62,79,8,0,0,43,5,68,0,71,0,4,0,0,0,0,0,43,0,0,4,0,0,12,62,68,60,0,0,0,0,57,3,0,0,9,8,67,68,0,0,0,71,0,0,0,0,0,0,9,2,0,0,0,48,69,4,0,0,2,71,0,0,0,0,0,0,12,0,0,0,0,0,0,0,0,0,0,0,0,0,0,0,0,0,0,0,0,0,0,0],"split_type":[0,0,0,0,0,0,0,0,0,0,0,0,0,0,0,0,0,0,0,0,0,0,0,0,0,0,0,0,0,0,0,0,0,0,0,0,0,0,0,0,0,0,0,0,0,0,0,0,0,0,0,0,0,0,0,0,0,0,0,0,0,0,0,0,0,0,0,0,0,0,0,0,0,0,0,0,0,0,0,0,0,0,0,0,0,0,0,0,0,0,0,0,0,0,0,0,0,0,0,0,0,0,0,0,0,0,0,0,0,0,0,0,0,0,0,0,0,0,0,0,0,0,0,0,0,0,0],"sum_hessian":[7.21E2,5.29E2,1.92E2,2.3E2,2.99E2,9E0,1.83E2,9.3E1,1.37E2,1.62E2,1.37E2,8.5E1,9.8E1,2E1,7.3E1,1.27E2,1E1,1.35E2,2.7E1,1.22E2,1.5E1,5.3E1,3.2E1,8E1,1.8E1,5E0,1.5E1,5.9E1,1.4E1,6.7E1,6E1,3E0,7E0,7.3E1,6.2E1,1.7E1,1E1,1.16E2,6E0,4E0,1.1E1,1.9E1,3.4E1,1.2E1,2E1,7.1E1,9E0,1.5E1,3E0,5.6E1,3E0,1E1,4E0,5.7E1,1E1,5E0,5.5E1,4E0,3E0,1.9E1,5.4E1,4.5E1,1.7E1,1.4E1,3E0,4E0,6E0,1.1E2,6E0,3E0,3E0,8E0,1.1E1,2.4E1,1E1,9E0,3E0,3E0,6.8E1,4E0,1.1E1,6E0,4E0,5.1E1,6E0,4.5E1,1E1,7E0,1.2E1,4E0,5E1,3.1E1,1.4E1,1.4E1,3E0,7.8E1,3.2E1,3E0,3E0,3E0,5E0,6E0,5E0,9E0,1.5E1,6E0,4E0,1.5E1,5.3E1,4E0,4.1E1,7E0,3E0,9E0,4.1E1,2.5E1,6E0,7E0,7E0,7.5E1,3E0,2.2E1,1E1,5E0,4E0,3E0,3E0],"tree_param":{"num_deleted":"0","num_feature":"108","num_nodes":"127","size_leaf_vector":"1"}},{"base_weights":[-8.08945E-4,-1.405095E-1,3.8764825E-1,-5.281452E-1,-4.5708746E-2,-5.02801E-1,4.75025E-1,-4.6625823E-1,-7.338951E-1,-2.9217166E-1,3.071343E-2,-2.9281326E-2,-2.9167196E-1,2.6629698E-1,6.4100426E-1,-5.7215214E-1,-3.134188E-1,-4.233341E-2,-2.6441537E-2,-2.5499496E-1,-7.7090657E-1,5.797718E-2,-6.004941E-1,-5.182096E-3,-1.823226E-2,3.1138667E-1,-8.497843E-2,8.806966E-1,4.8375723E-1,-6.4294375E-3,-2.866596E-2,-3.5599518E-1,-3.8405678E-3,-1.7093608E-2,-1.5448497E-1,-1.7540988E-2,-4.715021E-2,-2.229102E-2,1.7731605E-1,-4.9898624E-2,-3.8586578E-1,9.9458024E-2,3.7508357E-1,7.6249363E-3,-1.3145569E-2,9.396287E-1,1.4568689E-2,5.9562653E-1,3.6026648E-1,-2.173481E-1,-2.1932695E-2,-5.1336054E-2,-2.3096566E-1,1.6306527E-2,-3.767348E-2,2.027891E-1,-3.1496532E-2,-5.4458897E-3,-2.271865E-2,-3.857611E-3,2.2125684E-1,4.2246002E-1,4.3939408E-2,3.795901E-2,5.8296062E-2,3.0188518E-2,1.0031174E-2,2.8502017E-3,4.0111902E-1,-1.6864123E-2,-6.546641E-3,2.2281548E-2,-1.20675646E-1,-2.5454926E-1,-9.557185E-4,-1.5524313E-1,1.3770362E-2,1.1090798E-1,3.1374073E-1,1.375731E-3,-9.790882E-3,1.3062071E-2,3.0524647E-3,1.262679E-2,4.5740885E-1,-5.8264206E-3,1.1496978E-2,4.4870806E-1,7.2810706E-3,-4.151764E-3,4.1975146E-3,-5.5895874E-4,-8.330582E-3,-6.566428E-3,-1.3938284E-2,4.3464764E-3,-1.0045327E-2,2.5749232E-3,-5.343473E-3,6.921163E-3,-6.9677057E-3,1.1117071E-2,2.1280574E-2,2.3258617E-2,1.099041E-2,1.1514638E-2,2.4369076E-2],"categories":[],"categories_nodes":[],"categories_segments":[],"categories_sizes":[],"default_left":[0,0,0,0,0,0,0,0,0,0,0,0,0,0,0,0,0,0,0,0,0,0,0,0,0,0,0,0,0,0,0,0,0,0,0,0,0,0,0,0,0,0,0,0,0,0,0,0,0,0,0,0,0,0,0,0,0,0,0,0,0,0,0,0,0,0,0,0,0,0,0,0,0,0,0,0,0,0,0,0,0,0,0,0,0,0,0,0,0,0,0,0,0,0,0,0,0,0,0,0,0,0,0,0,0,0,0],"id":14,"left_children":[1,3,5,7,9,11,13,15,17,19,21,-1,23,25,27,29,31,-1,-1,33,35,37,39,-1,-1,41,43,45,47,-1,-1,49,-1,-1,51,-1,-1,53,55,-1,57,59,61,-1,-1,63,-1,65,67,69,-1,71,73,-1,75,77,79,-1,-1,-1,81,83,85,-1,-1,-1,-1,-1,87,-1,-1,89,91,93,-1,95,97,99,101,-1,-1,-1,-1,-1,103,-1,-1,105,-1,-1,-1,-1,-1,-1,-1,-1,-1,-1,-1,-1,-1,-1,-1,-1,-1,-1,-1],"loss_changes":[4.021256E1,2.0003605E1,1.5488539E1,1.0202713E0,8.27764E0,2.3171711E-1,6.03067E0,1.1963806E0,1.3827133E-1,1.6543922E0,5.817068E0,0E0,8.897191E-2,1.309412E0,3.305355E0,4.705429E-1,3.3905315E-1,0E0,0E0,9.4450045E-1,2.4254847E-1,3.0980072E0,9.208927E-1,0E0,0E0,9.3463707E-1,5.0513107E-1,1.0063953E0,6.4193535E-1,0E0,0E0,3.3638787E-1,0E0,0E0,3.9047694E-1,0E0,0E0,1.0941396E0,6.978693E-1,0E0,2.0951962E-1,4.1222078E-1,8.443012E-1,0E0,0E0,4.2712975E-1,0E0,2.7479362E-1,3.6942434E-1,1.1485231E-1,0E0,1.2009497E-1,1.3925862E-1,0E0,1.1331577E0,1.1477494E0,1.6175717E-1,0E0,0E0,0E0,7.132113E-2,1.465149E-1,2.8831384E-1,0E0,0E0,0E0,0E0,0E0,2.6402855E-1,0E0,0E0,9.2825E-2,6.737955E-2,7.0656896E-2,0E0,7.7925336E-1,6.608701E-1,5.776752E-1,4.5098495E-1,0E0,0E0,0E0,0E0,0E0,1.2845945E-1,0E0,0E0,1.633625E-1,0E0,0E0,0E0,0E0,0E0,0E0,0E0,0E0,0E0,0E0,0E0,0E0,0E0,0E0,0E0,0E0,0E0,0E0,0E0],"parents":[2147483647,0,0,1,1,2,2,3,3,4,4,5,5,6,6,7,7,8,8,9,9,10,10,12,12,13,13,14,14,15,15,16,16,19,19,20,20,21,21,22,22,25,25,26,26,27,27,28,28,31,31,34,34,37,37,38,38,40,40,41,41,42,42,45,45,47,47,48,48,49,49,51,51,52,52,54,54,55,55,56,56,60,60,61,61,62,62,68,68,71,71,72,72,73,73,75,75,76,76,77,77,78,78,84,84,87,87],"right_children":[2,4,6,8,10,12,14,16,18,20,22,-1,24,26,28,30,32,-1,-1,34,36,38,40,-1,-1,42,44,46,48,-1,-1,50,-1,-1,52,-1,-1,54,56,-1,58,60,62,-1,-1,64,-1,66,68,70,-1,72,74,-1,76,78,80,-1,-1,-1,82,84,86,-1,-1,-1,-1,-1,88,-1,-1,90,92,94,-1,96,98,100,102,-1,-1,-1,-1,-1,104,-1,-1,106,-1,-1,-1,-1,-1,-1,-1,-1,-1,-1,-1,-1,-1,-1,-1,-1,-1,-1,-1],"split_conditions":[2.871E3,1.21E2,1E0,1.5211386E8,5E2,1.5932833E3,1.2293524E3,4.02E2,8.874974E7,3.898923E0,6.27957E0,-2.9281326E-2,2.652E3,1.219286E7,1.3977353E7,5E0,5.61E2,-4.233341E-2,-2.6441537E-2,3.59E2,1.2E1,1.158E3,7.93E2,-5.182096E-3,-1.823226E-2,3.7155106E5,1.9548731E6,5.268442E6,1.7263157E0,-6.4294375E-3,-2.866596E-2,7.9166665E0,-3.8405678E-3,-1.7093608E-2,1.3157895E0,-1.7540988E-2,-4.715021E-2,1.3E1,1E0,-4.9898624E-2,3.4E1,1E0,2E0,7.6249363E-3,-1.3145569E-2,1.437171E6,1.4568689E-2,2.1E1,1.4603129E7,1E0,-2.1932695E-2,4.36E2,1E0,1.6306527E-2,1E0,4.265E2,7.6503795E8,-5.4458897E-3,-2.271865E-2,-3.857611E-3,5.1831645E6,4.7112436E2,8.582717E2,3.795901E-2,5.8296062E-2,3.0188518E-2,1.0031174E-2,2.8502017E-3,8.388606E8,-1.6864123E-2,-6.546641E-3,6.8E1,4.86E2,5.4356023E-3,-9.557185E-4,