{"learner":{"attributes":{},"feature_names":["numTasks_sum","duration_sum","duration_max","duration_min","duration_mean","input_recordsRead_sum","output_recordsWritten_sum","peakExecutionMemory_max","resultSerializationTime_sum","resultSize_max","sr_localBlocksFetched_sum","sr_remoteBlocksFetched_sum","sw_recordsWritten_sum","sqlOp_AQEShuffleRead","sqlOp_BroadcastExchange","sqlOp_BroadcastHashJoin","sqlOp_ColumnarToRow","sqlOp_Exchange","sqlOp_Filter","sqlOp_HashAggregate","sqlOp_LocalTableScan","sqlOp_Project","sqlOp_Scan parquet","sqlOp_Sort","sqlOp_SortMergeJoin","sqlOp_Subquery","numExecutors","executorCores","maxMem","maxOnHeapMem","maxOffHeapMem","executorMemory","numGpusPerExecutor","executorOffHeap","taskCpu","taskGpu","cache_hit_ratio","scan_bw","scan_time","decode_time","data_size","shuffle_read_bw","shuffle_write_bw","diskBytesSpilledRatio","memoryBytesSpilledRatio","input_bytesReadRatio","output_bytesWrittenRatio","sr_localBytesReadRatio","sr_remoteBytesReadRatio","sr_remoteBytesReadToDiskRatio","sr_totalBytesReadRatio","sw_bytesWrittenRatio","diskBytesSpilled_mean","memoryBytesSpilled_mean","input_bytesRead_mean","output_bytesWritten_mean","sr_localBytesRead_mean","sr_remoteBytesRead_mean","sr_remoteBytesReadToDisk_mean","sr_totalBytesRead_mean","sw_bytesWritten_mean","executorCPUTime_mean","executorDeserializeCPUTime_mean","executorDeserializeTime_mean","executorRunTime_mean","jvmGCTime_mean","sr_fetchWaitTime_mean","sw_writeTime_mean","platform_onprem","platform_databricks-aws","platform_databricks-azure","platform_dataproc","platform_emr","sqlOp_BatchEvalPython","sqlOp_BroadcastNestedLoopJoin","sqlOp_CartesianProduct","sqlOp_CommandResult","sqlOp_CustomShuffleReader","sqlOp_DeserializeToObject","sqlOp_Execute InsertIntoHadoopFsRelationCommand csv","sqlOp_Execute InsertIntoHadoopFsRelationCommand json","sqlOp_Execute InsertIntoHadoopFsRelationCommand orc","sqlOp_Execute InsertIntoHadoopFsRelationCommand parquet","sqlOp_Execute InsertIntoHadoopFsRelationCommand text","sqlOp_Execute InsertIntoHadoopFsRelationCommand unknown","sqlOp_Expand","sqlOp_Generate","sqlOp_GenerateBloomFilter","sqlOp_GlobalLimit","sqlOp_HashAggregatePrefixGroupingSets","sqlOp_LocalLimit","sqlOp_MapElements","sqlOp_ObjectHashAggregate","sqlOp_OutputAdapter","sqlOp_PartialWindow","sqlOp_ReusedSort","sqlOp_RunningWindowFunction","sqlOp_Scan ExistingRDD","sqlOp_Scan ExistingRDD Delta Table Checkpoint","sqlOp_Scan ExistingRDD Delta Table State","sqlOp_Scan OneRowRelation","sqlOp_Scan csv","sqlOp_Scan jdbc","sqlOp_Scan json","sqlOp_Scan orc","sqlOp_Scan text","sqlOp_Scan unknown","sqlOp_SerializeFromObject","sqlOp_SortAggregate","sqlOp_SubqueryBroadcast","sqlOp_SubqueryOutputBroadcast","sqlOp_TakeOrderedAndProject","sqlOp_Window","sqlOp_WindowGroupLimit","sqlOp_WindowSort"],"feature_types":["int","int","int","int","float","int","int","int","int","int","int","int","int","int","int","int","int","int","int","int","int","int","int","int","int","int","int","int","int","int","int","int","int","int","int","int","float","float","int","int","int","float","float","float","float","float","float","float","float","float","float","float","float","float","float","float","float","float","float","float","float","float","float","float","float","float","float","float","int","int","int","int","int","int","int","int","int","int","int","int","int","int","int","int","int","int","int","int","int","int","int","int","int","int","int","int","int","int","int","int","int","int","int","int","int","int","int","int","int","int","int","int","int","int","int"],"gradient_booster":{"model":{"gbtree_model_param":{"num_parallel_tree":"1","num_trees":"99"},"iteration_indptr":[0,1,2,3,4,5,6,7,8,9,10,11,12,13,14,15,16,17,18,19,20,21,22,23,24,25,26,27,28,29,30,31,32,33,34,35,36,37,38,39,40,41,42,43,44,45,46,47,48,49,50,51,52,53,54,55,56,57,58,59,60,61,62,63,64,65,66,67,68,69,70,71,72,73,74,75,76,77,78,79,80,81,82,83,84,85,86,87,88,89,90,91,92,93,94,95,96,97,98,99],"tree_info":[0,0,0,0,0,0,0,0,0,0,0,0,0,0,0,0,0,0,0,0,0,0,0,0,0,0,0,0,0,0,0,0,0,0,0,0,0,0,0,0,0,0,0,0,0,0,0,0,0,0,0,0,0,0,0,0,0,0,0,0,0,0,0,0,0,0,0,0,0,0,0,0,0,0,0,0,0,0,0,0,0,0,0,0,0,0,0,0,0,0,0,0,0,0,0,0,0,0,0],"trees":[{"base_weights":[1.5978791E-3,-2.3760535E-1,6.8838954E-1,-6.9863594E-1,-2.763845E-2,7.8010875E-1,-7.6640654E-1,-9.3667006E-1,-5.439356E-1,-2.182059E-1,1.8222226E-1,3.9657265E-1,1.0070696E0,-4.877884E-2,-4.8741132E-1,-9.6986216E-1,-1.5866524E-2,-7.47749E-1,-2.5543982E-1,-3.0224335E-1,9.802897E-2,8.229179E-2,3.6492833E-1,1.9312514E-1,7.652566E-1,1.7151641E0,9.039718E-1,-1.2946275E-2,-2.6192255E-2,-9.075822E-1,-5.596607E-2,-6.6606677E-1,-1.257212E0,3.2808635E-2,-3.757728E-1,-5.272715E-1,-2.1837214E-1,-1.7046219E-2,1.430389E-1,2.5717887E-1,1.7240966E-2,1.4546031E-1,4.3414146E-1,-8.4097326E-2,2.7168876E-1,4.067923E-2,3.1316462E-1,5.207702E-2,9.548328E-2,5.4604703E-1,1.0810899E0,-4.8136346E-2,-6.8295693E-1,-4.0332174E-1,-7.2671366E-1,-3.0262051E-2,-7.378293E-2,-5.615489E-1,-1.9549844E-1,-5.578539E-1,-1.1088139E-2,-1.6052702E-1,-4.676756E-1,8.369592E-2,3.7343615E-1,3.2551667E-1,-8.2713105E-2,-1.5087055E-1,7.1997784E-2,2.9419145E-1,2.6693452E-2,4.7530046E-1,-5.161124E-3,-1.2476622E-2,2.2390981E-4,4.4937742E-1,1.4499664E-1,5.2963733E-3,2.0785796E-2,6.2872344E-1,2.4329476E-1,1.158286E0,4.6349448E-1,-7.681977E-1,-2.4046008E-3,-2.494916E-2,-7.6836282E-3,-7.818557E-1,-2.6313463E-2,-3.131972E-2,-3.0078438E-1,-5.4845568E-2,-3.096622E-1,-4.7420898E-1,-3.1586E-2,-2.2895604E-2,-2.158888E-1,-8.1393987E-1,-3.0391234E-1,5.5462454E-2,1.2807137E-2,2.2842398E-2,1.0041688E-2,2.0169947E-1,4.7252202E-1,1.2425128E-2,-1.9313958E-2,-1.5433063E-2,-7.9073146E-2,2.9151252E-1,3.332286E-2,1.6564954E-2,6.7559215E-3,-4.009101E-3,7.5784706E-2,5.1259834E-1,-8.143805E-5,-4.46363E-3,2.805309E-3,5.6609565E-1,2.025676E-3,2.0226236E-1,-1.00009525E-2,6.831866E-1,9.122451E-3,-1.8204483E-3,1.9658323E-2,1.2506788E0,6.879709E-1,9.715054E-3,3.0112935E-2,-2.7533304E-2,-4.3286324E-2,-3.7233792E-2,-1.9847374E-2,-5.2897716E-3,-2.0225206E-2,-1.17234096E-1,1.9487019E-3,-4.2509922E-1,-3.124729E-3,-4.9772266E-1,-1.0155043E-2,-8.881984E-2,8.315439E-2,-2.864465E-1,-1.1316356E-1,-2.1850765E-2,-4.9100902E-2,-3.90392E-1,4.7560255E-3,1.4081858E-1,-9.0463525E-3,1.4176658E-2,8.95462E-2,2.5896735E-2,1.358496E-2,3.4385007E-3,-1.4285226E-1,1.5476708E-2,6.416E-3,-1.22416355E-2,2.0866685E-1,1.8523549E-4,5.3779823E-3,3.416279E-1,6.8357885E-1,1.24214105E-2,3.0896304E-2,3.7707705E-2,3.5333285E-1,4.8831844E-1,3.697542E-2,9.5027864E-1,1.3517755E0,4.4702735E-2,4.4841763E-1,-8.7148985E-3,-1.7782667E-3,-2.4754772E-2,-1.2500417E-2,-1.39922565E-2,-2.446642E-2,-4.8050493E-2,-1.1965156E-2,1.9738589E-1,-4.031648E-2,-2.1237363E-1,-3.9959422E-1,-6.8956375E-2,-1.1871576E-2,-2.6492977E-1,-2.956564E-2,3.008573E-2,1.0115362E-2,5.883982E-2,-8.1458665E-2,6.1364486E-3,-2.7304539E-4,3.7766187E-3,-2.1281773E-1,-1.0081434E-1,5.286624E-2,3.174442E-1,-3.524918E-4,4.4867814E-1,1.9315396E-1,7.7375954E-1,1.9286375E-2,-6.117647E-2,7.3780906E-3,3.948074E-1,8.857089E-3,3.404913E-2,3.0889177E-1,4.8189733E-2,2.468316E-2,6.503118E-2,3.6928475E-2,2.7487928E-2,7.163018E-3,-6.25662E-3,3.4492547E-4,4.945609E-3,1.1493834E-2,2.7886296E-3,-6.1464207E-3,-1.4457344E-2,-6.329841E-3,-2.0176651E-2,-8.378958E-3,-7.328438E-3,-9.887456E-4,-1.9400666E-2,-6.747009E-3,3.3062825E-3,-8.005684E-4,6.393834E-4,5.3934534E-3,-6.5615005E-3,5.823192E-4,-6.043124E-3,-1.5485503E-2,-7.324889E-3,1.3882591E-3,3.6409656E-3,-6.884998E-3,8.170705E-3,2.2178335E-2,1.2789735E-2,2.5394354E-2,1.5074868E-2,2.4884962E-3,3.965148E-2,2.4108348E-2,-5.39238E-3,2.972482E-4,9.91719E-3,2.1622673E-2,1.8025644E-3,2.1171924E-2],"categories":[],"categories_nodes":[],"categories_segments":[],"categories_sizes":[],"default_left":[0,0,0,0,0,0,0,0,0,0,0,0,0,0,0,0,0,0,0,0,0,0,0,0,0,0,0,0,0,0,0,0,0,0,0,0,0,0,0,0,0,0,0,0,0,0,0,0,0,0,0,0,0,0,0,0,0,0,0,0,0,0,0,0,0,0,0,0,0,0,0,0,0,0,0,0,0,0,0,0,0,0,0,0,0,0,0,0,0,0,0,0,0,0,0,0,0,0,0,0,0,0,0,0,0,0,0,0,0,0,0,0,0,0,0,0,0,0,0,0,0,0,0,0,0,0,0,0,0,0,0,0,0,0,0,0,0,0,0,0,0,0,0,0,0,0,0,0,0,0,0,0,0,0,0,0,0,0,0,0,0,0,0,0,0,0,0,0,0,0,0,0,0,0,0,0,0,0,0,0,0,0,0,0,0,0,0,0,0,0,0,0,0,0,0,0,0,0,0,0,0,0,0,0,0,0,0,0,0,0,0,0,0,0,0,0,0,0,0,0,0,0,0,0,0,0,0,0,0,0,0,0,0,0,0,0,0,0,0,0,0,0,0,0,0,0,0,0,0,0,0,0,0,0,0,0,0,0,0,0,0],"id":0,"left_children":[1,3,5,7,9,11,13,15,17,19,21,23,25,-1,27,29,-1,31,33,35,37,39,41,43,45,47,49,-1,-1,51,-1,53,55,-1,57,59,61,-1,63,65,67,69,71,73,75,-1,77,-1,-1,79,81,-1,83,85,87,-1,-1,89,91,93,-1,95,97,99,101,103,105,107,109,111,113,115,-1,-1,117,119,121,-1,-1,123,125,127,129,131,-1,-1,-1,133,-1,-1,135,137,139,141,-1,143,145,147,149,151,-1,-1,-1,153,155,-1,-1,-1,157,159,161,-1,-1,-1,163,165,-1,-1,-1,167,-1,169,-1,171,-1,-1,-1,173,175,-1,-1,-1,-1,-1,-1,-1,-1,177,-1,179,-1,181,-1,183,185,187,189,-1,-1,191,-1,193,195,-1,197,-1,-1,-1,199,-1,-1,201,203,-1,-1,205,207,-1,-1,209,211,213,-1,215,217,-1,219,-1,-1,-1,-1,-1,-1,221,-1,223,225,227,229,231,-1,233,-1,235,-1,237,239,-1,-1,-1,241,243,245,247,-1,249,251,253,-1,255,-1,257,-1,-1,259,-1,-1,-1,-1,-1,-1,-1,-1,-1,-1,-1,-1,-1,-1,-1,-1,-1,-1,-1,-1,-1,-1,-1,-1,-1,-1,-1,-1,-1,-1,-1,-1,-1,-1,-1,-1,-1,-1,-1,-1,-1,-1,-1,-1,-1,-1],"loss_changes":[1.8761021E2,8.197126E1,3.9960526E1,9.248871E0,2.335546E1,2.3799881E1,9.315548E-1,1.6973495E0,9.39328E0,8.161756E0,5.0456667E0,7.728031E0,1.1152054E1,0E0,2.1260738E-2,3.5025787E-1,0E0,3.1159554E0,8.274759E0,4.452217E0,1.417327E0,2.0547214E0,1.425477E0,1.5256405E0,1.6301956E0,1.9922066E0,9.172493E0,0E0,0E0,1.7049484E0,0E0,1.045414E0,1.3992767E0,0E0,1.9666386E0,4.3808556E-1,2.4918613E0,0E0,7.890924E-1,1.1650703E0,1.2351608E0,4.3375528E-1,1.7150469E0,2.5039524E-1,1.1504762E0,0E0,1.9189978E-1,0E0,0E0,1.1736507E0,4.326088E0,0E0,1.735012E0,4.9079227E-1,1.3916397E-1,0E0,0E0,6.9872284E-1,5.1291263E-1,2.8170395E-1,0E0,1.107507E0,1.6239109E0,2.5178534E-1,1.1854589E-1,6.5096617E-1,1.1701797E0,4.064374E-1,8.4774727E-1,5.1745474E-2,9.002607E-2,1.2286425E0,0E0,0E0,7.593838E-2,1.0167112E0,7.2618955E-1,0E0,0E0,8.289871E-1,6.838495E-1,3.0504074E0,4.8072457E-1,2.83432E-1,0E0,0E0,0E0,3.3878326E-2,0E0,0E0,2.2964728E-1,1.0172603E-1,4.744048E-1,1.1837387E-1,0E0,3.0801013E-1,7.213831E-1,3.4368038E-1,8.8424087E-1,2.4354765E-1,0E0,0E0,0E0,2.5435853E-1,1.16398335E-1,0E0,0E0,0E0,2.5518835E-1,5.2148223E-2,6.976375E-1,0E0,0E0,0E0,3.1470627E-2,1.6373577E0,0E0,0E0,0E0,3.350544E-1,0E0,7.07598E-1,0E0,4.2310905E-1,0E0,0E0,0E0,9.6276855E-1,6.9954777E-1,0E0,0E0,0E0,0E0,0E0,0E0,0E0,0E0,4.880114E-2,0E0,5.9807062E-2,0E0,4.6315193E-2,0E0,1.7445804E-1,2.4773037E-1,4.2638826E-1,2.612545E-1,0E0,0E0,4.5448804E-1,0E0,1.5710369E-1,1.3260368E-1,0E0,5.423291E-2,0E0,0E0,0E0,3.0006796E-1,0E0,0E0,4.0900433E-1,4.2590272E-1,0E0,0E0,4.5373797E-1,4.232216E-1,0E0,0E0,1.9034228E-1,2.5152564E-2,4.8340154E-1,0E0,2.808342E-1,4.5406342E-1,0E0,3.78469E-1,0E0,0E0,0E0,0E0,0E0,0E0,1.1229032E-1,0E0,1.5006393E-2,9.176312E-2,2.5222743E-1,1.04319096E-1,1.455631E-1,0E0,2.14656E-1,0E0,1.8880587E-2,0E0,3.4773324E-2,7.556764E-2,0E0,0E0,0E0,9.654558E-2,2.3038524E-1,2.2522673E-1,1.8898082E-1,0E0,1.7609286E-1,2.78278E-1,1.6079903E-2,0E0,3.443335E-2,0E0,4.3784022E-2,0E0,0E0,4.2365408E-1,0E0,0E0,0E0,0E0,0E0,0E0,0E0,0E0,0E0,0E0,0E0,0E0,0E0,0E0,0E0,0E0,0E0,0E0,0E0,0E0,0E0,0E0,0E0,0E0,0E0,0E0,0E0,0E0,0E0,0E0,0E0,0E0,0E0,0E0,0E0,0E0,0E0,0E0,0E0,0E0,0E0,0E0,0E0,0E0,0E0,0E0],"parents":[2147483647,0,0,1,1,2,2,3,3,4,4,5,5,6,6,7,7,8,8,9,9,10,10,11,11,12,12,14,14,15,15,17,17,18,18,19,19,20,20,21,21,22,22,23,23,24,24,25,25,26,26,29,29,31,31,32,32,34,34,35,35,36,36,38,38,39,39,40,40,41,41,42,42,43,43,44,44,46,46,49,49,50,50,52,52,53,53,54,54,57,57,58,58,59,59,61,61,62,62,63,63,64,64,65,65,66,66,67,67,68,68,69,69,70,70,71,71,74,74,75,75,76,76,79,79,80,80,81,81,82,82,83,83,87,87,90,90,91,91,92,92,93,93,95,95,96,96,97,97,98,98,99,99,103,103,104,104,108,108,109,109,110,110,114,114,115,115,119,119,121,121,123,123,127,127,128,128,137,137,139,139,141,141,143,143,144,144,145,145,146,146,149,149,151,151,152,152,154,154,158,158,161,161,162,162,165,165,166,166,169,169,170,170,171,171,173,173,174,174,176,176,183,183,185,185,186,186,187,187,188,188,189,189,191,191,193,193,195,195,196,196,200,200,201,201,202,202,203,203,205,205,206,206,207,207,209,209,211,211,214,214],"right_children":[2,4,6,8,10,12,14,16,18,20,22,24,26,-1,28,30,-1,32,34,36,38,40,42,44,46,48,50,-1,-1,52,-1,54,56,-1,58,60,62,-1,64,66,68,70,72,74,76,-1,78,-1,-1,80,82,-1,84,86,88,-1,-1,90,92,94,-1,96,98,100,102,104,106,108,110,112,114,116,-1,-1,118,120,122,-1,-1,124,126,128,130,132,-1,-1,-1,134,-1,-1,136,138,140,142,-1,144,146,148,150,152,-1,-1,-1,154,156,-1,-1,-1,158,160,162,-1,-1,-1,164,166,-1,-1,-1,168,-1,170,-1,172,-1,-1,-1,174,176,-1,-1,-1,-1,-1,-1,-1,-1,178,-1,180,-1,182,-1,184,186,188,190,-1,-1,192,-1,194,196,-1,198,-1,-1,-1,200,-1,-1,202,204,-1,-1,206,208,-1,-1,210,212,214,-1,216,218,-1,220,-1,-1,-1,-1,-1,-1,222,-1,224,226,228,230,232,-1,234,-1,236,-1,238,240,-1,-1,-1,242,244,246,248,-1,250,252,254,-1,256,-1,258,-1,-1,260,-1,-1,-1,-1,-1,-1,-1,-1,-1,-1,-1,-1,-1,-1,-1,-1,-1,-1,-1,-1,-1,-1,-1,-1,-1,-1,-1,-1,-1,-1,-1,-1,-1,-1,-1,-1,-1,-1,-1,-1,-1,-1,-1,-1,-1,-1],"split_conditions":[3.068E3,2.0162934E5,4.217427E7,1.26E2,9.31E2,8.716064E2,1.3800834E3,1.3745962E0,6.83E2,2.331083E6,1.836095E6,2.2318378E6,1.059448E7,-4.877884E-2,1.1E1,4.217427E7,-1.5866524E-2,5.035714E0,2.74614E5,4.33E2,2.2953334E2,3.1706784E0,3.7788504E7,1E0,2.0130434E1,5.467E3,1.5484655E6,-1.2946275E-2,-2.6192255E-2,4.36875E1,-5.596607E-2,2E0,3.89E2,3.2808635E-2,1.212945E6,1.9685597E2,6.33E3,-1.7046219E-2,6.2521395E6,1.4552647E7,3.808001E5,2.2293772E3,1.0767881E7,8.295515E7,1.5382514E1,4.067923E-2,6.103178E8,5.207702E-2,9.548328E-2,2.3876712E7,1E0,-4.8136346E-2,7.3973813E3,3.89E2,1.295313E6,-3.0262051E-2,-7.378293E-2,1.1111689E8,2.1E1,4.2619047E0,-1.1088139E-2,1.9333333E0,2.508E2,6.7723384E7,3.716E3,8.684966E-1,4.1388846E2,8E1,5.8891744E8,1.103E3,2.331083E6,2.5345264E7,-5.161124E-3,-1.2476622E-2,6.12E2,1.2820834E7,8.920169E6,5.2963733E-3,2.0785796E-2,4.909091E0,1.8E1,2.2040408E7,4.797448E8,1.2909952E1,-2.4046008E-3,-2.494916E-2,-7.6836282E-3,3.7666667E0,-2.6313463E-2,-3.131972E-2,2.87E2,2.6197826E4,1.7022566E7,7.156528E7,-3.1586E-2,6.999242E7,1.559733E6,1.7E1,5.48744E8,1.8265169E0,1.2807137E-2,2.2842398E-2,1.0041688E-2,5.115944E6,1.4573088E0,1.2425128E-2,-1.9313958E-2,-1.5433063E-2,1.9E1,7.3351803E0,3.299862E1,1.6564954E-2,6.7559215E-3,-4.009101E-3,2.9077E4,1.2774637E10,-8.143805E-5,-4.46363E-3,2.805309E-3,4.3616666E2,2.025676E-3,4.1032645E6,-1.00009525E-2,3.4052496E8,9.122451E-3,-1.8204483E-3,1.9658323E-2,1.2586393E3,1.7171717E0,9.715054E-3,3.0112935E-2,-2.7533304E-2,-4.3286324E-2,-3.7233792E-2,-1.9847374E-2,-5.2897716E-3,-2.0225206E-2,9.751103E6,1.9487019E-3,7.143135E3,-3.124729E-3,1.9428572E1,-1.0155043E-2,3.1275E4,1E0,1.82407E5,1.1997242E0,-2.1850765E-2,-4.9100902E-2,5.57E2,4.7560255E-3,4.97E2,2.0487332E-3,1.4176658E-2,3.4187552E6,2.5896735E-2,1.358496E-2,3.4385007E-3,1.2E1,1.5476708E-2,6.416E-3,7.582512E7,6.4356956E0,1.8523549E-4,5.3779823E-3,5.036784E6,1E1,1.24214105E-2,3.0896304E-2,1.531154E8,4.0876604E7,3.154992E7,3.697542E-2,1.2707317E1,1.213274E9,4.4702735E-2,3.01E2,-8.7148985E-3,-1.7782667E-3,-2.4754772E-2,-1.2500417E-2,-1.39922565E-2,-2.446642E-2,5.3E2,-1.1965156E-2,6.72E2,4.0891147E-1,1.1742609E7,3.640566E2,6.76E2,-1.1871576E-2,1.75E2,-2.956564E-2,4.13E2,1.0115362E-2,2.3235295E0,2.5493E4,6.1364486E-3,-2.7304539E-4,3.7766187E-3,4.3264876E7,1.1621469E1,1.9734E4,1.3631483E8,-3.524918E-4,4.306E4,1.6635803E0,1.3E1,1.9286375E-2,7.792289E9,7.3780906E-3,3.277778E1,8.857089E-3,3.404913E-2,5.49E2,4.8189733E-2,2.468316E-2,6.503118E-2,3.6928475E-2,2.7487928E-2,7.163018E-3,-6.25662E-3,3.4492547E-4,4.945609E-3,1.1493834E-2,2.7886296E-3,-6.1464207E-3,-1.4457344E-2,-6.329841E-3,-2.0176651E-2,-8.378958E-3,-7.328438E-3,-9.887456E-4,-1.9400666E-2,-6.747009E-3,3.3062825E-3,-8.005684E-4,6.393834E-4,5.3934534E-3,-6.5615005E-3,5.823192E-4,-6.043124E-3,-1.5485503E-2,-7.324889E-3,1.3882591E-3,3.6409656E-3,-6.884998E-3,8.170705E-3,2.2178335E-2,1.2789735E-2,2.5394354E-2,1.5074868E-2,2.4884962E-3,3.965148E-2,2.4108348E-2,-5.39238E-3,2.972482E-4,9.91719E-3,2.1622673E-2,1.8025644E-3,2.1171924E-2],"split_indices":[2,37,54,38,2,61,61,47,2,37,37,37,12,0,3,54,0,62,5,2,42,63,7,24,65,2,37,0,0,64,0,26,2,0,9,61,38,0,37,54,37,42,56,7,65,0,7,0,0,54,6,0,37,2,9,0,0,7,8,63,0,62,42,7,38,51,4,0,40,10,37,54,0,0,38,9,56,0,0,62,3,60,7,65,0,0,0,62,0,0,0,42,9,7,0,7,9,3,5,62,0,0,0,12,47,0,0,0,8,67,65,0,0,0,1,40,0,0,0,61,0,54,0,7,0,0,0,4,63,0,0,0,0,0,0,0,0,9,0,42,0,61,0,1,24,9,47,0,0,10,0,2,47,0,54,0,0,0,3,0,0,7,63,0,0,9,8,0,0,12,41,12,0,65,7,0,0,0,0,0,0,0,0,2,0,38,47,5,61,2,0,0,0,2,0,62,1,0,0,0,5,65,38,7,0,1,62,3,0,40,0,67,0,0,0,0,0,0,0,0,0,0,0,0,0,0,0,0,0,0,0,0,0,0,0,0,0,0,0,0,0,0,0,0,0,0,0,0,0,0,0,0,0,0,0,0,0,0,0,0,0],"split_type":[0,0,0,0,0,0,0,0,0,0,0,0,0,0,0,0,0,0,0,0,0,0,0,0,0,0,0,0,0,0,0,0,0,0,0,0,0,0,0,0,0,0,0,0,0,0,0,0,0,0,0,0,0,0,0,0,0,0,0,0,0,0,0,0,0,0,0,0,0,0,0,0,0,0,0,0,0,0,0,0,0,0,0,0,0,0,0,0,0,0,0,0,0,0,0,0,0,0,0,0,0,0,0,0,0,0,0,0,0,0,0,0,0,0,0,0,0,0,0,0,0,0,0,0,0,0,0,0,0,0,0,0,0,0,0,0,0,0,0,0,0,0,0,0,0,0,0,0,0,0,0,0,0,0,0,0,0,0,0,0,0,0,0,0,0,0,0,0,0,0,0,0,0,0,0,0,0,0,0,0,0,0,0,0,0,0,0,0,0,0,0,0,0,0,0,0,0,0,0,0,0,0,0,0,0,0,0,0,0,0,0,0,0,0,0,0,0,0,0,0,0,0,0,0,0,0,0,0,0,0,0,0,0,0,0,0,0,0,0,0,0,0,0,0,0,0,0,0,0,0,0,0,0,0,0,0,0,0,0,0,0],"sum_hessian":[1.14E3,8.46E2,2.94E2,2.64E2,5.82E2,2.77E2,1.7E1,1.02E2,1.62E2,3.05E2,2.77E2,1.04E2,1.73E2,7E0,1E1,9.6E1,6E0,9.4E1,6.8E1,2.41E2,6.4E1,1.8E2,9.7E1,6.8E1,3.6E1,2E1,1.53E2,4E0,6E0,8E1,1.6E1,8.3E1,1.1E1,7E0,6.1E1,6.4E1,1.77E2,5E0,5.9E1,4.8E1,1.32E2,2.4E1,7.3E1,1.5E1,5.3E1,2.8E1,8E0,9E0,1.1E1,5.2E1,1.01E2,4.8E1,3.2E1,1.7E1,6.6E1,5E0,6E0,2.9E1,3.2E1,5.7E1,7E0,1.45E2,3.2E1,4.8E1,1.1E1,4E1,8E0,3.2E1,1E2,1E1,1.4E1,6.8E1,5E0,4E0,1.1E1,2.1E1,3.2E1,4E0,4E0,4E1,1.2E1,8.9E1,1.2E1,2.8E1,4E0,1E1,7E0,4.6E1,2E1,1.9E1,1E1,1.5E1,1.7E1,3.7E1,2E1,4.2E1,1.03E2,9E0,2.3E1,4.3E1,5E0,5E0,6E0,2.3E1,1.7E1,4E0,4E0,8E0,2.4E1,1.4E1,8.6E1,6E0,4E0,4E0,1E1,6.3E1,5E0,4E0,7E0,1.6E1,5E0,2.8E1,4E0,3.5E1,5E0,5E0,7E0,7.3E1,1.6E1,6E0,6E0,1.6E1,1.2E1,4.2E1,4E0,5E0,5E0,9E0,6E0,1.1E1,6E0,3.3E1,4E0,2.6E1,1.6E1,6E1,4.3E1,5E0,4E0,1.9E1,4E0,1.8E1,2.5E1,1.1E1,1.2E1,1E1,7E0,7E0,1.7E1,1E1,4E0,6.9E1,1.7E1,4E0,6E0,3.3E1,3E1,5E0,1.1E1,1.4E1,1.4E1,1.5E1,2E1,2.1E1,5.2E1,6E0,1E1,4E0,5E0,5E0,6E0,6E0,2.7E1,2.2E1,4E0,8E0,8E0,3.8E1,2.2E1,3.4E1,9E0,1.4E1,5E0,8E0,1E1,1.3E1,1.2E1,8E0,4E0,4E0,1.3E1,2.9E1,4E1,1.1E1,6E0,1.8E1,1.5E1,2.1E1,9E0,8E0,6E0,1E1,4E0,5E0,1E1,1.6E1,5E0,4.6E1,6E0,6E0,4E0,8E0,1.4E1,4E0,4E0,4E0,4E0,1.5E1,2.3E1,1.8E1,4E0,1.1E1,2.3E1,5E0,9E0,4E0,4E0,8E0,5E0,7E0,5E0,9E0,4E0,2E1,9E0,3.6E1,4E0,7E0,4E0,8E0,1E1,7E0,8E0,1.4E1,7E0,4E0,4E0,4E0,6E0,4E0,6E0],"tree_param":{"num_deleted":"0","num_feature":"115","num_nodes":"261","size_leaf_vector":"1"}},{"base_weights":[3.7300554E-3,-2.288929E-1,6.952992E-1,-6.6419154E-1,-1.4907282E-2,8.121061E-1,-2.602255E-1,-8.948051E-1,-5.3431183E-1,-2.1730408E-1,1.5141533E-1,4.8269653E-1,1.0592394E0,-7.325809E-1,1.7410298E-1,-9.125008E-1,-2.1128703E-2,-6.9076025E-1,-2.783894E-1,-5.5205446E-1,-1.4696254E-1,2.8398484E-1,1.4611718E-2,1.51781E-1,6.505113E-1,1.7504009E0,9.3315566E-1,-4.5510948E-2,-1.9806165E-2,4.112723E-1,-1.1907317E-2,-9.5969385E-1,-7.05848E-1,-6.2276334E-1,-1.1816006E0,2.8455444E-2,-3.675723E-1,-4.2535186E-1,-3.0097432E-2,-2.0825128E-1,1.0571128E-1,2.2791997E-1,5.888313E-1,4.7994267E-2,-5.545151E-1,1.704083E-2,4.303151E-1,7.3433113E-1,8.845534E-2,5.9029408E-2,9.4372965E-2,6.1465603E-1,1.0852584E0,6.2318156E-3,2.46494E-2,-5.2411295E-2,-4.0249452E-2,-4.556847E-2,-3.91284E-1,-6.907807E-1,-3.921426E-1,-3.115469E-2,-7.038001E-2,-4.407901E-1,9.3847945E-2,-1.0687705E-2,-2.1585356E-2,-5.721137E-1,-1.6653663E-1,1.9536169E-1,-2.253198E-2,1.2104943E-1,3.8328972E-1,2.9081297E-1,3.4160636E-2,-1.802581E-1,7.976316E-2,-1.0619096E-2,-3.5564147E-2,-9.66756E-3,8.816875E-2,8.04622E-3,2.4289683E-2,8.1521386E-1,4.0498212E-1,-4.8262337E-3,1.576093E-2,6.56641E-1,1.107289E-2,1.5724037E-2,1.147007E0,-2.4986766E-2,-3.4723782E-3,-4.5287108E-1,-3.4010943E-2,-2.201893E-2,-4.4822404E-3,-3.630145E-2,-3.700959E-1,1.5724355E-3,6.7977463E-3,-2.767427E-1,-4.611875E-2,-1.0115011E-1,-3.509469E-1,-6.975494E-4,2.4618371E-1,6.1000947E-2,-9.887266E-3,-3.7504494E-2,2.0821528E-1,4.354598E-1,-1.1399557E-2,1.7294563E-2,6.158296E-3,3.860624E-3,-2.5613928E-1,-1.0063036E-1,1.3006546E-1,2.7549373E-2,1.3361115E-2,7.068473E-1,4.537397E-2,6.981869E-3,2.2378895E-2,1.5168044E-2,6.953559E-1,5.6015294E-2,2.716087E-2,-2.5884181E-2,-5.9176865E-3,-3.0873507E-1,-3.0244246E-2,-4.4976003E-3,-2.3535494E-2,-2.42534E-1,-4.5375086E-2,-3.1225784E-2,-2.5488275E-1,1.0840959E-1,3.4048018E-1,-8.486625E-4,6.6149146E-3,6.084329E-2,-1.773936E-2,7.375315E-2,2.5679475E-1,4.6504351E-1,2.7043505E-3,-2.0030612E-2,-1.5250441E-1,3.8830258E-2,-2.6278752E-1,2.7699092E-1,8.368493E-2,5.928277E-3,-4.8100196E-2,3.448229E-2,1.8372102E-2,7.2628355E-1,1.7153108E-2,-3.5250872E-1,-3.3851855E-3,-1.3151754E-1,-3.0499572E-1,1.8836254E-2,-1.2653385E-1,-8.258931E-4,-2.8589222E-1,1.3566763E-3,7.2296034E-3,8.38694E-3,1.8389136E-2,-4.346961E-2,2.216596E-1,1.586931E-1,-1.4354514E-3,1.4463349E-1,3.1830618E-1,2.087519E-1,5.099601E-1,-1.14352945E-2,4.8541368E-4,9.461342E-3,-4.723127E-2,-1.9507317E-2,-4.209612E-3,5.18126E-2,4.0041545E-1,1.263716E-1,-1.00295864E-1,-4.6406803E-3,1.6006524E-3,3.5220664E-2,1.848293E-2,-2.0070916E-2,-8.113655E-3,-7.7890805E-3,-1.460688E-3,-1.8874716E-2,-8.96728E-3,3.6446E-3,-4.26079E-3,-6.9895494E-3,3.3164583E-4,-1.5365995E-2,-4.008886E-3,-5.0257524E-3,5.6255353E-3,3.168904E-3,1.4452857E-2,1.209581E-2,1.1210733E-3,3.2531226E-3,7.959643E-3,1.7818963E-2,9.174126E-3,5.123593E-3,1.22624785E-2,2.4860827E-2,1.526996E-2,-6.593018E-3,1.9047826E-3,-4.516535E-3,7.759385E-3,1.0947931E-2,2.0977028E-2,1.6283112E-2,4.926142E-3,1.4724348E-3,-9.558927E-3],"categories":[],"categories_nodes":[],"categories_segments":[],"categories_sizes":[],"default_left":[0,0,0,0,0,0,0,0,0,0,0,0,0,0,0,0,0,0,0,0,0,0,0,0,0,0,0,0,0,0,0,0,0,0,0,0,0,0,0,0,0,0,0,0,0,0,0,0,0,0,0,0,0,0,0,0,0,0,0,0,0,0,0,0,0,0,0,0,0,0,0,0,0,0,0,0,0,0,0,0,0,0,0,0,0,0,0,0,0,0,0,0,0,0,0,0,0,0,0,0,0,0,0,0,0,0,0,0,0,0,0,0,0,0,0,0,0,0,0,0,0,0,0,0,0,0,0,0,0,0,0,0,0,0,0,0,0,0,0,0,0,0,0,0,0,0,0,0,0,0,0,0,0,0,0,0,0,0,0,0,0,0,0,0,0,0,0,0,0,0,0,0,0,0,0,0,0,0,0,0,0,0,0,0,0,0,0,0,0,0,0,0,0,0,0,0,0,0,0,0,0,0,0,0,0,0,0,0,0,0,0,0,0,0,0,0,0,0,0,0,0,0,0,0,0,0,0,0,0,0,0],"id":1,"left_children":[1,3,5,7,9,11,13,15,17,19,21,23,25,27,29,31,-1,33,35,37,39,41,43,45,47,49,51,-1,-1,53,-1,55,57,59,61,-1,63,65,-1,67,69,71,73,75,77,79,81,83,85,-1,-1,87,89,-1,-1,-1,-1,-1,91,93,95,-1,-1,97,99,-1,-1,101,103,105,107,109,111,113,-1,115,117,-1,-1,-1,119,-1,-1,121,123,-1,-1,125,-1,-1,127,-1,-1,129,-1,-1,-1,-1,131,-1,-1,133,-1,135,137,-1,139,141,-1,143,145,147,-1,-1,-1,-1,149,151,153,155,-1,157,-1,-1,-1,-1,159,-1,-1,-1,-1,161,-1,-1,-1,163,165,-1,167,169,171,-1,-1,173,-1,175,177,179,-1,-1,181,183,185,187,189,-1,191,-1,-1,193,-1,195,-1,197,199,201,203,-1,205,-1,-1,-1,-1,207,209,211,-1,213,215,217,219,-1,-1,-1,221,-1,-1,223,225,227,229,-1,-1,-1,-1,-1,-1,-1,-1,-1,-1,-1,-1,-1,-1,-1,-1,-1,-1,-1,-1,-1,-1,-1,-1,-1,-1,-1,-1,-1,-1,-1,-1,-1,-1,-1,-1,-1,-1,-1,-1],"loss_changes":[1.891871E2,8.196002E1,3.324843E1,8.207993E0,1.9927834E1,2.0980423E1,6.897739E0,3.8194275E-1,7.3349686E0,6.2058783E0,5.890048E0,6.287506E0,1.1438248E1,8.020115E-1,1.9477098E0,2.7835083E-1,0E0,3.1357193E0,6.0422564E0,2.9694843E-1,3.4599204E0,2.6858368E0,3.0854373E0,1.4938567E0,3.5155106E0,4.1796112E-1,5.5822906E0,0E0,0E0,3.3137798E-1,0E0,2.1125793E-1,1.5453911E0,1.3604851E0,1.2189293E0,0E0,2.3049068E0,7.623577E-2,0E0,2.621655E0,5.102726E-1,2.2948308E0,8.988371E-1,1.1238307E0,4.4988894E-1,4.6847814E-1,2.2419143E-1,1.4280052E0,5.702357E-1,0E0,0E0,5.3625107E-1,3.5687027E0,0E0,0E0,0E0,0E0,0E0,5.23913E-1,4.9925232E-1,5.9675837E-1,0E0,0E0,1.1191778E0,2.6775345E-2,0E0,0E0,1.9817276E0,1.9178891E0,2.8177744E-1,3.1642184E-1,1.1825504E0,1.979703E0,8.109933E-2,0E0,4.0155202E-1,1.2381066E0,0E0,0E0,0E0,2.5956482E-1,0E0,0E0,2.3900986E-1,2.2688437E-1,0E0,0E0,2.685356E-1,0E0,0E0,2.1036148E0,0E0,0E0,4.4782877E-1,0E0,0E0,0E0,0E0,6.6814756E-1,0E0,0E0,4.5020843E-1,0E0,9.4316363E-1,1.1348872E0,0E0,2.3591256E-1,9.3666E-2,0E0,1.0778521E0,3.4032607E-1,5.639515E-1,0E0,0E0,0E0,0E0,2.0877081E-1,6.886403E-1,6.9915485E-1,1.4311427E-1,0E0,1.2038803E-1,0E0,0E0,0E0,0E0,7.212067E-2,0E0,0E0,0E0,0E0,4.176216E-1,0E0,0E0,0E0,1.956532E-1,4.6097904E-1,0E0,2.4480629E-1,3.3253826E-2,3.6774635E-2,0E0,0E0,4.2901582E-1,0E0,1.4731874E-1,2.299304E-1,4.5762157E-1,0E0,0E0,1.7227545E-1,2.5201344E-1,3.43633E-1,6.7406654E-1,6.566639E-1,0E0,5.0948612E-2,0E0,0E0,3.8282394E-2,0E0,4.4223976E-1,0E0,4.621087E-2,1.6128862E-1,3.3964196E-1,1.2897307E-1,0E0,2.4740434E-1,0E0,0E0,0E0,0E0,1.8525079E-1,1.17534906E-1,1.17982104E-1,0E0,2.0481348E-2,1.24105215E-1,2.0292282E-2,2.4383545E-2,0E0,0E0,0E0,1.0691459E-1,0E0,0E0,1.8953228E-1,3.1497717E-2,2.633456E-1,2.3127055E-1,0E0,0E0,0E0,0E0,0E0,0E0,0E0,0E0,0E0,0E0,0E0,0E0,0E0,0E0,0E0,0E0,0E0,0E0,0E0,0E0,0E0,0E0,0E0,0E0,0E0,0E0,0E0,0E0,0E0,0E0,0E0,0E0,0E0,0E0,0E0,0E0,0E0,0E0,0E0,0E0],"parents":[2147483647,0,0,1,1,2,2,3,3,4,4,5,5,6,6,7,7,8,8,9,9,10,10,11,11,12,12,13,13,14,14,15,15,17,17,18,18,19,19,20,20,21,21,22,22,23,23,24,24,25,25,26,26,29,29,31,31,32,32,33,33,34,34,36,36,37,37,39,39,40,40,41,41,42,42,43,43,44,44,45,45,46,46,47,47,48,48,51,51,52,52,58,58,59,59,60,60,63,63,64,64,67,67,68,68,69,69,70,70,71,71,72,72,73,73,75,75,76,76,80,80,83,83,84,84,87,87,90,90,93,93,98,98,101,101,103,103,104,104,106,106,107,107,109,109,110,110,111,111,116,116,117,117,118,118,119,119,121,121,126,126,131,131,135,135,136,136,138,138,139,139,140,140,143,143,145,145,146,146,147,147,150,150,151,151,152,152,153,153,154,154,156,156,159,159,161,161,163,163,164,164,165,165,166,166,168,168,173,173,174,174,175,175,177,177,178,178,179,179,180,180,184,184,187,187,188,188,189,189,190,190],"right_children":[2,4,6,8,10,12,14,16,18,20,22,24,26,28,30,32,-1,34,36,38,40,42,44,46,48,50,52,-1,-1,54,-1,56,58,60,62,-1,64,66,-1,68,70,72,74,76,78,80,82,84,86,-1,-1,88,90,-1,-1,-1,-1,-1,92,94,96,-1,-1,98,100,-1,-1,102,104,106,108,110,112,114,-1,116,118,-1,-1,-1,120,-1,-1,122,124,-1,-1,126,-1,-1,128,-1,-1,130,-1,-1,-1,-1,132,-1,-1,134,-1,136,138,-1,140,142,-1,144,146,148,-1,-1,-1,-1,150,152,154,156,-1,158,-1,-1,-1,-1,160,-1,-1,-1,-1,162,-1,-1,-1,164,166,-1,168,170,172,-1,-1,174,-1,176,178,180,-1,-1,182,184,186,188,190,-1,192,-1,-1,194,-1,196,-1,198,200,202,204,-1,206,-1,-1,-1,-1,208,210,212,-1,214,216,218,220,-1,-1,-1,222,-1,-1,224,226,228,230,-1,-1,-1,-1,-1,-1,-1,-1,-1,-1,-1,-1,-1,-1,-1,-1,-1,-1,-1,-1,-1,-1,-1,-1,-1,-1,-1,-1,-1,-1,-1,-1,-1,-1,-1,-1,-1,-1,-1,-1],"split_conditions":[3.068E3,1.972052E5,3.2856784E7,1.26E2,8.1E2,1.1048219E3,1.3655363E2,1.1408248E0,6.83E2,3.56E2,3.5589743E0,6.7148806E5,1.059448E7,1.419902E3,7.5491136E-1,7.9E1,-2.1128703E-2,7.382199E0,7.402E3,3.1E1,3.3486558E6,5.1167645E6,1.39848995E1,3.9401392E6,2E0,2.35184E5,1.7587205E6,-4.5510948E-2,-1.9806165E-2,1.4595416E3,-1.1907317E-2,2.754386E0,3.9E1,3.328629E6,3.89E2,2.8455444E-2,8.788122E4,2.0131578E0,-3.0097432E-2,5.862757E1,3.5364E4,4.5432812E2,3.7788504E7,2.2108696E2,4E1,1.5204346E8,4.832381E2,2E0,1.038946E6,5.9029408E-2,9.4372965E-2,5.501002E9,1E0,6.2318156E-3,2.46494E-2,-5.2411295E-2,-4.0249452E-2,-4.556847E-2,1.7051809E4,2E0,8.499432E5,-3.115469E-2,-7.038001E-2,3.741267E7,1.2501388E6,-1.0687705E-2,-2.1585356E-2,5E0,2.6095572E0,8.612209E-6,6E0,1.212945E6,1.4676277E7,2.96059E5,3.4160636E-2,5.483871E-1,4.2586466E5,-1.0619096E-2,-3.5564147E-2,-9.66756E-3,7.262122E2,8.04622E-3,2.4289683E-2,1.6305691E8,2.9487667E0,-4.8262337E-3,1.576093E-2,9.422379E4,1.107289E-2,1.5724037E-2,1E0,-2.4986766E-2,-3.4723782E-3,1.7559428E2,-3.4010943E-2,-2.201893E-2,-4.4822404E-3,-3.630145E-2,5.5952E4,1.5724355E-3,6.7977463E-3,3.388854E2,-4.611875E-2,4.92E2,4.92E2,-6.975494E-4,2.2584E4,3.49E2,-9.887266E-3,8.15792E5,1.5026077E7,2E1,-1.1399557E-2,1.7294563E-2,6.158296E-3,3.860624E-3,2.3584905E0,1.5E1,3.3382E4,5.1042255E2,1.3361115E-2,1.5608E4,4.537397E-2,6.981869E-3,2.2378895E-2,1.5168044E-2,1.4846595E6,5.6015294E-2,2.716087E-2,-2.5884181E-2,-5.9176865E-3,1.609E3,-3.0244246E-2,-4.4976003E-3,-2.3535494E-2,1.7754011E0,1E0,-3.1225784E-2,4.060171E6,2.1111E4,4.9538185E6,-8.486625E-4,6.6149146E-3,6.81531E-2,-1.773936E-2,1.8861789E0,2.742234E6,3.7788504E7,2.7043505E-3,-2.0030612E-2,7.502167E5,9.558022E7,6.5E2,1.574E3,1.3254E4,5.928277E-3,3.659E3,3.448229E-2,1.8372102E-2,3.1790426E8,1.7153108E-2,9.751103E6,-3.3851855E-3,2.197238E2,3.1706784E0,1.884E3,8.46145E6,-8.258931E-4,4.676173E6,1.3566763E-3,7.2296034E-3,8.38694E-3,1.8389136E-2,2.9251662E6,2.8080197E2,3.824528E8,-1.4354514E-3,2.709091E0,3.7439062E2,1.124E3,3.4052496E8,-1.14352945E-2,4.8541368E-4,9.461342E-3,1.445E3,-1.9507317E-2,-4.209612E-3,4.205298E0,8.079573E5,5.457143E0,4.9E1,-4.6406803E-3,1.6006524E-3,3.5220664E-2,1.848293E-2,-2.0070916E-2,-8.113655E-3,-7.7890805E-3,-1.460688E-3,-1.8874716E-2,-8.96728E-3,3.6446E-3,-4.26079E-3,-6.9895494E-3,3.3164583E-4,-1.5365995E-2,-4.008886E-3,-5.0257524E-3,5.6255353E-3,3.168904E-3,1.4452857E-2,1.209581E-2,1.1210733E-3,3.2531226E-3,7.959643E-3,1.7818963E-2,9.174126E-3,5.123593E-3,1.22624785E-2,2.4860827E-2,1.526996E-2,-6.593018E-3,1.9047826E-3,-4.516535E-3,7.759385E-3,1.0947931E-2,2.0977028E-2,1.6283112E-2,4.926142E-3,1.4724348E-3,-9.558927E-3],"split_indices":[2,37,54,38,2,61,65,47,2,2,63,37,12,61,47,38,0,63,1,10,37,37,63,54,6,1,37,0,0,4,0,63,2,9,2,0,42,62,0,56,9,4,7,61,3,7,61,26,9,0,0,5,24,0,0,0,0,0,37,26,54,0,0,7,54,0,0,8,62,47,8,9,56,12,0,65,37,0,0,0,61,0,0,12,62,0,0,42,0,0,6,0,0,4,0,0,0,0,38,0,0,4,0,2,2,0,1,10,0,9,5,6,0,0,0,0,62,3,9,4,0,38,0,0,0,0,37,0,0,0,0,2,0,0,0,62,23,0,5,9,54,0,0,47,0,62,9,7,0,0,37,7,10,2,38,0,2,0,0,41,0,9,0,61,63,38,9,0,54,0,0,0,0,37,4,40,0,65,4,2,7,0,0,0,2,0,0,63,37,67,8,0,0,0,0,0,0,0,0,0,0,0,0,0,0,0,0,0,0,0,0,0,0,0,0,0,0,0,0,0,0,0,0,0,0,0,0,0,0,0,0],"split_type":[0,0,0,0,0,0,0,0,0,0,0,0,0,0,0,0,0,0,0,0,0,0,0,0,0,0,0,0,0,0,0,0,0,0,0,0,0,0,0,0,0,0,0,0,0,0,0,0,0,0,0,0,0,0,0,0,0,0,0,0,0,0,0,0,0,0,0,0,0,0,0,0,0,0,0,0,0,0,0,0,0,0,0,0,0,0,0,0,0,0,0,0,0,0,0,0,0,0,0,0,0,0,0,0,0,0,0,0,0,0,0,0,0,0,0,0,0,0,0,0,0,0,0,0,0,0,0,0,0,0,0,0,0,0,0,0,0,0,0,0,0,0,0,0,0,0,0,0,0,0,0,0,0,0,0,0,0,0,0,0,0,0,0,0,0,0,0,0,0,0,0,0,0,0,0,0,0,0,0,0,0,0,0,0,0,0,0,0,0,0,0,0,0,0,0,0,0,0,0,0,0,0,0,0,0,0,0,0,0,0,0,0,0,0,0,0,0,0,0,0,0,0,0,0,0,0,0,0,0,0,0],"sum_hessian":[1.174E3,8.79E2,2.95E2,2.89E2,5.9E2,2.63E2,3.2E1,1.02E2,1.87E2,2.66E2,3.24E2,1.14E2,1.49E2,1.5E1,1.7E1,9.7E1,5E0,1.15E2,7.2E1,4.5E1,2.21E2,1.64E2,1.6E2,3.9E1,7.5E1,2.1E1,1.28E2,7E0,8E0,1.1E1,6E0,7.6E1,2.1E1,1.03E2,1.2E1,6E0,6.6E1,2.2E1,2.3E1,1.78E2,4.3E1,1.4E2,2.4E1,1.52E2,8E0,2.7E1,1.2E1,6.5E1,1E1,1E1,1.1E1,4.3E1,8.5E1,4E0,7E0,2.2E1,5.4E1,1E1,1.1E1,7.8E1,2.5E1,6E0,6E0,5.7E1,9E0,5E0,1.7E1,1.7E1,1.61E2,2.5E1,1.8E1,8.4E1,5.6E1,9E0,1.5E1,1.8E1,1.34E2,4E0,4E0,6E0,2.1E1,4E0,8E0,5.1E1,1.4E1,6E0,4E0,3.8E1,5E0,7E0,7.8E1,7E0,4E0,1.4E1,6.4E1,1.9E1,6E0,8E0,4.9E1,5E0,4E0,1.1E1,6E0,1.2E2,4.1E1,5E0,2E1,1.3E1,5E0,3E1,5.4E1,5.2E1,4E0,5E0,4E0,4E0,1.4E1,2.9E1,1.05E2,1.7E1,4E0,3.4E1,1.7E1,4E0,1E1,5E0,3.3E1,6.9E1,9E0,1E1,4E0,4.2E1,7E0,7E0,4E0,3.3E1,8.7E1,8E0,3.3E1,9E0,1.1E1,7E0,6E0,2.4E1,6E0,1.5E1,3.9E1,4.8E1,4E0,4E0,1E1,1.6E1,1.3E1,2.4E1,8.1E1,7E0,1E1,2.9E1,5E0,2.9E1,4E0,3.5E1,7E0,1.3E1,2E1,4.9E1,3.8E1,4E0,2.9E1,4E0,5E0,4E0,7E0,1.5E1,9E0,8E0,7E0,1.5E1,2.4E1,8E0,4E1,6E0,4E0,5E0,1.1E1,6E0,7E0,9E0,1.5E1,6.6E1,1.5E1,6E0,4E0,2.5E1,4E0,2.3E1,1.2E1,9E0,4E0,9E0,1.1E1,3.2E1,1.7E1,3.2E1,6E0,2.3E1,6E0,1.1E1,4E0,4E0,5E0,4E0,4E0,5E0,1E1,1.4E1,1E1,4E0,4E0,3.3E1,7E0,5E0,6E0,4E0,5E0,5E0,1E1,4E0,6.2E1,7E0,8E0],"tree_param":{"num_deleted":"0","num_feature":"115","num_nodes":"231","size_leaf_vector":"1"}},{"base_weights":[-4.299523E-3,-2.3619303E-1,6.4249706E-1,-6.741137E-1,-3.0451767E-2,-8.257501E-1,7.2961175E-1,-9.381661E-1,-5.651221E-1,-2.0811893E-1,1.7016707E-1,-4.3788016E-2,-1.4940093E-2,4.3009853E-1,9.313816E-1,-8.447311E-1,-5.7131052E-2,-7.515504E-1,-4.371934E-1,-4.0118042E-1,-1.1688129E-1,2.9003918E-1,2.555301E-2,1.012462E-1,6.036498E-1,7.815208E-2,8.178329E-1,-8.72661E-1,-1.5760742E-2,-1.4686206E-2,-7.888329E-1,-5.560832E-1,-2.0860067E-1,-4.9500623E-1,-1.3888434E-1,-5.6094575E-1,-7.85514E-2,2.4165621E-1,5.8265316E-1,6.1212875E-2,-2.3921376E-2,3.115807E-1,-7.825113E-2,6.910946E-1,2.556308E-4,5.273256E-1,1.0330223E0,-4.325749E-2,-6.891617E-1,-8.5058194E-1,-4.6784917E-1,4.7920225E-3,-5.926454E-1,-1.17940284E-1,-4.087446E-1,-4.4795796E-1,-4.4121124E-2,-2.068651E-1,2.6339465E-3,-4.2676706E-2,-2.7997077E-1,-1.3498661E-1,1.0803527E-1,1.4920753E-1,3.700524E-1,8.828977E-3,3.2073215E-2,2.9954088E-1,3.9387044E-2,2.3248088E-2,1.7015786E-1,-1.0210969E-2,-6.6214693E-3,5.6081015E-1,4.2198636E-2,8.2565E-3,-5.878913E-3,5.9838164E-1,-3.7197678E-3,1.0715562E0,8.284577E-3,-3.655369E-2,-2.0902134E-2,-4.0610347E-2,-2.4060206E-2,-8.394288E-3,-2.8077435E-2,-3.0872717E-2,-4.5852563E-1,-2.3531948E-1,1.16869114E-1,-2.2122698E-2,-1.14803035E-2,-5.175246E-1,-2.863236E-1,-4.323701E-3,-2.569004E-1,-2.0330552E-2,-5.834804E-3,-8.100808E-2,-2.7700058E-1,2.9435897E-1,2.0068886E-2,9.571619E-3,2.8511325E-1,4.2233604E-1,-1.0977591E-2,5.993582E-3,1.810489E-2,8.482216E-2,-1.1416074E-1,1.0495772E-2,1.577896E-3,3.1675193E-2,-3.7992774E-3,6.476599E-1,3.1603503E-1,5.136416E-1,8.046104E-1,2.0547012E-2,1.1141312E0,-5.130229E-1,-1.1314393E-2,-1.9661263E-2,-1.10164575E-1,8.13913E-3,1.7746602E-3,-2.0626836E-2,-3.0295761E-2,-1.7095174E-1,-1.674605E-2,-1.47217335E-2,-6.948669E-3,-1.9323145E-1,-9.310421E-3,-1.12265766E-1,-3.8452962E-1,5.291352E-3,1.616751E-2,7.035057E-2,-1.0083311E-2,-1.27767E-1,1.845281E-1,3.5737824E-1,2.0974287E-1,4.8102725E-1,-7.07851E-4,-4.0607248E-3,1.5383461E-1,-5.04245E-2,-1.4723579E-2,-3.3838751E-3,5.412935E-3,3.1740103E-2,1.3690623E-2,-3.806234E-4,2.0662382E-2,6.639773E-1,3.724612E-1,4.11044E-2,2.0483E-2,6.3639E-2,1.0128314E0,-1.2793412E-2,-2.5368199E-2,-9.4295945E-3,5.8207306E-4,-3.5297107E-3,-9.908651E-3,-1.660214E-2,-2.8401893E-1,-4.434585E-2,2.0533673E-1,3.2184965E-3,-1.6918427E-1,-4.8401895E-1,-1.868937E-1,1.4415717E-1,1.4113531E-2,8.487935E-3,-2.48397E-1,7.4649565E-2,1.2259946E-2,5.9661553E-3,4.096983E-1,4.9530375E-3,2.4156353E-1,9.896612E-3,5.1664114E-1,7.015939E-2,-1.4160803E-1,-2.2600412E-2,1.9965386E-1,3.5125658E-2,-1.4804225E-1,1.5307559E-2,3.45825E-2,4.5144763E-3,4.5005062E-1,3.5091884E-2,1.0881089E0,-5.1492895E-3,3.2114943E-3,-2.792229E-2,-9.659712E-3,2.0265682E-3,-7.2627566E-3,3.8513944E-3,1.4380145E-2,-1.0048199E-2,-1.8223871E-3,-1.3158562E-2,-2.5397884E-2,-1.1173605E-2,-3.8867772E-3,9.253171E-3,4.2219735E-3,-1.2605725E-3,5.497796E-3,-4.577264E-3,-2.340983E-2,5.435141E-3,7.8210863E-4,1.2260731E-2,2.205837E-2,5.908821E-3,1.3034633E-2,1.8799234E-2,2.8289916E-2,-2.321501E-3,8.992613E-3,-9.5716084E-4,-8.694484E-3,6.8335626E-3,-6.524388E-3,1.07550025E-2,-3.228905E-3,-4.39637E-3,5.185622E-3,-1.0255975E-2,-2.8698528E-3,2.4317449E-2,1.2543631E-2,5.226074E-2,2.4964856E-2],"categories":[],"categories_nodes":[],"categories_segments":[],"categories_sizes":[],"default_left":[0,0,0,0,0,0,0,0,0,0,0,0,0,0,0,0,0,0,0,0,0,0,0,0,0,0,0,0,0,0,0,0,0,0,0,0,0,0,0,0,0,0,0,0,0,0,0,0,0,0,0,0,0,0,0,0,0,0,0,0,0,0,0,0,0,0,0,0,0,0,0,0,0,0,0,0,0,0,0,0,0,0,0,0,0,0,0,0,0,0,0,0,0,0,0,0,0,0,0,0,0,0,0,0,0,0,0,0,0,0,0,0,0,0,0,0,0,0,0,0,0,0,0,0,0,0,0,0,0,0,0,0,0,0,0,0,0,0,0,0,0,0,0,0,0,0,0,0,0,0,0,0,0,0,0,0,0,0,0,0,0,0,0,0,0,0,0,0,0,0,0,0,0,0,0,0,0,0,0,0,0,0,0,0,0,0,0,0,0,0,0,0,0,0,0,0,0,0,0,0,0,0,0,0,0,0,0,0,0,0,0,0,0,0,0,0,0,0,0,0,0,0,0,0,0,0,0,0,0,0,0,0,0,0,0,0,0,0,0,0,0,0,0,0,0],"id":2,"left_children":[1,3,5,7,9,11,13,15,17,19,21,-1,-1,23,25,27,-1,29,31,33,35,37,39,41,43,-1,45,47,-1,-1,49,51,53,55,57,59,61,63,65,67,-1,69,71,73,75,77,79,-1,81,83,85,-1,87,89,91,93,-1,95,-1,-1,97,99,101,103,105,-1,-1,107,109,-1,111,-1,113,115,-1,-1,-1,117,-1,119,-1,-1,-1,-1,-1,-1,-1,-1,121,123,125,-1,-1,127,129,-1,131,-1,-1,133,135,137,139,141,143,145,-1,-1,-1,147,149,-1,-1,151,-1,153,155,157,159,-1,161,163,-1,-1,165,-1,-1,-1,-1,167,-1,-1,-1,169,171,173,175,-1,-1,177,-1,179,181,183,185,187,-1,189,191,193,-1,-1,-1,-1,-1,-1,-1,195,197,-1,-1,-1,199,-1,-1,-1,-1,-1,-1,201,203,205,207,-1,209,211,213,215,217,-1,219,221,-1,-1,223,-1,225,-1,227,229,231,233,235,237,239,-1,-1,-1,241,-1,243,-1,-1,-1,-1,-1,-1,-1,-1,-1,-1,-1,-1,-1,-1,-1,-1,-1,-1,-1,-1,-1,-1,-1,-1,-1,-1,-1,-1,-1,-1,-1,-1,-1,-1,-1,-1,-1,-1,-1,-1,-1,-1,-1,-1],"loss_changes":[1.7788745E2,7.863533E1,4.0637024E1,7.4992905E0,2.1243225E1,7.861347E-1,1.7487503E1,1.1737747E0,4.441334E0,5.5192823E0,4.8464413E0,0E0,0E0,6.8446846E0,1.3760284E1,6.038437E-1,0E0,1.0445099E0,3.1724586E0,2.4168758E0,3.6324608E0,2.025302E0,2.508094E0,1.647824E0,4.168148E0,0E0,9.144943E0,4.089737E-2,0E0,0E0,1.0489502E0,1.9667225E0,7.32033E-1,1.1693344E0,3.844927E-1,1.4680104E0,2.1205945E0,1.5235023E0,7.771869E-1,6.176084E-1,0E0,4.543569E-1,2.433947E-1,1.4744911E0,2.7221167E-1,2.9844894E0,2.703949E0,0E0,9.803963E-2,8.117676E-2,4.4717956E-1,0E0,4.4431305E-1,8.819155E-1,2.6243925E-2,6.2768173E-1,0E0,9.516889E-2,0E0,0E0,2.1441525E-1,1.1580791E0,7.644329E-1,1.4964794E0,1.8465619E0,0E0,0E0,1.0529089E-1,7.9104704E-1,0E0,9.2516065E-2,0E0,5.174798E-2,7.732153E-1,0E0,0E0,0E0,6.527443E-1,0E0,1.7493362E0,0E0,0E0,0E0,0E0,0E0,0E0,0E0,0E0,2.244153E-1,4.5152116E-1,4.4240624E-2,0E0,0E0,1.7078495E-1,1.38731E-1,0E0,4.3764174E-2,0E0,0E0,9.074161E-1,7.0080924E-1,1.0869968E-1,4.1023132E-1,9.8470783E-1,1.429081E-1,1.3173094E0,0E0,0E0,0E0,5.3428495E-1,3.2209423E-1,0E0,0E0,1.1585141E-1,0E0,2.4183846E-1,5.962217E-1,7.2901917E-1,9.1721535E-2,0E0,6.7124176E-1,4.0132523E-2,0E0,0E0,1.6346125E-1,0E0,0E0,0E0,0E0,2.864623E-2,0E0,0E0,0E0,7.008568E-1,5.355237E-1,1.9805396E-1,4.0110683E-1,0E0,0E0,1.1418407E-1,0E0,9.090189E-1,1.3931149E-1,1.7425632E-1,4.6034455E-2,3.1761932E-1,0E0,4.0807745E-1,4.0063417E-1,1.8057555E-1,0E0,0E0,0E0,0E0,0E0,0E0,0E0,3.3642006E-1,5.1063776E-1,0E0,0E0,0E0,3.2386017E-1,0E0,0E0,0E0,0E0,0E0,0E0,1.3802733E-1,5.711286E-1,6.124089E-1,1.0288626E-1,0E0,7.863608E-2,5.115843E-2,3.5886884E-2,1.7197236E-2,7.685388E-2,0E0,6.043732E-1,2.0266917E-2,0E0,0E0,1.918745E-2,0E0,3.715998E-2,0E0,1.5942764E-1,3.983033E-1,7.449418E-2,2.426231E-1,3.607465E-1,1.3081774E-1,4.9572647E-2,0E0,0E0,0E0,1.277647E-1,0E0,3.8906097E-1,0E0,0E0,0E0,0E0,0E0,0E0,0E0,0E0,0E0,0E0,0E0,0E0,0E0,0E0,0E0,0E0,0E0,0E0,0E0,0E0,0E0,0E0,0E0,0E0,0E0,0E0,0E0,0E0,0E0,0E0,0E0,0E0,0E0,0E0,0E0,0E0,0E0,0E0,0E0,0E0,0E0,0E0,0E0,0E0],"parents":[2147483647,0,0,1,1,2,2,3,3,4,4,5,5,6,6,7,7,8,8,9,9,10,10,13,13,14,14,15,15,17,17,18,18,19,19,20,20,21,21,22,22,23,23,24,24,26,26,27,27,30,30,31,31,32,32,33,33,34,34,35,35,36,36,37,37,38,38,39,39,41,41,42,42,43,43,44,44,45,45,46,46,48,48,49,49,50,50,52,52,53,53,54,54,55,55,57,57,60,60,61,61,62,62,63,63,64,64,67,67,68,68,70,70,72,72,73,73,77,77,79,79,88,88,89,89,90,90,93,93,94,94,96,96,99,99,100,100,101,101,102,102,103,103,104,104,105,105,109,109,110,110,113,113,115,115,116,116,117,117,118,118,120,120,121,121,124,124,129,129,133,133,134,134,135,135,136,136,139,139,141,141,142,142,143,143,144,144,145,145,147,147,148,148,149,149,157,157,158,158,162,162,169,169,170,170,171,171,172,172,174,174,175,175,176,176,177,177,178,178,180,180,181,181,184,184,186,186,188,188,189,189,190,190,191,191,192,192,193,193,194,194,198,198,200,200],"right_children":[2,4,6,8,10,12,14,16,18,20,22,-1,-1,24,26,28,-1,30,32,34,36,38,40,42,44,-1,46,48,-1,-1,50,52,54,56,58,60,62,64,66,68,-1,70,72,74,76,78,80,-1,82,84,86,-1,88,90,92,94,-1,96,-1,-1,98,100,102,104,106,-1,-1,108,110,-1,112,-1,114,116,-1,-1,-1,118,-1,120,-1,-1,-1,-1,-1,-1,-1,-1,122,124,126,-1,-1,128,130,-1,132,-1,-1,134,136,138,140,142,144,146,-1,-1,-1,148,150,-1,-1,152,-1,154,156,158,160,-1,162,164,-1,-1,166,-1,-1,-1,-1,168,-1,-1,-1,170,172,174,176,-1,-1,178,-1,180,182,184,186,188,-1,190,192,194,-1,-1,-1,-1,-1,-1,-1,196,198,-1,-1,-1,200,-1,-1,-1,-1,-1,-1,202,204,206,208,-1,210,212,214,216,218,-1,220,222,-1,-1,224,-1,226,-1,228,230,232,234,236,238,240,-1,-1,-1,242,-1,244,-1,-1,-1,-1,-1,-1,-1,-1,-1,-1,-1,-1,-1,-1,-1,-1,-1,-1,-1,-1,-1,-1,-1,-1,-1,-1,-1,-1,-1,-1,-1,-1,-1,-1,-1,-1,-1,-1,-1,-1,-1,-1,-1,-1],"split_conditions":[3.068E3,1.972052E5,1E0,3.3817584E7,9.31E2,2.3017536E5,1.0879832E3,1E0,2.0469625E4,4.97E2,3.925926E0,-4.3788016E-2,-1.4940093E-2,6.479833E5,1.059448E7,2.657077E2,-5.7131052E-2,8E0,8.01E2,9.860918E5,2.2953334E2,5.5426865E6,1.2784314E1,1.138871E0,1E0,7.815208E-2,1.7831801E6,2.0966116E2,-1.5760742E-2,-1.4686206E-2,2.0081382E-7,1E0,3.78E2,9.763568E6,4.1973075E6,5.862757E1,2.331083E6,4.3764517E2,3.7788504E7,2.9276064E3,-2.3921376E-2,2.4342105E0,1.5204346E8,3.9152692E6,8.3227225E6,2.5652106E7,2.871605E2,-4.325749E-2,1.2788898E2,1.559733E6,4.427818E7,4.7920225E-3,2.240836E6,1.194E3,3.3882115E0,3.95E2,-4.4121124E-2,7.0407925E0,2.6339465E-3,-4.2676706E-2,1.1643481E6,2E0,2.1111E4,2.378914E6,1.4676277E7,8.828977E-3,3.2073215E-2,1.30175E3,4.163636E0,2.3248088E-2,1.6829637E8,-1.0210969E-2,3.202146E5,1.3092E4,4.2198636E-2,8.2565E-3,-5.878913E-3,3.4915986E3,-3.7197678E-3,1E0,8.284577E-3,-3.655369E-2,-2.0902134E-2,-4.0610347E-2,-2.4060206E-2,-8.394288E-3,-2.8077435E-2,-3.0872717E-2,1.5470404E2,1.9785424E3,1.392E1,-2.2122698E-2,-1.14803035E-2,6.2233735E-6,9.144571E5,-4.323701E-3,1.8479175E2,-2.0330552E-2,-5.834804E-3,2.7015875E2,2.0625E0,4.0705118E6,7E0,2.6224005E6,3.474468E2,2.0319266E-7,-1.0977591E-2,5.993582E-3,1.810489E-2,3.8903564E2,3.6545895E1,1.0495772E-2,1.577896E-3,2.2350473E5,-3.7992774E-3,3.0084E4,7.15244E5,2.7578741E1,2.629E3,2.0547012E-2,3.3382E4,9.3E1,-1.1314393E-2,-1.9661263E-2,1.0443479E5,8.13913E-3,1.7746602E-3,-2.0626836E-2,-3.0295761E-2,1.2E1,-1.674605E-2,-1.47217335E-2,-6.948669E-3,1.6E0,9.1E1,2.429044E0,1.388E1,5.291352E-3,1.616751E-2,1.875E0,-1.0083311E-2,1.1649485E0,1.91E2,3.6E1,3.1657144E2,3.343E3,-7.07851E-4,4.843E3,1.36341E5,1.639E3,-1.4723579E-2,-3.3838751E-3,5.412935E-3,3.1740103E-2,1.3690623E-2,-3.806234E-4,2.0662382E-2,1.625E0,2.6776E4,4.11044E-2,2.0483E-2,6.3639E-2,6.149315E6,-1.2793412E-2,-2.5368199E-2,-9.4295945E-3,5.8207306E-4,-3.5297107E-3,-9.908651E-3,1.4977306E2,1.8E0,1E0,2.4545455E0,3.2184965E-3,8.84439E5,2.5068056E7,1.0292E4,6.2868685E6,3.0957446E0,8.487935E-3,2.517059E6,1.992126E0,1.2259946E-2,5.9661553E-3,8.9085234E4,4.9530375E-3,1.19827585E1,9.896612E-3,6.083812E2,9.750085E6,3.202146E5,1.2895454E3,7E0,2.5393645E5,2.126E3,1.5307559E-2,3.45825E-2,4.5144763E-3,1.3358269E2,3.5091884E-2,3.450768E5,-5.1492895E-3,3.2114943E-3,-2.792229E-2,-9.659712E-3,2.0265682E-3,-7.2627566E-3,3.8513944E-3,1.4380145E-2,-1.0048199E-2,-1.8223871E-3,-1.3158562E-2,-2.5397884E-2,-1.1173605E-2,-3.8867772E-3,9.253171E-3,4.2219735E-3,-1.2605725E-3,5.497796E-3,-4.577264E-3,-2.340983E-2,5.435141E-3,7.8210863E-4,1.2260731E-2,2.205837E-2,5.908821E-3,1.3034633E-2,1.8799234E-2,2.8289916E-2,-2.321501E-3,8.992613E-3,-9.5716084E-4,-8.694484E-3,6.8335626E-3,-6.524388E-3,1.07550025E-2,-3.228905E-3,-4.39637E-3,5.185622E-3,-1.0255975E-2,-2.8698528E-3,2.4317449E-2,1.2543631E-2,5.226074E-2,2.4964856E-2],"split_indices":[2,37,16,7,2,42,61,6,37,2,63,0,0,37,12,61,0,3,2,37,42,37,62,47,6,0,37,42,0,0,46,19,0,5,37,56,37,61,7,56,0,62,7,37,56,52,67,0,4,9,40,0,9,2,62,2,0,67,0,0,37,26,9,9,56,0,0,56,62,0,7,0,37,10,0,0,0,4,0,15,0,0,0,0,0,0,0,0,61,42,67,0,0,46,54,0,61,0,0,4,65,37,8,37,4,46,0,0,0,61,67,0,0,37,0,38,1,65,0,0,9,12,0,0,37,0,0,0,0,3,0,0,0,62,0,62,65,0,0,62,0,62,0,10,61,12,0,38,12,2,0,0,0,0,0,0,0,62,38,0,0,0,54,0,0,0,0,0,0,61,62,23,63,0,12,5,38,54,63,0,56,62,0,0,42,0,67,0,4,9,37,42,6,37,2,0,0,0,67,0,42,0,0,0,0,0,0,0,0,0,0,0,0,0,0,0,0,0,0,0,0,0,0,0,0,0,0,0,0,0,0,0,0,0,0,0,0,0,0,0,0,0,0,0,0],"split_type":[0,0,0,0,0,0,0,0,0,0,0,0,0,0,0,0,0,0,0,0,0,0,0,0,0,0,0,0,0,0,0,0,0,0,0,0,0,0,0,0,0,0,0,0,0,0,0,0,0,0,0,0,0,0,0,0,0,0,0,0,0,0,0,0,0,0,0,0,0,0,0,0,0,0,0,0,0,0,0,0,0,0,0,0,0,0,0,0,0,0,0,0,0,0,0,0,0,0,0,0,0,0,0,0,0,0,0,0,0,0,0,0,0,0,0,0,0,0,0,0,0,0,0,0,0,0,0,0,0,0,0,0,0,0,0,0,0,0,0,0,0,0,0,0,0,0,0,0,0,0,0,0,0,0,0,0,0,0,0,0,0,0,0,0,0,0,0,0,0,0,0,0,0,0,0,0,0,0,0,0,0,0,0,0,0,0,0,0,0,0,0,0,0,0,0,0,0,0,0,0,0,0,0,0,0,0,0,0,0,0,0,0,0,0,0,0,0,0,0,0,0,0,0,0,0,0,0,0,0,0,0,0,0,0,0,0,0,0,0,0,0,0,0,0,0],"sum_hessian":[1.184E3,8.72E2,3.12E2,2.78E2,5.94E2,1.7E1,2.95E2,7.9E1,1.99E2,3.15E2,2.79E2,1.3E1,4E0,1.2E2,1.75E2,6.3E1,1.6E1,7.9E1,1.2E2,1E2,2.15E2,1.52E2,1.27E2,4.2E1,7.8E1,2.1E1,1.54E2,5.9E1,4E0,7E0,7.2E1,7.8E1,4.2E1,7.3E1,2.7E1,1.6E1,1.99E2,1.32E2,2E1,1.2E2,7E0,1.9E1,2.3E1,6.8E1,1E1,6.7E1,8.7E1,4.1E1,1.8E1,5.9E1,1.3E1,4E0,7.4E1,3E1,1.2E1,6.8E1,5E0,2E1,7E0,6E0,1E1,1.53E2,4.6E1,7.8E1,5.4E1,5E0,1.5E1,9E0,1.11E2,7E0,1.2E1,7E0,1.6E1,4.5E1,2.3E1,4E0,6E0,6E1,7E0,8.3E1,4E0,1.1E1,7E0,5.3E1,6E0,5E0,8E0,4.5E1,2.9E1,2E1,1E1,7E0,5E0,4.6E1,2.2E1,7E0,1.3E1,4E0,6E0,1.12E2,4.1E1,1.4E1,3.2E1,3.9E1,3.9E1,5E1,4E0,4E0,5E0,8.6E1,2.5E1,8E0,4E0,1.1E1,5E0,3.2E1,1.3E1,4.5E1,1.5E1,6E0,7.7E1,2.2E1,7E0,7E0,1.3E1,5E0,5E0,3.3E1,1.3E1,1E1,1.2E1,7E0,6E0,4.3E1,6.9E1,1.7E1,2.4E1,4E0,1E1,2.7E1,5E0,2.2E1,1.7E1,1.8E1,2.1E1,4.4E1,6E0,3.8E1,4.8E1,2E1,5E0,5E0,6E0,2.8E1,4E0,4E0,9E0,2E1,2.5E1,1.1E1,4E0,1.8E1,5.9E1,4E0,1.8E1,7E0,6E0,4E0,6E0,1.5E1,2.8E1,6E1,9E0,4E0,1.3E1,1.5E1,9E0,1.1E1,1.6E1,6E0,1.6E1,8E0,9E0,4E0,1.4E1,6E0,1.5E1,6E0,3.8E1,2.5E1,1.3E1,1E1,3.8E1,1.1E1,9E0,5E0,1.5E1,6E0,1.9E1,1.6E1,4.3E1,7E0,8E0,4E0,2.4E1,3.4E1,2.6E1,5E0,4E0,9E0,4E0,5E0,1E1,5E0,4E0,4E0,7E0,1.2E1,4E0,1.1E1,5E0,4E0,4E0,6E0,8E0,5E0,1E1,2E1,1.8E1,1.3E1,1.2E1,4E0,9E0,4E0,6E0,3.4E1,4E0,4E0,7E0,4E0,5E0,1.2E1,7E0,3.9E1,4E0],"tree_param":{"num_deleted":"0","num_feature":"115","num_nodes":"245","size_leaf_vector":"1"}},{"base_weights":[-5.1621543E-3,-2.1372819E-1,5.9852624E-1,-5.9637314E-1,-3.794126E-2,-8.2879776E-1,6.809861E-1,-8.597314E-1,-4.7866088E-1,-2.1428731E-1,1.5506896E-1,-4.44164E-2,-1.9820949E-2,4.1489193E-1,8.896053E-1,-7.600229E-1,-5.1945608E-2,-6.5286034E-1,-1.9588226E-1,-2.8726178E-1,4.0544216E-2,2.9688805E-1,1.1188158E-2,2.808078E-1,7.6314956E-1,1.5698383E0,7.9232335E-1,-8.0577743E-1,-1.2601082E-2,-5.9211737E-1,-1.1954172E0,3.2404594E-2,-3.6086303E-1,-4.5087203E-1,-1.8419191E-1,2.813249E-3,3.0015606E-1,3.2547072E-1,-1.7119083E-1,3.8661107E-2,-2.4616497E-2,1.500703E-1,4.198315E-1,6.31695E-1,4.335578E-2,4.6973743E-2,8.369157E-2,8.7757057E-1,1.942716E-1,-3.884479E-2,-2.0356957E-2,-7.018153E-1,-4.5360175E-1,-2.8799288E-2,-6.6347666E-2,-3.307257E-2,-2.8995422E-1,-3.6151522E-1,-6.5921986E-1,-1.1463007E-1,-4.414666E-1,-1.09972255E-2,3.711856E-2,7.4594617E-3,1.7539278E-2,2.2351553E-1,4.4167972E-1,-1.5517152E-3,-1.2706052E-2,7.4945185E-3,2.7583793E-1,2.8217217E-1,1.7277328E-2,4.9621987E-1,-3.04163E-3,3.245476E-2,1.11228265E-2,8.040232E-1,5.9835814E-2,2.1456838E-2,-1.5665483E-1,-3.3835046E-2,-1.7520677E-2,-5.864462E-4,-5.234612E-1,-9.427259E-2,-3.9061198E-1,-4.2922705E-1,-2.2788177E-1,-2.5032474E-2,-4.9561597E-2,-2.8959062E-2,-1.9047834E-1,-2.4635865E-1,-7.4611664E-1,1.7402306E-1,-1.7212914E-2,1.8283895E-1,2.5047142E-2,4.9144912E-1,1.7621351E-3,1.8795148E-1,-2.9370438E-2,4.2691175E-3,1.7432405E-2,4.2871103E-1,1.5589887E-1,-7.200996E-2,1.6733798E-1,3.378617E-2,3.511464E-1,8.3698004E-1,3.9734796E-1,-3.466466E-4,-1.2700479E-2,-6.624016E-1,-4.0179473E-1,-1.6271667E-1,2.5949585E-3,-4.8254597E-1,-1.0332893E-1,-4.5292208E-1,-9.423866E-3,-1.485625E-1,-1.2936713E-2,-5.756874E-3,-1.2666424E-2,-2.7233732E-1,-7.550475E-2,-3.9840287E-1,-3.9269727E-2,-2.0467985E-2,-4.163785E-2,2.7097054E-3,1.0234021E-2,-7.6573715E-2,1.0273819E-1,2.0364548E-1,-5.5548134E-3,3.732699E-1,3.1030433E-2,-1.2024905E-3,2.5643206E-1,-1.2445891E-1,2.1402435E-2,1.0712468E-2,2.5654292E-2,1.9403234E-3,1.1584847E-2,-9.87452E-3,4.691561E-3,1.4024641E-2,-1.3441483E-3,4.9881926E-3,3.9048976E-1,5.734409E-1,8.924026E-1,2.4203349E-2,7.7264756E-3,-2.0286927E-2,-3.634122E-2,-1.984021E-1,-2.2263642E-2,-1.4408927E-3,-2.1223283E-1,-5.1934546E-1,-1.002942E-2,6.032687E-4,-1.0285959E-2,-4.7378668E-1,-1.199326E-2,-1.4940242E-3,-9.377192E-3,-5.4691713E-2,1.0396552E-1,-3.0739063E-1,-1.8506465E-3,-1.07039675E-1,2.681953E-3,-4.9056644E-3,-2.4585048E-2,1.6825671E-3,-5.653093E-3,-1.653346E-1,1.1374688E-2,7.283765E-3,-1.2572127E-3,-1.4416253E-3,2.3302747E-1,2.6780283E-1,4.63859E-1,1.3311363E-2,6.020994E-3,-1.9171876E-1,6.2425216E-3,5.4815285E-2,-2.0372795E-1,-4.1289986E-3,2.9062412E-3,2.333418E-1,2.1451708E-2,6.337558E-1,1.5133969E-2,6.9034386E-1,4.5711305E-2,-1.4620069E-2,-1.9040104E-3,-1.2200704E-2,-4.999136E-3,-2.609576E-2,-1.1374391E-2,-1.2198135E-2,-2.3177972E-2,5.8851694E-3,-4.2924443E-3,7.719274E-3,1.3671762E-3,-9.050108E-3,-1.7743453E-2,-2.6314494E-3,-8.271188E-3,-2.1819854E-3,-1.4577056E-2,-3.5324732E-3,3.6246548E-3,7.70591E-3,1.3486604E-2,1.422303E-2,4.4175033E-3,2.4173971E-2,9.578616E-3,-1.2340521E-2,-2.9270016E-3,1.1004634E-3,9.605421E-3,-4.3873442E-3,-1.2580303E-2,1.4073946E-2,5.360115E-3,1.5303974E-2,3.303067E-2,3.730082E-2,1.8030547E-2],"categories":[],"categories_nodes":[],"categories_segments":[],"categories_sizes":[],"default_left":[0,0,0,0,0,0,0,0,0,0,0,0,0,0,0,0,0,0,0,0,0,0,0,0,0,0,0,0,0,0,0,0,0,0,0,0,0,0,0,0,0,0,0,0,0,0,0,0,0,0,0,0,0,0,0,0,0,0,0,0,0,0,0,0,0,0,0,0,0,0,0,0,0,0,0,0,0,0,0,0,0,0,0,0,0,0,0,0,0,0,0,0,0,0,0,0,0,0,0,0,0,0,0,0,0,0,0,0,0,0,0,0,0,0,0,0,0,0,0,0,0,0,0,0,0,0,0,0,0,0,0,0,0,0,0,0,0,0,0,0,0,0,0,0,0,0,0,0,0,0,0,0,0,0,0,0,0,0,0,0,0,0,0,0,0,0,0,0,0,0,0,0,0,0,0,0,0,0,0,0,0,0,0,0,0,0,0,0,0,0,0,0,0,0,0,0,0,0,0,0,0,0,0,0,0,0,0,0,0,0,0,0,0,0,0,0,0,0,0,0,0,0,0,0,0,0,0,0,0,0,0,0,0,0,0,0,0,0,0,0,0,0,0],"id":3,"left_children":[1,3,5,7,9,11,13,15,17,19,21,-1,-1,23,25,27,-1,29,31,33,35,37,39,41,43,45,47,49,-1,51,53,-1,55,57,59,61,63,65,67,69,-1,71,73,75,-1,-1,-1,77,79,-1,-1,81,83,-1,-1,-1,85,87,89,91,93,-1,95,-1,-1,97,99,-1,-1,101,103,105,107,109,-1,-1,-1,111,-1,-1,113,-1,-1,-1,115,117,119,121,123,-1,-1,125,127,129,131,133,135,137,-1,139,-1,141,143,-1,-1,145,147,149,151,-1,153,155,157,-1,-1,159,161,163,-1,165,167,169,-1,171,-1,173,-1,175,177,179,181,-1,-1,-1,-1,183,185,187,-1,189,-1,-1,191,193,195,-1,-1,-1,-1,-1,197,-1,-1,-1,199,201,203,-1,-1,-1,-1,205,-1,-1,207,209,-1,-1,-1,211,-1,-1,-1,213,215,217,-1,219,-1,-1,-1,-1,-1,221,223,-1,-1,-1,225,227,229,-1,-1,231,-1,233,235,-1,-1,237,-1,239,-1,241,-1,-1,-1,-1,-1,-1,-1,-1,-1,-1,-1,-1,-1,-1,-1,-1,-1,-1,-1,-1,-1,-1,-1,-1,-1,-1,-1,-1,-1,-1,-1,-1,-1,-1,-1,-1,-1,-1,-1],"loss_changes":[1.4857451E2,5.896788E1,3.6226562E1,8.144623E0,2.0523258E1,4.8150063E-1,1.5562958E1,1.3489532E0,9.379276E0,5.8694506E0,5.8733315E0,0E0,0E0,5.762766E0,9.344086E0,1.208641E0,0E0,3.213997E0,1.1342167E1,4.048458E0,6.946294E-1,1.9956627E0,2.1695557E0,1.6455045E0,2.0804977E-1,6.8154526E-1,7.0690002E0,3.4670258E-1,0E0,1.3378983E0,6.108198E-1,0E0,1.3988581E0,1.5117073E0,2.669663E0,5.2857506E-1,3.7560403E-2,1.5244694E0,1.1891261E-1,1.0180277E0,0E0,8.722348E-1,1.7017493E0,4.5893574E-1,0E0,0E0,0E0,2.7506485E0,1.8693018E0,0E0,0E0,2.8438187E-1,1.5643158E0,0E0,0E0,0E0,1.0465035E0,5.174904E-1,7.35219E-1,7.807417E-1,1.7182565E0,0E0,4.19536E-1,0E0,0E0,8.7058544E-1,1.246748E0,0E0,0E0,8.237824E-1,2.6164734E-1,3.9576304E-1,3.6041123E-1,1.0674076E0,0E0,0E0,0E0,1.1149292E0,0E0,0E0,1.5612921E-1,0E0,0E0,0E0,4.77643E-1,2.149448E-1,9.0093803E-1,1.4291286E-1,6.10044E-2,0E0,0E0,3.27847E-1,5.817809E-1,6.455749E-1,1.6244125E-1,7.416466E-2,2.998032E-1,4.5299244E-1,0E0,9.355602E-1,0E0,3.143298E-1,4.9993896E-1,0E0,0E0,1.4436936E-1,1.510045E-1,1.8537816E-1,2.7543586E-1,0E0,2.0682192E-1,9.342499E-1,2.0231259E-1,0E0,0E0,1.7908669E-1,3.2428312E-1,8.4602475E-2,0E0,1.5150928E-1,1.413455E-1,3.4827232E-2,0E0,6.8941265E-2,0E0,2.956254E-1,0E0,2.8904486E-1,1.2405366E-1,4.100839E-1,6.714847E-2,0E0,0E0,0E0,0E0,2.204592E-1,1.03727266E-1,4.4879365E-1,0E0,2.1972752E-1,0E0,0E0,2.5730848E-2,6.5390307E-1,5.226802E-1,0E0,0E0,0E0,0E0,0E0,7.111371E-2,0E0,0E0,0E0,1.4465189E-1,8.9895725E-2,8.621254E-1,0E0,0E0,0E0,0E0,1.5339297E-1,0E0,0E0,2.5119185E-2,1.4221191E-1,0E0,0E0,0E0,6.1887264E-2,0E0,0E0,0E0,2.74979E-1,7.460219E-2,1.9719362E-1,0E0,7.258853E-2,0E0,0E0,0E0,0E0,0E0,2.3283392E-1,9.4089605E-2,0E0,0E0,0E0,1.7295861E-1,1.0028076E-1,1.6274619E-1,0E0,0E0,2.6248503E-1,0E0,2.795245E-1,4.1028917E-2,0E0,0E0,3.9663315E-2,0E0,1.2800312E-1,0E0,6.956558E-1,0E0,0E0,0E0,0E0,0E0,0E0,0E0,0E0,0E0,0E0,0E0,0E0,0E0,0E0,0E0,0E0,0E0,0E0,0E0,0E0,0E0,0E0,0E0,0E0,0E0,0E0,0E0,0E0,0E0,0E0,0E0,0E0,0E0,0E0,0E0,0E0,0E0,0E0,0E0],"parents":[2147483647,0,0,1,1,2,2,3,3,4,4,5,5,6,6,7,7,8,8,9,9,10,10,13,13,14,14,15,15,17,17,18,18,19,19,20,20,21,21,22,22,23,23,24,24,25,25,26,26,27,27,29,29,30,30,32,32,33,33,34,34,35,35,36,36,37,37,38,38,39,39,41,41,42,42,43,43,47,47,48,48,51,51,52,52,56,56,57,57,58,58,59,59,60,60,62,62,65,65,66,66,69,69,70,70,71,71,72,72,73,73,77,77,80,80,84,84,85,85,86,86,87,87,88,88,91,91,92,92,93,93,94,94,95,95,96,96,97,97,99,99,101,101,102,102,105,105,106,106,107,107,108,108,110,110,111,111,112,112,115,115,116,116,117,117,119,119,120,120,121,121,123,123,125,125,127,127,128,128,129,129,130,130,135,135,136,136,137,137,139,139,142,142,143,143,144,144,150,150,154,154,155,155,156,156,161,161,164,164,165,165,169,169,173,173,174,174,175,175,177,177,183,183,184,184,188,188,189,189,190,190,193,193,195,195,196,196,199,199,201,201,203,203],"right_children":[2,4,6,8,10,12,14,16,18,20,22,-1,-1,24,26,28,-1,30,32,34,36,38,40,42,44,46,48,50,-1,52,54,-1,56,58,60,62,64,66,68,70,-1,72,74,76,-1,-1,-1,78,80,-1,-1,82,84,-1,-1,-1,86,88,90,92,94,-1,96,-1,-1,98,100,-1,-1,102,104,106,108,110,-1,-1,-1,112,-1,-1,114,-1,-1,-1,116,118,120,122,124,-1,-1,126,128,130,132,134,136,138,-1,140,-1,142,144,-1,-1,146,148,150,152,-1,154,156,158,-1,-1,160,162,164,-1,166,168,170,-1,172,-1,174,-1,176,178,180,182,-1,-1,-1,-1,184,186,188,-1,190,-1,-1,192,194,196,-1,-1,-1,-1,-1,198,-1,-1,-1,200,202,204,-1,-1,-1,-1,206,-1,-1,208,210,-1,-1,-1,212,-1,-1,-1,214,216,218,-1,220,-1,-1,-1,-1,-1,222,224,-1,-1,-1,226,228,230,-1,-1,232,-1,234,236,-1,-1,238,-1,240,-1,242,-1,-1,-1,-1,-1,-1,-1,-1,-1,-1,-1,-1,-1,-1,-1,-1,-1,-1,-1,-1,-1,-1,-1,-1,-1,-1,-1,-1,-1,-1,-1,-1,-1,-1,-1,-1,-1,-1,-1],"split_conditions":[3.068E3,1.8988005E5,1E0,7.9E1,9.31E2,1.5900173E3,1.1603809E3,1.4504054E8,6.83E2,2.331083E6,3.875E0,-4.44164E-2,-1.9820949E-2,3.022612E6,1.059448E7,5.62E2,-5.1945608E-2,5.035714E0,2.5E2,4.97E2,7.4711205E6,2.453E4,1.2784314E1,7.449545E2,6.165E3,4.626E3,7.61E2,1.0219829E1,-1.2601082E-2,2.71E2,2.95E2,3.2404594E-2,1E0,6.2233735E-6,6.33E3,2.2953334E2,2.327189E-1,4.2060452E2,1.357E3,2.295413E6,-2.4616497E-2,1.124641E0,1.5449402E7,5.376E3,4.335578E-2,4.6973743E-2,8.369157E-2,6.663214E6,4.24038E8,-3.884479E-2,-2.0356957E-2,3.328629E6,6.9E1,-2.8799288E-2,-6.6347666E-2,-3.307257E-2,2.1E1,1.3650746E2,5.5E1,1E0,9E0,-1.09972255E-2,3.5364E4,7.4594617E-3,1.7539278E-2,2.59E0,2.43025E5,-1.5517152E-3,-1.2706052E-2,1.26E2,4.1778E4,4.5742856E2,6.185E3,1.1057851E1,-3.04163E-3,3.245476E-2,1.11228265E-2,1.0424884E-7,5.9835814E-2,2.1456838E-2,1E0,-3.3835046E-2,-1.7520677E-2,-5.864462E-4,8.147158E4,1.404E3,2.1340163E8,7.9016544E5,1.7754011E0,-2.5032474E-2,-4.9561597E-2,3.547E3,2.118835E6,7.13E2,1.7E1,4.76E2,2.778995E2,1E0,2.5047142E-2,6.965855E9,1.7621351E-3,3.574764E7,1.503E3,4.2691175E-3,1.7432405E-2,4.7567694E5,8.620714E2,1.4521204E0,1.49E2,3.378617E-2,2.5393645E5,1E0,2.64E0,-3.466466E-4,-1.2700479E-2,3.477E4,3.2857144E0,1.4285715E0,2.5949585E-3,1.4831979E0,2.2941177E0,3.559322E0,-9.423866E-3,8.411777E7,-1.2936713E-2,3.4151352E2,-1.2666424E-2,3.339E3,9.575663E6,1.0865825E0,1.3E1,-2.0467985E-2,-4.163785E-2,2.7097054E-3,1.0234021E-2,2.2307692E0,1.9821428E0,4.0449125E5,-5.5548134E-3,1.609E3,3.1030433E-2,-1.2024905E-3,1.0839028E1,1.2707816E6,9.639872E0,1.0712468E-2,2.5654292E-2,1.9403234E-3,1.1584847E-2,-9.87452E-3,6.12E2,1.4024641E-2,-1.3441483E-3,4.9881926E-3,8.716064E2,4.88E2,1.7587205E6,2.4203349E-2,7.7264756E-3,-2.0286927E-2,-3.634122E-2,2.426015E-1,-2.2263642E-2,-1.4408927E-3,2.2702768E6,1.3339816E5,-1.002942E-2,6.032687E-4,-1.0285959E-2,1.9428572E1,-1.199326E-2,-1.4940242E-3,-9.377192E-3,2.6363637E0,2.7563172E6,5.3E1,-1.8506465E-3,2.7432E4,2.681953E-3,-4.9056644E-3,-2.4585048E-2,1.6825671E-3,-5.653093E-3,1E0,1.2238068E7,7.283765E-3,-1.2572127E-3,-1.4416253E-3,2.302366E6,5.884866E7,5.1291872E8,1.3311363E-2,6.020994E-3,3.355102E2,6.2425216E-3,4.5179688E1,3.1958065E1,-4.1289986E-3,2.9062412E-3,9.9811395E2,2.1451708E-2,5.306E3,1.5133969E-2,2.88721E5,4.5711305E-2,-1.4620069E-2,-1.9040104E-3,-1.2200704E-2,-4.999136E-3,-2.609576E-2,-1.1374391E-2,-1.2198135E-2,-2.3177972E-2,5.8851694E-3,-4.2924443E-3,7.719274E-3,1.3671762E-3,-9.050108E-3,-1.7743453E-2,-2.6314494E-3,-8.271188E-3,-2.1819854E-3,-1.4577056E-2,-3.5324732E-3,3.6246548E-3,7.70591E-3,1.3486604E-2,1.422303E-2,4.4175033E-3,2.4173971E-2,9.578616E-3,-1.2340521E-2,-2.9270016E-3,1.1004634E-3,9.605421E-3,-4.3873442E-3,-1.2580303E-2,1.4073946E-2,5.360115E-3,1.5303974E-2,3.303067E-2,3.730082E-2,1.8030547E-2],"split_indices":[2,37,16,38,2,64,61,40,2,37,63,0,0,37,12,10,0,62,38,2,37,38,62,61,2,2,8,63,0,2,2,0,109,46,38,42,67,61,2,37,0,47,56,2,0,0,0,37,41,0,0,9,10,0,0,0,8,61,0,23,8,0,9,0,0,62,1,0,0,10,1,61,38,65,0,0,0,46,0,0,25,0,0,0,37,2,7,37,62,0,0,38,9,2,3,2,64,6,0,40,0,7,2,0,0,37,4,47,8,0,37,24,63,0,0,1,63,65,0,47,62,65,0,40,0,4,0,38,9,65,3,0,0,0,0,65,62,37,0,2,0,0,65,37,63,0,0,0,0,0,38,0,0,0,61,0,37,0,0,0,0,47,0,0,54,37,0,0,0,61,0,0,0,67,54,0,0,1,0,0,0,0,0,112,54,0,0,0,9,5,7,0,0,61,0,65,67,0,0,4,0,2,0,9,0,0,0,0,0,0,0,0,0,0,0,0,0,0,0,0,0,0,0,0,0,0,0,0,0,0,0,0,0,0,0,0,0,0,0,0,0,0,0],"split_type":[0,0,0,0,0,0,0,0,0,0,0,0,0,0,0,0,0,0,0,0,0,0,0,0,0,0,0,0,0,0,0,0,0,0,0,0,0,0,0,0,0,0,0,0,0,0,0,0,0,0,0,0,0,0,0,0,0,0,0,0,0,0,0,0,0,0,0,0,0,0,0,0,0,0,0,0,0,0,0,0,0,0,0,0,0,0,0,0,0,0,0,0,0,0,0,0,0,0,0,0,0,0,0,0,0,0,0,0,0,0,0,0,0,0,0,0,0,0,0,0,0,0,0,0,0,0,0,0,0,0,0,0,0,0,0,0,0,0,0,0,0,0,0,0,0,0,0,0,0,0,0,0,0,0,0,0,0,0,0,0,0,0,0,0,0,0,0,0,0,0,0,0,0,0,0,0,0,0,0,0,0,0,0,0,0,0,0,0,0,0,0,0,0,0,0,0,0,0,0,0,0,0,0,0,0,0,0,0,0,0,0,0,0,0,0,0,0,0,0,0,0,0,0,0,0,0,0,0,0,0,0,0,0,0,0,0,0,0,0,0,0,0,0],"sum_hessian":[1.178E3,8.76E2,3.02E2,2.75E2,6.01E2,1.6E1,2.86E2,8.3E1,1.92E2,3.14E2,2.87E2,1.1E1,5E0,1.27E2,1.59E2,6.3E1,2E1,1.18E2,7.4E1,2.44E2,7E1,1.44E2,1.43E2,9.3E1,3.4E1,1.8E1,1.41E2,5.7E1,6E0,1.08E2,1E1,1.1E1,6.3E1,9.3E1,1.51E2,6.2E1,8E0,1.36E2,8E0,1.37E2,6E0,4.9E1,4.4E1,2.2E1,1.2E1,7E0,1.1E1,1.23E2,1.8E1,5.1E1,6E0,5.8E1,5E1,4E0,6E0,9E0,5.4E1,6.7E1,2.6E1,1.2E2,3.1E1,7E0,5.5E1,4E0,4E0,7.4E1,6.2E1,4E0,4E0,1.22E2,1.5E1,2.4E1,2.5E1,3.8E1,6E0,1.8E1,4E0,1.07E2,1.6E1,1E1,8E0,5.2E1,6E0,7E0,4.3E1,1.9E1,3.5E1,4.3E1,2.4E1,2.2E1,4E0,5.7E1,6.3E1,2E1,1.1E1,1.5E1,4E1,6.7E1,7E0,5.5E1,7E0,2E1,1.02E2,6E0,9E0,1E1,1.4E1,1.6E1,9E0,1.3E1,2.5E1,9.8E1,9E0,4E0,4E0,1.8E1,2.5E1,1.3E1,6E0,2.6E1,9E0,3.8E1,5E0,1.1E1,1.3E1,5.3E1,4E0,3.6E1,2.7E1,1.1E1,9E0,5E0,6E0,5E0,1E1,2.7E1,1.3E1,6.3E1,4E0,3.5E1,2E1,5E0,1.5E1,3.5E1,6.7E1,5E0,5E0,7E0,7E0,5E0,1.1E1,5E0,4E0,4E0,2.1E1,1.9E1,7.9E1,5E0,4E0,8E0,1E1,8E0,1.7E1,4E0,9E0,2.2E1,4E0,5E0,4E0,3.3E1,5E0,4E0,7E0,3.7E1,1.6E1,3.1E1,5E0,2.2E1,5E0,4E0,7E0,5E0,4E0,1.3E1,1.4E1,9E0,4E0,7E0,5.6E1,1.8E1,1.7E1,1.1E1,4E0,2.8E1,7E0,5.9E1,8E0,4E0,7E0,8E0,1.3E1,1.4E1,5E0,2.8E1,5.1E1,4E0,4E0,5E0,4E0,1.8E1,4E0,5E0,2.8E1,6E0,3.1E1,8E0,8E0,1.4E1,1.7E1,1.4E1,8E0,8E0,5E0,6E0,8E0,2.8E1,2.8E1,1.4E1,4E0,1.3E1,4E0,1.7E1,1.1E1,5E1,9E0,4E0,4E0,4E0,4E0,4E0,1E1,1.9E1,9E0],"tree_param":{"num_deleted":"0","num_feature":"115","num_nodes":"243","size_leaf_vector":"1"}},{"base_weights":[1.273407E-2,-1.7398E-1,6.5212655E-1,-5.622112E-1,-1.38434805E-2,7.271936E-1,-1.9827098E-2,-8.184268E-1,-4.3234485E-1,-1.9558303E-1,1.6338173E-1,8.036642E-2,6.788708E-1,-5.45097E-1,2.300285E-1,-7.5660485E-1,-5.610749E-2,7.32953E-2,-5.257162E-1,-4.896907E-1,-1.2907432E-1,1.0413966E-1,4.281755E-1,4.3113774E-1,8.7878865E-1,-3.4312896E-2,-1.1085945E-2,-1.1259813E-3,3.8043517E-1,-4.0010456E-2,-6.1635387E-1,-3.0220795E-2,8.4638524E-1,-6.523454E-1,-3.312313E-1,-5.161185E-1,-5.1645176E-3,-1.9103214E-1,4.762872E-2,1.4031693E-1,-2.2963548E-1,1.9024456E-1,5.304883E-1,4.7931336E-2,5.549329E-1,9.0355253E-1,5.2586114E-3,2.1286683E-2,8.187774E-3,-3.0968018E-2,-4.502942E-1,2.4952384E-2,4.6700437E-2,-4.797924E-1,-7.9946357E-1,-4.7140676E-1,-1.651332E-1,-4.45922E-1,-3.0102173E-2,-3.8315383E-1,-1.1916712E-1,2.4616555E-3,2.7734634E-1,-1.6340487E-2,1.8552989E-1,-1.1487153E-1,-2.7439743E-2,2.5279838E-1,2.1698454E-3,5.763142E-1,4.369925E-3,-3.8451098E-2,1.583732E-2,7.394165E-1,3.3550695E-1,6.831743E-1,1.0024472E0,-2.41782E-2,-1.1319034E-2,-4.870218E-3,-5.155074E-1,-8.8529056E-1,-2.3759397E-2,-5.23118E-1,-7.4095833E-3,-2.400535E-1,-2.0713288E-2,-2.209302E-2,-1.1009762E-2,-3.6079317E-2,-2.9123312E-1,3.132145E-2,-1.7206916E-1,4.339576E-2,-1.9426823E-1,7.691151E-3,1.5835622E-2,-1.3548023E-1,5.7726424E-2,2.0050575E-1,-1.35187395E-2,4.248274E-3,-1.8519953E-1,6.6804537E-3,1.399721E-2,1.1773354E-2,6.322055E-1,-1.1812944E-1,4.8950026E-3,5.8881265E-1,5.309041E-2,4.0969408E-1,-1.0236256E-2,7.232613E-1,1.8085506E-2,1.0650568E0,6.6013527E-1,-5.545232E-1,-6.4451867E-3,-4.8986435E-2,-3.204922E-2,-1.75324E-2,-2.7695986E-2,-3.934137E-3,-1.496372E-2,3.7831943E-3,-7.4049556E-3,-2.0192564E-1,-5.6575525E-1,-1.02425024E-1,9.184592E-2,-1.9155023E-1,8.087964E-3,-6.77499E-2,1.0108578E-1,-2.1667797E-2,3.075215E-3,-2.3959172E-1,2.9450743E-3,1.1730041E-1,-1.2079026E-1,1.1174889E-1,3.0651096E-1,-2.3707965E-1,-1.0941601E-3,1.5824191E-2,3.130469E-2,-8.438738E-3,-1.2874013E-3,6.309692E-1,1.0872191E-2,2.7574563E-1,2.7510105E-2,7.5372833E-1,1.8313939E-2,9.398252E-1,5.962601E-2,1.8830366E-2,3.4518365E-2,-6.325417E-1,-4.2234233E-1,-3.312548E-1,-1.0609068E-1,-3.6024597E-2,-9.125352E-3,-6.9726305E-3,-2.178598E-4,1.6784646E-2,1.5498525E-1,-2.518914E-1,-7.5739205E-2,2.664314E-3,-1.413475E-1,7.000508E-2,1.03691425E-2,-1.5044671E-2,-6.236208E-3,-2.1289953E-3,1.5837553E-1,-1.7813076E-3,-8.278807E-3,-1.9791095E-2,2.0507528E-1,3.4946707E-1,5.4935433E-2,-1.3169482E-2,-5.2559897E-3,1.128806E-2,3.170901E-2,1.4526689E-2,5.917682E-3,2.1969892E-2,3.7185777E-2,4.53446E-2,2.6650583E-2,-1.9766182E-2,-3.3954762E-2,-8.155391E-3,-2.2657566E-2,-6.5142247E-3,-1.8200861E-2,-2.2167852E-3,-9.97616E-3,3.7885893E-3,-4.800239E-3,9.45296E-3,1.1733024E-3,-3.839909E-3,-1.3571775E-2,4.749802E-3,-4.7227284E-3,-9.028986E-3,-2.9612596E-3,1.6089196E-3,6.9097574E-3,8.507811E-3,1.8511195E-3,1.3471292E-3,-1.793033E-2,1.0788398E-2,-6.444488E-3,2.0844627E-2,9.766967E-3,5.067726E-3,-3.4713538E-4],"categories":[],"categories_nodes":[],"categories_segments":[],"categories_sizes":[],"default_left":[0,0,0,0,0,0,0,0,0,0,0,0,0,0,0,0,0,0,0,0,0,0,0,0,0,0,0,0,0,0,0,0,0,0,0,0,0,0,0,0,0,0,0,0,0,0,0,0,0,0,0,0,0,0,0,0,0,0,0,0,0,0,0,0,0,0,0,0,0,0,0,0,0,0,0,0,0,0,0,0,0,0,0,0,0,0,0,0,0,0,0,0,0,0,0,0,0,0,0,0,0,0,0,0,0,0,0,0,0,0,0,0,0,0,0,0,0,0,0,0,0,0,0,0,0,0,0,0,0,0,0,0,0,0,0,0,0,0,0,0,0,0,0,0,0,0,0,0,0,0,0,0,0,0,0,0,0,0,0,0,0,0,0,0,0,0,0,0,0,0,0,0,0,0,0,0,0,0,0,0,0,0,0,0,0,0,0,0,0,0,0,0,0,0,0,0,0,0,0,0,0,0,0,0,0,0,0,0,0,0,0,0,0,0,0,0,0,0,0,0,0,0,0,0,0],"id":4,"left_children":[1,3,5,7,9,11,13,15,17,19,21,-1,23,25,27,29,-1,31,33,35,37,39,41,43,45,-1,-1,-1,47,-1,49,-1,51,53,55,57,-1,59,61,63,65,67,69,71,73,75,-1,-1,-1,-1,77,-1,-1,79,81,83,85,87,-1,89,91,93,95,97,99,101,-1,103,-1,105,-1,107,-1,109,111,113,115,-1,-1,-1,117,119,-1,121,-1,123,125,-1,-1,-1,127,129,131,133,135,-1,-1,137,139,141,-1,-1,143,-1,-1,-1,145,147,-1,149,-1,151,-1,153,-1,155,157,159,-1,-1,-1,-1,-1,-1,-1,-1,-1,161,163,165,167,169,-1,171,173,-1,-1,175,-1,177,179,181,183,185,-1,-1,-1,-1,-1,187,-1,189,-1,191,-1,193,-1,-1,-1,195,197,199,201,-1,-1,-1,-1,203,205,207,209,-1,211,213,-1,-1,-1,-1,215,-1,-1,217,219,221,223,-1,-1,-1,-1,-1,-1,-1,-1,-1,-1,-1,-1,-1,-1,-1,-1,-1,-1,-1,-1,-1,-1,-1,-1,-1,-1,-1,-1,-1,-1,-1,-1,-1,-1,-1,-1,-1,-1,-1,-1],"loss_changes":[1.3680765E2,5.513701E1,1.3078789E1,8.264069E0,2.0291307E1,1.018943E1,3.6689112E0,1.1782951E0,8.253471E0,6.020177E0,4.9595413E0,0E0,1.0714996E1,3.625636E-1,7.3615956E-1,6.3458633E-1,0E0,1.6277641E1,3.4041595E0,5.119171E-1,2.8008733E0,3.1958911E0,1.3109932E0,4.812189E0,2.22789E0,0E0,0E0,0E0,1.1300039E-1,0E0,2.3877144E-2,0E0,1.5617466E-1,1.8503647E0,1.319128E0,2.1013927E-1,0E0,2.5638318E0,6.9448715E-1,1.6816897E0,1.0162163E0,1.5851861E-1,7.448549E-1,6.742545E-1,2.8689194E0,1.9086761E0,0E0,0E0,0E0,0E0,5.0486803E-2,0E0,0E0,5.2093124E-1,6.744194E-1,4.313035E-1,3.0880725E-1,1.3580179E-1,0E0,1.6321721E0,1.1119899E0,4.6744922E-1,2.2439241E-2,4.8433366E-1,1.3749151E0,3.2225707E-1,0E0,2.6391804E-2,0E0,4.8675442E-1,0E0,2.538519E-1,0E0,1.8436356E0,1.618834E0,1.8600082E-1,1.0114746E0,0E0,0E0,0E0,4.952078E-1,4.0249062E-1,0E0,6.69775E-2,0E0,2.1800423E-1,1.701389E-1,0E0,0E0,0E0,9.3998504E-1,3.089199E-1,7.294924E-1,3.1462434E-1,7.455868E-1,0E0,0E0,4.506164E-1,3.757571E-1,1.6499028E0,0E0,0E0,1.2849528E-1,0E0,0E0,0E0,1.5483856E-1,7.615712E-2,0E0,3.29072E-1,0E0,6.5320444E-1,0E0,4.087448E-2,0E0,6.370163E-1,2.2548676E-2,9.3790054E-2,0E0,0E0,0E0,0E0,0E0,0E0,0E0,0E0,0E0,3.8626158E-1,6.3076615E-1,5.5891484E-2,1.2062091E-1,6.6576314E-1,0E0,1.6494924E-1,1.0666081E-1,0E0,0E0,8.172345E-2,0E0,1.8169782E-1,3.6167443E-2,1.2193975E0,8.5614395E-1,3.8119614E-2,0E0,0E0,0E0,0E0,0E0,4.2161083E-1,0E0,7.848346E-2,0E0,3.6283493E-2,0E0,1.07975006E-1,0E0,0E0,0E0,1.0254288E-1,1.7883372E-1,1.1023331E-1,1.23478174E-1,0E0,0E0,0E0,0E0,1.1049136E-1,8.431584E-2,4.2346334E-1,1.7487599E-1,0E0,3.3277094E-2,7.027306E-2,0E0,0E0,0E0,0E0,5.6025326E-2,0E0,0E0,7.6660395E-1,5.9344816E-1,8.696003E-1,4.5131892E-2,0E0,0E0,0E0,0E0,0E0,0E0,0E0,0E0,0E0,0E0,0E0,0E0,0E0,0E0,0E0,0E0,0E0,0E0,0E0,0E0,0E0,0E0,0E0,0E0,0E0,0E0,0E0,0E0,0E0,0E0,0E0,0E0,0E0,0E0,0E0,0E0,0E0,0E0,0E0,0E0],"parents":[2147483647,0,0,1,1,2,2,3,3,4,4,5,5,6,6,7,7,8,8,9,9,10,10,12,12,13,13,14,14,15,15,17,17,18,18,19,19,20,20,21,21,22,22,23,23,24,24,28,28,30,30,32,32,33,33,34,34,35,35,37,37,38,38,39,39,40,40,41,41,42,42,43,43,44,44,45,45,50,50,53,53,54,54,55,55,56,56,57,57,59,59,60,60,61,61,62,62,63,63,64,64,65,65,67,67,69,69,71,71,73,73,74,74,75,75,76,76,80,80,81,81,83,83,85,85,86,86,90,90,91,91,92,92,93,93,94,94,97,97,98,98,99,99,102,102,106,106,107,107,109,109,111,111,113,113,115,115,116,116,117,117,127,127,128,128,129,129,130,130,131,131,133,133,134,134,137,137,139,139,140,140,141,141,142,142,143,143,149,149,151,151,153,153,155,155,159,159,160,160,161,161,162,162,167,167,168,168,169,169,170,170,172,172,173,173,178,178,181,181,182,182,183,183,184,184],"right_children":[2,4,6,8,10,12,14,16,18,20,22,-1,24,26,28,30,-1,32,34,36,38,40,42,44,46,-1,-1,-1,48,-1,50,-1,52,54,56,58,-1,60,62,64,66,68,70,72,74,76,-1,-1,-1,-1,78,-1,-1,80,82,84,86,88,-1,90,92,94,96,98,100,102,-1,104,-1,106,-1,108,-1,110,112,114,116,-1,-1,-1,118,120,-1,122,-1,124,126,-1,-1,-1,128,130,132,134,136,-1,-1,138,140,142,-1,-1,144,-1,-1,-1,146,148,-1,150,-1,152,-1,154,-1,156,158,160,-1,-1,-1,-1,-1,-1,-1,-1,-1,162,164,166,168,170,-1,172,174,-1,-1,176,-1,178,180,182,184,186,-1,-1,-1,-1,-1,188,-1,190,-1,192,-1,194,-1,-1,-1,196,198,200,202,-1,-1,-1,-1,204,206,208,210,-1,212,214,-1,-1,-1,-1,216,-1,-1,218,220,222,224,-1,-1,-1,-1,-1,-1,-1,-1,-1,-1,-1,-1,-1,-1,-1,-1,-1,-1,-1,-1,-1,-1,-1,-1,-1,-1,-1,-1,-1,-1,-1,-1,-1,-1,-1,-1,-1,-1,-1,-1],"split_conditions":[3.443E3,1.7909248E5,2E0,1.2877E4,9.31E2,2.2968E4,5.615327E5,3.9E1,2.04115E5,3.95E2,2.8530578E6,8.036642E-2,1.7587205E6,1.7094556E5,5.071E3,4.2E1,-5.610749E-2,2.85E2,1.559733E6,1.1362371E6,2.331083E6,9.932432E0,5.7377E4,3.9401392E6,8.604875E3,-3.4312896E-2,-1.1085945E-2,-1.1259813E-3,2.6750835E6,-4.0010456E-2,2.6095572E0,-3.0220795E-2,1.296E3,3.14403E5,4.22201E6,4.060171E6,-5.1645176E-3,1E0,6.9307615E6,4.7567694E5,4E1,1.1297008E5,8.0605554E2,9.6215985E2,1.1E2,9.939072E2,5.2586114E-3,2.1286683E-2,8.187774E-3,-3.0968018E-2,5.853E3,2.4952384E-2,4.6700437E-2,1.3520408E0,8.43E2,6.077143E5,1.194E3,5E0,-3.0102173E-2,2.508E2,1.9452055E0,8E0,3.0914426E2,1.244E3,1.4676277E7,3.588785E0,-2.7439743E-2,1E0,2.1698454E-3,5.2692295E6,4.369925E-3,2.6463525E8,1.583732E-2,3.0427273E3,2.921332E9,2.9E1,2.5842668E7,-2.41782E-2,-1.1319034E-2,-4.870218E-3,3.7497173E1,1E0,-2.3759397E-2,4.313463E-2,-7.4095833E-3,1.8111588E0,3.38E2,-2.209302E-2,-1.1009762E-2,-3.6079317E-2,1.295313E6,5.51E2,1.0657745E7,9.85E2,1.5933333E2,7.691151E-3,1.5835622E-2,4.797342E2,2.458161E6,4.3764517E2,-1.35187395E-2,4.248274E-3,7.3835544E5,6.6804537E-3,1.399721E-2,1.1773354E-2,3.7788504E7,1.6485592E0,4.8950026E-3,1.27107956E2,5.309041E-2,1.76812E3,-1.0236256E-2,6.6091795E6,1.8085506E-2,6.7947706E8,8.148046E1,2.4602438E2,-6.4451867E-3,-4.8986435E-2,-3.204922E-2,-1.75324E-2,-2.7695986E-2,-3.934137E-3,-1.496372E-2,3.7831943E-3,-7.4049556E-3,7.3131656E5,2.3285185E2,1.9733992E4,6.9E1,1.944578E6,8.087964E-3,3.434405E7,2.3333333E0,-2.1667797E-2,3.075215E-3,2.4017522E5,2.9450743E-3,2.896827E5,1.4195632E6,2.742234E6,2.0319266E-7,6.7723384E7,-1.0941601E-3,1.5824191E-2,3.130469E-2,-8.438738E-3,-1.2874013E-3,6.6993866E0,1.0872191E-2,6.364486E0,2.7510105E-2,4.6134964E2,1.8313939E-2,3.7E1,5.962601E-2,1.8830366E-2,3.4518365E-2,6E0,1.1320151E7,1.3E1,2.141096E1,-3.6024597E-2,-9.125352E-3,-6.9726305E-3,-2.178598E-4,1.4473684E-1,1E0,5.612245E0,5.788E3,2.664314E-3,2.524828E2,2.7015875E2,1.03691425E-2,-1.5044671E-2,-6.236208E-3,-2.1289953E-3,2.928528E1,-1.7813076E-3,-8.278807E-3,2.511E3,1E0,4.017544E0,9.936263E6,-1.3169482E-2,-5.2559897E-3,1.128806E-2,3.170901E-2,1.4526689E-2,5.917682E-3,2.1969892E-2,3.7185777E-2,4.53446E-2,2.6650583E-2,-1.9766182E-2,-3.3954762E-2,-8.155391E-3,-2.2657566E-2,-6.5142247E-3,-1.8200861E-2,-2.2167852E-3,-9.97616E-3,3.7885893E-3,-4.800239E-3,9.45296E-3,1.1733024E-3,-3.839909E-3,-1.3571775E-2,4.749802E-3,-4.7227284E-3,-9.028986E-3,-2.9612596E-3,1.6089196E-3,6.9097574E-3,8.507811E-3,1.8511195E-3,1.3471292E-3,-1.793033E-2,1.0788398E-2,-6.444488E-3,2.0844627E-2,9.766967E-3,5.067726E-3,-3.4713538E-4],"split_indices":[2,37,6,9,2,12,37,3,5,2,37,0,37,42,2,2,0,2,9,37,37,63,1,54,4,0,0,0,37,0,62,0,2,9,5,5,0,109,37,37,3,42,4,61,8,61,0,0,0,0,9,0,0,62,10,56,2,8,0,42,62,8,42,2,56,65,0,8,0,54,0,7,0,4,7,8,56,0,0,0,67,109,0,47,0,62,0,0,0,0,9,2,54,38,4,0,0,4,60,61,0,0,37,0,0,0,7,47,0,67,0,61,0,56,0,7,67,61,0,0,0,0,0,0,0,0,0,37,61,42,0,9,0,7,62,0,0,56,0,54,54,9,46,7,0,0,0,0,0,65,0,63,0,4,0,8,0,0,0,8,5,3,55,0,0,0,0,65,23,67,12,0,4,4,0,0,0,0,67,0,0,2,73,63,54,0,0,0,0,0,0,0,0,0,0,0,0,0,0,0,0,0,0,0,0,0,0,0,0,0,0,0,0,0,0,0,0,0,0,0,0,0,0,0,0],"split_type":[0,0,0,0,0,0,0,0,0,0,0,0,0,0,0,0,0,0,0,0,0,0,0,0,0,0,0,0,0,0,0,0,0,0,0,0,0,0,0,0,0,0,0,0,0,0,0,0,0,0,0,0,0,0,0,0,0,0,0,0,0,0,0,0,0,0,0,0,0,0,0,0,0,0,0,0,0,0,0,0,0,0,0,0,0,0,0,0,0,0,0,0,0,0,0,0,0,0,0,0,0,0,0,0,0,0,0,0,0,0,0,0,0,0,0,0,0,0,0,0,0,0,0,0,0,0,0,0,0,0,0,0,0,0,0,0,0,0,0,0,0,0,0,0,0,0,0,0,0,0,0,0,0,0,0,0,0,0,0,0,0,0,0,0,0,0,0,0,0,0,0,0,0,0,0,0,0,0,0,0,0,0,0,0,0,0,0,0,0,0,0,0,0,0,0,0,0,0,0,0,0,0,0,0,0,0,0,0,0,0,0,0,0,0,0,0,0,0,0,0,0,0,0,0,0],"sum_hessian":[1.144E3,8.86E2,2.58E2,2.58E2,6.28E2,2.32E2,2.6E1,8.5E1,1.73E2,3.1E2,3.18E2,9E0,2.23E2,8E0,1.8E1,7.6E1,9E0,2.7E1,1.46E2,5.6E1,2.54E2,2.61E2,5.7E1,1.01E2,1.22E2,4E0,4E0,7E0,1.1E1,4E1,3.6E1,1.4E1,1.3E1,8.7E1,5.9E1,5.2E1,4E0,1.88E2,6.6E1,2.36E2,2.5E1,1.8E1,3.9E1,2.5E1,7.6E1,1.18E2,4E0,7E0,4E0,2.5E1,1.1E1,6E0,7E0,4.2E1,4.5E1,3.1E1,2.8E1,3.7E1,1.5E1,5E1,1.38E2,5.6E1,1E1,5.3E1,1.83E2,2E1,5E0,1.2E1,6E0,3.5E1,4E0,2E1,5E0,4E1,3.6E1,3.9E1,7.9E1,7E0,4E0,4E0,3.8E1,3.3E1,1.2E1,2.6E1,5E0,1.8E1,1E1,3.1E1,6E0,8E0,4.2E1,3.6E1,1.02E2,4.7E1,9E0,5E0,5E0,2E1,3.3E1,1.78E2,5E0,5E0,1.5E1,5E0,7E0,6E0,2.9E1,1.3E1,7E0,3.1E1,9E0,3.2E1,4E0,3.3E1,6E0,6.5E1,1.4E1,3.4E1,4E0,1.5E1,1.8E1,1.1E1,1.5E1,7E0,1.1E1,6E0,4E0,3.3E1,9E0,1.1E1,2.5E1,9.7E1,5E0,1.6E1,3.1E1,4E0,5E0,1.3E1,7E0,2.5E1,8E0,9.8E1,8E1,1.1E1,4E0,5E0,2.4E1,7E0,6E0,2.7E1,4E0,2E1,1.2E1,2.9E1,4E0,4.5E1,2E1,5E0,9E0,1.9E1,1.5E1,1.3E1,2E1,5E0,4E0,7E0,4E0,1.2E1,1.3E1,6.3E1,3.4E1,6E0,1E1,2.6E1,5E0,6E0,7E0,5E0,2E1,4E0,4E0,4.1E1,5.7E1,6.8E1,1.2E1,7E0,4E0,4E0,2.3E1,1.5E1,5E0,6E0,2.3E1,3.9E1,6E0,8E0,1.1E1,4E0,1.1E1,4E0,9E0,1.4E1,6E0,8E0,4E0,9E0,4E0,1.3E1,5E1,4E0,3E1,5E0,5E0,1.9E1,7E0,1.6E1,4E0,3.7E1,4E0,5.3E1,4E0,3.8E1,3E1,6E0,6E0],"tree_param":{"num_deleted":"0","num_feature":"115","num_nodes":"225","size_leaf_vector":"1"}},{"base_weights":[1.9094069E-2,-1.729545E-1,5.66117E-1,-5.2170664E-1,-6.3044783E-3,-6.48583E-1,6.0963935E-1,-7.6781195E-1,-4.2457405E-1,-1.5971337E-1,1.5028915E-1,-3.5308048E-2,-1.659044E-2,3.7560037E-1,7.85372E-1,-9.9380094E-1,-6.885396E-1,-6.443268E-1,-3.233755E-1,-2.5151962E-1,5.657726E-3,2.636467E-1,4.7733102E-2,1.2771049E-1,5.084598E-1,8.5228306E-1,1.4484608E-1,-2.6195256E-2,-5.6193918E-2,-7.419994E-1,2.7118723E-3,-6.6443044E-1,-1.5852232E-2,3.3772972E-1,-3.931575E-1,-2.2683743E-1,-4.5101475E-2,-2.2094848E-2,1.6280416E-2,1.6877857E-1,3.915893E-1,6.710751E-2,-1.7060462E-2,2.574486E-3,3.2222345E-1,5.854172E-1,8.735437E-2,1.4053267E0,7.8095233E-1,3.9778966E-1,-1.2646902E-2,-3.7286285E-2,-5.718986E-1,-1.695649E-2,-3.145035E-2,-1.3904145E-2,6.23072E-1,-6.2550414E-1,-3.124539E-1,-4.1097388E-1,-1.5611833E-1,4.599608E-2,-8.334522E-2,1.2504622E-1,3.8791344E-1,4.6087304E-1,-8.283751E-3,1.9548252E-1,2.2554737E-2,-1.0562844E-2,6.018274E-2,2.4230152E-2,2.0446175E-1,6.658987E-1,2.9533383E-1,-7.7207456E-3,2.0572776E-1,3.4843363E-2,7.218102E-2,5.436494E-1,9.213821E-1,2.774612E-2,9.104562E-3,-1.372433E-2,-2.8943358E-2,1.1743154E-2,3.826317E-2,-6.7499727E-1,-1.0329367E-2,-4.0002456E-1,-1.3049793E-1,-3.0454016E-1,-2.3573743E-2,-2.1166044E-1,-2.226072E-2,7.303837E-2,-9.308357E-3,1.3300616E-1,-1.3675267E-1,1.6386095E-1,-8.855998E-3,2.3320576E-2,7.7947765E-3,3.4423977E-1,3.1498276E-2,2.4124572E-1,-2.9081406E-4,-1.4115287E-2,5.4453116E-2,7.976377E-3,1.1890051E-2,5.9124874E-3,1.3954624E-2,7.050038E-1,6.5549538E-3,1.7948821E-1,1.8657139E-2,3.5909712E-3,1.28725255E-2,3.8078094E-1,6.308187E-1,1.1014235E0,7.703031E-1,-3.4406234E-2,-1.8995827E-2,-3.2875362E-1,-5.6785685E-1,-1.9588415E-1,4.549235E-3,-5.7888962E-3,-3.303055E-1,-2.7509862E-1,-5.5610254E-2,1.0224167E-1,-8.371689E-2,2.4909643E-3,1.7480178E-1,6.3369935E-4,9.218212E-3,-3.942427E-1,-3.5920378E-2,-4.4826823E-3,1.9352764E-1,2.727263E-1,1.971916E-2,9.346832E-2,3.0716503E-1,8.549954E-2,-2.1015821E-1,4.877252E-3,-5.2595578E-2,6.285192E-1,4.3868046E-2,4.7406135E-3,1.0921064E-2,3.0500334E-2,2.525813E-1,1.7245423E-2,3.1739917E-2,2.7554935E-2,5.3027637E-2,1.8262604E-2,8.235064E-1,-3.8646477E-1,-1.7602475E-1,-1.645865E-2,-2.9811138E-2,-6.472879E-2,-2.6151177E-1,-1.6670048E-2,-6.9565354E-3,-1.8804015E-1,-2.023173E-2,7.719529E-2,-1.6833946E-1,1.7464323E-3,6.7506167E-3,-1.2994122E-2,-1.6432054E-1,5.8244704E-3,-4.6989337E-2,2.1178909E-1,3.0320196E-3,-2.8327662E-2,-3.4341954E-3,-2.050449E-1,3.917378E-2,2.0880905E-1,-1.899195E-4,1.4982342E-2,3.81976E-3,-1.0780755E-3,7.5661205E-3,2.2694288E-1,1.7994918E-2,5.4497488E-2,3.088331E-1,-1.5175236E-2,-1.474655E-4,4.6714483E-4,-7.1681994E-3,3.317293E-2,4.9982566E-1,1.5140785E-2,3.406986E-3,3.0225042E-2,4.454278E-2,-2.0347022E-2,-7.325961E-3,-1.1229472E-2,-4.0417407E-3,-5.163588E-3,2.0631745E-4,-1.412714E-2,-4.4098506E-3,2.1185926E-3,-1.0376441E-2,6.626215E-3,-3.2513398E-3,-1.2025458E-4,-1.1263932E-2,-3.5983836E-3,4.993739E-3,-2.776294E-3,-9.4398605E-3,-5.3421883E-3,3.245577E-3,5.873753E-3,1.2325241E-2,-5.368496E-3,-1.2532616E-2,-1.0739778E-3,6.422078E-3,1.5685432E-2,8.035988E-3,1.2304543E-2,5.1534423E-3,-1.7461991E-3,4.0194592E-3,2.4415432E-2,5.015609E-3,1.18808495E-2,2.6083501E-2],"categories":[],"categories_nodes":[],"categories_segments":[],"categories_sizes":[],"default_left":[0,0,0,0,0,0,0,0,0,0,0,0,0,0,0,0,0,0,0,0,0,0,0,0,0,0,0,0,0,0,0,0,0,0,0,0,0,0,0,0,0,0,0,0,0,0,0,0,0,0,0,0,0,0,0,0,0,0,0,0,0,0,0,0,0,0,0,0,0,0,0,0,0,0,0,0,0,0,0,0,0,0,0,0,0,0,0,0,0,0,0,0,0,0,0,0,0,0,0,0,0,0,0,0,0,0,0,0,0,0,0,0,0,0,0,0,0,0,0,0,0,0,0,0,0,0,0,0,0,0,0,0,0,0,0,0,0,0,0,0,0,0,0,0,0,0,0,0,0,0,0,0,0,0,0,0,0,0,0,0,0,0,0,0,0,0,0,0,0,0,0,0,0,0,0,0,0,0,0,0,0,0,0,0,0,0,0,0,0,0,0,0,0,0,0,0,0,0,0,0,0,0,0,0,0,0,0,0,0,0,0,0,0,0,0,0,0,0,0,0,0,0,0,0,0,0,0,0,0,0,0,0,0,0,0,0,0,0,0,0,0,0,0],"id":5,"left_children":[1,3,5,7,9,11,13,15,17,19,21,-1,-1,23,25,27,29,31,33,35,37,39,41,43,45,47,49,-1,-1,51,-1,53,-1,55,57,59,-1,61,-1,63,65,67,-1,69,71,73,75,77,79,81,-1,-1,83,-1,-1,-1,85,87,89,91,93,95,97,99,101,103,-1,105,107,-1,109,-1,111,113,115,-1,117,-1,-1,119,121,-1,-1,-1,-1,-1,-1,123,-1,125,127,129,-1,131,133,135,-1,137,139,141,-1,-1,-1,143,-1,145,-1,-1,147,149,-1,-1,-1,151,-1,153,-1,-1,-1,155,157,159,161,-1,-1,163,165,167,-1,-1,169,171,173,175,177,179,181,-1,-1,183,185,-1,187,189,-1,191,193,195,197,-1,199,201,-1,-1,-1,-1,203,-1,-1,-1,-1,-1,205,207,209,-1,-1,211,213,-1,-1,215,-1,217,219,-1,-1,221,223,-1,225,227,-1,-1,-1,229,231,233,-1,-1,-1,-1,-1,235,-1,237,239,-1,-1,-1,-1,-1,241,-1,-1,-1,-1,-1,-1,-1,-1,-1,-1,-1,-1,-1,-1,-1,-1,-1,-1,-1,-1,-1,-1,-1,-1,-1,-1,-1,-1,-1,-1,-1,-1,-1,-1,-1,-1,-1,-1,-1,-1],"loss_changes":[1.2290716E2,5.0328243E1,1.6466858E1,6.367363E0,1.412542E1,9.169388E-2,1.1796738E1,7.1307755E-1,4.3060913E0,4.5105066E0,3.3704371E0,0E0,0E0,4.1506844E0,7.0338745E0,1.0112057E0,2.4799767E0,1.5450668E-1,6.6375694E0,3.188404E0,1.0358238E0,1.6089077E0,1.2672868E0,1.1188369E0,2.6386566E0,4.859314E0,1.9068971E0,0E0,0E0,1.5815353E-1,0E0,1.5052795E-2,0E0,2.736833E0,2.2047138E0,2.3579245E0,0E0,4.2089304E-1,0E0,7.2773886E-1,2.3755226E0,8.4207153E-1,0E0,3.9942628E-1,3.199376E-1,1.4375801E0,4.5562482E-1,4.3949127E-1,4.031212E0,3.2837808E-1,0E0,0E0,9.4988346E-2,0E0,0E0,0E0,5.430138E-1,4.8640823E-1,1.4933958E0,3.7956333E-1,1.0064125E0,3.3552927E-1,6.3059187E-1,8.788707E-1,2.4630427E-1,1.0992031E0,0E0,3.5239053E-1,1.1766185E0,0E0,2.4451748E-1,0E0,5.8283925E-2,1.0071297E0,1.4010239E-1,0E0,7.126573E-2,0E0,0E0,5.122433E-1,1.436409E0,0E0,0E0,0E0,0E0,0E0,0E0,2.0269203E-1,0E0,5.908165E-1,5.129893E-1,8.3497286E-2,0E0,9.3505764E-1,3.2226843E-1,3.154469E-1,0E0,8.418065E-2,1.1022608E0,4.9834108E-1,0E0,0E0,0E0,9.471607E-2,0E0,2.7327275E-1,0E0,0E0,8.559226E-1,1.2357743E-1,0E0,0E0,0E0,3.3372688E-1,0E0,1.9372672E-2,0E0,0E0,0E0,5.8301497E-1,2.1410751E-1,1.3026047E-1,6.5415764E-1,0E0,0E0,3.5505247E-1,6.2684536E-2,2.0686531E-1,0E0,0E0,6.989288E-2,8.777385E-1,4.4715583E-1,3.391184E-2,1.5747915E-1,1.707593E-1,5.88724E-2,0E0,0E0,7.916753E-1,4.1444078E-1,0E0,1.6998243E-1,1.8696427E-1,0E0,9.3789615E-2,4.9455643E-2,6.2015885E-1,2.6717964E-1,0E0,8.495884E-2,1.0822296E-1,0E0,0E0,0E0,0E0,1.8963051E-1,0E0,0E0,0E0,0E0,0E0,3.6639595E-1,3.436556E-1,6.747836E-2,0E0,0E0,3.292479E-2,9.4681025E-2,0E0,0E0,3.9984167E-1,0E0,1.4634615E-1,1.9852188E-1,0E0,0E0,1.3371591E-1,4.1592896E-2,0E0,1.6849649E-1,2.6393473E-2,0E0,0E0,0E0,2.7160615E-2,1.4616495E-1,1.7896724E-1,0E0,0E0,0E0,0E0,0E0,2.8953075E-2,0E0,2.4812444E-1,4.2529643E-1,0E0,0E0,0E0,0E0,0E0,1.6586971E-1,0E0,0E0,0E0,0E0,0E0,0E0,0E0,0E0,0E0,0E0,0E0,0E0,0E0,0E0,0E0,0E0,0E0,0E0,0E0,0E0,0E0,0E0,0E0,0E0,0E0,0E0,0E0,0E0,0E0,0E0,0E0,0E0,0E0,0E0,0E0,0E0,0E0,0E0,0E0,0E0],"parents":[2147483647,0,0,1,1,2,2,3,3,4,4,5,5,6,6,7,7,8,8,9,9,10,10,13,13,14,14,15,15,16,16,17,17,18,18,19,19,20,20,21,21,22,22,23,23,24,24,25,25,26,26,29,29,31,31,33,33,34,34,35,35,37,37,39,39,40,40,41,41,43,43,44,44,45,45,46,46,47,47,48,48,49,49,52,52,56,56,57,57,58,58,59,59,60,60,61,61,62,62,63,63,64,64,65,65,67,67,68,68,70,70,72,72,73,73,74,74,76,76,79,79,80,80,87,87,89,89,90,90,91,91,93,93,94,94,95,95,97,97,98,98,99,99,103,103,105,105,108,108,109,109,113,113,115,115,119,119,120,120,121,121,122,122,125,125,126,126,127,127,130,130,131,131,132,132,133,133,134,134,135,135,136,136,139,139,140,140,142,142,143,143,145,145,146,146,147,147,148,148,150,150,151,151,156,156,162,162,163,163,164,164,167,167,168,168,171,171,173,173,174,174,177,177,178,178,180,180,181,181,185,185,186,186,187,187,193,193,195,195,196,196,202,202],"right_children":[2,4,6,8,10,12,14,16,18,20,22,-1,-1,24,26,28,30,32,34,36,38,40,42,44,46,48,50,-1,-1,52,-1,54,-1,56,58,60,-1,62,-1,64,66,68,-1,70,72,74,76,78,80,82,-1,-1,84,-1,-1,-1,86,88,90,92,94,96,98,100,102,104,-1,106,108,-1,110,-1,112,114,116,-1,118,-1,-1,120,122,-1,-1,-1,-1,-1,-1,124,-1,126,128,130,-1,132,134,136,-1,138,140,142,-1,-1,-1,144,-1,146,-1,-1,148,150,-1,-1,-1,152,-1,154,-1,-1,-1,156,158,160,162,-1,-1,164,166,168,-1,-1,170,172,174,176,178,180,182,-1,-1,184,186,-1,188,190,-1,192,194,196,198,-1,200,202,-1,-1,-1,-1,204,-1,-1,-1,-1,-1,206,208,210,-1,-1,212,214,-1,-1,216,-1,218,220,-1,-1,222,224,-1,226,228,-1,-1,-1,230,232,234,-1,-1,-1,-1,-1,236,-1,238,240,-1,-1,-1,-1,-1,242,-1,-1,-1,-1,-1,-1,-1,-1,-1,-1,-1,-1,-1,-1,-1,-1,-1,-1,-1,-1,-1,-1,-1,-1,-1,-1,-1,-1,-1,-1,-1,-1,-1,-1,-1,-1,-1,-1,-1,-1],"split_conditions":[3.068E3,2.2116136E5,1E0,3.407316E7,9.31E2,5.53648E8,1.0879832E3,2E0,2.71E2,1.5859042E6,3.5589743E0,-3.5308048E-2,-1.659044E-2,6.5062125E5,2.856934E7,1.5E1,8.39E2,3.328629E6,2.5E0,1.1290322E1,7.4711205E6,4.3764517E2,1.2784314E1,4.032683E6,2E0,1.059448E7,7.5491136E-1,-2.6195256E-2,-5.6193918E-2,4.36875E1,2.7118723E-3,2.416E3,-1.5852232E-2,6.711294E7,2.5660334E4,4.33E2,-4.5101475E-2,2.12E2,1.6280416E-2,5.197839E6,2.3043E5,9.912121E0,-1.7060462E-2,8.295515E7,2.2272727E0,2E0,7.653112E2,3.307E3,1.7587205E6,5.2224144E5,-1.2646902E-2,-3.7286285E-2,1.18E2,-1.695649E-2,-3.145035E-2,-1.3904145E-2,2.123E3,1.3091388E0,9.48E2,3.2E1,4.39776E6,3.7103873E2,9.380531E-1,4.5158855E6,1.103E3,8.190129E9,-8.283751E-3,2.8524646E-1,2.197238E2,-1.0562844E-2,1.3540794E8,2.4230152E-2,5.7791035E4,1.2118524E7,1.6566709E6,-7.7207456E-3,7.12274E5,3.4843363E-2,7.218102E-2,3.4052496E8,1.6166983E0,2.774612E-2,9.104562E-3,-1.372433E-2,-2.8943358E-2,1.1743154E-2,3.826317E-2,5.7E1,-1.0329367E-2,2.6E1,5.4792953E4,1.9010988E0,-2.3573743E-2,3.2525E2,3.1226995E0,5.95E2,-9.308357E-3,4.39E2,3.6977E4,4.0449125E5,-8.855998E-3,2.3320576E-2,7.7947765E-3,5.5885565E2,3.1498276E-2,3E0,-2.9081406E-4,-1.4115287E-2,3.914E4,1.4521204E0,1.1890051E-2,5.9124874E-3,1.3954624E-2,7.459E3,6.5549538E-3,4.320314E8,1.8657139E-2,3.5909712E-3,1.28725255E-2,3.5474228E1,5.658231E9,3.97371E5,1E0,-3.4406234E-2,-1.8995827E-2,3.422351E6,3.8996825E5,1.0717949E1,4.549235E-3,-5.7888962E-3,3E0,3.6981132E0,2E0,1.0660271E4,1.98E2,9.264256E-4,2.0827852E3,6.3369935E-4,9.218212E-3,1.5933333E2,1.142E3,-4.4826823E-3,1.8E1,5.884866E7,1.971916E-2,4.236E3,2.8515152E2,2.483E3,4.5742856E2,4.877252E-3,1.3E1,5.1291872E8,4.3868046E-2,4.7406135E-3,1.0921064E-2,3.0500334E-2,7.459E3,1.7245423E-2,3.1739917E-2,2.7554935E-2,5.3027637E-2,1.8262604E-2,7.459E3,3.0948E2,1.72959E5,-1.645865E-2,-2.9811138E-2,6.0875E4,7.080933E2,-1.6670048E-2,-6.9565354E-3,1.512E4,-2.023173E-2,1E0,3.9649122E0,1.7464323E-3,6.7506167E-3,7.06E2,6.593836E6,5.8244704E-3,2.8080197E2,4.9E1,3.0320196E-3,-2.8327662E-2,-3.4341954E-3,1.9495455E6,2.9211267E2,1.2825651E0,-1.899195E-4,1.4982342E-2,3.81976E-3,-1.0780755E-3,7.5661205E-3,2.2766169E1,1.7994918E-2,5.095006E5,4.857143E0,-1.5175236E-2,-1.474655E-4,4.6714483E-4,-7.1681994E-3,3.317293E-2,1.7717391E0,1.5140785E-2,3.406986E-3,3.0225042E-2,4.454278E-2,-2.0347022E-2,-7.325961E-3,-1.1229472E-2,-4.0417407E-3,-5.163588E-3,2.0631745E-4,-1.412714E-2,-4.4098506E-3,2.1185926E-3,-1.0376441E-2,6.626215E-3,-3.2513398E-3,-1.2025458E-4,-1.1263932E-2,-3.5983836E-3,4.993739E-3,-2.776294E-3,-9.4398605E-3,-5.3421883E-3,3.245577E-3,5.873753E-3,1.2325241E-2,-5.368496E-3,-1.2532616E-2,-1.0739778E-3,6.422078E-3,1.5685432E-2,8.035988E-3,1.2304543E-2,5.1534423E-3,-1.7461991E-3,4.0194592E-3,2.4415432E-2,5.015609E-3,1.18808495E-2,2.6083501E-2],"split_indices":[2,37,16,7,2,7,61,26,2,37,63,0,0,37,54,3,2,9,67,63,37,61,62,54,6,12,47,0,0,64,0,9,0,7,37,2,0,10,0,37,1,67,0,7,62,26,4,2,37,37,0,0,38,0,0,0,1,47,2,10,9,64,62,56,10,40,0,47,61,0,12,0,42,56,37,0,9,0,0,7,63,0,0,0,0,0,0,6,0,8,42,62,0,61,63,2,0,2,12,37,0,0,0,4,0,8,0,0,38,47,0,0,0,2,0,5,0,0,0,67,40,1,24,0,0,9,54,65,0,0,8,65,8,42,10,47,42,0,0,4,38,0,3,5,0,12,61,2,61,0,3,7,0,0,0,0,2,0,0,0,0,0,2,4,12,0,0,1,4,0,0,9,0,23,63,0,0,2,9,0,4,0,0,0,0,37,4,63,0,0,0,0,0,65,0,37,63,0,0,0,0,0,63,0,0,0,0,0,0,0,0,0,0,0,0,0,0,0,0,0,0,0,0,0,0,0,0,0,0,0,0,0,0,0,0,0,0,0,0,0,0,0,0],"split_type":[0,0,0,0,0,0,0,0,0,0,0,0,0,0,0,0,0,0,0,0,0,0,0,0,0,0,0,0,0,0,0,0,0,0,0,0,0,0,0,0,0,0,0,0,0,0,0,0,0,0,0,0,0,0,0,0,0,0,0,0,0,0,0,0,0,0,0,0,0,0,0,0,0,0,0,0,0,0,0,0,0,0,0,0,0,0,0,0,0,0,0,0,0,0,0,0,0,0,0,0,0,0,0,0,0,0,0,0,0,0,0,0,0,0,0,0,0,0,0,0,0,0,0,0,0,0,0,0,0,0,0,0,0,0,0,0,0,0,0,0,0,0,0,0,0,0,0,0,0,0,0,0,0,0,0,0,0,0,0,0,0,0,0,0,0,0,0,0,0,0,0,0,0,0,0,0,0,0,0,0,0,0,0,0,0,0,0,0,0,0,0,0,0,0,0,0,0,0,0,0,0,0,0,0,0,0,0,0,0,0,0,0,0,0,0,0,0,0,0,0,0,0,0,0,0,0,0,0,0,0,0,0,0,0,0,0,0,0,0,0,0,0,0],"sum_hessian":[1.168E3,8.65E2,3.03E2,2.79E2,5.86E2,1E1,2.93E2,7.7E1,2.02E2,2.96E2,2.9E2,6E0,4E0,1.27E2,1.66E2,1.7E1,6E1,6.2E1,1.4E2,1.9E2,1.06E2,1.37E2,1.53E2,4.5E1,8.2E1,1.5E2,1.6E1,7E0,1E1,5.6E1,4E0,5.7E1,5E0,1.3E1,1.27E2,1.85E2,5E0,9.9E1,7E0,8E1,5.7E1,1.47E2,6E0,2.8E1,1.7E1,6.9E1,1.3E1,1.5E1,1.35E2,1E1,6E0,3.8E1,1.8E1,4E0,5.3E1,4E0,9E0,3.1E1,9.6E1,5E1,1.35E2,4.7E1,5.2E1,6.8E1,1.2E1,5.1E1,6E0,3.7E1,1.1E2,5E0,2.3E1,5E0,1.2E1,5.3E1,1.6E1,4E0,9E0,4E0,1.1E1,5.2E1,8.3E1,4E0,6E0,4E0,1.4E1,4E0,5E0,2.7E1,4E0,6.4E1,3.2E1,2.6E1,2.4E1,9.5E1,4E1,4.3E1,4E0,1E1,4.2E1,6.1E1,7E0,7E0,5E0,3.5E1,1.6E1,3E1,7E0,9E0,1.01E2,1.9E1,4E0,8E0,4E0,4.9E1,4E0,9E0,7E0,4E0,5E0,2E1,3.2E1,3.5E1,4.8E1,2E1,7E0,4.7E1,1.7E1,2.5E1,7E0,4E0,2.2E1,6.7E1,2.8E1,1.3E1,2.7E1,2.6E1,1.7E1,4E0,6E0,1.1E1,3.1E1,6E0,5.5E1,2.1E1,1.4E1,1E1,2E1,9.1E1,1E1,7E0,1.2E1,4E1,9E0,5E0,4E0,5E0,1.5E1,7E0,2.5E1,4E0,3.1E1,7E0,4.1E1,3.3E1,1.4E1,6E0,1.1E1,9E0,1.6E1,1.8E1,4E0,4.5E1,2.2E1,1.3E1,1.5E1,6E0,7E0,1.5E1,1.2E1,7E0,1.9E1,1.2E1,5E0,6E0,5E0,9E0,2.2E1,5.1E1,4E0,1.6E1,5E0,4E0,6E0,1.2E1,8E0,8.1E1,1E1,6E0,4E0,8E0,4E0,2.1E1,1.9E1,1E1,5E0,2.1E1,2E1,2.6E1,7E0,7E0,7E0,5E0,4E0,1.2E1,4E0,6E0,3.9E1,9E0,4E0,5E0,1E1,1E1,5E0,4E0,8E0,1.2E1,7E0,6E0,6E0,5E0,4E0,1.4E1,8E0,9E0,4.2E1,8E0,4E0,2.1E1,6E1,4E0,6E0,5E0,1.4E1],"tree_param":{"num_deleted":"0","num_feature":"115","num_nodes":"243","size_leaf_vector":"1"}},{"base_weights":[8.089091E-3,-1.9246607E-1,5.3697246E-1,-5.619317E-1,-1.8108835E-2,-7.056887E-1,5.8394945E-1,-6.3852113E-1,-3.0257696E-1,-1.6202465E-1,1.3311967E-1,-4.1061062E-2,-1.2667445E-2,3.189842E-1,7.7785E-1,-3.6690846E-2,-5.600433E-1,-4.2640394E-1,-1.3256454E-1,-4.09078E-1,-1.0552714E-1,2.8701824E-1,2.2780081E-2,1.54008E-1,5.304619E-1,1.0076051E0,5.84702E-1,7.6563414E-3,-5.825986E-1,-2.3276716E-2,-2.70005E-1,-7.2089806E-2,-1.8338164E-2,-2.573803E-1,-4.8407444E-1,-1.5840812E-1,4.1544437E-2,2.3393375E-1,5.1602274E-1,4.8256423E-2,-2.2064082E-2,3.0257627E-1,3.6408916E-2,6.252383E-1,2.248916E-2,8.2766306E-1,6.926838E-2,6.399357E-1,-1.0399368E-2,-5.1560634E-1,-8.119977E-1,-3.8104164E-3,-1.5585135E-2,-1.337558E-1,6.2557273E-3,-1.3703674E-2,-3.7840803E-3,-5.3217083E-1,-1.1809366E-2,-1.16416655E-1,-3.762053E-1,-1.0197213E-2,7.757768E-2,1.3117713E-1,3.474762E-1,2.6912939E-2,1.3958369E-2,3.6069578E-1,2.206657E-2,4.3676946E-1,1.3269791E-1,1.6968012E-1,-7.6167464E-2,6.5185374E-1,1.5282377E-2,-6.112706E-3,9.416389E-3,8.8035166E-1,4.312774E-1,5.2415735E-1,8.9924794E-1,-5.486845E-1,1.8529998E-3,-6.785365E-1,-4.985657E-2,1.0155479E-3,-1.047607E-2,-1.6869377E-2,-2.7408626E-2,-1.8500632E-1,-6.40195E-2,-3.7436962E-2,-2.7034372E-1,1.7741539E-1,-1.1880245E-2,1.7020576E-1,-1.2480523E-2,3.7876838E-1,9.894801E-4,8.668469E-3,1.961624E-2,4.5485742E-2,-1.4569567E-1,9.757764E-3,2.597317E-2,1.0970245E-3,9.940277E-3,1.9572636E-2,5.703609E-2,-1.1987057E-2,-8.078797E-4,5.470611E-1,3.4953702E-2,5.28302E-2,7.639312E-1,2.7171614E-2,8.747674E-3,4.075223E-1,6.3534707E-1,2.2502996E-2,4.716975E-2,-4.7625333E-1,-7.420888E-1,-3.3653453E-2,-1.6989132E-2,-2.563623E-1,-7.77273E-2,-1.4473944E-2,-1.6613266E-1,-3.4182116E-1,4.898813E-5,9.433296E-2,2.7340734E-1,-1.24831915E-1,7.663107E-2,1.9988434E-1,-5.7840534E-3,2.9260638E-1,2.3533275E-2,-9.366343E-2,8.187341E-2,-1.4865762E-2,-1.2718384E-2,8.909959E-3,-2.9984826E-2,-6.594416E-2,6.4988555E-3,1.6176911E-2,2.9440148E-2,8.260405E-1,1.9433482E-2,5.1308143E-1,2.1253498E-1,3.1233648E-2,1.3235196E-2,-2.7169105E-2,-3.698275E-1,-4.10772E-2,-1.7039562E-2,-3.4617895E-1,-1.483257E-1,-3.6704626E-2,-6.653398E-3,-6.817809E-2,7.254898E-2,-1.4541937E-3,-2.0953745E-1,-2.530028E-3,-2.3355361E-2,6.0198E-3,-4.802371E-4,7.12867E-3,1.5576332E-2,-2.1828853E-1,1.6730417E-3,1.3627186E-1,1.8489427E-3,1.5650782E-1,3.3171368E-1,3.3529487E-1,4.0400173E-3,-1.5887144E-1,3.7508465E-3,1.8578528E-1,1.7272841E-2,-3.8048492E-3,3.1901447E-3,-4.499909E-3,1.4375998E-3,-8.437477E-3,2.801558E-4,1.9377658E-2,4.0220626E-2,2.8521648E-2,1.3664644E-2,1.2373113E-2,2.7888939E-3,-3.914443E-3,-1.8398073E-2,-6.986363E-3,-1.783884E-2,-9.50744E-3,-9.7150676E-4,-3.9086365E-3,1.5531572E-3,-1.0423094E-3,-1.2058334E-2,5.9026713E-3,-4.840152E-3,-1.1711306E-2,-3.9901696E-3,-1.4056611E-3,-1.6774675E-2,3.2593168E-3,8.69939E-3,-2.0211637E-3,2.1751544E-3,8.323616E-3,3.1909307E-3,2.1174598E-2,5.2871956E-3,6.1852187E-3,1.724351E-2,-3.5898327E-3,-1.3823091E-2,4.7974084E-3,1.674391E-2,3.2921403E-3,-2.523557E-3],"categories":[],"categories_nodes":[],"categories_segments":[],"categories_sizes":[],"default_left":[0,0,0,0,0,0,0,0,0,0,0,0,0,0,0,0,0,0,0,0,0,0,0,0,0,0,0,0,0,0,0,0,0,0,0,0,0,0,0,0,0,0,0,0,0,0,0,0,0,0,0,0,0,0,0,0,0,0,0,0,0,0,0,0,0,0,0,0,0,0,0,0,0,0,0,0,0,0,0,0,0,0,0,0,0,0,0,0,0,0,0,0,0,0,0,0,0,0,0,0,0,0,0,0,0,0,0,0,0,0,0,0,0,0,0,0,0,0,0,0,0,0,0,0,0,0,0,0,0,0,0,0,0,0,0,0,0,0,0,0,0,0,0,0,0,0,0,0,0,0,0,0,0,0,0,0,0,0,0,0,0,0,0,0,0,0,0,0,0,0,0,0,0,0,0,0,0,0,0,0,0,0,0,0,0,0,0,0,0,0,0,0,0,0,0,0,0,0,0,0,0,0,0,0,0,0,0,0,0,0,0,0,0,0,0,0,0,0,0,0,0,0,0,0,0,0,0,0,0],"id":6,"left_children":[1,3,5,7,9,11,13,15,17,19,21,-1,-1,23,25,-1,27,29,31,33,35,37,39,41,43,45,47,-1,49,-1,51,53,-1,55,57,59,61,63,65,67,-1,69,71,73,75,77,-1,79,-1,81,83,-1,-1,85,-1,-1,-1,87,-1,89,91,-1,93,95,97,-1,-1,99,101,103,105,107,109,111,-1,-1,-1,113,115,117,119,121,-1,123,-1,-1,-1,-1,-1,125,127,-1,129,131,133,135,-1,137,-1,-1,-1,139,141,-1,-1,-1,-1,-1,143,-1,145,147,-1,-1,149,-1,-1,151,153,-1,-1,155,157,-1,-1,159,161,163,165,167,-1,169,171,173,175,177,-1,179,-1,181,183,185,-1,-1,187,189,-1,-1,-1,191,-1,193,195,-1,-1,-1,197,-1,-1,199,201,203,-1,205,207,-1,209,-1,-1,-1,-1,-1,-1,211,-1,213,215,217,219,221,-1,223,-1,225,227,-1,-1,-1,-1,-1,-1,-1,-1,-1,-1,-1,-1,-1,-1,-1,-1,-1,-1,-1,-1,-1,-1,-1,-1,-1,-1,-1,-1,-1,-1,-1,-1,-1,-1,-1,-1,-1,-1,-1,-1,-1,-1,-1,-1],"loss_changes":[1.2229631E2,5.3844116E1,1.8917435E1,5.1303024E0,1.2405384E1,6.989846E-1,1.5473206E1,2.052864E0,1.2697573E0,4.0325384E0,4.71421E0,0E0,0E0,4.488738E0,7.2211685E0,0E0,2.3874016E0,2.95794E-1,4.1806135E-1,4.8975468E-1,1.8653531E0,1.2894487E0,2.0978227E0,1.299345E0,2.730135E0,5.7186203E0,4.5253334E0,0E0,1.6713753E0,0E0,1.4782274E-1,3.2487065E-1,0E0,1.1199999E-1,2.4940968E-1,1.5658336E0,6.2114084E-1,1.0744739E0,1.1994791E-1,1.2685483E0,0E0,6.943269E-1,6.580612E-1,1.6151237E-1,3.067421E-1,8.7342453E-1,0E0,2.2907448E0,0E0,2.0070133E0,2.9652214E-1,0E0,0E0,2.790823E-1,0E0,0E0,0E0,6.648111E-2,0E0,5.2364755E-1,1.0644181E0,0E0,5.111903E-1,8.59553E-1,4.510851E-1,0E0,0E0,5.2161098E-2,5.7631075E-1,3.8810945E-1,1.3813427E-1,5.4659563E-1,3.3059043E-1,5.3461075E-2,0E0,0E0,0E0,7.1043015E-1,2.2897649E-1,5.9700966E-1,8.442459E-1,1.0754452E0,0E0,6.7173004E-2,0E0,0E0,0E0,0E0,0E0,4.699936E-1,4.3269122E-1,0E0,4.659413E-1,1.8954033E-1,3.1948853E-1,4.4553852E-1,0E0,3.0985785E-1,0E0,0E0,0E0,6.5577275E-1,3.001204E-1,0E0,0E0,0E0,0E0,0E0,1.826817E-1,0E0,1.7488675E-1,2.1788311E-1,0E0,0E0,4.8614693E-1,0E0,0E0,6.1134624E-1,2.504959E-1,0E0,0E0,6.9192314E-1,1.0890388E0,0E0,0E0,3.173852E-1,6.789988E-2,2.8068224E-1,1.5712512E-1,8.613627E-1,0E0,6.1277285E-2,3.869021E-2,2.1853137E-1,8.002923E-2,1.9968915E-1,0E0,2.0734143E-1,0E0,3.205077E-1,6.8149304E-1,6.2130406E-2,0E0,0E0,4.409234E-2,1.1006169E-1,0E0,0E0,0E0,1.9919968E-1,0E0,3.130107E-1,1.0085976E-1,0E0,0E0,0E0,2.993636E-1,0E0,0E0,9.5437765E-2,1.3395137E-1,6.3259766E-2,0E0,3.1916383E-1,2.375345E-1,0E0,9.0991914E-2,0E0,0E0,0E0,0E0,0E0,0E0,2.3294097E-1,0E0,2.081813E-2,2.055961E-2,5.924654E-2,2.2151089E-1,1.1597371E-1,0E0,2.042259E-1,0E0,5.2631545E-1,2.5150466E-1,0E0,0E0,0E0,0E0,0E0,0E0,0E0,0E0,0E0,0E0,0E0,0E0,0E0,0E0,0E0,0E0,0E0,0E0,0E0,0E0,0E0,0E0,0E0,0E0,0E0,0E0,0E0,0E0,0E0,0E0,0E0,0E0,0E0,0E0,0E0,0E0,0E0,0E0,0E0,0E0,0E0,0E0,0E0,0E0],"parents":[2147483647,0,0,1,1,2,2,3,3,4,4,5,5,6,6,7,7,8,8,9,9,10,10,13,13,14,14,16,16,17,17,18,18,19,19,20,20,21,21,22,22,23,23,24,24,25,25,26,26,28,28,30,30,31,31,33,33,34,34,35,35,36,36,37,37,38,38,39,39,41,41,42,42,43,43,44,44,45,45,47,47,49,49,50,50,53,53,57,57,59,59,60,60,62,62,63,63,64,64,67,67,68,68,69,69,70,70,71,71,72,72,73,73,77,77,78,78,79,79,80,80,81,81,83,83,89,89,90,90,92,92,93,93,94,94,95,95,97,97,101,101,102,102,108,108,110,110,111,111,114,114,117,117,118,118,121,121,122,122,125,125,126,126,127,127,128,128,129,129,131,131,132,132,133,133,134,134,135,135,137,137,139,139,140,140,141,141,144,144,145,145,149,149,151,151,152,152,156,156,159,159,160,160,161,161,163,163,164,164,166,166,173,173,175,175,176,176,177,177,178,178,179,179,181,181,183,183,184,184],"right_children":[2,4,6,8,10,12,14,16,18,20,22,-1,-1,24,26,-1,28,30,32,34,36,38,40,42,44,46,48,-1,50,-1,52,54,-1,56,58,60,62,64,66,68,-1,70,72,74,76,78,-1,80,-1,82,84,-1,-1,86,-1,-1,-1,88,-1,90,92,-1,94,96,98,-1,-1,100,102,104,106,108,110,112,-1,-1,-1,114,116,118,120,122,-1,124,-1,-1,-1,-1,-1,126,128,-1,130,132,134,136,-1,138,-1,-1,-1,140,142,-1,-1,-1,-1,-1,144,-1,146,148,-1,-1,150,-1,-1,152,154,-1,-1,156,158,-1,-1,160,162,164,166,168,-1,170,172,174,176,178,-1,180,-1,182,184,186,-1,-1,188,190,-1,-1,-1,192,-1,194,196,-1,-1,-1,198,-1,-1,200,202,204,-1,206,208,-1,210,-1,-1,-1,-1,-1,-1,212,-1,214,216,218,220,222,-1,224,-1,226,228,-1,-1,-1,-1,-1,-1,-1,-1,-1,-1,-1,-1,-1,-1,-1,-1,-1,-1,-1,-1,-1,-1,-1,-1,-1,-1,-1,-1,-1,-1,-1,-1,-1,-1,-1,-1,-1,-1,-1,-1,-1,-1,-1,-1],"split_conditions":[2.688E3,1.972052E5,1E0,1.559733E6,9.31E2,1.419902E3,9.6215985E2,3.89E2,1.5341322E2,3.89E2,3.0416667E0,-4.1061062E-2,-1.2667445E-2,1.8062708E6,5.4544777E1,-3.6690846E-2,7E0,7.997723E6,1.9E1,1.09333336E2,2.331083E6,5.1167645E6,1.2784314E1,1.2E1,1E0,2.0597144E3,7.706545E7,7.6563414E-3,1.0657745E7,-2.3276716E-2,1.5487804E0,7.080933E2,-1.8338164E-2,1.3781496E8,1.795688E2,6.648E3,2.2953334E2,4.2259482E2,1.162E3,1.8461539E0,-2.2064082E-2,3.1706784E0,4.88451E5,3.299862E1,1.4598765E0,3.7725E1,6.926838E-2,2.7561485E6,-1.0399368E-2,6.890321E4,2.6E1,-3.8104164E-3,-1.5585135E-2,2.2941177E0,6.2557273E-3,-1.3703674E-2,-3.7840803E-3,1.9052632E0,-1.1809366E-2,2.6676828E2,1.3151775E2,-1.0197213E-2,3.8575E4,2.41E3,3.1075312E10,2.6912939E-2,1.3958369E-2,1.47E3,1E0,5.1042255E2,6.185E3,2.8E1,1.038946E6,5.941442E6,1.5282377E-2,-6.112706E-3,9.416389E-3,2.2034105E6,3.730007E6,1.798658E3,6.2245025E6,1.6E1,1.8529998E-3,4.1741933E-7,-4.985657E-2,1.0155479E-3,-1.047607E-2,-1.6869377E-2,-2.7408626E-2,1.559733E6,2.4624279E0,-3.7436962E-2,1.5209424E1,5.405423E6,2.2907576E2,1.9E1,-1.2480523E-2,1.10566504E8,9.894801E-4,8.668469E-3,1.961624E-2,3.927456E7,6.763312E7,9.757764E-3,2.597317E-2,1.0970245E-3,9.940277E-3,1.9572636E-2,7.5935423E-1,-1.1987057E-2,2.4911E4,7.257846E2,3.4953702E-2,5.28302E-2,2.330807E0,2.7171614E-2,8.747674E-3,3.39498E5,7.6E2,2.2502996E-2,4.716975E-2,2.55E2,2.4123944E2,-3.3653453E-2,-1.6989132E-2,2.0134516E6,4.046875E0,3.7789655E2,5.185771E0,1.0865825E0,4.898813E-5,1.2894E4,1.21668365E2,4.6066E4,1E0,7.6937294E-1,-5.7840534E-3,5.884866E7,2.3533275E-2,2.008E3,9E0,3.547E3,-1.2718384E-2,8.909959E-3,1.4047974E8,1E0,6.4988555E-3,1.6176911E-2,2.9440148E-2,5.735198E-1,1.9433482E-2,1.752E3,1.27107956E2,3.1233648E-2,1.3235196E-2,-2.7169105E-2,1.1E1,-4.10772E-2,-1.7039562E-2,5.7383723E0,1.24141544E-1,8.24291E5,-6.653398E-3,3.1363916E2,1.3295082E1,-1.4541937E-3,2.3819518E4,-2.530028E-3,-2.3355361E-2,6.0198E-3,-4.802371E-4,7.12867E-3,1.5576332E-2,3.4880504E7,1.6730417E-3,3E0,1.4165217E1,1.9931606E6,1.1208894E0,2.327189E-1,4.0400173E-3,1.594E3,3.7508465E-3,3.3880932E9,1.793628E7,-3.8048492E-3,3.1901447E-3,-4.499909E-3,1.4375998E-3,-8.437477E-3,2.801558E-4,1.9377658E-2,4.0220626E-2,2.8521648E-2,1.3664644E-2,1.2373113E-2,2.7888939E-3,-3.914443E-3,-1.8398073E-2,-6.986363E-3,-1.783884E-2,-9.50744E-3,-9.7150676E-4,-3.9086365E-3,1.5531572E-3,-1.0423094E-3,-1.2058334E-2,5.9026713E-3,-4.840152E-3,-1.1711306E-2,-3.9901696E-3,-1.4056611E-3,-1.6774675E-2,3.2593168E-3,8.69939E-3,-2.0211637E-3,2.1751544E-3,8.323616E-3,3.1909307E-3,2.1174598E-2,5.2871956E-3,6.1852187E-3,1.724351E-2,-3.5898327E-3,-1.3823091E-2,4.7974084E-3,1.674391E-2,3.2921403E-3,-2.523557E-3],"split_indices":[2,37,16,9,2,61,61,1,61,2,63,0,0,37,67,0,3,9,3,4,37,37,62,3,6,61,53,0,54,0,62,4,0,40,61,38,42,61,10,62,0,63,9,65,63,65,0,37,0,42,3,0,0,62,0,0,0,62,0,4,42,0,9,2,40,0,0,2,85,4,38,8,9,54,0,0,0,54,9,61,54,8,0,46,0,0,0,0,0,9,62,0,65,37,4,3,0,5,0,0,0,7,7,0,0,0,0,0,47,0,10,4,0,0,47,0,0,9,8,0,0,2,61,0,0,54,63,4,67,65,0,12,4,1,23,47,0,5,0,2,8,38,0,0,5,23,0,0,0,47,0,0,67,0,0,0,10,0,0,67,47,12,0,61,55,0,42,0,0,0,0,0,0,7,0,8,67,56,47,67,0,2,0,40,12,0,0,0,0,0,0,0,0,0,0,0,0,0,0,0,0,0,0,0,0,0,0,0,0,0,0,0,0,0,0,0,0,0,0,0,0,0,0,0,0,0,0,0,0],"split_type":[0,0,0,0,0,0,0,0,0,0,0,0,0,0,0,0,0,0,0,0,0,0,0,0,0,0,0,0,0,0,0,0,0,0,0,0,0,0,0,0,0,0,0,0,0,0,0,0,0,0,0,0,0,0,0,0,0,0,0,0,0,0,0,0,0,0,0,0,0,0,0,0,0,0,0,0,0,0,0,0,0,0,0,0,0,0,0,0,0,0,0,0,0,0,0,0,0,0,0,0,0,0,0,0,0,0,0,0,0,0,0,0,0,0,0,0,0,0,0,0,0,0,0,0,0,0,0,0,0,0,0,0,0,0,0,0,0,0,0,0,0,0,0,0,0,0,0,0,0,0,0,0,0,0,0,0,0,0,0,0,0,0,0,0,0,0,0,0,0,0,0,0,0,0,0,0,0,0,0,0,0,0,0,0,0,0,0,0,0,0,0,0,0,0,0,0,0,0,0,0,0,0,0,0,0,0,0,0,0,0,0,0,0,0,0,0,0,0,0,0,0,0,0,0,0,0,0,0,0],"sum_hessian":[1.151E3,8.35E2,3.16E2,2.67E2,5.68E2,1.1E1,3.05E2,2.05E2,6.2E1,2.91E2,2.77E2,7E0,4E0,1.3E2,1.75E2,6.6E1,1.39E2,3.5E1,2.7E1,5.3E1,2.38E2,1.15E2,1.62E2,7.4E1,5.6E1,7.8E1,9.7E1,4E0,1.35E2,2.2E1,1.3E1,2.3E1,4E0,1.9E1,3.4E1,1.75E2,6.3E1,9.5E1,2E1,1.55E2,7E0,3.2E1,4.2E1,4.7E1,9E0,5.9E1,1.9E1,9.1E1,6E0,1.07E2,2.8E1,4E0,9E0,1.8E1,5E0,1.5E1,4E0,2.7E1,7E0,1.48E2,2.7E1,7E0,5.6E1,5.1E1,4.4E1,1.4E1,6E0,1.1E1,1.44E2,1.7E1,1.5E1,1.9E1,2.3E1,4.2E1,5E0,5E0,4E0,5.1E1,8E0,6.5E1,2.6E1,1.01E2,6E0,2.1E1,7E0,7E0,1.1E1,9E0,1.8E1,6.3E1,8.5E1,4E0,2.3E1,2.6E1,3E1,4.7E1,4E0,4E1,4E0,4E0,7E0,1.27E2,1.7E1,7E0,1E1,7E0,8E0,5E0,1.4E1,6E0,1.7E1,2.4E1,1.8E1,1.3E1,3.8E1,4E0,4E0,3.4E1,3.1E1,7E0,1.9E1,7.6E1,2.5E1,1.7E1,4E0,3.7E1,2.6E1,5.8E1,2.7E1,1.8E1,5E0,1.5E1,1.1E1,1.3E1,1.7E1,4.3E1,4E0,2.6E1,1.4E1,2.6E1,1.01E2,9E0,8E0,5E0,9E0,1.2E1,5E0,9E0,1.5E1,3.1E1,7E0,2.1E1,1.3E1,2.7E1,4E0,3.5E1,4.1E1,1.7E1,8E0,1.9E1,1.8E1,1.7E1,9E0,3.6E1,2.2E1,7E0,2E1,7E0,1.1E1,1.1E1,4E0,5E0,6E0,8E0,5E0,9E0,8E0,3.4E1,9E0,2.1E1,5E0,1.9E1,7E0,3.8E1,6.3E1,5E0,4E0,4E0,5E0,4E0,8E0,4E0,2.7E1,1.3E1,8E0,9E0,4E0,4E0,3.7E1,4E0,1.5E1,1.2E1,6E0,1E1,7E0,3E1,6E0,1.7E1,5E0,1.4E1,6E0,4E0,4E0,5E0,4E0,4E0,4E0,2.6E1,8E0,5E0,4E0,4E0,1.7E1,1.3E1,6E0,2.7E1,1.1E1,3.6E1,2.7E1],"tree_param":{"num_deleted":"0","num_feature":"115","num_nodes":"229","size_leaf_vector":"1"}},{"base_weights":[8.809354E-3,-1.727642E-1,5.0398135E-1,-5.2738935E-1,-1.4653059E-2,5.810075E-1,-5.7637584E-1,1.6063467E-2,-5.530603E-1,-1.6167875E-1,1.3292824E-1,3.18006E-1,7.417499E-1,-3.615028E-2,-3.575814E-1,-7.2651625E-1,-4.5389408E-1,-2.5612354E-1,4.316681E-2,2.6501185E-1,3.6009822E-2,8.502423E-2,4.877735E-1,1.1815531E0,6.3726187E-1,-8.94149E-3,-2.0699158E-2,-7.7302104E-1,-4.4245756E-1,-4.816634E-1,6.678804E-3,-4.0766522E-1,-1.7496824E-1,-1.8921962E-2,6.8081476E-2,3.251945E-1,-1.0790822E-2,4.8648324E-3,2.8163525E-1,-1.8595299E-2,2.5875652E-1,5.310147E-1,5.492633E-3,4.535815E-2,7.446303E-2,8.610993E-1,4.4700834E-1,-6.353593E-1,-4.022399E-2,-2.3682373E-2,-9.316171E-3,-5.3020185E-1,-1.9261009E-1,-4.2802244E-1,-5.6716525E-3,-1.0096004E-1,-3.3115345E-1,4.156348E-2,1.2650989E-2,2.0480731E-1,4.1827694E-1,-1.0943293E-2,4.91769E-2,3.4801625E-2,-1.7225553E-1,2.7899726E-3,4.05724E-1,-1.6739073E-1,4.988423E-2,3.924636E-3,3.3865616E-1,6.021823E-1,2.438178E-1,4.840146E-1,9.625161E-1,5.1304686E-1,6.2110953E-2,-3.2153655E-2,-2.1436878E-2,-2.1244389E-1,-5.687945E-1,-5.8932062E-2,-2.8388494E-1,-3.98233E-1,-3.005761E-2,-2.7876982E-2,-1.7839247E-1,-1.8575579E-1,-4.973845E-1,-1.4825662E-2,9.832326E-2,2.5125793E-1,1.0200879E-1,3.425841E-1,5.373948E-1,-7.132186E-3,1.1367179E-1,-2.91524E-3,1.9332907E-1,-8.8426344E-2,-2.0339759E-2,8.800549E-3,2.4638623E-2,-9.915794E-3,-3.591349E-3,6.985128E-3,-7.3510488E-3,6.7436695E-3,1.9289583E-2,6.2502337E-1,1.3624133E-2,5.8809253E-3,1.6601851E-2,1.2016068E-2,2.9132923E-2,3.277076E-2,1.0797433E0,5.3746027E-1,4.3060323E-3,1.273025E-2,-7.393068E-3,-2.1646585E-2,-8.832809E-2,-6.2640184E-1,-3.6125645E-1,-4.52808E-3,3.4039555E-4,-1.5973486E-2,-4.831941E-3,-4.1792154E-1,-2.5996703E-1,-8.395808E-2,1.295689E-1,-2.4731511E-1,-9.1128856E-2,-1.771326E-2,-9.879812E-2,-2.9615652E-2,-3.6081672E-1,-1.6494E-1,5.2978203E-2,1.2422315E-1,-3.1994074E-3,1.9130728E-1,1.8494198E-2,1.4551242E-1,-1.0550321E-3,9.475404E-3,4.2722923E-1,1.4273332E-2,2.7444271E-2,9.379686E-3,3.178433E-2,1.4405031E-2,-1.8290652E-2,2.4304008E-1,1.424222E-3,-1.9607188E-2,-1.0308784E-2,-4.4871555E-3,4.716015E-2,2.0463489E-2,6.697116E-1,5.383175E-2,3.3652585E-2,5.611528E-1,6.520301E-3,-1.0107942E-2,6.364072E-3,-5.5764353E-1,-8.290417E-1,-3.959336E-1,-5.6705954E-3,-3.081322E-1,-2.1308415E-2,-1.4486423E-2,-6.6735856E-3,-1.1723201E-1,4.7172257E-3,7.866668E-3,1.4273608E-3,-2.5348787E-3,-3.0844834E-1,4.6917736E-3,-1.633853E-1,-3.3227943E-2,-1.0382986E-2,