{"learner":{"attributes":{},"feature_names":["numTasks_sum","duration_sum","duration_max","duration_min","duration_mean","input_recordsRead_sum","output_recordsWritten_sum","peakExecutionMemory_max","resultSerializationTime_sum","resultSize_max","sr_localBlocksFetched_sum","sr_remoteBlocksFetched_sum","sw_recordsWritten_sum","sqlOp_AQEShuffleRead","sqlOp_BroadcastExchange","sqlOp_BroadcastHashJoin","sqlOp_ColumnarToRow","sqlOp_Exchange","sqlOp_Filter","sqlOp_HashAggregate","sqlOp_LocalTableScan","sqlOp_Project","sqlOp_Scan parquet","sqlOp_Sort","sqlOp_SortMergeJoin","sqlOp_Subquery","numExecutors","executorCores","maxMem","maxOnHeapMem","maxOffHeapMem","executorMemory","numGpusPerExecutor","executorOffHeap","taskCpu","taskGpu","duration_ratio","failed_tasks","failed_tasks_ratio","cache_hit_ratio","scan_bw","scan_time","decode_time","data_size","shuffle_read_bw","shuffle_write_bw","diskBytesSpilledRatio","memoryBytesSpilledRatio","input_bytesReadRatio","output_bytesWrittenRatio","sr_localBytesReadRatio","sr_remoteBytesReadRatio","sr_remoteBytesReadToDiskRatio","sr_totalBytesReadRatio","sw_bytesWrittenRatio","diskBytesSpilled_mean","memoryBytesSpilled_mean","input_bytesRead_mean","output_bytesWritten_mean","sr_localBytesRead_mean","sr_remoteBytesRead_mean","sr_remoteBytesReadToDisk_mean","sr_totalBytesRead_mean","sw_bytesWritten_mean","executorCPUTime_mean","executorDeserializeCPUTime_mean","executorDeserializeTime_mean","executorRunTime_mean","jvmGCTime_mean","sr_fetchWaitTime_mean","sw_writeTime_mean","platform_onprem","platform_databricks-aws","platform_databricks-azure","platform_dataproc","platform_emr","sqlOp_BatchEvalPython","sqlOp_BroadcastNestedLoopJoin","sqlOp_CartesianProduct","sqlOp_CommandResult","sqlOp_CustomShuffleReader","sqlOp_DeserializeToObject","sqlOp_Execute InsertIntoHadoopFsRelationCommand csv","sqlOp_Execute InsertIntoHadoopFsRelationCommand json","sqlOp_Execute InsertIntoHadoopFsRelationCommand orc","sqlOp_Execute InsertIntoHadoopFsRelationCommand parquet","sqlOp_Execute InsertIntoHadoopFsRelationCommand text","sqlOp_Execute InsertIntoHadoopFsRelationCommand unknown","sqlOp_Expand","sqlOp_Generate","sqlOp_GenerateBloomFilter","sqlOp_GlobalLimit","sqlOp_HashAggregatePrefixGroupingSets","sqlOp_LocalLimit","sqlOp_MapElements","sqlOp_ObjectHashAggregate","sqlOp_OutputAdapter","sqlOp_PartialWindow","sqlOp_ReusedSort","sqlOp_RunningWindowFunction","sqlOp_Scan ExistingRDD","sqlOp_Scan ExistingRDD Delta Table Checkpoint","sqlOp_Scan ExistingRDD Delta Table State","sqlOp_Scan OneRowRelation","sqlOp_Scan csv","sqlOp_Scan jdbc","sqlOp_Scan json","sqlOp_Scan orc","sqlOp_Scan text","sqlOp_Scan unknown","sqlOp_SerializeFromObject","sqlOp_SortAggregate","sqlOp_SubqueryBroadcast","sqlOp_SubqueryOutputBroadcast","sqlOp_TakeOrderedAndProject","sqlOp_Window","sqlOp_WindowGroupLimit","sqlOp_WindowSort"],"feature_types":["int","int","int","int","float","int","int","int","int","int","int","int","int","int","int","int","int","int","int","int","int","int","int","int","int","int","int","int","int","int","int","int","int","int","int","int","float","float","float","float","float","int","int","int","float","float","float","float","float","float","float","float","float","float","float","float","float","float","float","float","float","float","float","float","float","float","float","float","float","float","float","int","int","int","int","int","int","int","int","int","int","int","int","int","int","int","int","int","int","int","int","int","int","int","int","int","int","int","int","int","int","int","int","int","int","int","int","int","int","int","int","int","int","int","int","int","int","int"],"gradient_booster":{"model":{"gbtree_model_param":{"num_parallel_tree":"1","num_trees":"91"},"iteration_indptr":[0,1,2,3,4,5,6,7,8,9,10,11,12,13,14,15,16,17,18,19,20,21,22,23,24,25,26,27,28,29,30,31,32,33,34,35,36,37,38,39,40,41,42,43,44,45,46,47,48,49,50,51,52,53,54,55,56,57,58,59,60,61,62,63,64,65,66,67,68,69,70,71,72,73,74,75,76,77,78,79,80,81,82,83,84,85,86,87,88,89,90,91],"tree_info":[0,0,0,0,0,0,0,0,0,0,0,0,0,0,0,0,0,0,0,0,0,0,0,0,0,0,0,0,0,0,0,0,0,0,0,0,0,0,0,0,0,0,0,0,0,0,0,0,0,0,0,0,0,0,0,0,0,0,0,0,0,0,0,0,0,0,0,0,0,0,0,0,0,0,0,0,0,0,0,0,0,0,0,0,0,0,0,0,0,0,0],"trees":[{"base_weights":[6.6977567E-3,-2.3282382E-1,6.898133E-1,-6.7315024E-1,-1.7802374E-2,7.8264296E-1,-7.780233E-1,-9.3200475E-1,-5.197957E-1,-2.1477248E-1,1.9286048E-1,4.0439326E-1,1.0045171E0,-4.845861E-2,-2.2563985E-2,-9.544138E-1,-5.387139E-3,-7.1024275E-1,-2.5526875E-1,-2.998876E-1,9.713412E-2,3.434225E-1,7.7629484E-2,1.9647564E-1,7.495113E-1,8.348243E-2,9.0703547E-1,-8.942791E-1,-5.599465E-2,-6.3943076E-1,-1.270108E0,3.2825388E-2,-3.588722E-1,-5.432674E-1,-2.1168649E-1,-1.7054923E-2,1.4061995E-1,3.746288E-1,-1.5979819E-1,-2.2665055E-2,1.7698874E-1,-8.4097326E-2,2.7452457E-1,7.979137E-1,4.736315E-3,6.7960757E-1,1.1674157E0,-4.82171E-2,-6.825378E-1,-3.8438436E-1,-7.180161E-1,-2.6006252E-2,-7.3820606E-2,-2.4083064E-1,-6.340765E-1,-5.910215E-1,-1.3290008E-2,-1.5323444E-1,-4.7723866E-1,8.3082415E-2,3.7343615E-1,2.3842554E-1,5.429171E-1,-1.9840335E-2,4.036075E-3,1.07295126E-1,-9.077742E-2,-3.285845E-2,2.5797778E-1,-1.2482993E-2,2.2390981E-4,5.1553315E-1,1.4334384E-1,8.410727E-1,1.5964303E-2,7.468608E-1,1.7461896E-1,1.2392709E0,2.820899E-1,2.8466734E-3,-7.4624836E-1,-2.3706453E-2,-8.115077E-3,-3.6246598E-2,-5.427621E-1,-2.9544175E-1,9.6460715E-2,-3.2071773E-2,-9.783599E-3,-1.9022672E-2,-3.0151103E-2,-9.595067E-3,-2.1932714E-1,-5.0913263E-2,-3.7491265E-1,1.610175E-1,1.8406909E-2,2.2854062E-2,1.00468155E-2,1.7777976E-1,3.0714162E-2,3.9170876E-1,3.38547E-2,-1.0741453E-2,1.5537214E-1,-2.7976194E-1,-3.7173066E-2,-7.827865E-2,9.8981215E-3,1.6115418E-1,4.435673E-1,-4.4659087E-3,2.8067413E-3,5.8758724E-1,9.08576E-3,1.9446778E-1,-1.5140099E-2,1.7491397E-2,4.044728E-2,6.1969554E-1,9.3814635E-1,2.0184236E-2,-7.3808227E-3,1.2939717E0,2.0375418E-2,1.957364E-2,3.2794944E-3,-6.126335E-1,-4.3308426E-2,-2.6521925E-2,-1.186699E-2,-3.930171E-1,-7.408993E-2,7.7063246E-3,-7.0189364E-4,-6.928733E-2,9.3741335E-2,-2.8876817E-1,-1.1733204E-1,-4.39416E-1,1.0456119E-3,2.2282586E-1,4.0112775E-2,-4.0332455E-2,1.3404495E-1,2.1190663E-1,-1.6340358E-2,2.6518297E-1,4.9375275E-1,1.9640835E-2,2.7031034E-1,-1.8037298E-3,-1.6466564E-2,-2.1989585E-1,2.3036456E-2,2.4384737E-2,-1.4333187E-1,2.1960584E-2,1.0447385E-1,5.735045E-3,5.157453E-1,1.4355283E-2,3.2189053E-2,5.9047528E-2,3.6206362E-1,7.4977535E-1,3.8058302E-1,1.1737578E0,6.889283E-1,4.2863507E-2,6.459149E-2,-2.9789738E-2,-1.3769645E-2,-2.414851E-2,-1.1870048E-2,-7.389327E-3,9.5829484E-4,-8.836877E-4,-9.77821E-3,9.491062E-3,-1.8663919E-3,-7.656424E-3,-1.6473368E-2,-1.4989535E-2,-3.4766735E-3,-5.9616542E-3,-2.3639144E-2,2.1366507E-3,1.2182024E-2,-1.6830342E-3,3.907465E-3,1.027115E-3,-5.5186674E-3,1.0076923E-2,-2.1210848E-3,1.106876E-2,-5.495959E-3,1.7104376E-2,5.3100833E-3,1.0525638E-2,2.4893714E-2,-8.95153E-3,6.2864237E-3,1.4146932E-2,4.8935967E-3,-3.2987255E-3,-1.3640521E-2,3.4206067E-3,-8.502582E-3,-2.2488988E-3,5.9132725E-3,-1.2127678E-2,-3.7748665E-3,6.1462256E-3,-7.1781995E-3,3.5047673E-2,1.7231021E-2,6.7619747E-3,-4.154413E-3,1.8828176E-2,8.861612E-3,1.2134641E-2,3.945266E-2,4.526941E-3,2.1680593E-2,3.6125384E-2,6.738861E-2,1.1045737E-2,3.5571188E-2],"categories":[],"categories_nodes":[],"categories_segments":[],"categories_sizes":[],"default_left":[0,0,0,0,0,0,0,0,0,0,0,0,0,0,0,0,0,0,0,0,0,0,0,0,0,0,0,0,0,0,0,0,0,0,0,0,0,0,0,0,0,0,0,0,0,0,0,0,0,0,0,0,0,0,0,0,0,0,0,0,0,0,0,0,0,0,0,0,0,0,0,0,0,0,0,0,0,0,0,0,0,0,0,0,0,0,0,0,0,0,0,0,0,0,0,0,0,0,0,0,0,0,0,0,0,0,0,0,0,0,0,0,0,0,0,0,0,0,0,0,0,0,0,0,0,0,0,0,0,0,0,0,0,0,0,0,0,0,0,0,0,0,0,0,0,0,0,0,0,0,0,0,0,0,0,0,0,0,0,0,0,0,0,0,0,0,0,0,0,0,0,0,0,0,0,0,0,0,0,0,0,0,0,0,0,0,0,0,0,0,0,0,0,0,0,0,0,0,0,0,0,0,0,0,0,0,0,0,0,0,0,0,0,0,0,0,0,0,0,0,0,0,0,0,0,0,0,0,0],"id":0,"left_children":[1,3,5,7,9,11,13,15,17,19,21,23,25,-1,-1,27,-1,29,31,33,35,37,39,41,43,-1,45,47,-1,49,51,-1,53,55,57,-1,59,61,63,65,67,69,71,73,-1,75,77,-1,79,81,83,-1,-1,85,87,89,-1,91,93,95,97,99,101,-1,-1,103,105,107,109,-1,111,113,115,117,-1,119,121,123,125,-1,127,-1,-1,-1,129,131,133,-1,-1,-1,-1,135,137,-1,139,141,143,-1,-1,145,-1,147,-1,-1,149,151,153,155,-1,157,159,-1,-1,161,-1,163,-1,-1,-1,165,167,-1,-1,169,-1,-1,-1,171,-1,-1,-1,173,175,-1,-1,177,179,181,183,185,-1,187,189,191,193,195,-1,197,199,201,203,-1,-1,205,207,209,211,-1,213,-1,215,-1,-1,217,219,221,223,225,227,-1,-1,-1,-1,-1,-1,-1,-1,-1,-1,-1,-1,-1,-1,-1,-1,-1,-1,-1,-1,-1,-1,-1,-1,-1,-1,-1,-1,-1,-1,-1,-1,-1,-1,-1,-1,-1,-1,-1,-1,-1,-1,-1,-1,-1,-1,-1,-1,-1,-1,-1,-1,-1,-1,-1,-1,-1,-1,-1,-1],"loss_changes":[1.9601485E2,8.396886E1,4.2985382E1,1.1067215E1,2.4813509E1,2.4183441E1,9.7370434E-1,1.844635E0,9.138699E0,8.23245E0,4.987321E0,7.7459126E0,1.2692291E1,0E0,0E0,5.139923E-1,0E0,3.4298859E0,8.14727E0,5.101324E0,1.4081872E0,2.0228214E0,1.6482681E0,1.5559762E0,1.202734E0,0E0,9.036758E0,2.0332642E0,0E0,1.6681709E0,1.6327095E0,0E0,2.1862545E0,6.133003E-1,2.7208424E0,0E0,7.995056E-1,2.5752811E0,5.684347E-1,7.4444735E-1,1.4190884E0,2.5039524E-1,1.6649642E0,4.5300102E-1,0E0,2.9601364E0,4.4851685E0,0E0,1.8945904E0,5.7777643E-1,4.0606308E-1,0E0,0E0,9.863312E-1,3.748312E-1,3.077984E-1,0E0,1.4124296E0,1.626184E0,2.5410125E-1,1.1854589E-1,1.6091008E0,1.194807E0,0E0,0E0,5.091485E-1,5.4677206E-1,2.8562894E-1,1.0066841E0,0E0,7.593838E-2,3.217659E-1,9.533824E-1,1.8397522E-1,0E0,1.3646278E0,1.1173229E0,2.4904022E0,1.781444E-1,0E0,3.3728218E-1,0E0,0E0,0E0,5.1730156E-2,9.4281244E-1,6.5037794E-2,0E0,0E0,0E0,0E0,3.025775E-1,6.885476E-1,0E0,7.534852E-1,1.6293901E-1,2.02389E-1,0E0,0E0,1.1615727E0,0E0,2.693119E-1,0E0,0E0,4.0030932E-1,2.0556802E-1,4.8913828E-1,1.437454E-1,0E0,6.783365E-1,3.9758873E-1,0E0,0E0,2.328353E-1,0E0,7.5028074E-1,0E0,0E0,0E0,1.3009377E0,9.529228E-1,0E0,0E0,1.1313553E0,0E0,0E0,0E0,4.206562E-2,0E0,0E0,0E0,4.1094446E-1,1.2491418E-1,0E0,0E0,2.168403E-1,2.7678376E-1,4.377098E-1,3.5060632E-1,4.8733044E-1,0E0,9.470987E-2,3.3552192E-2,1.01273015E-1,1.6039233E-1,5.408559E-1,0E0,2.0872235E-1,6.5202236E-2,3.478968E-1,4.900098E-2,0E0,0E0,1.0123408E-1,3.7096196E-1,7.407231E-2,7.3939234E-2,0E0,2.8492874E-1,0E0,2.7242756E-1,0E0,0E0,2.7205887E-1,3.643143E-2,1.3753777E0,4.5048523E-1,4.1678238E-1,4.249363E-1,0E0,0E0,0E0,0E0,0E0,0E0,0E0,0E0,0E0,0E0,0E0,0E0,0E0,0E0,0E0,0E0,0E0,0E0,0E0,0E0,0E0,0E0,0E0,0E0,0E0,0E0,0E0,0E0,0E0,0E0,0E0,0E0,0E0,0E0,0E0,0E0,0E0,0E0,0E0,0E0,0E0,0E0,0E0,0E0,0E0,0E0,0E0,0E0,0E0,0E0,0E0,0E0,0E0,0E0,0E0,0E0,0E0,0E0,0E0,0E0],"parents":[2147483647,0,0,1,1,2,2,3,3,4,4,5,5,6,6,7,7,8,8,9,9,10,10,11,11,12,12,15,15,17,17,18,18,19,19,20,20,21,21,22,22,23,23,24,24,26,26,27,27,29,29,30,30,32,32,33,33,34,34,36,36,37,37,38,38,39,39,40,40,41,41,42,42,43,43,45,45,46,46,48,48,49,49,50,50,53,53,54,54,55,55,57,57,58,58,59,59,60,60,61,61,62,62,65,65,66,66,67,67,68,68,70,70,71,71,72,72,73,73,75,75,76,76,77,77,78,78,80,80,84,84,85,85,86,86,91,91,92,92,94,94,95,95,96,96,99,99,101,101,104,104,105,105,106,106,107,107,109,109,110,110,113,113,115,115,119,119,120,120,123,123,127,127,131,131,132,132,135,135,136,136,137,137,138,138,139,139,141,141,142,142,143,143,144,144,145,145,147,147,148,148,149,149,150,150,153,153,154,154,155,155,156,156,158,158,160,160,163,163,164,164,165,165,166,166,167,167,168,168],"right_children":[2,4,6,8,10,12,14,16,18,20,22,24,26,-1,-1,28,-1,30,32,34,36,38,40,42,44,-1,46,48,-1,50,52,-1,54,56,58,-1,60,62,64,66,68,70,72,74,-1,76,78,-1,80,82,84,-1,-1,86,88,90,-1,92,94,96,98,100,102,-1,-1,104,106,108,110,-1,112,114,116,118,-1,120,122,124,126,-1,128,-1,-1,-1,130,132,134,-1,-1,-1,-1,136,138,-1,140,142,144,-1,-1,146,-1,148,-1,-1,150,152,154,156,-1,158,160,-1,-1,162,-1,164,-1,-1,-1,166,168,-1,-1,170,-1,-1,-1,172,-1,-1,-1,174,176,-1,-1,178,180,182,184,186,-1,188,190,192,194,196,-1,198,200,202,204,-1,-1,206,208,210,212,-1,214,-1,216,-1,-1,218,220,222,224,226,228,-1,-1,-1,-1,-1,-1,-1,-1,-1,-1,-1,-1,-1,-1,-1,-1,-1,-1,-1,-1,-1,-1,-1,-1,-1,-1,-1,-1,-1,-1,-1,-1,-1,-1,-1,-1,-1,-1,-1,-1,-1,-1,-1,-1,-1,-1,-1,-1,-1,-1,-1,-1,-1,-1,-1,-1,-1,-1,-1,-1],"split_conditions":[3.068E3,2.2116136E5,4.217427E7,1.26E2,9.31E2,8.716064E2,1.419902E3,4.2436344E1,6.83E2,2.331083E6,3.21875E0,2.2318378E6,7.7744565E0,-4.845861E-2,-2.2563985E-2,4.217427E7,-5.387139E-3,8.719101E0,2.74614E5,4.33E2,2.2953334E2,4.8060772E1,8.484036E5,1E0,2E0,8.348243E-2,2.6224005E6,4.36875E1,-5.599465E-2,2E0,3.89E2,3.2825388E-2,2.0734E4,1.8202913E2,6.33E3,-1.7054923E-2,6.2521395E6,4.2708197E2,1.4414759E0,1.4E1,5.1586456E7,8.295515E7,1.1163685E1,2.1668362E1,4.736315E-3,2.856934E7,1.0424884E-7,-4.82171E-2,1.6918919E0,3.89E2,1.852364E6,-2.6006252E-2,-7.3820606E-2,8.788122E4,4.629112E6,3.0350878E0,-1.3290008E-2,1.9452055E0,9.72472E0,3.5364E4,3.716E3,2.47E0,6.965855E9,-1.9840335E-2,4.036075E-3,4.8679228E5,5.62E2,1.72797E5,5.867288E2,-1.2482993E-2,6.12E2,2.3282397E5,4E0,7.575958E7,1.5964303E-2,1.9186024E3,2.9626667E3,6.292039E0,3.8807898E6,2.8466734E-3,1.2909952E1,-2.3706453E-2,-8.115077E-3,-3.6246598E-2,1.5365228E5,9.751103E6,3.1095755E0,-3.2071773E-2,-9.783599E-3,-1.9022672E-2,-3.0151103E-2,7.919006E7,1.559733E6,-5.0913263E-2,1.889865E1,1.319909E3,2.778995E2,2.2854062E-2,1.00468155E-2,2.511E3,3.0714162E-2,5.525965E2,3.38547E-2,-1.0741453E-2,1.3145597E-1,2.59E0,1.33E3,2.9333334E0,9.8981215E-3,7.3106743E3,1.8797773E-1,-4.4659087E-3,2.8067413E-3,4.797342E2,9.08576E-3,4.1032645E6,-1.5140099E-2,1.7491397E-2,4.044728E-2,2.6E1,8.598131E1,2.0184236E-2,-7.3808227E-3,5.306E3,2.0375418E-2,1.957364E-2,3.2794944E-3,5.6E1,-4.3308426E-2,-2.6521925E-2,-1.186699E-2,5.3776E4,8.638015E4,7.7063246E-3,-7.0189364E-4,2.2227E4,1E0,1E0,5.88E2,9.836066E-1,1.0456119E-3,1.21668365E2,2.3043478E2,1.880118E-3,1E0,1E0,-1.6340358E-2,5.884866E7,1.6464283E3,4.5E1,1.862E3,-1.8037298E-3,-1.6466564E-2,2.629844E5,8.462282E0,1.2915888E1,5.4983668E7,2.1960584E-2,5.284496E6,5.735045E-3,3.8396227E0,1.4355283E-2,3.2189053E-2,5.954224E0,4.0876604E7,1.7159091E0,5.78E2,1.6E1,4.3948618E8,4.2863507E-2,6.459149E-2,-2.9789738E-2,-1.3769645E-2,-2.414851E-2,-1.1870048E-2,-7.389327E-3,9.5829484E-4,-8.836877E-4,-9.77821E-3,9.491062E-3,-1.8663919E-3,-7.656424E-3,-1.6473368E-2,-1.4989535E-2,-3.4766735E-3,-5.9616542E-3,-2.3639144E-2,2.1366507E-3,1.2182024E-2,-1.6830342E-3,3.907465E-3,1.027115E-3,-5.5186674E-3,1.0076923E-2,-2.1210848E-3,1.106876E-2,-5.495959E-3,1.7104376E-2,5.3100833E-3,1.0525638E-2,2.4893714E-2,-8.95153E-3,6.2864237E-3,1.4146932E-2,4.8935967E-3,-3.2987255E-3,-1.3640521E-2,3.4206067E-3,-8.502582E-3,-2.2488988E-3,5.9132725E-3,-1.2127678E-2,-3.7748665E-3,6.1462256E-3,-7.1781995E-3,3.5047673E-2,1.7231021E-2,6.7619747E-3,-4.154413E-3,1.8828176E-2,8.861612E-3,1.2134641E-2,3.945266E-2,4.526941E-3,2.1680593E-2,3.6125384E-2,6.738861E-2,1.1045737E-2,3.5571188E-2],"split_indices":[2,40,57,41,2,64,64,70,2,40,66,40,36,0,0,57,0,66,5,2,45,70,40,24,6,0,40,67,0,26,2,0,41,64,41,0,40,64,65,70,7,7,36,68,0,57,49,0,36,2,9,0,0,45,9,36,0,65,36,9,41,65,43,0,0,57,10,1,64,0,41,45,6,7,0,64,64,50,40,0,68,0,0,0,40,9,50,0,0,0,0,7,9,0,68,45,67,0,0,2,0,4,0,0,50,65,2,68,0,59,50,0,0,4,0,57,0,0,0,8,70,0,0,2,0,0,0,0,0,0,0,1,40,0,0,1,24,23,2,68,0,4,4,50,23,6,0,5,45,0,2,0,0,40,66,70,5,0,59,0,66,0,0,66,44,65,0,3,7,0,0,0,0,0,0,0,0,0,0,0,0,0,0,0,0,0,0,0,0,0,0,0,0,0,0,0,0,0,0,0,0,0,0,0,0,0,0,0,0,0,0,0,0,0,0,0,0,0,0,0,0,0,0,0,0,0,0,0,0],"split_type":[0,0,0,0,0,0,0,0,0,0,0,0,0,0,0,0,0,0,0,0,0,0,0,0,0,0,0,0,0,0,0,0,0,0,0,0,0,0,0,0,0,0,0,0,0,0,0,0,0,0,0,0,0,0,0,0,0,0,0,0,0,0,0,0,0,0,0,0,0,0,0,0,0,0,0,0,0,0,0,0,0,0,0,0,0,0,0,0,0,0,0,0,0,0,0,0,0,0,0,0,0,0,0,0,0,0,0,0,0,0,0,0,0,0,0,0,0,0,0,0,0,0,0,0,0,0,0,0,0,0,0,0,0,0,0,0,0,0,0,0,0,0,0,0,0,0,0,0,0,0,0,0,0,0,0,0,0,0,0,0,0,0,0,0,0,0,0,0,0,0,0,0,0,0,0,0,0,0,0,0,0,0,0,0,0,0,0,0,0,0,0,0,0,0,0,0,0,0,0,0,0,0,0,0,0,0,0,0,0,0,0,0,0,0,0,0,0,0,0,0,0,0,0,0,0,0,0,0,0],"sum_hessian":[1.196E3,8.86E2,3.1E2,2.9E2,5.96E2,2.92E2,1.8E1,1.06E2,1.84E2,3.08E2,2.88E2,1.09E2,1.83E2,8E0,1E1,1.03E2,3E0,1.06E2,7.8E1,2.42E2,6.6E1,1.24E2,1.64E2,6.9E1,4E1,1.8E1,1.65E2,8.7E1,1.6E1,9.6E1,1E1,7E0,7.1E1,6.3E1,1.79E2,5E0,6.1E1,1.17E2,7E0,8.2E1,8.2E1,1.5E1,5.4E1,3.7E1,3E0,9E1,7.5E1,4.9E1,3.8E1,2.4E1,7.2E1,4E0,6E0,5.1E1,2E1,5.2E1,1.1E1,1.48E2,3.1E1,5E1,1.1E1,6.6E1,5.1E1,3E0,4E0,2.8E1,5.4E1,2.3E1,5.9E1,4E0,1.1E1,1.8E1,3.6E1,3.3E1,4E0,7.9E1,1.1E1,6.9E1,6E0,3E0,3.5E1,1.4E1,1E1,5E1,2.2E1,4.4E1,7E0,1.7E1,3E0,1.5E1,3.7E1,4.7E1,1.01E2,3E0,2.8E1,2.2E1,2.8E1,5E0,6E0,5.9E1,7E0,3E1,2.1E1,3E0,2.5E1,1.1E1,4.3E1,2E1,3E0,4E1,1.9E1,4E0,7E0,1.4E1,4E0,3.3E1,3E0,3E0,3E1,5E1,2.9E1,6E0,5E0,6.4E1,5E0,3E0,3E0,2.3E1,1.2E1,1.9E1,3E0,3E1,1.4E1,4E0,3E0,3E1,1.7E1,5.9E1,4.2E1,2.4E1,4E0,1.4E1,8E0,1.9E1,9E0,5.6E1,3E0,1.5E1,1.5E1,1.2E1,1.3E1,3E0,8E0,1E1,3.3E1,8E0,1.2E1,5E0,3.5E1,4E0,1.5E1,5E0,9E0,1.9E1,1.4E1,3.1E1,1.9E1,1.3E1,1.6E1,1.6E1,4.8E1,2E1,3E0,1.4E1,1.6E1,7E0,7E0,2.3E1,7E0,9E0,8E0,2.2E1,3.7E1,6E0,3.6E1,5E0,1.9E1,3E0,1.1E1,3E0,5E0,1.1E1,8E0,6E0,3E0,5.2E1,4E0,8E0,7E0,3E0,1.2E1,4E0,8E0,1E1,3E0,4E0,6E0,2.7E1,6E0,5E0,3E0,3E0,9E0,3.2E1,3E0,4E0,1.1E1,1.2E1,7E0,1E1,4E0,6E0,2.5E1,5E0,1.4E1,7E0,6E0,3E0,1.3E1],"tree_param":{"num_deleted":"0","num_feature":"118","num_nodes":"229","size_leaf_vector":"1"}},{"base_weights":[7.553111E-3,-2.2485903E-1,6.942008E-1,-6.7052203E-1,-9.995415E-3,8.142019E-1,-1.5437596E-1,-9.585804E-1,-5.612355E-1,-1.8489295E-1,1.7911677E-1,4.6928012E-1,1.0594686E0,-7.4597466E-1,2.067583E-1,-9.780899E-1,-1.58961E-2,-7.0103025E-1,-2.872103E-1,-5.441975E-1,-1.2104127E-1,3.2161367E-1,2.6469966E-2,1.392568E-1,6.390355E-1,1.7502681E0,9.3993145E-1,-4.5416452E-2,-4.176482E-1,4.115574E-1,-1.2956838E-2,-3.8820628E-2,-1.080137E0,-6.470316E-1,-1.1523725E0,6.14974E-1,-3.7457377E-1,-4.212235E-1,-2.9650288E-2,-1.7937276E-1,1.2447383E-1,2.743807E-1,6.8333733E-1,6.4362936E-2,-5.49076E-1,1.00434385E-2,4.399177E-1,7.209809E-1,9.671856E-2,3.6713652E-2,8.6090475E-2,6.404939E-1,1.0809665E0,-8.339463E-3,-2.4263477E-2,8.346188E-3,4.8663867E-1,-5.1821515E-2,-2.0229885E-2,-7.7508116E-1,-4.985491E-1,-3.1745262E-2,-7.0414454E-2,1.4919296E-2,3.4902E-2,-4.4516218E-1,8.641401E-2,-4.5838082E-1,-8.719365E-3,-1.14508435E-1,-3.778512E-1,2.2119893E-1,-1.6189491E-3,1.6821542E-1,4.0389457E-1,1.6273336E-2,3.5108678E-2,2.1167769E-1,1.8854031E-2,-1.041793E-2,-3.533566E-2,-9.639645E-3,7.603745E-2,8.272391E-3,2.5377765E-2,8.200527E-1,4.16735E-1,-1.00822166E-1,1.638475E-2,3.2977077E-1,6.972312E-1,3.3382273E-1,1.1392545E0,2.816104E-2,1.3677078E-2,-4.3854453E-2,-6.990957E-1,-2.134841E-1,-6.1679345E-1,-3.665988E-2,-3.7658888E-1,8.9423446E-4,8.436112E-3,-1.0085898E-2,-2.2591626E-2,-4.0085736E-1,-7.530382E-2,-6.687706E-1,-2.4881111E-1,1.2243111E-1,3.806678E-1,4.8158623E-2,-9.277473E-3,2.4135207E-1,-6.774659E-2,4.5415378E-1,-1.1565938E-2,3.2067213E-3,3.5414696E-1,1.2269863E-1,-4.6938006E-2,1.1809741E-2,1.21237375E-2,8.481425E-1,1.8927198E-2,5.640143E-3,2.2789828E-2,-1.24765495E-2,4.308577E-3,7.4495324E-3,1.793302E-2,7.295717E-1,1.1107834E-2,2.7489899E-2,2.7342073E-3,1.1976134E0,2.7203767E-2,-1.5629642E-2,-7.146542E-1,5.804375E-3,-3.06037E-1,-5.3623533E-1,-4.4719335E-2,-2.8125817E-1,-5.563134E-1,-1.1156012E-1,-6.274133E-1,-2.5158224E-1,-2.6861338E-2,-4.1790897E-1,-5.263964E-2,8.06259E-5,-2.7749547E-1,2.2471076E-2,9.3593355E-3,5.376043E-3,2.154285E-2,1.8454615E-2,7.516262E-3,2.7621406E-1,4.290686E-2,-2.291695E-2,4.3309886E-2,4.832904E-1,2.5218283E-3,1.2877697E-1,-6.516287E-3,5.6988434E-3,3.897739E-1,-1.4562623E-1,1.7285793E-1,8.627581E-3,-1.9250524E-1,-3.775797E-3,6.57635E-2,2.6136002E-2,4.145472E-2,1.6185487E-2,3.5521872E-2,4.6402045E-2,5.9839815E-2,-3.4276247E-2,-1.9024426E-2,-1.8133238E-2,-6.478299E-3,-7.9313265E-3,-2.6578344E-2,-1.5070803E-2,-2.3730535E-3,-3.0746715E-2,-1.1475401E-2,-8.611739E-3,-2.4568788E-3,-1.2845085E-2,-3.3514563E-2,-1.3300529E-2,-3.8397613E-3,1.678499E-3,-5.392421E-3,-2.2610663E-2,-7.165438E-3,-1.5562717E-2,-7.0519987E-3,-6.449146E-3,7.1080634E-3,-2.6081586E-3,4.2218915E-3,2.1400496E-3,1.39223505E-2,7.0441393E-3,-4.4803475E-3,4.700115E-3,-7.2555067E-3,1.02911005E-2,2.398808E-2,9.559782E-3,-2.6649404E-5,8.161211E-3,2.0658169E-2,3.855896E-3,-1.565361E-2,9.7828265E-3,-8.243347E-3,1.9292135E-3,-7.490813E-3,-3.5073522E-3,-1.5228817E-2,5.136962E-3,-9.125216E-4],"categories":[],"categories_nodes":[],"categories_segments":[],"categories_sizes":[],"default_left":[0,0,0,0,0,0,0,0,0,0,0,0,0,0,0,0,0,0,0,0,0,0,0,0,0,0,0,0,0,0,0,0,0,0,0,0,0,0,0,0,0,0,0,0,0,0,0,0,0,0,0,0,0,0,0,0,0,0,0,0,0,0,0,0,0,0,0,0,0,0,0,0,0,0,0,0,0,0,0,0,0,0,0,0,0,0,0,0,0,0,0,0,0,0,0,0,0,0,0,0,0,0,0,0,0,0,0,0,0,0,0,0,0,0,0,0,0,0,0,0,0,0,0,0,0,0,0,0,0,0,0,0,0,0,0,0,0,0,0,0,0,0,0,0,0,0,0,0,0,0,0,0,0,0,0,0,0,0,0,0,0,0,0,0,0,0,0,0,0,0,0,0,0,0,0,0,0,0,0,0,0,0,0,0,0,0,0,0,0,0,0,0,0,0,0,0,0,0,0,0,0,0,0,0,0,0,0,0,0,0,0,0,0,0,0,0,0,0,0,0,0,0,0,0,0,0,0,0,0],"id":1,"left_children":[1,3,5,7,9,11,13,15,17,19,21,23,25,27,29,31,-1,33,35,37,39,41,43,45,47,49,51,-1,53,55,-1,-1,57,59,61,63,65,67,-1,69,71,73,75,77,79,81,83,85,87,-1,-1,89,91,-1,-1,-1,93,-1,-1,95,97,-1,-1,-1,-1,99,101,103,-1,105,107,109,111,113,115,-1,-1,117,119,-1,-1,-1,121,-1,-1,123,125,127,-1,129,131,133,135,-1,-1,-1,137,139,141,-1,143,-1,-1,-1,-1,145,147,149,151,153,155,157,-1,159,161,163,-1,165,167,169,171,-1,173,175,-1,-1,-1,-1,-1,-1,-1,177,-1,-1,-1,179,-1,-1,181,-1,183,185,-1,187,189,191,193,195,197,199,-1,-1,201,203,-1,-1,-1,205,-1,207,209,-1,211,213,-1,215,-1,-1,217,219,221,223,225,-1,227,-1,-1,-1,-1,-1,-1,-1,-1,-1,-1,-1,-1,-1,-1,-1,-1,-1,-1,-1,-1,-1,-1,-1,-1,-1,-1,-1,-1,-1,-1,-1,-1,-1,-1,-1,-1,-1,-1,-1,-1,-1,-1,-1,-1,-1,-1,-1,-1,-1,-1,-1,-1,-1,-1],"loss_changes":[1.9437134E2,8.713197E1,3.148938E1,8.78035E0,2.0374401E1,2.2344223E1,8.486452E0,6.243286E-1,8.111336E0,7.275634E0,6.429989E0,6.297657E0,1.1319336E1,7.480078E-1,2.6067886E0,1.9046783E-1,0E0,2.7395554E0,6.1416993E0,2.9857254E-1,3.932032E0,2.4265528E0,3.1758573E0,1.5495579E0,3.2632961E0,8.2891846E-1,5.0510864E0,0E0,1.0788846E-1,2.2481608E-1,0E0,0E0,5.464668E-1,2.085289E0,1.3654423E0,4.1728735E-2,2.2837553E0,1.2133551E-1,0E0,2.8019238E0,6.46764E-1,1.815793E0,1.5677977E-1,9.077711E-1,4.5296097E-1,4.335684E-1,2.414484E-1,1.6174965E0,5.945954E-1,0E0,0E0,5.810318E-1,3.5827026E0,0E0,0E0,0E0,1.2271023E-1,0E0,0E0,2.2766495E-1,1.9918861E0,0E0,0E0,0E0,0E0,1.1284008E0,6.0770564E-2,3.6193848E-2,0E0,1.8558149E0,1.8607764E0,4.2590618E-1,2.4713387E-1,1.345176E0,2.11769E0,0E0,0E0,9.492868E-1,7.231347E-1,0E0,0E0,0E0,2.6014024E-1,0E0,0E0,2.0766068E-1,3.410833E-1,2.5403473E-1,0E0,2.5204659E-2,3.8692284E-1,5.364175E-1,2.000351E0,0E0,0E0,0E0,4.5539856E-2,6.6563237E-1,7.197647E-1,0E0,7.3446226E-1,0E0,0E0,0E0,0E0,1.2408454E0,1.2656076E0,1.4045138E0,2.8077412E-1,1.548785E-1,1.9238758E-1,6.484906E-2,0E0,3.96322E-1,9.230515E-1,6.37455E-1,0E0,2.712182E-1,1.0841489E-1,5.7699096E-1,5.2741516E-1,0E0,9.5818974E-2,8.502388E-2,0E0,0E0,0E0,0E0,0E0,0E0,0E0,2.3368454E-1,0E0,0E0,0E0,9.5703125E-2,0E0,0E0,7.120514E-2,0E0,1.7284358E-1,4.2705822E-1,0E0,3.5003448E-1,4.008832E-1,3.3680454E-2,1.7075968E-1,1.6896439E-1,6.717324E-1,1.4703918E-1,0E0,0E0,2.0584726E-1,2.3344019E-1,0E0,0E0,0E0,9.763184E-2,0E0,2.681384E-1,1.6734375E-1,0E0,2.0224784E-1,3.673277E-1,0E0,8.055213E-2,0E0,0E0,1.1421275E-1,3.3665138E-1,5.1005626E-1,2.7709413E-1,2.6182103E-1,0E0,4.85506E-2,0E0,0E0,0E0,0E0,0E0,0E0,0E0,0E0,0E0,0E0,0E0,0E0,0E0,0E0,0E0,0E0,0E0,0E0,0E0,0E0,0E0,0E0,0E0,0E0,0E0,0E0,0E0,0E0,0E0,0E0,0E0,0E0,0E0,0E0,0E0,0E0,0E0,0E0,0E0,0E0,0E0,0E0,0E0,0E0,0E0,0E0,0E0,0E0,0E0,0E0,0E0,0E0,0E0,0E0],"parents":[2147483647,0,0,1,1,2,2,3,3,4,4,5,5,6,6,7,7,8,8,9,9,10,10,11,11,12,12,13,13,14,14,15,15,17,17,18,18,19,19,20,20,21,21,22,22,23,23,24,24,25,25,26,26,28,28,29,29,32,32,33,33,34,34,35,35,36,36,37,37,39,39,40,40,41,41,42,42,43,43,44,44,45,45,46,46,47,47,48,48,51,51,52,52,56,56,59,59,60,60,65,65,66,66,67,67,69,69,70,70,71,71,72,72,73,73,74,74,77,77,78,78,82,82,85,85,86,86,87,87,89,89,90,90,91,91,92,92,96,96,97,97,98,98,100,100,105,105,106,106,107,107,108,108,109,109,110,110,111,111,113,113,114,114,115,115,117,117,118,118,119,119,120,120,122,122,123,123,131,131,135,135,138,138,140,140,141,141,143,143,144,144,145,145,146,146,147,147,148,148,149,149,152,152,153,153,157,157,159,159,160,160,162,162,163,163,165,165,168,168,169,169,170,170,171,171,172,172,174,174],"right_children":[2,4,6,8,10,12,14,16,18,20,22,24,26,28,30,32,-1,34,36,38,40,42,44,46,48,50,52,-1,54,56,-1,-1,58,60,62,64,66,68,-1,70,72,74,76,78,80,82,84,86,88,-1,-1,90,92,-1,-1,-1,94,-1,-1,96,98,-1,-1,-1,-1,100,102,104,-1,106,108,110,112,114,116,-1,-1,118,120,-1,-1,-1,122,-1,-1,124,126,128,-1,130,132,134,136,-1,-1,-1,138,140,142,-1,144,-1,-1,-1,-1,146,148,150,152,154,156,158,-1,160,162,164,-1,166,168,170,172,-1,174,176,-1,-1,-1,-1,-1,-1,-1,178,-1,-1,-1,180,-1,-1,182,-1,184,186,-1,188,190,192,194,196,198,200,-1,-1,202,204,-1,-1,-1,206,-1,208,210,-1,212,214,-1,216,-1,-1,218,220,222,224,226,-1,228,-1,-1,-1,-1,-1,-1,-1,-1,-1,-1,-1,-1,-1,-1,-1,-1,-1,-1,-1,-1,-1,-1,-1,-1,-1,-1,-1,-1,-1,-1,-1,-1,-1,-1,-1,-1,-1,-1,-1,-1,-1,-1,-1,-1,-1,-1,-1,-1,-1,-1,-1,-1,-1,-1],"split_conditions":[3.068E3,1.972052E5,2.856934E7,7.9E1,9.31E2,1.055912E3,1.465E4,2.0778275E-1,6.83E2,3.56E2,3.7326388E0,6.7148806E5,1.059448E7,1.419902E3,3.0070068E7,8.75477E5,-1.58961E-2,7.382199E0,7.402E3,3.1E1,3.3486558E6,6.0052995E6,1.39848995E1,3.9401392E6,2E0,3.167E3,1.7587205E6,-4.5416452E-2,1.91E2,1.4595416E3,-1.2956838E-2,-3.8820628E-2,7.6588124E-2,2.71E2,3.89E2,1.9E1,8.788122E4,3E0,-2.9650288E-2,2.652174E0,3.5364E4,4.5432812E2,1E0,3.3382E4,4E1,1.5204346E8,4.832381E2,1.1807278E1,1.038946E6,3.6713652E-2,8.6090475E-2,9.422379E4,1E0,-8.339463E-3,-2.4263477E-2,8.346188E-3,5.2224144E5,-5.1821515E-2,-2.0229885E-2,3.9E1,8E0,-3.1745262E-2,-7.0414454E-2,1.4919296E-2,3.4902E-2,3.741267E7,6.203939E2,1.9452055E0,-8.719365E-3,2.86152E5,1E0,3.3832976E7,2.1894736E0,3.786581E2,1.4676277E7,1.6273336E-2,3.5108678E-2,2.9847334E9,2.2875093E1,-1.041793E-2,-3.533566E-2,-9.639645E-3,1.01036356E6,8.272391E-3,2.5377765E-2,2.0619047E1,1.8442721E10,1.1726683E1,1.638475E-2,1.315624E6,1.1865458E9,3.82E2,1E0,2.816104E-2,1.3677078E-2,-4.3854453E-2,2.6412E5,1.9E1,1.2218E4,-3.665988E-2,1.711E4,8.9423446E-4,8.436112E-3,-1.0085898E-2,-2.2591626E-2,1.6386554E0,4.92E2,8.2E1,3.4644809E0,1.1001622E1,2.3514E4,2.6138635E2,-9.277473E-3,3.31E2,6E0,2E1,-1.1565938E-2,4E0,3.3832976E7,1.5933E4,3.9824562E0,1.1809741E-2,3.659E3,4.6134964E2,1.8927198E-2,5.640143E-3,2.2789828E-2,-1.24765495E-2,4.308577E-3,7.4495324E-3,1.793302E-2,1.625E0,1.1107834E-2,2.7489899E-2,2.7342073E-3,1E1,2.7203767E-2,-1.5629642E-2,3.328629E6,5.804375E-3,3.422351E6,3.2857144E0,-4.4719335E-2,1.3922E4,3.518913E2,8.8790035E-1,1.75E2,8.426078E7,1E0,2.5912744E2,-5.263964E-2,8.06259E-5,6.789622E7,2.1605E4,9.3593355E-3,5.376043E-3,2.154285E-2,4.5866325E6,7.516262E-3,6.264151E0,1E0,-2.291695E-2,1.1317806E1,3.7788504E7,2.5218283E-3,1.8393531E0,-6.516287E-3,5.6988434E-3,8.995735E5,1E0,1E0,2.8802464E8,3.0778393E1,-3.775797E-3,1.775373E1,2.6136002E-2,4.145472E-2,1.6185487E-2,3.5521872E-2,4.6402045E-2,5.9839815E-2,-3.4276247E-2,-1.9024426E-2,-1.8133238E-2,-6.478299E-3,-7.9313265E-3,-2.6578344E-2,-1.5070803E-2,-2.3730535E-3,-3.0746715E-2,-1.1475401E-2,-8.611739E-3,-2.4568788E-3,-1.2845085E-2,-3.3514563E-2,-1.3300529E-2,-3.8397613E-3,1.678499E-3,-5.392421E-3,-2.2610663E-2,-7.165438E-3,-1.5562717E-2,-7.0519987E-3,-6.449146E-3,7.1080634E-3,-2.6081586E-3,4.2218915E-3,2.1400496E-3,1.39223505E-2,7.0441393E-3,-4.4803475E-3,4.700115E-3,-7.2555067E-3,1.02911005E-2,2.398808E-2,9.559782E-3,-2.6649404E-5,8.161211E-3,2.0658169E-2,3.855896E-3,-1.565361E-2,9.7828265E-3,-8.243347E-3,1.9292135E-3,-7.490813E-3,-3.5073522E-3,-1.5228817E-2,5.136962E-3,-9.125216E-4],"split_indices":[2,40,57,41,2,64,41,50,2,2,66,40,12,64,55,43,0,66,1,10,40,40,66,57,6,2,40,0,0,4,0,0,54,2,2,0,45,8,0,65,9,4,112,9,3,7,64,36,9,0,0,45,24,0,0,0,40,0,0,2,26,0,0,0,0,7,4,65,0,7,112,7,65,67,59,0,0,43,36,0,0,0,63,0,0,68,43,36,0,1,44,0,6,0,0,0,7,0,41,0,41,0,0,0,0,66,2,0,70,36,1,4,0,0,3,6,0,8,7,1,65,0,2,4,0,0,0,0,0,0,0,65,0,0,0,3,0,0,9,0,9,66,0,41,64,68,0,7,23,4,0,0,7,9,0,0,0,40,0,70,25,0,36,7,0,50,0,0,40,23,88,5,70,0,68,0,0,0,0,0,0,0,0,0,0,0,0,0,0,0,0,0,0,0,0,0,0,0,0,0,0,0,0,0,0,0,0,0,0,0,0,0,0,0,0,0,0,0,0,0,0,0,0,0,0,0,0,0,0],"split_type":[0,0,0,0,0,0,0,0,0,0,0,0,0,0,0,0,0,0,0,0,0,0,0,0,0,0,0,0,0,0,0,0,0,0,0,0,0,0,0,0,0,0,0,0,0,0,0,0,0,0,0,0,0,0,0,0,0,0,0,0,0,0,0,0,0,0,0,0,0,0,0,0,0,0,0,0,0,0,0,0,0,0,0,0,0,0,0,0,0,0,0,0,0,0,0,0,0,0,0,0,0,0,0,0,0,0,0,0,0,0,0,0,0,0,0,0,0,0,0,0,0,0,0,0,0,0,0,0,0,0,0,0,0,0,0,0,0,0,0,0,0,0,0,0,0,0,0,0,0,0,0,0,0,0,0,0,0,0,0,0,0,0,0,0,0,0,0,0,0,0,0,0,0,0,0,0,0,0,0,0,0,0,0,0,0,0,0,0,0,0,0,0,0,0,0,0,0,0,0,0,0,0,0,0,0,0,0,0,0,0,0,0,0,0,0,0,0,0,0,0,0,0,0,0,0,0,0,0,0],"sum_hessian":[1.216E3,9.09E2,3.07E2,2.95E2,6.14E2,2.69E2,3.8E1,7.9E1,2.16E2,3.19E2,2.95E2,1.13E2,1.56E2,1.4E1,2.4E1,7.6E1,3E0,1.42E2,7.4E1,4.7E1,2.72E2,1.52E2,1.43E2,3.9E1,7.4E1,2.1E1,1.35E2,7E0,7E0,1.7E1,7E0,3.6E1,4E1,1.29E2,1.3E1,6E0,6.8E1,2.3E1,2.4E1,2.2E2,5.2E1,1.36E2,1.6E1,1.35E2,8E0,2.8E1,1.1E1,6.4E1,1E1,3E0,1.8E1,4.5E1,9E1,3E0,4E0,5E0,1.2E1,3.7E1,3E0,6.7E1,6.2E1,7E0,6E0,3E0,3E0,5.9E1,9E0,1.9E1,4E0,1.67E2,5.3E1,2.9E1,2.3E1,7.6E1,6E1,4E0,1.2E1,3.1E1,1.04E2,4E0,4E0,6E0,2.2E1,4E0,7E0,4.7E1,1.7E1,6E0,4E0,8E0,3.7E1,7E0,8.3E1,6E0,6E0,1.7E1,5E1,1.9E1,4.3E1,8E0,5.1E1,6E0,3E0,3E0,1.6E1,1.9E1,1.48E2,1.5E1,3.8E1,1.9E1,1E1,1.9E1,4E0,5.8E1,1.8E1,5.6E1,4E0,1.3E1,1.8E1,4E1,6.4E1,5E0,1.7E1,4.3E1,4E0,4E0,1.3E1,3E0,3E0,3E0,5E0,3.4E1,3E0,3E0,4E0,7.4E1,9E0,3E0,4.7E1,4E0,1.5E1,3.7E1,6E0,3.5E1,1.6E1,9E0,1E1,3.1E1,1.17E2,1.1E1,4E0,4E0,3.4E1,9E0,1E1,3E0,7E0,1.6E1,3E0,4.9E1,9E0,3E0,1.5E1,5.2E1,4E0,7E0,6E0,3E0,1.5E1,6E0,3.4E1,4.7E1,1.7E1,6E0,1.1E1,8E0,3.5E1,4E0,3E1,2.8E1,4.6E1,4.2E1,5E0,9E0,6E0,4E0,3.3E1,2.9E1,6E0,1.1E1,5E0,3E0,6E0,3E0,7E0,2.5E1,6E0,6.9E1,4.8E1,8E0,3E0,2.2E1,1.2E1,4E0,5E0,8E0,8E0,5E0,4.4E1,5E0,4E0,1.2E1,3E0,7E0,4.5E1,4E0,3E0,4E0,1.1E1,3E0,3E0,3.1E1,3E0,4E1,7E0,1E1,7E0,7E0,4E0],"tree_param":{"num_deleted":"0","num_feature":"118","num_nodes":"229","size_leaf_vector":"1"}},{"base_weights":[-7.777033E-3,-2.3390713E-1,6.373207E-1,-6.841101E-1,-3.786001E-2,-8.253676E-1,7.223905E-1,-7.7256006E-1,-3.790485E-1,-2.1805237E-1,1.6281208E-1,-4.373706E-2,-1.5089247E-2,4.2703593E-1,9.25744E-1,-9.1448224E-1,-6.6730833E-1,-4.9159488E-1,-2.2626512E-1,-1.9885355E-1,-6.691285E-2,2.779693E-1,2.8395792E-2,2.7460113E-1,7.9626083E-1,7.7848904E-2,8.1392616E-1,-9.401884E-1,-6.46285E-3,-7.30943E-1,-2.4489222E-1,-2.4910584E-2,-7.841246E-3,-1.5596712E-1,-2.4651397E-2,-5.001357E-1,-1.3568287E-1,2.3069203E-1,5.8441716E-1,6.084457E-2,-5.1461464E-1,1.08605884E-1,4.1758433E-1,8.441113E-1,9.371156E-3,5.247224E-1,1.0347254E0,-8.6174476E-1,-1.1256522E0,-2.4191661E-1,-7.621319E-1,2.690219E-1,-5.242678E-1,-2.2477876E-1,1.8354967E-2,-5.320465E-1,-9.082569E-3,-9.7135484E-2,-4.154201E-1,1.3726345E-1,3.7598336E-1,8.459157E-3,3.2337144E-2,1.4841969E-2,1.754605E-1,-5.1128813E-3,-3.402701E-2,-3.1464167E-2,4.009984E-1,4.8147058E-1,-1.0561018E-2,5.336135E-1,4.268846E-2,5.92561E-1,-7.509698E-2,1.0691205E0,2.090182E-3,-4.477868E-2,-6.584227E-1,-2.7993357E-2,-1.207827E0,-2.1808852E-2,4.862723E-3,-7.9373324E-1,-4.5897734E-1,2.2095857E-2,-3.0140756E-4,-2.7519867E-2,-1.0890902E-2,-3.071251E-1,-4.1194735E-4,-1.9951707E-3,2.9556823E-3,-1.7916732E-2,-5.872843E-1,-1.4085415E-1,1.09482825E-1,-4.6908194E-1,-1.490929E-1,-3.0647822E-2,2.487265E-1,4.2905915E-1,-1.1137595E-2,1.5960716E-1,-2.7820379E-2,4.0401682E-2,2.7184865E-1,-1.0195733E-2,3.556536E-2,2.5494976E-2,2.198633E-1,5.6259584E-1,4.6082463E-2,2.8646903E-2,1.2611051E-2,5.1023453E-1,7.700308E-1,-1.2432051E-2,8.587056E-3,2.0776967E-2,1.1105516E0,-7.0570153E-1,-1.51920095E-2,-6.079998E-2,-3.1052474E-2,-3.489966E-2,-1.041174E0,-2.5327342E-2,-6.756507E-3,-5.5063884E-3,-1.6280716E-2,-2.8795997E-2,-1.4613526E-2,-2.4597874E-1,-3.2218534E-2,1.589425E-1,-1.3804694E-2,-2.7250398E-2,-2.9504263E-1,-2.4778661E-3,-9.600695E-3,1.0366168E-1,-3.4532046E-1,3.2770872E-1,1.7206159E-1,4.8104304E-1,-1.8977518E-3,-1.0382417E-2,2.3202379E-1,-1.8681994E-1,8.531465E-3,-4.277267E-2,1.3931942E-1,1.701298E-2,1.4375942E-2,-6.5446645E-3,6.917481E-2,3.250432E-3,1.3684847E-2,6.8260443E-1,3.979977E-1,-8.158695E-3,9.940268E-3,6.6407114E-1,3.663575E-1,4.0111132E-2,1.6019598E-2,6.353344E-2,1.010785E0,-3.469049E-2,-1.5407186E-2,-2.4681509E-2,-5.4752864E-2,-1.0042157E-2,-4.183076E-2,2.9948552E-3,-4.7918917E-3,1.3689531E-2,2.3582736E-3,-1.680273E-2,-2.3834992E-3,7.932806E-3,-6.9697457E-3,-7.53365E-3,-2.8894475E-2,1.8157927E-2,7.842778E-3,1.4435452E-3,1.18706785E-2,9.894314E-3,2.387805E-2,1.1901274E-2,3.415596E-3,1.2901447E-3,-1.4313401E-2,-1.11574195E-2,1.8319453E-3,-3.4838242E-3,1.1464494E-3,2.2098236E-3,8.551478E-3,-4.202694E-3,5.367342E-3,-4.243199E-3,5.328932E-3,2.1188546E-2,3.5576526E-2,1.2413346E-2,2.4387257E-2,1.6105128E-2,3.43097E-2,3.9914674E-3,2.0650957E-2,5.1175985E-2,3.6696415E-2],"categories":[],"categories_nodes":[],"categories_segments":[],"categories_sizes":[],"default_left":[0,0,0,0,0,0,0,0,0,0,0,0,0,0,0,0,0,0,0,0,0,0,0,0,0,0,0,0,0,0,0,0,0,0,0,0,0,0,0,0,0,0,0,0,0,0,0,0,0,0,0,0,0,0,0,0,0,0,0,0,0,0,0,0,0,0,0,0,0,0,0,0,0,0,0,0,0,0,0,0,0,0,0,0,0,0,0,0,0,0,0,0,0,0,0,0,0,0,0,0,0,0,0,0,0,0,0,0,0,0,0,0,0,0,0,0,0,0,0,0,0,0,0,0,0,0,0,0,0,0,0,0,0,0,0,0,0,0,0,0,0,0,0,0,0,0,0,0,0,0,0,0,0,0,0,0,0,0,0,0,0,0,0,0,0,0,0,0,0,0,0,0,0,0,0,0,0,0,0,0,0,0,0,0,0,0,0,0,0,0,0,0,0,0,0,0,0,0,0,0,0,0,0,0,0,0,0,0,0,0,0,0,0,0,0],"id":2,"left_children":[1,3,5,7,9,11,13,15,17,19,21,-1,-1,23,25,27,29,31,33,35,-1,37,39,41,43,-1,45,47,-1,49,51,-1,-1,53,-1,55,57,59,61,63,65,67,69,71,-1,73,75,77,79,81,83,85,87,89,91,93,-1,95,97,99,101,-1,-1,103,105,-1,-1,107,109,111,-1,113,-1,115,117,119,-1,-1,121,-1,123,-1,-1,125,127,-1,-1,-1,-1,129,-1,-1,-1,-1,131,133,135,137,139,141,143,145,-1,147,149,151,153,-1,155,-1,157,159,161,-1,-1,163,165,-1,-1,-1,167,169,-1,-1,-1,-1,171,-1,-1,-1,-1,-1,-1,173,175,177,-1,-1,179,-1,-1,181,183,185,187,189,-1,-1,191,193,195,197,199,-1,201,-1,203,-1,-1,205,207,-1,-1,209,211,-1,-1,-1,213,-1,-1,-1,-1,-1,-1,-1,-1,-1,-1,-1,-1,-1,-1,-1,-1,-1,-1,-1,-1,-1,-1,-1,-1,-1,-1,-1,-1,-1,-1,-1,-1,-1,-1,-1,-1,-1,-1,-1,-1,-1,-1,-1,-1,-1,-1],"loss_changes":[1.7928482E2,8.029161E1,4.028958E1,7.1543884E0,2.2996836E1,7.654915E-1,1.7743225E1,2.5714417E0,9.892626E-1,7.6064205E0,4.651287E0,0E0,0E0,6.8166866E0,1.3676239E1,1.6216202E0,3.2079163E0,4.4831276E-1,5.412549E-1,6.2318E0,0E0,2.2122393E0,2.4981148E0,2.0907555E0,8.5207176E-1,0E0,9.482445E0,2.6659393E-1,0E0,1.4781151E0,2.7253904E0,0E0,0E0,3.040105E-1,0E0,4.4845486E-1,2.9250102E0,1.8759503E0,8.349047E-1,6.9865584E-1,6.314938E-1,1.773701E0,2.0899534E0,3.0731392E-1,0E0,2.8928642E0,2.9469452E0,7.363777E-1,2.1144867E-1,6.8561894E-1,6.1286545E-1,4.0481788E-1,1.0359907E-1,3.1725198E-1,2.5116524E-2,1.8125248E-1,0E0,2.210459E0,4.016862E-1,1.6546223E0,1.9030981E0,0E0,0E0,5.973385E-1,4.837035E-1,0E0,0E0,3.874417E-1,2.58605E-1,1.5281973E0,0E0,3.1706333E-2,0E0,5.275631E-1,4.5310318E-1,1.6860886E0,0E0,0E0,1.5876389E-1,0E0,1.3920212E-1,0E0,0E0,1.12514496E-1,2.5118184E-1,0E0,0E0,0E0,0E0,6.717646E-2,0E0,0E0,0E0,0E0,1.3395977E-1,2.2875502E0,9.1444105E-1,3.881545E-1,2.7897134E-2,1.5572834E0,2.645378E-1,1.265914E0,0E0,6.6362256E-1,4.350884E-1,1.4582518E-1,5.36538E-1,0E0,1.4655608E-1,0E0,6.992847E-2,4.5919323E-1,3.3778024E-1,0E0,0E0,7.7485657E-1,4.3603516E-1,0E0,0E0,0E0,6.766052E-1,9.247112E-2,0E0,0E0,0E0,0E0,8.85725E-2,0E0,0E0,0E0,0E0,0E0,0E0,1.7529259E0,6.9760156E-1,5.6101125E-1,0E0,0E0,1.9635665E-1,0E0,0E0,4.7325385E-1,4.5845044E-1,1.8890285E-1,3.366583E-1,3.1710434E-1,0E0,0E0,5.6375146E-2,3.7641132E-1,4.897985E-1,2.3801502E-2,2.4448305E-2,0E0,8.528977E-2,0E0,1.5831509E-1,0E0,0E0,3.461933E-2,1.5979123E-1,0E0,0E0,2.538452E-1,5.422554E-1,0E0,0E0,0E0,3.8334656E-1,0E0,0E0,0E0,0E0,0E0,0E0,0E0,0E0,0E0,0E0,0E0,0E0,0E0,0E0,0E0,0E0,0E0,0E0,0E0,0E0,0E0,0E0,0E0,0E0,0E0,0E0,0E0,0E0,0E0,0E0,0E0,0E0,0E0,0E0,0E0,0E0,0E0,0E0,0E0,0E0,0E0,0E0,0E0,0E0,0E0,0E0],"parents":[2147483647,0,0,1,1,2,2,3,3,4,4,5,5,6,6,7,7,8,8,9,9,10,10,13,13,14,14,15,15,16,16,17,17,18,18,19,19,21,21,22,22,23,23,24,24,26,26,27,27,29,29,30,30,33,33,35,35,36,36,37,37,38,38,39,39,40,40,41,41,42,42,43,43,45,45,46,46,47,47,48,48,49,49,50,50,51,51,52,52,53,53,54,54,55,55,57,57,58,58,59,59,60,60,63,63,64,64,67,67,68,68,69,69,71,71,73,73,74,74,75,75,78,78,80,80,83,83,84,84,89,89,94,94,95,95,96,96,97,97,98,98,99,99,100,100,101,101,103,103,104,104,105,105,106,106,108,108,110,110,111,111,112,112,115,115,116,116,120,120,121,121,126,126,133,133,134,134,135,135,138,138,141,141,142,142,143,143,144,144,145,145,148,148,149,149,150,150,151,151,152,152,154,154,156,156,159,159,160,160,163,163,164,164,168,168],"right_children":[2,4,6,8,10,12,14,16,18,20,22,-1,-1,24,26,28,30,32,34,36,-1,38,40,42,44,-1,46,48,-1,50,52,-1,-1,54,-1,56,58,60,62,64,66,68,70,72,-1,74,76,78,80,82,84,86,88,90,92,94,-1,96,98,100,102,-1,-1,104,106,-1,-1,108,110,112,-1,114,-1,116,118,120,-1,-1,122,-1,124,-1,-1,126,128,-1,-1,-1,-1,130,-1,-1,-1,-1,132,134,136,138,140,142,144,146,-1,148,150,152,154,-1,156,-1,158,160,162,-1,-1,164,166,-1,-1,-1,168,170,-1,-1,-1,-1,172,-1,-1,-1,-1,-1,-1,174,176,178,-1,-1,180,-1,-1,182,184,186,188,190,-1,-1,192,194,196,198,200,-1,202,-1,204,-1,-1,206,208,-1,-1,210,212,-1,-1,-1,214,-1,-1,-1,-1,-1,-1,-1,-1,-1,-1,-1,-1,-1,-1,-1,-1,-1,-1,-1,-1,-1,-1,-1,-1,-1,-1,-1,-1,-1,-1,-1,-1,-1,-1,-1,-1,-1,-1,-1,-1,-1,-1,-1,-1,-1,-1],"split_conditions":[3.068E3,1.7909248E5,1E0,1.559733E6,9.31E2,2.3017536E5,1.0879832E3,7.9E1,1.5341322E2,6.3344407E0,3.875E0,-4.373706E-2,-1.5089247E-2,3.022612E6,1.059448E7,1.1408248E0,9.99E2,2.0263722E8,2.1E1,3.89E2,-6.691285E-2,5.5426865E6,1.2784314E1,5.486433E5,1.1822347E1,7.7848904E-2,1.7831801E6,1.4504054E8,-6.46285E-3,1.0952381E0,5.1502705E0,-2.4910584E-2,-7.841246E-3,3.7144188E4,-2.4651397E-2,8.599521E5,4.159626E1,4.3764517E2,3.7788504E7,1.4603988E6,4E1,4.032683E6,1.5449402E7,1.0950326E6,9.371156E-3,2.5652106E7,8.604875E3,3.8714287E1,1.2E1,1.1E1,3.722767E5,2.2E1,7.81E2,1.7022566E7,1.017E3,3.0350878E0,-9.082569E-3,3.3486558E6,4.9969565E2,2.026453E6,1.4676277E7,8.459157E-3,3.2337144E-2,1.44E2,5.80418E7,-5.1128813E-3,-3.402701E-2,1.5204346E8,3.8908466E1,1E0,-1.0561018E-2,7.714286E0,4.268846E-2,3.4915986E3,9.4578236E-1,1E0,2.090182E-3,-4.477868E-2,5.62E2,-2.7993357E-2,1.5224156E5,-2.1808852E-2,4.862723E-3,5.035714E0,8.01E2,2.2095857E-2,-3.0140756E-4,-2.7519867E-2,-1.0890902E-2,2.5570058E2,-4.1194735E-4,-1.9951707E-3,2.9556823E-3,-1.7916732E-2,1.585814E6,2.7015875E2,7.89E2,6.176636E5,4.4358762E2,6.93729E5,2.8387096E0,2.0319266E-7,-1.1137595E-2,2.1525E4,5.62E2,3.9792767E2,2.0158867E8,-1.0195733E-2,8.147158E4,2.5494976E-2,3.94E2,1.1807278E1,7.653112E2,2.8646903E-2,1.2611051E-2,2.7578741E1,7.6E2,-1.2432051E-2,8.587056E-3,2.0776967E-2,3.3382E4,7.703129E3,-1.51920095E-2,-6.079998E-2,-3.1052474E-2,-3.489966E-2,1.654E3,-2.5327342E-2,-6.756507E-3,-5.5063884E-3,-1.6280716E-2,-2.8795997E-2,-1.4613526E-2,2.7E1,3.2608695E0,2.1111E4,-1.3804694E-2,-2.7250398E-2,5.342944E6,-2.4778661E-3,-9.600695E-3,1.8E1,8.877906E6,1.8591549E0,1.4603988E6,3.343E3,-1.8977518E-3,-1.0382417E-2,1E0,2.2702768E6,2.956111E2,2.2141065E6,4.05E2,1.701298E-2,5.1042255E2,-6.5446645E-3,6.12E2,3.250432E-3,1.3684847E-2,1E0,1.0784811E3,-8.158695E-3,9.940268E-3,1.625E0,2.6776E4,4.0111132E-2,1.6019598E-2,6.353344E-2,2.4822025E0,-3.469049E-2,-1.5407186E-2,-2.4681509E-2,-5.4752864E-2,-1.0042157E-2,-4.183076E-2,2.9948552E-3,-4.7918917E-3,1.3689531E-2,2.3582736E-3,-1.680273E-2,-2.3834992E-3,7.932806E-3,-6.9697457E-3,-7.53365E-3,-2.8894475E-2,1.8157927E-2,7.842778E-3,1.4435452E-3,1.18706785E-2,9.894314E-3,2.387805E-2,1.1901274E-2,3.415596E-3,1.2901447E-3,-1.4313401E-2,-1.11574195E-2,1.8319453E-3,-3.4838242E-3,1.1464494E-3,2.2098236E-3,8.551478E-3,-4.202694E-3,5.367342E-3,-4.243199E-3,5.328932E-3,2.1188546E-2,3.5576526E-2,1.2413346E-2,2.4387257E-2,1.6105128E-2,3.43097E-2,3.9914674E-3,2.0650957E-2,5.1175985E-2,3.6696415E-2],"split_indices":[2,40,16,9,2,45,64,41,64,65,66,0,0,40,12,50,2,7,3,2,0,40,65,40,36,0,40,43,0,65,68,0,0,45,0,40,36,64,7,40,3,57,59,59,0,55,4,67,3,3,59,0,0,9,2,36,0,40,4,9,59,0,0,10,7,0,0,7,70,6,0,68,0,4,46,15,0,0,10,0,45,0,0,65,2,0,0,0,0,4,0,0,0,0,9,4,2,40,64,9,68,49,0,9,10,64,7,0,40,0,0,36,4,0,0,68,8,0,0,0,9,40,0,0,0,0,1,0,0,0,0,0,0,3,66,9,0,0,57,0,0,3,57,65,40,12,0,0,115,57,4,40,10,0,4,0,41,0,0,8,4,0,0,65,41,0,0,0,54,0,0,0,0,0,0,0,0,0,0,0,0,0,0,0,0,0,0,0,0,0,0,0,0,0,0,0,0,0,0,0,0,0,0,0,0,0,0,0,0,0,0,0,0,0,0],"split_type":[0,0,0,0,0,0,0,0,0,0,0,0,0,0,0,0,0,0,0,0,0,0,0,0,0,0,0,0,0,0,0,0,0,0,0,0,0,0,0,0,0,0,0,0,0,0,0,0,0,0,0,0,0,0,0,0,0,0,0,0,0,0,0,0,0,0,0,0,0,0,0,0,0,0,0,0,0,0,0,0,0,0,0,0,0,0,0,0,0,0,0,0,0,0,0,0,0,0,0,0,0,0,0,0,0,0,0,0,0,0,0,0,0,0,0,0,0,0,0,0,0,0,0,0,0,0,0,0,0,0,0,0,0,0,0,0,0,0,0,0,0,0,0,0,0,0,0,0,0,0,0,0,0,0,0,0,0,0,0,0,0,0,0,0,0,0,0,0,0,0,0,0,0,0,0,0,0,0,0,0,0,0,0,0,0,0,0,0,0,0,0,0,0,0,0,0,0,0,0,0,0,0,0,0,0,0,0,0,0,0,0,0,0,0,0],"sum_hessian":[1.227E3,9.09E2,3.18E2,2.75E2,6.34E2,1.7E1,3.01E2,2.12E2,6.3E1,3.34E2,3E2,1.3E1,4E0,1.24E2,1.77E2,8.7E1,1.25E2,3.5E1,2.8E1,3.3E2,4E0,1.61E2,1.39E2,8.9E1,3.5E1,2.1E1,1.56E2,8.4E1,3E0,1.08E2,1.7E1,3E1,5E0,2.4E1,4E0,5.6E1,2.74E2,1.41E2,2E1,1.32E2,7E0,4.2E1,4.7E1,3.2E1,3E0,6.9E1,8.7E1,6.3E1,2.1E1,7E0,1.01E2,6E0,1.1E1,1.7E1,7E0,5E1,6E0,2.42E2,3.2E1,8.7E1,5.4E1,5E0,1.5E1,9.5E1,3.7E1,3E0,4E0,2.9E1,1.3E1,4.3E1,4E0,8E0,2.4E1,6.2E1,7E0,8.4E1,3E0,3.9E1,2.4E1,4E0,1.7E1,4E0,3E0,9E1,1.1E1,3E0,3E0,8E0,3E0,1.2E1,5E0,3E0,4E0,1.6E1,3.4E1,2E2,4.2E1,2.6E1,6E0,3.5E1,5.2E1,5E1,4E0,2.1E1,7.4E1,1.6E1,2.1E1,7E0,2.2E1,6E0,7E0,3.6E1,7E0,5E0,3E0,4.5E1,1.7E1,4E0,3E0,6E0,7.8E1,2E1,4E0,1.3E1,4E0,8.1E1,9E0,8E0,3E0,3E0,9E0,2.9E1,5E0,1.01E2,9.9E1,3.8E1,4E0,1.4E1,1.2E1,3E0,3E0,2.5E1,1E1,2.4E1,2.8E1,4.5E1,5E0,3E0,1.8E1,1.3E1,6.1E1,9E0,7E0,1.5E1,6E0,3E0,1.9E1,3E0,4E0,1.9E1,1.7E1,3E0,4E0,2E1,2.5E1,1.3E1,4E0,1.8E1,6E1,1.7E1,3E0,3E0,6E0,9.8E1,3E0,4.2E1,5.7E1,1.6E1,2.2E1,9E0,3E0,2E1,5E0,7E0,3E0,1.6E1,8E0,1.1E1,1.7E1,6E0,3.9E1,1.5E1,3E0,5E0,8E0,6E0,5.5E1,6E0,3E0,3E0,4E0,3E0,3E0,4E0,1.5E1,7E0,1.2E1,1E1,7E0,5E0,1.5E1,6E0,1.9E1,3.9E1,2.1E1],"tree_param":{"num_deleted":"0","num_feature":"118","num_nodes":"215","size_leaf_vector":"1"}},{"base_weights":[-7.584467E-4,-2.1044321E-1,6.096596E-1,-5.973242E-1,-3.5034347E-2,-8.1584626E-1,6.937182E-1,-8.561671E-1,-4.798594E-1,-2.114777E-1,1.560344E-1,-4.4366136E-2,-2.1062497E-2,4.078489E-1,8.895602E-1,-7.652255E-1,-5.138001E-2,-6.5215856E-1,-1.9839638E-1,-4.8906225E-1,-1.4647129E-1,2.9746342E-1,6.9138478E-3,2.78437E-1,7.384143E-1,1.5606432E0,7.98406E-1,-8.0622286E-1,-2.9278848E-1,-5.9345627E-1,-1.1457E0,6.839032E-1,-3.558085E-1,-5.100277E-1,-6.853786E-3,-1.2747641E-1,-5.1853683E-2,3.2444075E-1,-1.7921554E-1,3.3874728E-2,-4.72506E-1,1.4896132E-1,4.29543E-1,7.765602E-1,1.1952073E-2,4.785508E-2,8.452147E-2,4.2975646E-1,9.616844E-1,-3.906995E-2,-2.2693563E-2,-4.13512E-3,-1.9584745E-2,-7.000077E-1,-4.570506E-1,-2.5643725E-2,-1.3723389E0,3.7257254E-2,1.11520365E-2,-3.308678E-2,-2.8659979E-1,-4.1329932E-1,-2.6651358E-2,-1.7969482E-1,7.892289E-2,2.220528E-1,4.3844938E-1,-1.0664158E-3,-1.7067542E-2,2.9832504E-3,2.7695864E-1,-2.2518476E-3,-3.3196867E-2,2.8146467E-1,1.582498E-2,5.155375E-1,-6.1792996E-2,2.3790354E-2,3.9842602E-2,5.2989584E-1,-1.2086537E-2,1.0403179E0,6.431206E-1,-7.2835726E-1,-1.74647E-2,-1.7516822E-2,-5.2503324E-1,-7.494301E-2,-3.3382025E-2,-9.149897E-2,-3.8958675E-1,-1.0845586E-2,-4.5329195E-1,-3.3252293E-1,-1.2096933E-1,3.813328E-2,1.6079979E-2,1.6920832E-1,4.590904E-1,4.844959E-1,2.678261E-2,1.7787263E-1,-3.334269E-2,4.4036172E-3,1.7431693E-2,4.266015E-1,1.5626666E-1,-7.309283E-2,1.6540277E-1,3.38309E-2,3.5512435E-1,-1.519935E-2,1.0193273E-2,2.3811555E-1,5.78662E-1,1.0903523E0,2.2991896E-2,8.623366E-3,6.9951385E-1,-4.0211428E-2,-6.4854175E-1,5.6090937E-3,-5.7847397E-3,-6.6704726E-1,-4.0565178E-1,-1.3724822E-1,6.3536623E-3,-4.8169756E-1,-1.2807955E-1,-2.2212215E-2,-1.0213554E-2,-2.1814555E-1,-5.0977015E-1,-5.3270206E-2,-1.9156882E-1,8.861821E-2,-1.0460449E-1,1.9492668E-1,-5.775089E-3,2.6340665E-2,6.8268217E-3,3.6636844E-1,6.5626574E-1,-8.388205E-3,8.694342E-3,-6.586162E-4,2.3520939E-1,-1.3543202E-1,2.3363648E-2,2.3502603E-2,7.30423E-3,4.1842252E-2,1.1626977E-2,-9.808841E-3,2.393658E-3,1.3077872E-2,-3.743586E-3,3.281292E-3,3.9627448E-1,1.3937942E-2,4.6239863E-3,6.437468E-1,3.3855826E-1,2.659726E-2,1.1181933E0,3.5163086E-2,1.17766345E-2,-1.8518658E-2,-3.2394838E-2,-2.0766236E-2,-3.6347564E-2,-9.4418805E-3,-2.2213547E-2,-7.3679665E-4,-7.905904E-3,-2.4302436E-2,-1.1238712E-2,5.580104E-4,-1.1428308E-2,-1.229472E-2,3.296367E-3,-1.6997138E-2,-3.8371313E-2,-1.0326445E-2,-1.7463733E-5,-1.0803945E-2,-1.6292242E-3,-1.2112971E-3,7.158536E-3,-1.4830203E-2,3.2535733E-3,-7.680202E-3,1.0003373E-2,3.3046352E-3,1.8006677E-2,1.3972792E-2,3.205949E-2,3.8324473E-3,1.2765012E-2,-9.265019E-3,6.12123E-3,2.5980996E-3,-9.317186E-3,-1.4686434E-3,4.274155E-3,-4.0860525E-3,2.7199993E-3,1.0713329E-2,2.2921266E-2,3.2320905E-2,1.1746948E-2,1.820966E-2,7.3157283E-3,4.6623956E-2,5.9565503E-2],"categories":[],"categories_nodes":[],"categories_segments":[],"categories_sizes":[],"default_left":[0,0,0,0,0,0,0,0,0,0,0,0,0,0,0,0,0,0,0,0,0,0,0,0,0,0,0,0,0,0,0,0,0,0,0,0,0,0,0,0,0,0,0,0,0,0,0,0,0,0,0,0,0,0,0,0,0,0,0,0,0,0,0,0,0,0,0,0,0,0,0,0,0,0,0,0,0,0,0,0,0,0,0,0,0,0,0,0,0,0,0,0,0,0,0,0,0,0,0,0,0,0,0,0,0,0,0,0,0,0,0,0,0,0,0,0,0,0,0,0,0,0,0,0,0,0,0,0,0,0,0,0,0,0,0,0,0,0,0,0,0,0,0,0,0,0,0,0,0,0,0,0,0,0,0,0,0,0,0,0,0,0,0,0,0,0,0,0,0,0,0,0,0,0,0,0,0,0,0,0,0,0,0,0,0,0,0,0,0,0,0,0,0,0,0,0,0,0,0,0,0,0,0,0,0,0,0,0,0,0,0,0,0,0,0],"id":3,"left_children":[1,3,5,7,9,11,13,15,17,19,21,-1,-1,23,25,27,-1,29,31,33,35,37,39,41,43,45,47,49,51,53,55,57,59,61,-1,63,-1,65,67,69,71,73,75,77,-1,-1,-1,79,81,-1,-1,-1,-1,83,85,-1,87,-1,-1,-1,89,91,-1,93,95,97,99,-1,-1,101,103,-1,-1,105,107,109,111,-1,-1,113,-1,115,117,119,-1,121,123,-1,-1,125,127,-1,129,131,133,135,-1,137,139,141,143,145,147,-1,-1,149,151,153,155,-1,157,-1,-1,159,161,163,-1,-1,165,-1,167,-1,-1,169,171,173,-1,175,177,-1,-1,179,181,183,185,187,189,191,-1,-1,-1,193,195,-1,-1,-1,197,199,201,-1,-1,203,-1,-1,205,-1,-1,-1,207,-1,-1,209,211,-1,213,-1,-1,-1,-1,-1,-1,-1,-1,-1,-1,-1,-1,-1,-1,-1,-1,-1,-1,-1,-1,-1,-1,-1,-1,-1,-1,-1,-1,-1,-1,-1,-1,-1,-1,-1,-1,-1,-1,-1,-1,-1,-1,-1,-1,-1,-1,-1,-1,-1,-1],"loss_changes":[1.5769061E2,6.2208855E1,3.831115E1,8.284973E0,2.1339493E1,4.8972225E-1,1.63208E1,1.181076E0,9.521282E0,5.865099E0,6.4092946E0,0E0,0E0,5.0562286E0,9.520264E0,1.0810165E0,0E0,2.8836365E0,1.0937455E1,3.677578E-1,4.8136287E0,2.064231E0,1.9419174E0,1.6968236E0,4.2234993E-1,9.066429E-1,9.036926E0,3.256874E-1,1.4774454E-1,1.3078957E0,8.49205E-1,4.4884443E-1,1.434578E0,1.3051987E-1,0E0,2.8595324E0,0E0,1.6302605E0,2.5782287E-1,1.0654832E0,7.944976E-1,8.775964E-1,1.7641969E0,2.4241638E-1,0E0,0E0,0E0,3.5973692E0,2.0363312E0,0E0,0E0,0E0,0E0,2.833557E-1,1.5445976E0,0E0,1.1703968E-1,0E0,0E0,0E0,1.1096449E0,8.711004E-2,0E0,1.8534794E0,5.779989E-1,9.2440844E-1,1.2949762E0,0E0,0E0,8.1276447E-1,2.5391984E-1,0E0,0E0,3.8760757E-1,3.578931E-1,9.490118E-1,5.983932E-1,0E0,0E0,4.8828793E-1,0E0,1.7706299E0,4.880085E-1,5.239296E-2,0E0,1.343402E-1,4.9233437E-1,0E0,0E0,2.3860133E-1,8.295469E-1,0E0,2.3720741E-2,1.0646343E0,7.2584176E-1,3.5516298E-1,0E0,5.308441E-1,3.9556265E-1,1.0175905E0,3.0195087E-1,2.4566245E-1,6.1681E-1,0E0,0E0,1.5966773E-1,1.5235883E-1,1.7861333E-1,3.112164E-1,0E0,2.2923899E-1,0E0,0E0,3.955382E-2,3.6025715E-1,4.633484E-1,0E0,0E0,3.6813736E-1,0E0,2.1658707E-1,0E0,0E0,1.3805103E-1,3.0615234E-1,7.050997E-2,0E0,1.516676E-1,1.8608136E-1,0E0,0E0,5.267643E-1,6.968217E-1,7.183901E-1,4.8214555E-1,2.768362E-1,5.130193E-1,5.092089E-1,0E0,0E0,0E0,2.3222208E-1,9.942436E-2,0E0,0E0,0E0,8.219755E-2,6.8457323E-1,5.190305E-1,0E0,0E0,3.2641243E-2,0E0,0E0,6.6501625E-2,0E0,0E0,0E0,1.9504881E-1,0E0,0E0,4.1717434E-1,3.6757946E-2,0E0,5.142975E-2,0E0,0E0,0E0,0E0,0E0,0E0,0E0,0E0,0E0,0E0,0E0,0E0,0E0,0E0,0E0,0E0,0E0,0E0,0E0,0E0,0E0,0E0,0E0,0E0,0E0,0E0,0E0,0E0,0E0,0E0,0E0,0E0,0E0,0E0,0E0,0E0,0E0,0E0,0E0,0E0,0E0,0E0,0E0,0E0,0E0,0E0,0E0,0E0,0E0,0E0],"parents":[2147483647,0,0,1,1,2,2,3,3,4,4,5,5,6,6,7,7,8,8,9,9,10,10,13,13,14,14,15,15,17,17,18,18,19,19,20,20,21,21,22,22,23,23,24,24,25,25,26,26,27,27,28,28,29,29,30,30,31,31,32,32,33,33,35,35,37,37,38,38,39,39,40,40,41,41,42,42,43,43,47,47,48,48,53,53,54,54,56,56,60,60,61,61,63,63,64,64,65,65,66,66,69,69,70,70,73,73,74,74,75,75,76,76,79,79,81,81,82,82,83,83,85,85,86,86,89,89,90,90,92,92,93,93,94,94,95,95,97,97,98,98,99,99,100,100,101,101,102,102,105,105,106,106,107,107,108,108,110,110,113,113,114,114,115,115,118,118,120,120,123,123,124,124,125,125,127,127,128,128,131,131,132,132,133,133,134,134,135,135,136,136,137,137,141,141,142,142,146,146,147,147,148,148,151,151,154,154,158,158,161,161,162,162,164,164],"right_children":[2,4,6,8,10,12,14,16,18,20,22,-1,-1,24,26,28,-1,30,32,34,36,38,40,42,44,46,48,50,52,54,56,58,60,62,-1,64,-1,66,68,70,72,74,76,78,-1,-1,-1,80,82,-1,-1,-1,-1,84,86,-1,88,-1,-1,-1,90,92,-1,94,96,98,100,-1,-1,102,104,-1,-1,106,108,110,112,-1,-1,114,-1,116,118,120,-1,122,124,-1,-1,126,128,-1,130,132,134,136,-1,138,140,142,144,146,148,-1,-1,150,152,154,156,-1,158,-1,-1,160,162,164,-1,-1,166,-1,168,-1,-1,170,172,174,-1,176,178,-1,-1,180,182,184,186,188,190,192,-1,-1,-1,194,196,-1,-1,-1,198,200,202,-1,-1,204,-1,-1,206,-1,-1,-1,208,-1,-1,210,212,-1,214,-1,-1,-1,-1,-1,-1,-1,-1,-1,-1,-1,-1,-1,-1,-1,-1,-1,-1,-1,-1,-1,-1,-1,-1,-1,-1,-1,-1,-1,-1,-1,-1,-1,-1,-1,-1,-1,-1,-1,-1,-1,-1,-1,-1,-1,-1,-1,-1,-1,-1],"split_conditions":[3.068E3,1.8988005E5,1E0,7.9E1,9.31E2,1.5900173E3,1.0879832E3,1.4504054E8,6.83E2,3.89E2,3.875E0,-4.4366136E-2,-2.1062497E-2,3.022612E6,1.059448E7,5.62E2,-5.138001E-2,5.035714E0,2.5E2,1.1362371E6,1.05039425E1,2.453E4,1.2784314E1,7.449545E2,7.7191065E6,4.626E3,1.1251919E6,4.238532E0,1.5E1,2.71E2,2.49E2,2.04115E5,1E0,3.1E1,-6.853786E-3,3.3486558E6,-5.1853683E-2,4.2060452E2,7.318515E6,2.295413E6,6.931091E2,1.124641E0,1.5449402E7,1.0950326E6,1.1952073E-2,4.785508E-2,8.452147E-2,2.5652106E7,2.2040408E7,-3.906995E-2,-2.2693563E-2,-4.13512E-3,-1.9584745E-2,3.328629E6,6.9E1,-2.5643725E-2,4.9E1,3.7257254E-2,1.11520365E-2,-3.308678E-2,2.1E1,3.5675676E0,-2.6651358E-2,1E0,3.1847827E2,1E0,2.48334E5,-1.0664158E-3,-1.7067542E-2,1.26E2,4.1778E4,-2.2518476E-3,-3.3196867E-2,4.5742856E2,6.185E3,1.1057851E1,4.44E2,2.3790354E-2,3.9842602E-2,1.3245402E3,-1.2086537E-2,1E0,2.0750147E8,3.9E1,-1.74647E-2,1.9E1,8.147158E4,-7.494301E-2,-3.3382025E-2,1.15064E5,2.1340163E8,-1.0845586E-2,2.9E1,1.9619734E0,1E0,7.09E2,1.6079979E-2,1E0,9.970589E0,6.965855E9,2E0,3.574764E7,1.503E3,4.4036172E-3,1.7431693E-2,2.5369E4,8.620714E2,1.4521204E0,5.954224E0,3.38309E-2,2.5393645E5,-1.519935E-2,1.0193273E-2,1.214874E2,5.00401E5,1.3711089E6,2.2991896E-2,8.623366E-3,2.871605E2,-4.0211428E-2,1.00019E5,5.6090937E-3,-5.7847397E-3,3.477E4,3.2857144E0,1.3017457E0,6.3536623E-3,1.0208242E6,2.2941177E0,-2.2212215E-2,-1.0213554E-2,9.010751E6,1.03E2,5.02E2,1.03860024E8,4.49239E6,1.409E3,2.897656E8,-5.775089E-3,2.6340665E-2,6.8268217E-3,1.089E3,5.8036E4,-8.388205E-3,8.694342E-3,-6.586162E-4,1.2259939E3,1.2707816E6,9.639872E0,2.3502603E-2,7.30423E-3,3.39498E5,1.1626977E-2,-9.808841E-3,6.12E2,1.3077872E-2,-3.743586E-3,3.281292E-3,8.716064E2,1.3937942E-2,4.6239863E-3,4.909091E0,9.860918E5,2.659726E-2,6.7947706E8,3.5163086E-2,1.17766345E-2,-1.8518658E-2,-3.2394838E-2,-2.0766236E-2,-3.6347564E-2,-9.4418805E-3,-2.2213547E-2,-7.3679665E-4,-7.905904E-3,-2.4302436E-2,-1.1238712E-2,5.580104E-4,-1.1428308E-2,-1.229472E-2,3.296367E-3,-1.6997138E-2,-3.8371313E-2,-1.0326445E-2,-1.7463733E-5,-1.0803945E-2,-1.6292242E-3,-1.2112971E-3,7.158536E-3,-1.4830203E-2,3.2535733E-3,-7.680202E-3,1.0003373E-2,3.3046352E-3,1.8006677E-2,1.3972792E-2,3.205949E-2,3.8324473E-3,1.2765012E-2,-9.265019E-3,6.12123E-3,2.5980996E-3,-9.317186E-3,-1.4686434E-3,4.274155E-3,-4.0860525E-3,2.7199993E-3,1.0713329E-2,2.2921266E-2,3.2320905E-2,1.1746948E-2,1.820966E-2,7.3157283E-3,4.6623956E-2,5.9565503E-2],"split_indices":[2,40,16,41,2,67,64,43,2,2,66,0,0,40,12,10,0,65,41,40,66,41,65,64,59,2,40,65,3,2,2,5,112,10,0,40,0,64,57,40,4,50,59,59,0,0,0,55,63,0,0,0,0,9,10,0,10,0,0,0,8,66,0,112,4,25,1,0,0,10,1,0,0,64,41,68,0,0,0,64,0,6,7,2,0,0,40,0,0,1,7,0,0,65,23,2,0,6,70,43,6,7,2,0,0,41,4,50,66,0,40,0,0,70,10,40,0,0,70,0,5,0,0,1,66,68,0,59,65,0,0,12,0,2,7,40,10,43,0,0,0,2,1,0,0,0,45,40,66,0,0,9,0,0,41,0,0,0,64,0,0,65,40,0,7,0,0,0,0,0,0,0,0,0,0,0,0,0,0,0,0,0,0,0,0,0,0,0,0,0,0,0,0,0,0,0,0,0,0,0,0,0,0,0,0,0,0,0,0,0,0,0,0,0,0],"split_type":[0,0,0,0,0,0,0,0,0,0,0,0,0,0,0,0,0,0,0,0,0,0,0,0,0,0,0,0,0,0,0,0,0,0,0,0,0,0,0,0,0,0,0,0,0,0,0,0,0,0,0,0,0,0,0,0,0,0,0,0,0,0,0,0,0,0,0,0,0,0,0,0,0,0,0,0,0,0,0,0,0,0,0,0,0,0,0,0,0,0,0,0,0,0,0,0,0,0,0,0,0,0,0,0,0,0,0,0,0,0,0,0,0,0,0,0,0,0,0,0,0,0,0,0,0,0,0,0,0,0,0,0,0,0,0,0,0,0,0,0,0,0,0,0,0,0,0,0,0,0,0,0,0,0,0,0,0,0,0,0,0,0,0,0,0,0,0,0,0,0,0,0,0,0,0,0,0,0,0,0,0,0,0,0,0,0,0,0,0,0,0,0,0,0,0,0,0,0,0,0,0,0,0,0,0,0,0,0,0,0,0,0,0,0,0],"sum_hessian":[1.23E3,9.16E2,3.14E2,2.85E2,6.31E2,1.7E1,2.97E2,8.7E1,1.98E2,3.28E2,3.03E2,1.1E1,6E0,1.22E2,1.75E2,6.7E1,2E1,1.22E2,7.6E1,6.1E1,2.67E2,1.55E2,1.48E2,8.9E1,3.3E1,1.9E1,1.56E2,6.1E1,6E0,1.11E2,1.1E1,1.1E1,6.5E1,5.7E1,4E0,2.63E2,4E0,1.47E2,8E0,1.41E2,7E0,4.9E1,4E1,3E1,3E0,8E0,1.1E1,4.9E1,1.07E2,5.3E1,8E0,3E0,3E0,6E1,5.1E1,4E0,7E0,8E0,3E0,9E0,5.6E1,2.6E1,3.1E1,2.1E2,5.3E1,7.9E1,6.8E1,5E0,3E0,1.26E2,1.5E1,3E0,4E0,2.4E1,2.5E1,3.4E1,6E0,9E0,2.1E1,4.3E1,6E0,8.4E1,2.3E1,5.4E1,6E0,7E0,4.4E1,4E0,3E0,2E1,3.6E1,6E0,2E1,5.7E1,1.53E2,4.7E1,6E0,6.6E1,1.3E1,6.1E1,7E0,2.1E1,1.05E2,6E0,9E0,1E1,1.4E1,1.6E1,9E0,1.3E1,2.1E1,3E0,3E0,7E0,3.6E1,7.6E1,8E0,3E0,2E1,1.6E1,3.8E1,3E0,4E0,1.8E1,2.6E1,1.7E1,3E0,2.6E1,1E1,1.7E1,3E0,3.6E1,2.1E1,7.9E1,7.4E1,3.5E1,1.2E1,6.1E1,5E0,9E0,4E0,3.8E1,2.3E1,3E0,4E0,5E0,1.6E1,3.7E1,6.8E1,7E0,3E0,7E0,7E0,5E0,1.1E1,6E0,3E0,3E0,1.8E1,4E0,3E0,2.7E1,9E0,5E0,7.1E1,1.7E1,3E0,8E0,3E1,8E0,1E1,8E0,1.8E1,4E0,1.3E1,2.1E1,5E0,5E0,5E0,3.1E1,5E0,1.6E1,5E0,1.8E1,6.1E1,5.8E1,1.6E1,1.3E1,2.2E1,5E0,7E0,3E0,5.8E1,3E0,3.5E1,3E0,2E1,4E0,1.2E1,3E1,7E0,6E1,8E0,3E0,4E0,4E0,7E0,8E0,1E1,2.3E1,4E0,6E0,3E0,4.7E1,2.4E1],"tree_param":{"num_deleted":"0","num_feature":"118","num_nodes":"215","size_leaf_vector":"1"}},{"base_weights":[1.9492753E-2,-1.8703291E-1,6.280998E-1,-5.866526E-1,-2.0175539E-2,-7.49934E-1,6.7769116E-1,-8.014906E-1,-4.7025424E-1,-1.9316383E-1,1.5619327E-1,-4.4418767E-2,-1.4191311E-2,3.947889E-1,8.744143E-1,-8.38756E-1,-4.542186E-1,1.0218338E-1,-5.135551E-1,-4.8691893E-1,-1.2601933E-1,2.7206132E-1,2.6834764E-2,1.3972469E-1,5.473314E-1,1.5074631E0,7.763912E-1,-7.7297235E-1,-4.984297E-2,-2.5489446E-2,-6.846396E-3,3.6666665E-2,-2.9242817E-1,-5.354735E-1,6.569833E-3,-5.1251245E-1,-4.9999915E-3,-1.8743314E-1,5.1043913E-2,2.2743851E-1,6.238454E-1,5.827521E-2,-4.1601497E-1,-1.1236543E-2,3.440842E-1,6.232223E-1,1.3161208E-1,4.970679E-2,8.534595E-2,4.953007E-1,9.415706E-1,-3.9987024E-2,-2.7122399E-2,-2.3059845E-2,-1.3077082E-3,-5.9362334E-1,-2.2189288E-1,-3.5437718E-1,-5.578665E-1,-3.7950942E-1,-1.181045E-1,9.0803854E-2,-1.8864413E-1,1.3017812E-1,3.5305873E-1,1.3070809E-2,3.1170452E-2,8.378991E-3,1.9198667E-1,-3.1903514E-3,-2.943937E-2,-1.099693E-2,4.8289757E-2,2.5632106E-2,2.1470551E-1,7.1193266E-1,3.1259552E-1,-2.6724573E-2,1.48506025E-2,5.513035E-1,-9.65636E-3,4.342406E-1,1.0176328E0,-2.9809114E-1,-6.3214874E-1,-3.8398474E-2,-3.1677824E-1,-1.9438094E-2,-1.0162525E-2,-1.4080971E-2,-2.6714727E-2,-3.6246676E-2,-2.862373E-1,3.1998772E-2,-1.8232667E-1,-6.474677E-2,1.501889E-1,2.724427E-3,-2.0735314E-2,-1.3668378E-2,2.2172818E-1,4.204186E-1,-5.272644E-2,1.7386116E-1,-3.6120847E-2,4.849371E-2,2.9414093E-1,1.01208985E-1,-5.4865335E-3,1.9158343E-2,9.36652E-2,7.5572425E-1,1.4048283E-3,5.1568667E-3,1.7146166E-2,-6.6566104E-3,3.345809E-3,4.670983E-1,7.3909724E-1,5.421593E-1,1.3380647E-3,9.105572E-1,6.106641E-2,2.3561114E-2,-5.073823E-1,-7.349403E-1,-4.9347937E-1,-3.6983702E-3,2.0281465E-3,-1.6440736E-2,-4.782742E-3,-1.9754885E-1,-5.591543E-1,-1.093877E-1,8.8437065E-2,-3.0662835E-1,-1.0876533E-1,2.8838615E-3,-1.3970555E-1,9.879668E-2,2.90712E-1,1.1898213E-1,-2.6677614E-1,2.9389394E-2,2.5603092E-1,3.1539115E-1,2.7906587E-2,-1.8439198E-2,1.5228255E-1,-2.7950483E-3,1.0613636E-2,-1.8837842E-1,3.793407E-2,-9.54114E-3,8.781212E-3,1.7396793E-2,6.374247E-4,1.0569499E-2,4.858482E-2,-1.5535369E-4,8.858608E-3,5.1164883E-1,3.746583E-2,2.5433633E-3,4.9903166E-1,3.825635E-2,1.3538746E-2,8.323962E-3,3.0348407E-2,1.8625397E-2,9.4743294E-1,-2.8485049E-2,-3.8759052E-3,-4.8538107E-2,-3.0765258E-2,-2.933913E-2,-1.821673E-2,-1.5413325E-2,-4.5310156E-3,-3.4180045E-2,-4.8979684E-3,9.0103503E-4,-6.9435383E-3,5.875365E-4,7.563868E-3,-2.1213797E-5,-1.6408881E-2,-6.31078E-3,8.560558E-3,-8.973913E-3,-2.8830997E-3,2.165339E-3,8.607739E-3,1.6703445E-2,3.6028344E-3,1.2199151E-2,2.9717463E-3,-4.5021605E-3,-2.6920162E-2,4.900706E-3,-4.289848E-3,1.719518E-2,8.496218E-3,1.7178355E-2,5.9226984E-3,2.490775E-3,9.846192E-3,-4.0333658E-3,-1.4243755E-2,3.4045242E-3,-4.5718253E-3,2.9272502E-3,-2.913189E-3,4.6273833E-3,4.137746E-4,2.6924169E-2,1.1288235E-2,2.6134495E-2,1.3558192E-2,3.2174867E-2,4.6520714E-2],"categories":[],"categories_nodes":[],"categories_segments":[],"categories_sizes":[],"default_left":[0,0,0,0,0,0,0,0,0,0,0,0,0,0,0,0,0,0,0,0,0,0,0,0,0,0,0,0,0,0,0,0,0,0,0,0,0,0,0,0,0,0,0,0,0,0,0,0,0,0,0,0,0,0,0,0,0,0,0,0,0,0,0,0,0,0,0,0,0,0,0,0,0,0,0,0,0,0,0,0,0,0,0,0,0,0,0,0,0,0,0,0,0,0,0,0,0,0,0,0,0,0,0,0,0,0,0,0,0,0,0,0,0,0,0,0,0,0,0,0,0,0,0,0,0,0,0,0,0,0,0,0,0,0,0,0,0,0,0,0,0,0,0,0,0,0,0,0,0,0,0,0,0,0,0,0,0,0,0,0,0,0,0,0,0,0,0,0,0,0,0,0,0,0,0,0,0,0,0,0,0,0,0,0,0,0,0,0,0,0,0,0,0,0,0,0,0,0,0,0,0,0,0,0,0,0,0,0,0,0,0,0,0,0,0,0,0,0,0,0,0],"id":4,"left_children":[1,3,5,7,9,11,13,15,17,19,21,-1,-1,23,25,27,29,31,33,35,37,39,41,43,45,47,49,51,-1,-1,-1,-1,53,55,-1,57,-1,59,61,63,65,67,69,71,73,75,77,-1,-1,79,81,-1,-1,-1,-1,83,85,87,89,91,93,95,97,99,101,-1,-1,103,105,-1,-1,-1,107,-1,109,111,113,115,-1,117,-1,119,121,123,125,127,129,-1,-1,-1,-1,-1,131,133,135,137,139,-1,-1,141,143,145,147,149,151,153,155,157,-1,-1,159,161,-1,-1,-1,-1,-1,163,165,167,-1,169,-1,-1,171,173,175,-1,-1,-1,-1,177,179,181,183,185,187,-1,189,191,193,195,197,199,201,203,-1,-1,205,-1,-1,207,209,211,-1,-1,-1,-1,213,-1,-1,215,-1,-1,217,-1,-1,-1,-1,-1,219,-1,-1,-1,-1,-1,-1,-1,-1,-1,-1,-1,-1,-1,-1,-1,-1,-1,-1,-1,-1,-1,-1,-1,-1,-1,-1,-1,-1,-1,-1,-1,-1,-1,-1,-1,-1,-1,-1,-1,-1,-1,-1,-1,-1,-1,-1,-1,-1,-1,-1],"loss_changes":[1.5032059E2,5.9532944E1,2.1214813E1,6.1998825E0,1.9281816E1,7.279763E-1,1.5961243E1,7.9667664E-1,4.3406334E0,6.230608E0,4.684106E0,0E0,0E0,4.6703167E0,9.502808E0,4.3549728E-1,2.4335456E-1,3.7705855E0,2.3890648E0,5.168104E-1,2.847715E0,2.4482174E0,2.098829E0,1.4538331E0,2.3157253E0,1.2277794E0,6.5446243E0,6.3212204E-1,0E0,0E0,0E0,0E0,4.7499198E-1,2.7128868E0,0E0,1.9676876E-1,0E0,2.5385575E0,6.651684E-1,1.7622843E0,1.14022255E-1,9.3242884E-1,7.194928E-1,3.886726E-1,4.2348242E-1,1.5410252E0,3.9797705E-1,0E0,0E0,2.401348E0,3.18544E0,0E0,0E0,0E0,0E0,1.3030586E0,4.4052052E-1,4.0340185E-2,2.425003E-2,1.6951203E0,1.3939884E0,5.5472964E-1,6.6803E-1,1.1224086E0,1.7715197E0,0E0,0E0,7.6476485E-1,5.4275596E-1,0E0,0E0,0E0,2.1502152E-1,0E0,2.9869193E-1,1.4396057E0,1.4476013E-1,1.0310776E-1,0E0,5.0868225E-1,0E0,5.967376E-1,1.4136505E0,3.1296458E0,1.276535E0,3.760947E-2,1.0252452E-1,0E0,0E0,0E0,0E0,0E0,9.303365E-1,3.6077684E-1,8.9017296E-1,1.7059241E-1,2.8181583E-1,0E0,0E0,1.1732873E0,3.3555865E-1,8.6351013E-1,7.691343E-1,2.993682E-1,9.3173057E-1,1.4110863E-1,4.9847162E-1,1.093065E-1,0E0,0E0,9.542416E-2,1.8755531E-1,0E0,0E0,0E0,0E0,0E0,4.9904728E-1,3.4312725E-1,3.3414268E-1,0E0,7.9951096E-1,0E0,0E0,5.8864784E-1,7.1533585E-1,4.799013E-1,0E0,0E0,0E0,0E0,4.262637E-1,7.3419404E-1,7.0929885E-2,1.7959997E-1,5.416107E-1,5.512324E-1,0E0,3.404042E-2,1.4090276E-1,1.3608515E-1,1.652182E-1,5.837054E-1,9.381459E-2,2.9998708E-1,3.387339E-1,0E0,0E0,3.0198649E-2,0E0,0E0,2.9935116E-1,2.7983257E-1,5.448671E-2,0E0,0E0,0E0,0E0,2.7621195E-2,0E0,0E0,6.42426E-2,0E0,0E0,3.3433914E-1,0E0,0E0,0E0,0E0,0E0,1.4299774E-1,0E0,0E0,0E0,0E0,0E0,0E0,0E0,0E0,0E0,0E0,0E0,0E0,0E0,0E0,0E0,0E0,0E0,0E0,0E0,0E0,0E0,0E0,0E0,0E0,0E0,0E0,0E0,0E0,0E0,0E0,0E0,0E0,0E0,0E0,0E0,0E0,0E0,0E0,0E0,0E0,0E0,0E0,0E0,0E0,0E0,0E0,0E0,0E0,0E0,0E0],"parents":[2147483647,0,0,1,1,2,2,3,3,4,4,5,5,6,6,7,7,8,8,9,9,10,10,13,13,14,14,15,15,16,16,17,17,18,18,19,19,20,20,21,21,22,22,23,23,24,24,25,25,26,26,27,27,32,32,33,33,35,35,37,37,38,38,39,39,40,40,41,41,42,42,43,43,44,44,45,45,46,46,49,49,50,50,55,55,56,56,57,57,58,58,59,59,60,60,61,61,62,62,63,63,64,64,67,67,68,68,72,72,74,74,75,75,76,76,77,77,79,79,81,81,82,82,83,83,84,84,85,85,86,86,92,92,93,93,94,94,95,95,96,96,99,99,100,100,101,101,102,102,103,103,104,104,105,105,106,106,107,107,110,110,111,111,117,117,118,118,119,119,121,121,124,124,125,125,126,126,131,131,132,132,133,133,134,134,135,135,136,136,138,138,139,139,140,140,141,141,142,142,143,143,144,144,145,145,148,148,151,151,152,152,153,153,158,158,161,161,164,164,170,170],"right_children":[2,4,6,8,10,12,14,16,18,20,22,-1,-1,24,26,28,30,32,34,36,38,40,42,44,46,48,50,52,-1,-1,-1,-1,54,56,-1,58,-1,60,62,64,66,68,70,72,74,76,78,-1,-1,80,82,-1,-1,-1,-1,84,86,88,90,92,94,96,98,100,102,-1,-1,104,106,-1,-1,-1,108,-1,110,112,114,116,-1,118,-1,120,122,124,126,128,130,-1,-1,-1,-1,-1,132,134,136,138,140,-1,-1,142,144,146,148,150,152,154,156,158,-1,-1,160,162,-1,-1,-1,-1,-1,164,166,168,-1,170,-1,-1,172,174,176,-1,-1,-1,-1,178,180,182,184,186,188,-1,190,192,194,196,198,200,202,204,-1,-1,206,-1,-1,208,210,212,-1,-1,-1,-1,214,-1,-1,216,-1,-1,218,-1,-1,-1,-1,-1,220,-1,-1,-1,-1,-1,-1,-1,-1,-1,-1,-1,-1,-1,-1,-1,-1,-1,-1,-1,-1,-1,-1,-1,-1,-1,-1,-1,-1,-1,-1,-1,-1,-1,-1,-1,-1,-1,-1,-1,-1,-1,-1,-1,-1,-1,-1,-1,-1,-1,-1],"split_conditions":[3.068E3,1.7909248E5,1E0,1.4858E4,9.31E2,1.5900173E3,1.0879832E3,2.2470966E-1,7E0,3.95E2,3.8396227E0,-4.4418767E-2,-1.4191311E-2,6.7148806E5,1.059448E7,3.5548245E2,2.4E1,1.0457E4,2.6591675E0,1.1362371E6,2.331083E6,6.0052995E6,1.2784314E1,6.136927E2,2E0,2.35184E5,1.7587205E6,4.2E1,-4.984297E-2,-2.5489446E-2,-6.846396E-3,3.6666665E-2,2.2E1,7.997723E6,6.569833E-3,3.0350878E0,-4.9999915E-3,1E0,1.8E1,4.3764517E2,1E0,1.4603988E6,1.4787234E1,1E0,2.4342105E0,1.1807278E1,1.038946E6,4.970679E-2,8.534595E-2,2.921332E9,1E0,-3.9987024E-2,-2.7122399E-2,-2.3059845E-2,-1.3077082E-3,1.139605E6,2.2941177E0,1.14E2,9.793E3,2.508E2,2.0131578E0,3.0479442E9,6.15E2,1.212945E6,1.0767881E7,1.3070809E-2,3.1170452E-2,1.44E2,5.80418E7,-3.1903514E-3,-2.943937E-2,-1.099693E-2,1.6E1,2.5632106E-2,4.179E3,3.2645503E5,1.9505818E8,2.95E2,1.48506025E-2,3.4915986E3,-9.65636E-3,2.751192E6,6.663214E6,2.0007E5,6.829817E4,1.3871127E2,4.6404468E2,-1.9438094E-2,-1.0162525E-2,-1.4080971E-2,-2.6714727E-2,-3.6246676E-2,1.295313E6,5.51E2,4.330197E5,3.434405E7,2.0804598E0,2.724427E-3,-2.0735314E-2,6.93729E5,6.6E1,1.2E2,1.4414759E0,2.1525E4,1.503E3,7.063079E1,2.1340163E8,2.88721E5,-5.4865335E-3,1.9158343E-2,2.3066575E6,4.6134964E2,1.4048283E-3,5.1568667E-3,1.7146166E-2,-6.6566104E-3,3.345809E-3,4.25681E-1,7.6E2,2.0750147E8,1.3380647E-3,1E0,6.106641E-2,2.3561114E-2,3.7103092E1,3.434405E7,1.8149019E2,-3.6983702E-3,2.0281465E-3,-1.6440736E-2,-4.782742E-3,7.3131656E5,2.3572223E2,7.0407925E0,5.9565744E5,2.6363637E0,1.0657745E7,2.8838615E-3,2.524828E2,1.1560518E1,2.6654E4,1.1333333E0,8.315271E0,1.88E0,3.64E2,2.9375E0,2.7906587E-2,-1.8439198E-2,1.7951853E1,-2.7950483E-3,1.0613636E-2,3.589758E7,3.0084E4,2.9333334E0,8.781212E-3,1.7396793E-2,6.374247E-4,1.0569499E-2,4.888889E0,-1.5535369E-4,8.858608E-3,4.3024124E2,3.746583E-2,2.5433633E-3,2.1356704E0,3.825635E-2,1.3538746E-2,8.323962E-3,3.0348407E-2,1.8625397E-2,5.831829E6,-2.8485049E-2,-3.8759052E-3,-4.8538107E-2,-3.0765258E-2,-2.933913E-2,-1.821673E-2,-1.5413325E-2,-4.5310156E-3,-3.4180045E-2,-4.8979684E-3,9.0103503E-4,-6.9435383E-3,5.875365E-4,7.563868E-3,-2.1213797E-5,-1.6408881E-2,-6.31078E-3,8.560558E-3,-8.973913E-3,-2.8830997E-3,2.165339E-3,8.607739E-3,1.6703445E-2,3.6028344E-3,1.2199151E-2,2.9717463E-3,-4.5021605E-3,-2.6920162E-2,4.900706E-3,-4.289848E-3,1.719518E-2,8.496218E-3,1.7178355E-2,5.9226984E-3,2.490775E-3,9.846192E-3,-4.0333658E-3,-1.4243755E-2,3.4045242E-3,-4.5718253E-3,2.9272502E-3,-2.913189E-3,4.6273833E-3,4.137746E-4,2.6924169E-2,1.1288235E-2,2.6134495E-2,1.3558192E-2,3.2174867E-2,4.6520714E-2],"split_indices":[2,40,16,9,2,67,64,50,3,2,66,0,0,40,12,4,0,40,50,40,40,40,65,64,6,1,40,2,0,0,0,0,0,9,0,36,0,112,3,64,112,40,68,23,65,36,9,0,0,7,24,0,0,0,0,43,65,41,9,45,65,43,2,9,59,0,0,10,7,0,0,0,3,0,2,45,5,0,0,4,0,1,40,5,40,64,4,0,0,0,0,0,9,2,40,7,65,0,0,9,10,0,65,9,2,36,7,9,0,0,57,4,0,0,0,0,0,50,8,7,0,15,0,0,70,7,67,0,0,0,0,40,64,70,40,70,57,0,4,36,9,65,68,65,10,66,0,0,68,0,0,5,41,68,0,0,0,0,68,0,0,4,0,0,50,0,0,0,0,0,57,0,0,0,0,0,0,0,0,0,0,0,0,0,0,0,0,0,0,0,0,0,0,0,0,0,0,0,0,0,0,0,0,0,0,0,0,0,0,0,0,0,0,0,0,0,0,0,0,0,0],"split_type":[0,0,0,0,0,0,0,0,0,0,0,0,0,0,0,0,0,0,0,0,0,0,0,0,0,0,0,0,0,0,0,0,0,0,0,0,0,0,0,0,0,0,0,0,0,0,0,0,0,0,0,0,0,0,0,0,0,0,0,0,0,0,0,0,0,0,0,0,0,0,0,0,0,0,0,0,0,0,0,0,0,0,0,0,0,0,0,0,0,0,0,0,0,0,0,0,0,0,0,0,0,0,0,0,0,0,0,0,0,0,0,0,0,0,0,0,0,0,0,0,0,0,0,0,0,0,0,0,0,0,0,0,0,0,0,0,0,0,0,0,0,0,0,0,0,0,0,0,0,0,0,0,0,0,0,0,0,0,0,0,0,0,0,0,0,0,0,0,0,0,0,0,0,0,0,0,0,0,0,0,0,0,0,0,0,0,0,0,0,0,0,0,0,0,0,0,0,0,0,0,0,0,0,0,0,0,0,0,0,0,0,0,0,0,0,0,0,0,0,0,0],"sum_hessian":[1.194E3,8.92E2,3.02E2,2.62E2,6.3E2,1E1,2.92E2,9E1,1.72E2,3.18E2,3.12E2,6E0,4E0,1.21E2,1.71E2,8E1,1E1,1.2E1,1.6E2,5.8E1,2.6E2,1.64E2,1.48E2,4.6E1,7.5E1,2.1E1,1.5E2,6.6E1,1.4E1,7E0,3E0,4E0,8E0,1.55E2,5E0,5.4E1,4E0,1.93E2,6.7E1,1.47E2,1.7E1,1.39E2,9E0,2.7E1,1.9E1,6.3E1,1.2E1,1.1E1,1E1,5.7E1,9.3E1,4.2E1,2.4E1,4E0,4E0,1.3E2,2.5E1,1.4E1,4E1,5E1,1.43E2,5.8E1,9E0,8.4E1,6.3E1,3E0,1.4E1,1.02E2,3.7E1,4E0,5E0,5E0,2.2E1,6E0,1.3E1,4.8E1,1.5E1,7E0,5E0,5.3E1,4E0,1.3E1,8E1,1.6E1,1.14E2,9E0,1.6E1,8E0,6E0,4E0,3.6E1,8E0,4.2E1,4.3E1,1E2,1.6E1,4.2E1,5E0,4E0,3.3E1,5.1E1,5.4E1,9E0,2.1E1,8.1E1,1.6E1,2.1E1,1.7E1,5E0,4E0,9E0,4.5E1,3E0,4E0,1.1E1,3E0,4E0,3.9E1,1.4E1,1E1,3E0,6.2E1,1.8E1,3E0,1.3E1,6.3E1,5.1E1,6E0,3E0,1.3E1,3E0,3.3E1,9E0,1.2E1,3.1E1,3.6E1,6.4E1,6E0,1E1,3.2E1,1E1,2.2E1,1.1E1,8E0,4.3E1,3.6E1,1.8E1,3E0,6E0,4E0,1.7E1,2.6E1,5.5E1,1.2E1,4E0,1.6E1,5E0,4E0,1.3E1,5E0,4E0,1E1,3.5E1,3E0,3.6E1,1.1E1,3E0,3E0,7E0,5E0,5.7E1,1E1,3E0,9E0,5.4E1,1.9E1,3.2E1,1.3E1,2E1,6E0,3E0,3E0,9E0,1.6E1,1.5E1,5E0,3.1E1,5.9E1,5E0,5E0,5E0,2.1E1,1.1E1,7E0,3E0,5E0,1.7E1,8E0,3E0,5E0,3E0,1.5E1,2.8E1,2.7E1,9E0,3E0,3E0,1.5E1,1.1E1,4.4E1,1.1E1,5E0,7E0,5E0,8E0,7E0,3E0,2.6E1,1E1,1.3E1,4.4E1],"tree_param":{"num_deleted":"0","num_feature":"118","num_nodes":"221","size_leaf_vector":"1"}},{"base_weights":[1.1647984E-2,-1.7741159E-1,5.564406E-1,-5.259737E-1,-8.84893E-3,-6.6397315E-1,6.073009E-1,-7.9142284E-1,-4.26453E-1,-1.5956089E-1,1.4691626E-1,-3.430691E-2,-1.4130101E-2,3.7617978E-1,7.7845454E-1,-1.0152091E0,-6.9835615E-1,-6.472035E-1,-3.250081E-1,-2.5038043E-1,1.0210741E-2,7.0882216E-2,2.982755E-1,1.2310266E-1,5.0871354E-1,8.487161E-1,1.3017732E-1,-2.6387824E-2,-5.7650708E-2,-7.4799263E-1,7.922807E-3,-3.0851744E-2,-1.5766835E-2,3.8201302E-1,-4.005986E-1,-2.3135562E-1,-5.2509315E-2,-1.990145E-2,3.470019E-1,1.0813908E-1,-1.5381849E-1,3.1884554E-1,-7.236805E-3,-1.6362369E-3,3.1723183E-1,5.8299446E-1,9.0360545E-2,1.392292E0,7.8053087E-1,3.9686283E-1,-1.1702419E-2,-3.6854677E-2,-2.4424464E-2,6.225741E-1,-2.0145709E-2,-6.2583464E-1,-3.223595E-1,-4.2124897E-1,-1.5590157E-1,-2.1124077E-1,3.4461757E-3,2.0194346E-2,8.720747E-3,1.3288282E-1,-1.6135374E-1,-2.0902885E-1,1.1272634E-2,2.207807E-1,4.692522E-1,1.3934556E-2,-4.813341E-2,2.3735022E-2,2.0260997E-1,6.7085123E-1,3.2102442E-1,-7.2770673E-3,2.051018E-1,4.1815404E-2,7.741582E-2,5.3277946E-1,9.299005E-1,2.7085595E-2,2.057245E-1,3.967767E-2,1.1351677E-2,-6.637973E-1,-8.109019E-3,-4.091541E-1,-1.3418365E-1,-3.096732E-1,-5.21765E-1,-1.15151994E-1,-4.347513E-1,3.2501104E-3,-2.6064128E-2,1.3590887E-1,-3.823419E-2,-4.1343573E-2,1.6569626E-1,-2.4127576E-1,5.497389E-3,-1.3085087E-1,-2.806753E-2,3.31919E-2,2.7196077E-1,1.3231084E-1,5.434615E-1,-1.9896822E-1,1.790932E-2,1.284887E-1,1.3680025E-2,7.087589E-1,1.356052E-3,1.6340615E-1,2.0143686E-2,1.2594359E-2,1.6970832E-3,3.6774418E-1,6.1657834E-1,1.0883054E0,7.684985E-1,2.5516509E-3,1.4114843E-2,-3.332186E-2,-4.1282845E-1,-3.4073505E-1,-5.7487184E-1,-1.9842093E-1,9.939012E-2,-2.1471581E-3,-3.382691E-1,-1.8367894E-2,-2.8628789E-2,-8.20707E-3,-2.1387067E-1,-1.0080623E-2,-2.5602365E-2,-3.6036125E-3,1.7375611E-1,-3.7411872E-1,-8.994085E-4,-1.3070972E-2,2.368121E-3,6.997031E-2,2.3564965E-1,-2.8541282E-1,-5.666387E-3,-6.927088E-2,-1.5678905E-2,-7.229229E-3,5.7658125E-3,3.1188092E-1,6.875547E-2,8.47859E-3,1.6520313E-3,9.532116E-3,5.8747363E-1,-4.3291254E-3,-1.3010472E-2,-6.267824E-3,5.51156E-2,1.5751618E-3,7.872184E-3,7.311344E-1,1.2437063E-2,4.071272E-3,1.0243765E-2,2.985784E-2,2.408012E-1,1.0905586E-2,6.449357E-1,2.2278806E-2,1.140926E0,3.9323002E-1,8.257715E-1,-9.651735E-3,-2.2856662E-2,-1.858672E-2,-7.5962343E-3,-1.6644489E-2,-2.9933272E-2,-1.3035677E-3,-1.1375538E-2,-2.3525798E-4,7.549996E-3,-1.1704179E-2,-1.8714836E-2,-4.161123E-3,3.0690236E-3,-1.3454749E-2,-3.1208452E-3,6.682571E-4,9.966037E-3,-3.0960714E-2,6.519874E-4,-8.150297E-3,1.795072E-3,1.0951364E-2,-2.0642E-3,6.147634E-3,-5.508262E-3,1.2450436E-2,-6.6326966E-4,-5.824912E-3,-1.6480492E-2,-5.5710482E-3,2.8442685E-3,1.1405805E-2,2.327829E-2,6.798805E-3,-3.036609E-3,1.8729147E-2,3.0577077E-2,-4.9071955E-3,4.6502077E-3,2.3966653E-2,3.6549497E-2,1.4893132E-2,2.422686E-3,3.133248E-2,1.1690268E-2,5.443983E-2,2.5823101E-2,2.3974326E-2,6.4400956E-3,2.8918276E-2,4.4830464E-2],"categories":[],"categories_nodes":[],"categories_segments":[],"categories_sizes":[],"default_left":[0,0,0,0,0,0,0,0,0,0,0,0,0,0,0,0,0,0,0,0,0,0,0,0,0,0,0,0,0,0,0,0,0,0,0,0,0,0,0,0,0,0,0,0,0,0,0,0,0,0,0,0,0,0,0,0,0,0,0,0,0,0,0,0,0,0,0,0,0,0,0,0,0,0,0,0,0,0,0,0,0,0,0,0,0,0,0,0,0,0,0,0,0,0,0,0,0,0,0,0,0,0,0,0,0,0,0,0,0,0,0,0,0,0,0,0,0,0,0,0,0,0,0,0,0,0,0,0,0,0,0,0,0,0,0,0,0,0,0,0,0,0,0,0,0,0,0,0,0,0,0,0,0,0,0,0,0,0,0,0,0,0,0,0,0,0,0,0,0,0,0,0,0,0,0,0,0,0,0,0,0,0,0,0,0,0,0,0,0,0,0,0,0,0,0,0,0,0,0,0,0,0,0,0,0,0,0,0,0,0,0,0,0,0,0,0,0,0,0,0,0,0,0,0,0,0,0],"id":5,"left_children":[1,3,5,7,9,11,13,15,17,19,21,-1,-1,23,25,27,29,31,33,35,37,39,41,43,45,47,49,-1,-1,51,-1,-1,-1,53,55,57,-1,59,61,63,65,67,-1,69,71,73,75,77,79,81,-1,-1,-1,83,-1,85,87,89,91,93,95,-1,-1,97,99,101,-1,103,105,-1,107,-1,109,111,113,-1,115,-1,-1,117,119,-1,121,-1,-1,123,-1,125,127,129,131,133,135,-1,-1,137,139,141,143,145,-1,147,-1,149,151,153,155,157,159,161,-1,163,-1,165,-1,-1,-1,167,169,171,173,-1,-1,-1,175,177,179,181,183,-1,185,-1,-1,187,189,-1,-1,-1,191,193,195,-1,197,199,201,203,-1,205,-1,-1,-1,207,209,-1,-1,-1,211,-1,-1,-1,213,-1,-1,215,-1,-1,-1,-1,217,-1,219,-1,221,223,225,-1,-1,-1,-1,-1,-1,-1,-1,-1,-1,-1,-1,-1,-1,-1,-1,-1,-1,-1,-1,-1,-1,-1,-1,-1,-1,-1,-1,-1,-1,-1,-1,-1,-1,-1,-1,-1,-1,-1,-1,-1,-1,-1,-1,-1,-1,-1,-1,-1,-1,-1,-1],"loss_changes":[1.251386E2,5.2991943E1,1.9831314E1,7.429291E0,1.4320128E1,1.3337564E-1,1.1613892E1,9.363556E-1,4.6267624E0,4.7823167E0,3.431394E0,0E0,0E0,4.297741E0,7.723938E0,1.4415855E0,2.6743832E0,1.6815948E-1,8.169645E0,3.1343746E0,1.1123316E0,1.6993341E0,9.849577E-1,1.1144301E0,2.5887527E0,4.658165E0,1.9386827E0,0E0,0E0,1.738205E-1,0E0,0E0,0E0,3.219676E0,2.1948833E0,2.7856426E0,0E0,4.5192719E-1,4.5198083E-2,1.1750498E0,6.870517E-1,1.3123598E0,0E0,4.2257455E-1,2.9942417E-1,1.4417801E0,4.2990702E-1,6.802368E-1,4.685486E0,2.7537274E-1,0E0,0E0,0E0,8.5179996E-1,0E0,4.654169E-1,1.6273613E0,4.6647167E-1,1.5862107E0,1.1286051E0,5.076158E-1,0E0,0E0,9.158485E-1,3.6444935E-1,7.281598E-1,0E0,5.6702137E-1,8.532486E-1,0E0,2.625635E-1,0E0,5.1543474E-2,1.2681961E0,2.8859854E-1,0E0,1.028035E-1,0E0,0E0,5.338955E-1,1.3623886E0,0E0,8.774778E-2,0E0,0E0,1.3851643E-1,0E0,5.977993E-1,5.29862E-1,2.0265388E-1,9.290409E-2,1.3390427E0,3.4161782E-1,0E0,0E0,1.9150355E-1,8.7747574E-1,2.7457333E-1,8.808234E-1,2.8026342E-2,0E0,2.7090234E-1,0E0,2.6163158E-1,3.598199E-1,3.276162E-2,3.2473278E-1,4.2958945E-2,1.15834735E-1,2.9547557E-2,0E0,2.9595184E-1,0E0,2.4211079E-2,0E0,0E0,0E0,5.8371496E-1,2.2621822E-1,7.606163E-1,6.639519E-1,0E0,0E0,0E0,2.9317737E-2,4.9225712E-1,6.0968876E-2,2.1054745E-1,5.4067366E-2,0E0,4.4403076E-2,0E0,0E0,3.8324225E-1,7.224684E-1,0E0,0E0,0E0,1.2258726E-1,8.101682E-1,4.5159012E-1,0E0,2.6348475E-1,7.04345E-1,6.447406E-1,4.5324564E-2,0E0,1.342288E-1,0E0,0E0,0E0,3.639238E-1,1.0407725E-1,0E0,0E0,0E0,8.006668E-2,0E0,0E0,0E0,1.2751582E-1,0E0,0E0,1.768856E-1,0E0,0E0,0E0,0E0,2.2714621E-1,0E0,2.2948837E-1,0E0,1.0013199E-1,1.8135273E-1,5.136528E-1,0E0,0E0,0E0,0E0,0E0,0E0,0E0,0E0,0E0,0E0,0E0,0E0,0E0,0E0,0E0,0E0,0E0,0E0,0E0,0E0,0E0,0E0,0E0,0E0,0E0,0E0,0E0,0E0,0E0,0E0,0E0,0E0,0E0,0E0,0E0,0E0,0E0,0E0,0E0,0E0,0E0,0E0,0E0,0E0,0E0,0E0,0E0,0E0,0E0,0E0,0E0,0E0],"parents":[2147483647,0,0,1,1,2,2,3,3,4,4,5,5,6,6,7,7,8,8,9,9,10,10,13,13,14,14,15,15,16,16,17,17,18,18,19,19,20,20,21,21,22,22,23,23,24,24,25,25,26,26,29,29,33,33,34,34,35,35,37,37,38,38,39,39,40,40,41,41,43,43,44,44,45,45,46,46,47,47,48,48,49,49,53,53,55,55,56,56,57,57,58,58,59,59,60,60,63,63,64,64,65,65,67,67,68,68,70,70,72,72,73,73,74,74,76,76,79,79,80,80,82,82,85,85,87,87,88,88,89,89,90,90,91,91,92,92,95,95,96,96,97,97,98,98,99,99,101,101,103,103,104,104,105,105,106,106,107,107,108,108,109,109,111,111,113,113,117,117,118,118,119,119,120,120,124,124,125,125,126,126,127,127,128,128,130,130,133,133,134,134,138,138,139,139,140,140,142,142,143,143,144,144,145,145,147,147,151,151,152,152,156,156,160,160,163,163,168,168,170,170,172,172,173,173,174,174],"right_children":[2,4,6,8,10,12,14,16,18,20,22,-1,-1,24,26,28,30,32,34,36,38,40,42,44,46,48,50,-1,-1,52,-1,-1,-1,54,56,58,-1,60,62,64,66,68,-1,70,72,74,76,78,80,82,-1,-1,-1,84,-1,86,88,90,92,94,96,-1,-1,98,100,102,-1,104,106,-1,108,-1,110,112,114,-1,116,-1,-1,118,120,-1,122,-1,-1,124,-1,126,128,130,132,134,136,-1,-1,138,140,142,144,146,-1,148,-1,150,152,154,156,158,160,162,-1,164,-1,166,-1,-1,-1,168,170,172,174,-1,-1,-1,176,178,180,182,184,-1,186,-1,-1,188,190,-1,-1,-1,192,194,196,-1,198,200,202,204,-1,206,-1,-1,-1,208,210,-1,-1,-1,212,-1,-1,-1,214,-1,-1,216,-1,-1,-1,-1,218,-1,220,-1,222,224,226,-1,-1,-1,-1,-1,-1,-1,-1,-1,-1,-1,-1,-1,-1,-1,-1,-1,-1,-1,-1,-1,-1,-1,-1,-1,-1,-1,-1,-1,-1,-1,-1,-1,-1,-1,-1,-1,-1,-1,-1,-1,-1,-1,-1,-1,-1,-1,-1,-1,-1,-1,-1],"split_conditions":[3.068E3,2.2116136E5,1E0,3.3817584E7,9.31E2,5.620512E8,1.0879832E3,2E0,2.71E2,1.5859042E6,2.0211798E6,-3.430691E-2,-1.4130101E-2,6.5062125E5,2.856934E7,1.5E1,7.31E2,3.328629E6,2.5E0,6.3344407E0,7.4711205E6,2E1,1.0358873E3,4.032683E6,2E0,1.059448E7,7.5491136E-1,-2.6387824E-2,-5.7650708E-2,3.047619E0,7.922807E-3,-3.0851744E-2,-1.5766835E-2,2.9036145E0,2.5660334E4,4.33E2,-5.2509315E-2,1.0203835E-5,3.52E2,2.453E4,6.23694E5,4.6589856E2,-7.236805E-3,3.9914E4,2.2272727E0,1.1807278E1,7.653112E2,4.626E3,1.7587205E6,5.2224144E5,-1.1702419E-2,-3.6854677E-2,-2.4424464E-2,2.4595E5,-2.0145709E-2,1.4178663E0,9.48E2,3.2E1,4.72632E1,1.1015E4,7.67525E2,2.0194346E-2,8.720747E-3,3.7760816E5,3.4779343E1,4.9E1,1.1272634E-2,1.332E3,1.9501E4,1.3934556E-2,1.5204346E8,2.3735022E-2,5.7791035E4,3.2645503E5,1.6566709E6,-7.2770673E-3,1.1758464E1,4.1815404E-2,7.741582E-2,3.4052496E8,1.6954315E0,2.7085595E-2,1.8958656E7,3.967767E-2,1.1351677E-2,5.7E1,-8.109019E-3,2.6E1,5.4792953E4,3.8248322E2,3.5675676E0,1E0,5.261E3,3.2501104E-3,-2.6064128E-2,2.1539131E2,1.6262903E2,1.5933E4,1.380863E6,4.888889E0,5.497389E-3,2.453E4,-2.806753E-2,2.524828E2,3.624E3,2.0319266E-7,5.1604336E7,1.3342042E0,8.147158E4,8.4797815E2,1.3680025E-2,2.0619047E1,1.356052E-3,4.320314E8,2.0143686E-2,1.2594359E-2,1.6970832E-3,3.5474228E1,5.338167E5,1.4523518E8,1E0,2.5516509E-3,1.4114843E-2,-3.332186E-2,4.427818E7,3.422351E6,3.8996825E5,2.2941177E0,1.3407223E5,-2.1471581E-3,3.875E0,-1.8367894E-2,-2.8628789E-2,3.056087E2,2.118835E6,-1.0080623E-2,-2.5602365E-2,-3.6036125E-3,1.1311654E2,1.1114679E1,4.75E2,-1.3070972E-2,8.81059E5,6.93729E5,1E0,1.3402174E1,-5.666387E-3,1.4787234E1,-1.5678905E-2,-7.229229E-3,5.7658125E-3,2.831224E10,7.318515E6,8.47859E-3,1.6520313E-3,9.532116E-3,1.01E2,-4.3291254E-3,-1.3010472E-2,-6.267824E-3,5.81E2,1.5751618E-3,7.872184E-3,4.7185095E2,1.2437063E-2,4.071272E-3,1.0243765E-2,2.985784E-2,7.459E3,1.0905586E-2,2.1609572E7,2.2278806E-2,4.9036694E0,1.979E3,7.459E3,-9.651735E-3,-2.2856662E-2,-1.858672E-2,-7.5962343E-3,-1.6644489E-2,-2.9933272E-2,-1.3035677E-3,-1.1375538E-2,-2.3525798E-4,7.549996E-3,-1.1704179E-2,-1.8714836E-2,-4.161123E-3,3.0690236E-3,-1.3454749E-2,-3.1208452E-3,6.682571E-4,9.966037E-3,-3.0960714E-2,6.519874E-4,-8.150297E-3,1.795072E-3,1.0951364E-2,-2.0642E-3,6.147634E-3,-5.508262E-3,1.2450436E-2,-6.6326966E-4,-5.824912E-3,-1.6480492E-2,-5.5710482E-3,2.8442685E-3,1.1405805E-2,2.327829E-2,6.798805E-3,-3.036609E-3,1.8729147E-2,3.0577077E-2,-4.9071955E-3,4.6502077E-3,2.3966653E-2,3.6549497E-2,1.4893132E-2,2.422686E-3,3.133248E-2,1.1690268E-2,5.443983E-2,2.5823101E-2,2.3974326E-2,6.4400956E-3,2.8918276E-2,4.4830464E-2],"split_indices":[2,40,16,7,2,7,64,26,2,40,40,0,0,40,57,3,2,9,70,65,40,3,4,57,6,12,50,0,0,65,0,0,0,65,40,2,0,50,0,41,1,64,0,9,65,36,4,2,40,40,0,0,0,9,0,50,2,10,36,9,45,0,0,40,68,3,0,41,9,0,7,0,45,45,40,0,36,0,0,7,66,0,1,0,0,6,0,8,45,45,66,23,41,0,0,45,4,1,9,66,0,41,0,4,10,49,7,50,40,4,0,68,0,5,0,0,0,70,40,12,24,0,0,0,43,9,57,65,45,0,66,0,0,4,9,0,0,0,4,36,41,0,9,9,88,70,0,68,0,0,0,43,57,0,0,0,0,0,0,0,41,0,0,4,0,0,0,0,2,0,57,0,50,41,2,0,0,0,0,0,0,0,0,0,0,0,0,0,0,0,0,0,0,0,0,0,0,0,0,0,0,0,0,0,0,0,0,0,0,0,0,0,0,0,0,0,0,0,0,0,0,0,0,0,0,0,0],"split_type":[0,0,0,0,0,0,0,0,0,0,0,0,0,0,0,0,0,0,0,0,0,0,0,0,0,0,0,0,0,0,0,0,0,0,0,0,0,0,0,0,0,0,0,0,0,0,0,0,0,0,0,0,0,0,0,0,0,0,0,0,0,0,0,0,0,0,0,0,0,0,0,0,0,0,0,0,0,0,0,0,0,0,0,0,0,0,0,0,0,0,0,0,0,0,0,0,0,0,0,0,0,0,0,0,0,0,0,0,0,0,0,0,0,0,0,0,0,0,0,0,0,0,0,0,0,0,0,0,0,0,0,0,0,0,0,0,0,0,0,0,0,0,0,0,0,0,0,0,0,0,0,0,0,0,0,0,0,0,0,0,0,0,0,0,0,0,0,0,0,0,0,0,0,0,0,0,0,0,0,0,0,0,0,0,0,0,0,0,0,0,0,0,0,0,0,0,0,0,0,0,0,0,0,0,0,0,0,0,0,0,0,0,0,0,0,0,0,0,0,0,0,0,0,0,0,0,0],"sum_hessian":[1.213E3,9.01E2,3.12E2,2.93E2,6.08E2,1.2E1,3E2,7.8E1,2.15E2,3.09E2,2.99E2,9E0,3E0,1.29E2,1.71E2,2E1,5.8E1,6.6E1,1.49E2,2.01E2,1.08E2,2E2,9.9E1,4.5E1,8.4E1,1.54E2,1.7E1,8E0,1.2E1,5.5E1,3E0,6.1E1,5E0,1.4E1,1.35E2,1.98E2,3E0,1E2,8E0,1.72E2,2.8E1,9.5E1,4E0,2.8E1,1.7E1,7.1E1,1.3E1,1.5E1,1.39E2,1E1,7E0,4.3E1,1.2E1,1.1E1,3E0,3.3E1,1.02E2,5.5E1,1.43E2,1E1,9E1,4E0,4E0,1.58E2,1.4E1,2.5E1,3E0,5.9E1,3.6E1,3E0,2.5E1,5E0,1.2E1,5.2E1,1.9E1,4E0,9E0,7E0,8E0,5.4E1,8.5E1,4E0,6E0,6E0,5E0,3E1,3E0,6.9E1,3.3E1,2.8E1,2.7E1,1.26E2,1.7E1,6E0,4E0,2.1E1,6.9E1,2.5E1,1.33E2,1.1E1,3E0,2.2E1,3E0,1.3E1,4.6E1,7E0,2.9E1,7E0,1.8E1,8E0,4E0,4.9E1,3E0,9E0,1E1,6E0,3E0,2E1,3.4E1,4E1,4.5E1,3E0,3E0,2.3E1,7E0,5.1E1,1.8E1,2.6E1,7E0,3E0,2.5E1,1.4E1,1.3E1,6.1E1,6.5E1,7E0,1E1,3E0,1.8E1,6E0,6.3E1,3E0,2.2E1,5.7E1,7.6E1,7E0,4E0,1.8E1,4E0,4E0,9E0,3.8E1,8E0,4E0,3E0,4E0,2.5E1,4E0,3E0,3E0,1.5E1,3E0,5E0,4.6E1,3E0,5E0,4E0,5E0,1.5E1,3E0,3.1E1,4E0,3.6E1,7E0,3.8E1,3E0,4E0,3.7E1,1.4E1,6E0,1.2E1,6E0,2E1,3E0,4E0,1.3E1,1.2E1,2.9E1,3.2E1,4.2E1,2.3E1,4E0,1.4E1,3E0,3E0,1.1E1,5.2E1,3E0,1.9E1,4.3E1,1.4E1,6.7E1,9E0,3E0,4E0,1.3E1,5E0,3E1,8E0,5E0,3E0,9E0,1.6E1,3E0,1.2E1,1.2E1,3.4E1,1E1,5E0,2.8E1,3E0,3.3E1,3E0,4E0,3E0,1.8E1,2E1],"tree_param":{"num_deleted":"0","num_feature":"118","num_nodes":"227","size_leaf_vector":"1"}},{"base_weights":[8.210048E-3,-1.8572891E-1,5.4792E-1,-5.510686E-1,-1.8376663E-2,-7.1561915E-1,5.9980917E-1,-7.6903313E-1,-4.2037877E-1,-1.655609E-1,1.3229153E-1,-4.0765304E-2,-1.2756624E-2,3.3255017E-1,7.752062E-1,-7.853408E-1,-7.827472E-3,-5.5779856E-1,-1.8289424E-1,-4.2665762E-1,-1.045682E-1,2.6886833E-1,2.109296E-2,1.6847052E-1,5.390877E-1,8.516629E-1,2.0298047E-1,-6.805896E-1,-8.804779E-1,-5.0425637E-1,-9.2263556E-1,2.9153896E-2,-2.746559E-1,-3.5644385E-1,-5.520204E-1,-8.8055596E-2,-6.675709E-1,2.1773764E-1,4.9627525E-1,4.570387E-2,-4.7376186E-1,3.794041E-1,6.388836E-2,6.328064E-1,1.8241008E-4,7.84718E-1,1.4554086E0,4.3193159E-1,-1.3784915E-1,-3.2480832E-2,-1.5855646E-2,-9.0454495E-1,-1.775761E-2,-5.745552E-1,-3.5296285E-1,-2.6633883E-2,-1.1381396E0,-3.3378676E-1,5.4377086E-2,-3.784427E-1,-2.9555405E-3,-1.0865294E-2,-2.7630197E-2,-1.418347E-1,5.994888E-2,-1.6134363E-2,-3.7947994E-2,1.18959494E-1,3.378434E-1,2.8116215E-2,3.345916E-1,1.6597254E-2,2.688105E-2,-6.746917E-3,-2.9693833E-2,-3.7658233E-3,4.5258406E-1,1.6690229E-1,-2.2415152E-2,3.0540675E-2,1.589913E-2,-6.048811E-3,9.092217E-3,6.505928E-1,9.760154E-1,7.439691E-2,2.9469214E-2,2.5518483E-1,2.4655629E-2,1.7582992E-3,-1.0121202E-2,-9.630776E-1,-6.3075227E-1,-5.940283E-1,-5.750377E-3,-1.8588175E-3,-4.0551102E-1,-6.400287E-2,-2.8201984E-2,-4.0871692E-1,-1.0656302E-1,-1.3670254E-3,8.685561E-3,-9.169879E-3,-4.0043414E-1,-1.0820819E-1,-3.459908E-1,1.2871571E-2,1.8477328E-1,1.4817856E-1,-1.615951E-2,3.8569567E-1,-3.581083E-3,7.2870273E-3,2.0307275E-2,4.9887344E-2,-1.2745485E-1,1.2241479E-2,2.5738405E-2,2.2314677E-2,9.177614E-2,3.1742726E-2,-1.2363071E-2,4.8316833E-2,5.706684E-1,1.0058064E0,1.4579536E-2,1.777118E-2,2.9022768E-3,-3.7216615E-2,-5.2417833E-2,-1.2427874E-2,-3.3935707E-2,-1.0750655E-2,-6.082478E-1,-8.040191E-3,-2.0673428E-2,-4.4044587E-1,-1.3383068E-3,-9.4314746E-5,-1.8470262E-1,-1.9464133E-2,-7.1850806E-3,-1.968402E-1,-2.3711393E-2,-4.2080763E-1,-8.873763E-3,-5.500474E-2,1.7039151E-1,1.1901391E-1,1.7831227E-2,1.8313837E-1,-9.119026E-3,4.0743452E-1,6.0319537E-3,-7.753123E-2,8.157346E-2,2.5878869E-2,-1.3118493E-2,4.083358E-3,1.1180963E-2,-6.642724E-3,6.520242E-2,4.6538207E-1,7.201042E-1,1.0318736E0,1.893243E-2,-2.8677642E-2,-1.37125915E-2,-1.1030115E-2,-2.3205442E-2,-2.7992483E-3,-1.1441456E-2,-7.6753637E-3,-2.798362E-2,1.2685262E-2,-1.9784246E-3,-2.3146858E-2,-1.1460297E-2,-2.4077903E-4,-1.633171E-2,3.1904646E-3,9.306184E-3,9.858349E-3,3.0319858E-3,1.2667581E-2,5.517935E-3,1.0214608E-2,2.097433E-2,-5.608767E-3,9.425546E-3,8.059492E-3,1.3972257E-3,-2.6096418E-3,8.513849E-3,-3.2075709E-3,6.2651136E-3,6.6965776E-3,5.2279816E-4,2.5368815E-2,1.3077547E-2,3.552571E-2,1.0222661E-2,4.009812E-2,5.6031242E-2],"categories":[],"categories_nodes":[],"categories_segments":[],"categories_sizes":[],"default_left":[0,0,0,0,0,0,0,0,0,0,0,0,0,0,0,0,0,0,0,0,0,0,0,0,0,0,0,0,0,0,0,0,0,0,0,0,0,0,0,0,0,0,0,0,0,0,0,0,0,0,0,0,0,0,0,0,0,0,0,0,0,0,0,0,0,0,0,0,0,0,0,0,0,0,0,0,0,0,0,0,0,0,0,0,0,0,0,0,0,0,0,0,0,0,0,0,0,0,0,0,0,0,0,0,0,0,0,0,0,0,0,0,0,0,0,0,0,0,0,0,0,0,0,0,0,0,0,0,0,0,0,0,0,0,0,0,0,0,0,0,0,0,0,0,0,0,0,0,0,0,0,0,0,0,0,0,0,0,0,0,0,0,0,0,0,0,0,0,0,0,0,0,0,0,0,0,0,0,0,0,0,0,0,0,0,0,0,0,0,0,0,0,0,0,0,0,0,0,0,0,0,0,0,0,0],"id":6,"left_children":[1,3,5,7,9,11,13,15,17,19,21,-1,-1,23,25,27,-1,29,31,33,35,37,39,41,43,45,47,49,51,53,55,-1,57,59,61,63,65,67,69,71,73,75,77,79,81,83,85,87,89,-1,-1,91,-1,93,95,-1,97,99,101,103,-1,-1,-1,105,107,-1,-1,109,111,-1,113,-1,115,-1,-1,-1,117,119,121,-1,-1,-1,-1,123,125,-1,-1,127,-1,-1,-1,129,131,133,-1,-1,135,-1,-1,137,139,-1,-1,-1,141,143,145,147,149,151,-1,153,-1,-1,-1,155,157,-1,-1,-1,159,161,-1,-1,163,165,-1,-1,-1,-1,-1,-1,-1,-1,167,-1,-1,169,-1,-1,171,-1,-1,173,175,177,-1,179,181,183,-1,185,-1,187,-1,189,191,193,-1,195,-1,-1,197,199,201,203,-1,-1,-1,-1,-1,-1,-1,-1,-1,-1,-1,-1,-1,-1,-1,-1,-1,-1,-1,-1,-1,-1,-1,-1,-1,-1,-1,-1,-1,-1,-1,-1,-1,-1,-1,-1,-1,-1,-1],"loss_changes":[1.25916046E2,5.4099144E1,2.1278587E1,7.5957565E0,1.35049E1,7.010703E-1,1.4086395E1,8.7493896E-1,5.641756E0,4.860283E0,4.565659E0,0E0,0E0,4.0774775E0,7.87722E0,3.9733124E-1,0E0,1.7030525E0,5.094633E0,3.1376266E-1,2.2746727E0,1.4616499E0,2.0555167E0,1.5199527E0,2.7271824E0,5.4055862E0,1.8543077E0,1.2955666E-1,2.3900223E-1,8.5014534E-1,3.1820297E-1,0E0,1.1855106E0,2.3331356E-1,1.3018322E-1,1.9585923E0,5.4119587E-2,1.2885585E0,2.277894E-1,9.324623E-1,3.4649253E-1,8.123236E-1,4.304834E-1,1.3164139E-1,2.567329E-1,3.1623611E0,8.3976364E-1,1.1317372E-1,1.5034339E-1,0E0,0E0,1.2972641E-1,0E0,5.0499916E-1,5.4259586E-1,0E0,6.268501E-2,8.247671E-1,1.1733939E-1,6.743908E-2,0E0,0E0,0E0,1.1982713E0,3.8546386E-1,0E0,0E0,9.1326666E-1,1.0232487E0,0E0,1.5222657E-1,0E0,5.4606426E-1,0E0,0E0,0E0,2.4207544E-1,4.7659022E-1,3.662098E-1,0E0,0E0,0E0,0E0,2.232132E0,8.451958E-1,0E0,0E0,1.4934355E-1,0E0,0E0,0E0,5.9223175E-2,2.1090698E-1,1.8285942E-1,0E0,0E0,1.9850445E-1,0E0,0E0,4.4520187E-1,1.13970056E-1,0E0,0E0,0E0,9.18169E-2,1.1636353E0,2.0795465E-1,5.332741E-1,1.9137084E-1,7.600815E-1,0E0,1.9675398E-1,0E0,0E0,0E0,5.432986E-1,4.8549432E-1,0E0,0E0,0E0,2.485169E-1,1.4421147E-1,0E0,0E0,8.7635994E-1,4.4924164E-1,0E0,0E0,0E0,0E0,0E0,0E0,0E0,0E0,2.668953E-2,0E0,0E0,3.1096077E-1,0E0,0E0,4.7121048E-2,0E0,0E0,8.6149645E-1,4.7052264E-1,9.5748425E-2,0E0,5.172355E-1,3.2773882E-2,6.14658E-2,0E0,2.8565657E-1,0E0,2.4953747E-1,0E0,3.5581326E-1,5.035147E-1,1.5334703E-1,0E0,1.3456751E-1,0E0,0E0,8.4030785E-2,5.704689E-1,5.389776E-1,5.190315E-1,0E0,0E0,0E0,0E0,0E0,0E0,0E0,0E0,0E0,0E0,0E0,0E0,0E0,0E0,0E0,0E0,0E0,0E0,0E0,0E0,0E0,0E0,0E0,0E0,0E0,0E0,0E0,0E0,0E0,0E0,0E0,0E0,0E0,0E0,0E0,0E0,0E0,0E0,0E0],"parents":[2147483647,0,0,1,1,2,2,3,3,4,4,5,5,6,6,7,7,8,8,9,9,10,10,13,13,14,14,15,15,17,17,18,18,19,19,20,20,21,21,22,22,23,23,24,24,25,25,26,26,27,27,28,28,29,29,30,30,32,32,33,33,34,34,35,35,36,36,37,37,38,38,39,39,40,40,41,41,42,42,43,43,44,44,45,45,46,46,47,47,48,48,51,51,53,53,54,54,56,56,57,57,58,58,59,59,63,63,64,64,67,67,68,68,70,70,72,72,76,76,77,77,78,78,83,83,84,84,87,87,91,91,92,92,93,93,96,96,99,99,100,100,104,104,105,105,106,106,107,107,108,108,109,109,111,111,115,115,116,116,120,120,121,121,124,124,125,125,134,134,137,137,140,140,143,143,144,144,145,145,147,147,148,148,149,149,151,151,153,153,155,155,156,156,157,157,159,159,162,162,163,163,164,164,165,165],"right_children":[2,4,6,8,10,12,14,16,18,20,22,-1,-1,24,26,28,-1,30,32,34,36,38,40,42,44,46,48,50,52,54,56,-1,58,60,62,64,66,68,70,72,74,76,78,80,82,84,86,88,90,-1,-1,92,-1,94,96,-1,98,100,102,104,-1,-1,-1,106,108,-1,-1,110,112,-1,114,-1,116,-1,-1,-1,118,120,122,-1,-1,-1,-1,124,126,-1,-1,128,-1,-1,-1,130,132,134,-1,-1,136,-1,-1,138,140,-1,-1,-1,142,144,146,148,150,152,-1,154,-1,-1,-1,156,158,-1,-1,-1,160,162,-1,-1,164,166,-1,-1,-1,-1,-1,-1,-1,-1,168,-1,-1,170,-1,-1,172,-1,-1,174,176,178,-1,180,182,184,-1,186,-1,188,-1,190,192,194,-1,196,-1,-1,198,200,202,204,-1,-1,-1,-1,-1,-1,-1,-1,-1,-1,-1,-1,-1,-1,-1,-1,-1,-1,-1,-1,-1,-1,-1,-1,-1,-1,-1,-1,-1,-1,-1,-1,-1,-1,-1,-1,-1,-1,-1],"split_conditions":[2.908E3,1.8988005E5,1E0,1.05E2,9.31E2,1.419902E3,9.6215985E2,1.3745962E0,6.83E2,3.89E2,3.2857144E0,-4.0765304E-2,-1.2756624E-2,1.8062708E6,1.9513452E2,8.75477E5,-7.827472E-3,7.382199E0,2.74614E5,1E0,4.6E1,5.1167645E6,1.2784314E1,3.1463416E0,1E0,6.5026445E3,3.85374E8,9.932432E0,1.75E2,1.318849E6,3.89E2,2.9153896E-2,5.7791035E4,1.1362371E6,2.88E0,2.331083E6,5.6E1,4.3764517E2,1.02072E5,1.8461539E0,3.4E1,6.009E4,5.5933E5,2.6506329E1,1.4598765E0,2.8971518E6,4.900919E8,4.435876E2,6.619098E8,-3.2480832E-2,-1.5855646E-2,8.7151864E7,-1.775761E-2,3.7066666E2,1.8461539E0,-2.6633883E-2,6.8E1,9.751103E6,1.7E1,1.9428572E1,-2.9555405E-3,-1.0865294E-2,-2.7630197E-2,4.159626E1,2.9254214E2,-1.6134363E-2,-3.7947994E-2,2.511E3,3.1075312E10,2.8116215E-2,3.7788504E7,1.6597254E-2,1E0,-6.746917E-3,-2.9693833E-2,-3.7658233E-3,4.797342E2,2.8E1,2E1,3.0540675E-2,1.589913E-2,-6.048811E-3,9.092217E-3,3.3E1,1E0,7.439691E-2,2.9469214E-2,2.4344263E0,2.4655629E-2,1.7582992E-3,-1.0121202E-2,1.3E2,3.8795E4,1.0204082E0,-5.750377E-3,-1.8588175E-3,2.2E1,-6.400287E-2,-2.8201984E-2,5.599375E2,3.425E1,-1.3670254E-3,8.685561E-3,-9.169879E-3,1.795688E2,2.6676828E2,3.478493E2,1.1437796E1,5.6530495E6,1.9E1,-1.615951E-2,2E0,-3.581083E-3,7.2870273E-3,2.0307275E-2,3.927456E7,6.763312E7,1.2241479E-2,2.5738405E-2,2.2314677E-2,4.320314E8,3.53274E2,-1.2363071E-2,4.8316833E-2,1.798658E3,4.9036694E0,1.4579536E-2,1.777118E-2,2.9022768E-3,-3.7216615E-2,-5.2417833E-2,-1.2427874E-2,-3.3935707E-2,-1.0750655E-2,1.9548485E2,-8.040191E-3,-2.0673428E-2,1E1,-1.3383068E-3,-9.4314746E-5,2.4E0,-1.9464133E-2,-7.1850806E-3,2.4240502E8,2.3154839E2,1.1643481E6,-8.873763E-3,6.2521395E6,4.1973075E6,8.243311E0,1.7831227E-2,8E0,-9.119026E-3,5.1604336E7,6.0319537E-3,1.72797E5,8E0,1.57922E5,-1.3118493E-2,4.8709216E5,1.1180963E-2,-6.642724E-3,1.5736016E6,9E1,2.2092846E7,6.619098E8,1.893243E-2,-2.8677642E-2,-1.37125915E-2,-1.1030115E-2,-2.3205442E-2,-2.7992483E-3,-1.1441456E-2,-7.6753637E-3,-2.798362E-2,1.2685262E-2,-1.9784246E-3,-2.3146858E-2,-1.1460297E-2,-2.4077903E-4,-1.633171E-2,3.1904646E-3,9.306184E-3,9.858349E-3,3.0319858E-3,1.2667581E-2,5.517935E-3,1.0214608E-2,2.097433E-2,-5.608767E-3,9.425546E-3,8.059492E-3,1.3972257E-3,-2.6096418E-3,8.513849E-3,-3.2075709E-3,6.2651136E-3,6.6965776E-3,5.2279816E-4,2.5368815E-2,1.3077547E-2,3.552571E-2,1.0222661E-2,4.009812E-2,5.6031242E-2],"split_indices":[2,40,16,41,2,64,64,50,2,2,66,0,0,40,70,43,0,66,5,23,3,40,65,66,6,4,44,66,6,9,2,0,45,40,66,40,3,64,12,65,3,1,9,68,66,40,7,68,7,0,0,7,0,4,65,0,0,9,3,64,0,0,0,36,67,0,0,2,43,0,7,0,88,0,0,0,4,8,3,0,0,0,0,0,6,0,0,66,0,0,0,2,1,65,0,0,10,0,0,64,70,0,0,0,64,4,64,36,40,3,0,6,0,0,0,7,7,0,0,0,5,4,0,0,64,50,0,0,0,0,0,0,0,0,64,0,0,8,0,0,65,0,0,5,64,40,0,40,40,36,0,3,0,7,0,1,8,1,0,40,0,0,59,8,57,7,0,0,0,0,0,0,0,0,0,0,0,0,0,0,0,0,0,0,0,0,0,0,0,0,0,0,0,0,0,0,0,0,0,0,0,0,0,0,0],"split_type":[0,0,0,0,0,0,0,0,0,0,0,0,0,0,0,0,0,0,0,0,0,0,0,0,0,0,0,0,0,0,0,0,0,0,0,0,0,0,0,0,0,0,0,0,0,0,0,0,0,0,0,0,0,0,0,0,0,0,0,0,0,0,0,0,0,0,0,0,0,0,0,0,0,0,0,0,0,0,0,0,0,0,0,0,0,0,0,0,0,0,0,0,0,0,0,0,0,0,0,0,0,0,0,0,0,0,0,0,0,0,0,0,0,0,0,0,0,0,0,0,0,0,0,0,0,0,0,0,0,0,0,0,0,0,0,0,0,0,0,0,0,0,0,0,0,0,0,0,0,0,0,0,0,0,0,0,0,0,0,0,0,0,0,0,0,0,0,0,0,0,0,0,0,0,0,0,0,0,0,0,0,0,0,0,0,0,0,0,0,0,0,0,0,0,0,0,0,0,0,0,0,0,0,0,0],"sum_hessian":[1.201E3,8.84E2,3.17E2,2.77E2,6.07E2,1.2E1,3.05E2,1.02E2,1.75E2,3.07E2,3E2,8E0,4E0,1.22E2,1.83E2,9.9E1,3E0,1.1E2,6.5E1,5.7E1,2.5E2,1.34E2,1.66E2,6.9E1,5.3E1,1.61E2,2.2E1,5.1E1,4.8E1,9.8E1,1.2E1,6E0,5.9E1,3.9E1,1.8E1,2.44E2,6E0,1.11E2,2.3E1,1.59E2,7E0,2.2E1,4.7E1,4.5E1,8E0,1.47E2,1.4E1,1.3E1,9E0,4.7E1,4E0,4.5E1,3E0,6.5E1,3.3E1,6E0,6E0,5E1,9E0,3.6E1,3E0,3E0,1.5E1,1.79E2,6.5E1,3E0,3E0,6.2E1,4.9E1,1.2E1,1.1E1,8E0,1.51E2,3E0,4E0,3E0,1.9E1,2.1E1,2.6E1,4E1,5E0,5E0,3E0,8.9E1,5.8E1,1.1E1,3E0,6E0,7E0,3E0,6E0,3.5E1,1E1,6.2E1,3E0,5E0,2.8E1,3E0,3E0,3.7E1,1.3E1,6E0,3E0,5E0,3.1E1,1.55E2,2.4E1,4.8E1,1.7E1,5.9E1,3E0,4.4E1,5E0,5E0,6E0,1.32E2,1.9E1,8E0,1.1E1,3E0,1.8E1,2.2E1,4E0,1.3E1,7.6E1,5.5E1,3E0,3E0,3E0,2.1E1,1.4E1,3E0,7E0,3E0,5.9E1,5E0,2.3E1,3.4E1,3E0,6E0,7E0,2.8E1,3E0,7.5E1,8E1,1.5E1,9E0,3.4E1,1.4E1,1.4E1,3E0,5.4E1,5E0,4E1,4E0,2.6E1,1.06E2,1E1,9E0,1.2E1,6E0,3E0,1.9E1,4.7E1,2.9E1,5.2E1,3E0,5.6E1,3E0,9E0,2.5E1,3E0,4E0,7.1E1,4E0,4E0,7.6E1,9E0,6E0,3E1,4E0,4E0,1E1,4E0,1E1,2.1E1,3.3E1,9E0,3.1E1,2.3E1,3E0,3.7E1,6.9E1,7E0,3E0,8E0,4E0,7E0,1.2E1,3.1E1,1.6E1,2.6E1,3E0,3E1,2.2E1],"tree_param":{"num_deleted":"0","num_feature":"118","num_nodes":"205","size_leaf_vector":"1"}},{"base_weights":[6.6276337E-3,-1.776596E-1,4.8432866E-1,-5.3125924E-1,-1.962317E-2,5.628415E-1,-5.5978966E-1,2.299461E-1,-5.615372E-1,-1.5788442E-1,1.2622924E-1,2.9117E-1,7.395404E-1,-6.712384E-1,-9.428282E-5,3.275956E-2,-1.441196E-1,-6.342944E-1,-3.2994443E-1,-2.518039E-1,4.4830907E-2,6.984892E-2,3.699574E-1,1.2674044E-1,5.195665E-1,1.1527388E0,6.3814634E-1,-3.7598632E-2,-4.087354E-1,-1.4899618E-2,3.2239612E-3,-5.9255147E-1,-8.736276E-1,-9.0259545E-2,-3.95251E-1,-4.1269508E-1,-1.6611205E-1,-2.2422489E-2,6.641332E-2,-8.475031E-2,1.2300704E-1,4.7223456E-3,4.4236144E-1,3.1956118E-1,3.9017037E-2,5.801509E-1,1.1383348E-1,9.4745535E-1,7.3686786E-2,4.7619927E-1,8.7724274E-1,-8.824841E-3,-2.2499472E-2,-3.4245424E-2,-5.195512E-1,-9.18541E-1,-1.7857261E-2,-1.0435047E-2,-3.7687585E-2,-4.4208986E-1,-1.3275298E-1,-3.4108728E-1,-5.095798E-1,-8.757348E-2,-3.354786E-1,-2.4868641E-2,1.2407944E-1,-1.5888594E-1,-3.761053E-4,1.5541472E-1,-1.1533024E-1,5.173969E-1,1.0140542E-1,7.794053E-2,2.3120271E-2,-5.2685294E-2,1.7689596E-1,4.6969816E-1,3.2161586E-2,-6.593189E-4,8.959059E-3,1.6207721E-2,4.6642385E-2,5.3228563E-1,1.17685355E-1,9.2120826E-1,9.458807E-4,-4.6598963E-2,-5.446964E-1,-2.6473671E-2,-4.7573563E-2,-4.00268E-3,1.1804115E-3,-2.4062034E-2,-3.4784454E-1,-1.08179515E-2,2.3993212E-3,-3.8560635E-1,-5.5629006E-3,-1.21559845E-2,-2.4933483E-2,-2.6770096E-2,-1.5724029E-1,-1.8705614E-1,-5.0423276E-1,-1.5881135E-1,5.988174E-2,1.7743331E-1,2.416934E-3,-3.2111144E-1,-6.3177206E-2,7.3892094E-2,-1.1793608E-1,6.37004E-2,2.240022E-1,-1.97558E-1,8.909466E-2,2.8569043E-1,5.754696E-1,7.4950038E-3,9.5494156E-4,-6.217334E-3,8.069862E-3,2.2795953E-2,-1.1486103E-2,-6.8138866E-4,2.2284763E-1,2.6940357E-2,1.447527E-2,4.3883976E-3,5.598206E-1,1.50987115E-2,-1.3737412E-1,2.7348746E-2,9.698448E-1,8.405813E-3,-1.2180965E-2,-5.1651955E-1,-4.808701E-2,-6.6431365E-3,-1.7246963E-2,-4.1874057E-1,-9.867566E-3,-8.547275E-2,1.4286391E-1,-3.2640483E-2,-2.015602E-1,-3.012515E-1,-3.8240205E-2,-2.6507925E-2,-1.3677604E-2,-1.4497415E-3,-8.706672E-3,8.67049E-2,-1.6220588E-3,1.4299162E-1,1.6411575E-2,4.9222596E-2,-8.583279E-3,-9.732276E-3,-2.0105267E-2,3.5046615E-2,-2.3944971E-1,8.310428E-3,-1.9244932E-2,-1.8613848E-1,3.0092339E-3,-6.3894376E-2,1.5780398E-1,2.4229345E-1,-6.2685004E-3,-7.415164E-2,-1.4429477E-2,-2.5712368E-3,9.789121E-3,1.860081E-2,7.437883E-3,1.1591152E-2,2.803872E-2,-3.7284248E-2,1.1063666E-1,1.4996148E-2,1.19692E-1,5.856176E-1,3.5358914E-3,-1.2100592E-2,9.714119E-4,1.0940125E0,3.619762E-2,-2.2023596E-2,-3.586845E-2,-2.0286337E-2,-8.45454E-3,-6.3826256E-3,1.0041081E-3,8.45982E-3,1.5986447E-3,-5.1956726E-3,2.3894499E-3,-1.4087084E-2,-4.0259E-3,-1.7524688E-2,-3.9994037E-3,3.2929832E-3,-4.713525E-3,4.7306507E-3,1.433047E-4,9.27297E-3,2.7232927E-3,-7.812017E-4,5.4362263E-3,-8.110634E-3,5.8990577E-3,-1.3671621E-2,-5.0804145E-3,-6.1673904E-3,4.5340452E-3,-3.4957516E-3,-1.0595007E-2,5.6061696E-4,-2.0662582E-2,2.081187E-3,1.4250798E-2,8.544941E-3,1.4865486E-2,-6.4322986E-3,-8.609117E-4,2.029873E-5,-5.222714E-3,6.9562956E-3,6.3088356E-4,1.2707907E-3,7.1894964E-3,2.0621348E-2,2.9925162E-2,5.4333102E-2,2.3554476E-2],"categories":[],"categories_nodes":[],"categories_segments":[],"categories_sizes":[],"default_left":[0,0,0,0,0,0,0,0,0,0,0,0,0,0,0,0,0,0,0,0,0,0,0,0,0,0,0,0,0,0,0,0,0,0,0,0,0,0,0,0,0,0,0,0,0,0,0,0,0,0,0,0,0,0,0,0,0,0,0,0,0,0,0,0,0,0,0,0,0,0,0,0,0,0,0,0,0,0,0,0,0,0,0,0,0,0,0,0,0,0,0,0,0,0,0,0,0,0,0,0,0,0,0,0,0,0,0,0,0,0,0,0,0,0,0,0,0,0,0,0,0,0,0,0,0,0,0,0,0,0,0,0,0,0,0,0,0,0,0,0,0,0,0,0,0,0,0,0,0,0,0,0,0,0,0,0,0,0,0,0,0,0,0,0,0,0,0,0,0,0,0,0,0,0,0,0,0,0,0,0,0,0,0,0,0,0,0,0,0,0,0,0,0,0,0,0,0,0,0,0,0,0,0,0,0,0,0,0,0,0,0,0,0,0,0,0,0,0,0,0,0,0,0,0,0,0,0,0,0,0,0,0,0,0,0,0,0],"id":7,"left_children":[1,3,5,7,9,11,13,15,17,19,21,23,25,27,-1,-1,29,31,33,35,37,39,41,43,45,47,49,-1,51,-1,-1,53,55,57,59,61,63,-1,65,67,69,-1,71,73,75,77,79,81,-1,83,85,-1,-1,-1,87,89,-1,-1,91,93,95,97,99,101,103,105,107,109,111,113,115,117,119,121,-1,123,125,127,-1,-1,-1,-1,-1,129,131,133,-1,135,137,-1,-1,-1,-1,-1,139,-1,-1,141,-1,-1,-1,143,145,147,149,151,153,155,157,159,161,163,165,167,169,171,173,175,177,-1,-1,-1,-1,179,-1,-1,181,-1,-1,-1,183,-1,185,-1,187,-1,-1,189,-1,-1,-1,191,-1,193,195,197,199,201,203,-1,-1,-1,-1,205,-1,207,-1,209,-1,-1,-1,211,213,-1,215,217,-1,219,221,223,-1,225,-1,-1,-1,-1,-1,-1,-1,227,229,-1,231,233,-1,-1,-1,235,-1,-1,-1,-1,-1,-1,-1,-1,-1,-1,-1,-1,-1,-1,-1,-1,-1,-1,-1,-1,-1,-1,-1,-1,-1,-1,-1,-1,-1,-1,-1,-1,-1,-1,-1,-1,-1,-1,-1,-1,-1,-1,-1,-1,-1,-1,-1,-1,-1],"loss_changes":[1.06255295E2,4.8662468E1,2.785923E1,6.3289795E0,1.2179867E1,1.4809937E1,1.4904943E0,2.0676005E0,4.154869E0,5.913354E0,4.014151E0,4.628541E0,7.182701E0,4.0798187E-1,0E0,0E0,2.8835902E-1,1.4404602E0,9.661174E-1,2.8543034E0,1.1628572E0,1.9827938E0,1.0219069E0,1.2392337E0,1.2121763E0,1.7361374E0,5.545288E0,0E0,5.9054017E-2,0E0,0E0,1.4423523E0,2.3732567E-1,9.80821E-2,5.5606604E-1,3.326416E-1,1.8328736E0,0E0,5.0841784E-1,3.877586E-1,1.4005125E0,0E0,1.047636E0,9.606426E-1,6.667984E-1,2.4319553E-1,8.4410906E-2,6.162567E-1,0E0,1.827486E0,2.279049E0,0E0,0E0,0E0,1.3660393E0,3.2013512E-1,0E0,0E0,3.918782E-2,1.266861E-1,1.7977756E-1,3.9624786E-1,6.640816E-2,4.0668052E-1,1.0077443E0,4.408743E-1,3.8254988E-1,4.9208426E-1,2.706436E-1,9.7962236E-1,3.8740817E-1,3.0654812E-1,4.0640965E-2,2.4842483E-1,0E0,4.7769624E-1,1.8818551E-1,2.7627134E-1,0E0,0E0,0E0,0E0,0E0,9.226818E-1,7.892033E-1,3.591957E-1,0E0,3.9361805E-1,1.0086594E0,0E0,0E0,0E0,0E0,0E0,5.76334E-2,0E0,0E0,1.2216759E-1,0E0,0E0,0E0,5.399832E-1,2.4192226E-1,4.133324E-1,1.16316795E-1,5.007553E-2,6.414352E-2,1.9936132E-1,1.7616223E-1,5.9303403E-2,3.893034E-1,1.9036719E-1,1.6182251E-1,8.385745E-1,6.244736E-1,2.0225179E-1,1.356321E-1,6.6091895E-2,1.13451004E-1,0E0,0E0,0E0,0E0,1.3078469E-1,0E0,0E0,1.3850099E-1,0E0,0E0,0E0,9.030895E-1,0E0,1.4295544E-1,0E0,2.879753E-1,0E0,0E0,7.5845146E-1,0E0,0E0,0E0,5.78866E-2,0E0,2.2760463E-1,5.4171532E-2,9.2972815E-2,3.620603E-1,1.9982958E-1,9.06872E-2,0E0,0E0,0E0,0E0,2.4280056E-2,0E0,1.6188222E-1,0E0,7.411462E-2,0E0,0E0,0E0,3.1366643E-1,2.5568724E-2,0E0,1.599721E-1,2.5258452E-2,0E0,8.7742865E-1,6.6339004E-1,3.3192968E-1,0E0,2.9812794E-2,0E0,0E0,0E0,0E0,0E0,0E0,0E0,4.2789213E-2,3.6395162E-2,0E0,2.8584346E-2,3.2570648E-1,0E0,0E0,0E0,6.613846E-1,0E0,0E0,0E0,0E0,0E0,0E0,0E0,0E0,0E0,0E0,0E0,0E0,0E0,0E0,0E0,0E0,0E0,0E0,0E0,0E0,0E0,0E0,0E0,0E0,0E0,0E0,0E0,0E0,0E0,0E0,0E0,0E0,0E0,0E0,0E0,0E0,0E0,0E0,0E0,0E0,0E0,0E0,0E0,0E0,0E0,0E0,0E0,0E0,0E0],"parents":[2147483647,0,0,1,1,2,2,3,3,4,4,5,5,6,6,7,7,8,8,9,9,10,10,11,11,12,12,13,13,16,16,17,17,18,18,19,19,20,20,21,21,22,22,23,23,24,24,25,25,26,26,28,28,31,31,32,32,33,33,34,34,35,35,36,36,38,38,39,39,40,40,42,42,43,43,44,44,45,45,46,46,47,47,49,49,50,50,54,54,55,55,58,58,59,59,60,60,61,61,62,62,63,63,64,64,65,65,66,66,67,67,68,68,69,69,70,70,71,71,72,72,73,73,75,75,76,76,77,77,83,83,84,84,85,85,87,87,88,88,94,94,97,97,101,101,102,102,103,103,104,104,105,105,106,106,107,107,108,108,109,109,110,110,111,111,112,112,113,113,114,114,115,115,116,116,117,117,118,118,123,123,126,126,130,130,132,132,134,134,137,137,141,141,143,143,144,144,145,145,146,146,147,147,148,148,153,153,155,155,157,157,161,161,162,162,164,164,165,165,167,167,168,168,169,169,171,171,179,179,180,180,182,182,183,183,187,187],"right_children":[2,4,6,8,10,12,14,16,18,20,22,24,26,28,-1,-1,30,32,34,36,38,40,42,44,46,48,50,-1,52,-1,-1,54,56,58,60,62,64,-1,66,68,70,-1,72,74,76,78,80,82,-1,84,86,-1,-1,-1,88,90,-1,-1,92,94,96,98,100,102,104,106,108,110,112,114,116,118,120,122,-1,124,126,128,-1,-1,-1,-1,-1,130,132,134,-1,136,138,-1,-1,-1,-1,-1,140,-1,-1,142,-1,-1,-1,144,146,148,150,152,154,156,158,160,162,164,166,168,170,172,174,176,178,-1,-1,-1,-1,180,-1,-1,182,-1,-1,-1,184,-1,186,-1,188,-1,-1,190,-1,-1,-1,192,-1,194,196,198,200,202,204,-1,-1,-1,-1,206,-1,208,-1,210,-1,-1,-1,212,214,-1,216,218,-1,220,222,224,-1,226,-1,-1,-1,-1,-1,-1,-1,228,230,-1,232,234,-1,-1,-1,236,-1,-1,-1,-1,-1,-1,-1,-1,-1,-1,-1,-1,-1,-1,-1,-1,-1,-1,-1,-1,-1,-1,-1,-1,-1,-1,-1,-1,-1,-1,-1,-1,-1,-1,-1,-1,-1,-1,-1,-1,-1,-1,-1,-1,-1,-1,-1,-1,-1],"split_conditions":[2.83E3,1.7909248E5,4.217427E7,6E0,9.31E2,9.6215985E2,3.82E3,1.0457E4,1.380863E6,1.5859042E6,2.7561485E6,1.8062708E6,2.76875E1,1.5900173E3,-9.428282E-5,3.275956E-2,3.72E2,2.6E1,2.14E0,4.58E2,1.65E2,4.7567694E5,4.8581E4,3.1463416E0,2E0,6.5026445E3,2.8530578E6,-3.7598632E-2,2.651E3,-1.4899618E-2,3.2239612E-3,3.89E2,1.0427401E-5,5.1E1,3.004207E2,4.2619047E0,3.6245735E0,-2.2422489E-2,3.0479442E9,1.212945E6,2E1,4.7223456E-3,1.1560518E1,6.083812E2,1.0901037E10,5.941442E6,5.12009E5,6.485856E7,7.3686786E-2,2.5345264E7,5.5766084E3,-8.824841E-3,-2.2499472E-2,-3.4245424E-2,1.1818181E0,5.662E3,-1.7857261E-2,-1.0435047E-2,1.3871127E2,1.901875E2,6.808571E2,2.0399521E2,1.3085094E2,1E0,1.2E1,2.732381E2,1.3508157E7,3.0516066E5,1.9E1,1.852364E6,2.3601625E1,5.4007E7,1.9501E4,5.9754E4,2.3120271E-2,1.8E1,5.357143E2,2.19724E5,3.2161586E-2,-6.593189E-4,8.959059E-3,1.6207721E-2,4.6642385E-2,1E0,2.9626667E3,3.6451373E8,9.458807E-4,1.9E1,6.958929E1,-2.6473671E-2,-4.7573563E-2,-4.00268E-3,1.1804115E-3,-2.4062034E-2,9.2E1,-1.08179515E-2,2.3993212E-3,2E0,-5.5629006E-3,-1.21559845E-2,-2.4933483E-2,3.3316666E2,3.0416667E0,3.1066666E2,6.176636E5,5.7383723E0,1.0028931E7,3.0283334E2,1E0,1.4787234E1,2.458161E6,1.2194473E8,3.4846212E5,4.2708197E2,5.78E2,1.0818629E1,2.33E2,3.412336E7,5.7377E4,7.4950038E-3,9.5494156E-4,-6.217334E-3,8.069862E-3,4.29E2,-1.1486103E-2,-6.8138866E-4,3.4338624E0,2.6940357E-2,1.447527E-2,4.3883976E-3,4.909091E0,1.50987115E-2,8.6269844E1,2.7348746E-2,1.6063418E7,8.405813E-3,-1.2180965E-2,4.217427E7,-4.808701E-2,-6.6431365E-3,-1.7246963E-2,1.1601202E1,-9.867566E-3,1.944578E6,2.3693693E0,1.9733992E4,2.118835E6,3E0,9.839218E0,-2.6507925E-2,-1.3677604E-2,-1.4497415E-3,-8.706672E-3,2.4438E4,-1.6220588E-3,1.8202913E2,1.6411575E-2,1.7717391E0,-8.583279E-3,-9.732276E-3,-2.0105267E-2,1.2972876E7,5.12009E5,8.310428E-3,9.751103E6,3.4633508E0,3.0092339E-3,2.517059E6,2.1651245E6,4.797342E2,-6.2685004E-3,8.7E1,-1.4429477E-2,-2.5712368E-3,9.789121E-3,1.860081E-2,7.437883E-3,